solver_type L2R_L1LOSS_SVR_DUAL
nr_class 2
nr_feature 2050
bias -1
w
0.0005412090426445837 
0.0009926190310014218 
4.032160505504257e-06 
-0.0006585002240868856 
0.0003940947005096693 
-0.0003785457833174682 
-0.001629980513111981 
0.0007349563379787001 
-0.0005581018609817317 
0.0005942892433779983 
0.0003913670551308312 
-0.0007980211914948986 
0.002533745575436545 
-0.001492840513279017 
-0.0004087895321985106 
0.002347932592245922 
-0.001460133698515423 
-0.00135771477932437 
-0.000418448709765643 
0.001510698364615887 
0.001839214199085532 
-0.0002944032458400523 
0.0006647120938943476 
0.0007920770958626277 
-0.0001744307422849466 
-0.001444871626845321 
0.003011306877824605 
0.001809724991337147 
-0.003972100567052664 
-0.00303805784916714 
-0.00281263697420244 
0.002550515407494305 
0.001984222413117596 
0.000752916066996477 
-0.001037387096514299 
-0.001112471365502143 
0.0005126594249180283 
-0.0002210413984265006 
0.001024129778875936 
-0.0001061356681221325 
0.0003627861393902212 
0.0006946624599099557 
0.0003470919224597358 
0.001441133859751092 
0.002107314336529283 
0.0008425822288379792 
0.0004725342355438082 
-0.0004707185545511311 
-0.002356669308450819 
0.001897127128179655 
0.001218361870159026 
-0.0001474340471247141 
0.0005438606399723971 
-0.0004876836390988483 
-0.0002340011609224433 
0.0007499588465693645 
0.0008948266971886772 
-0.001430382626557509 
0.001520559617459509 
0.001048417989257744 
0.0007418017745339846 
0.003175264120497517 
-0.001719139288001585 
0.002527600430929982 
-0.0009013218506706598 
0.0005412705073563245 
-0.001022733081260071 
0.002157217816064681 
0.0005362635201137718 
0.0005160245803587219 
-0.0006739836711117165 
-0.004136557910775527 
-0.001065150859404227 
-0.0005809521854161258 
-0.002884054573585658 
-0.001857787878885659 
0.0002461765926362676 
-0.001184805531400517 
-0.001703319117326943 
-0.00128498419087181 
0.001801046081888896 
-0.0008149974223840954 
0.001246530747504774 
0.004366702148643907 
-0.003247584464358958 
0.00309097769241955 
-0.004925559601799556 
0.001066604010791084 
-0.0006991407194711384 
0.002253002554275625 
3.617141568982297e-07 
0.00282481466303253 
0.0006447326484041299 
0.0002438478807320319 
-0.0009692531121400058 
-4.870399486541459e-05 
-0.001720804244819467 
-0.0001296768508297091 
-0.001868099931323385 
-0.0004593614022116266 
-0.0004223836842690335 
-0.001039696245391725 
7.020547036323306e-06 
0.000860595564806635 
0.00340206030794664 
-0.001557799983245992 
0.001490921546845034 
-0.005049060638985511 
-0.000479651651187741 
0.001947778289873745 
-0.0007779499466211786 
0.001361907538268979 
0.0001512246786347827 
0.000476142689840523 
-0.00340395586105533 
-0.001159447289929966 
0.0004548749533207849 
0.003041392655054724 
-0.0008258293988372185 
0.0007370033948798257 
-0.0003356244808233992 
0.001586519777642132 
0.002967646861195705 
-0.001373872511947228 
-0.002160909360690598 
0.0004677321219557595 
0.001367412960890823 
0.00013736054306014 
-0.002374609120582738 
0.004465883125511745 
-0.002123962394927279 
3.030992359429367e-05 
-0.001177811292888023 
-0.001336351604096052 
0.002482201936833278 
0.0005418964148171967 
0.00204607343903479 
0.001521205208972944 
-0.00167803407516083 
0.000110816730403758 
0.0008999091171777606 
5.307866370313964e-05 
0.001216961186257398 
-9.877742235430812e-05 
0.001180848525783555 
-0.001055202752847606 
-0.0002145663789397257 
-0.002900242496791483 
-0.000920292409912734 
0.0003573470217483756 
-0.003927743092886727 
-0.001249028981857508 
4.758359770857729e-06 
-0.0009796290675135133 
0.002008811431250847 
-0.0006858818876088208 
-0.001173238085026648 
0.000205624740471562 
-0.0004787674211170229 
0.0009258832916667072 
-0.001141890389331423 
0.002633720288578241 
-0.0006998074983563298 
-0.001407397224733333 
-0.0003796287772925595 
-0.000710154031649655 
0.001774793297568791 
0.001866618962025304 
0.001245089519513169 
-0.001342331160819252 
0.001218449346688593 
0.003111458835069449 
0.001939489281284453 
-0.001584500767456257 
0.00286358566664425 
0.0009095893394767945 
0.002079311950905116 
0.001058152529345613 
0.0001752848627565242 
0.0007707009787573814 
-0.00176646897514341 
0.000844970030984973 
-0.00411234805148517 
-0.001365109460427571 
-0.00174881313563813 
0.00245256272525227 
-0.001361336696444241 
-0.002124284630392333 
-0.0009454832464042425 
0.001264310969382616 
-0.002705800377761304 
0.002203441147518505 
0.001689572273392135 
-0.001165147365433452 
0.002233445913529357 
-0.0003230152559190171 
-0.002351160500044413 
-0.001922178535032713 
-0.0006627978642880165 
-0.00119905757569218 
-0.0009408058726111836 
-0.002241281202306819 
0.0003185764129912638 
-0.001911254730533074 
0.0008567887733776482 
0.0005412090426445837 
0.0009926190310014218 
4.032160505504257e-06 
-0.0006585002240868856 
0.0003940947005096693 
-0.0003785457833174682 
-0.001629980513111981 
0.0007349563379787001 
-0.0005581018609817317 
0.0005942892433779983 
0.0003913670551308312 
-0.0007980211914948986 
0.002533745575436545 
-0.001492840513279017 
-0.0004087895321985106 
0.002347932592245922 
-0.001460133698515423 
-0.00135771477932437 
-0.000418448709765643 
0.001510698364615887 
0.001839214199085532 
-0.0002944032458400523 
0.0006647120938943476 
0.0007920770958626277 
-0.0001744307422849466 
-0.001444871626845321 
0.003011306877824605 
0.001809724991337147 
-0.003972100567052664 
-0.00303805784916714 
-0.00281263697420244 
0.002550515407494305 
0.001984222413117596 
0.000752916066996477 
-0.001037387096514299 
-0.001112471365502143 
0.0005126594249180283 
-0.0002210413984265006 
0.001024129778875936 
-0.0001061356681221325 
0.0003627861393902212 
0.0006946624599099557 
0.0003470919224597358 
0.001441133859751092 
0.002107314336529283 
0.0008425822288379792 
0.0004725342355438082 
-0.0004707185545511311 
-0.002356669308450819 
0.001897127128179655 
0.001218361870159026 
-0.0001474340471247141 
0.0005438606399723971 
-0.0004876836390988483 
-0.0002340011609224433 
0.0007499588465693645 
0.0008948266971886772 
-0.001430382626557509 
0.001520559617459509 
0.001048417989257744 
0.0007418017745339846 
0.003175264120497517 
-0.001719139288001585 
0.002527600430929982 
-0.0009013218506706598 
0.0005412705073563245 
-0.001022733081260071 
0.002157217816064681 
0.0005362635201137718 
0.0005160245803587219 
-0.0006739836711117165 
-0.004136557910775527 
-0.001065150859404227 
-0.0005809521854161258 
-0.002884054573585658 
-0.001857787878885659 
0.0002461765926362676 
-0.001184805531400517 
-0.001703319117326943 
-0.00128498419087181 
0.001801046081888896 
-0.0008149974223840954 
0.001246530747504774 
0.004366702148643907 
-0.003247584464358958 
0.00309097769241955 
-0.004925559601799556 
0.001066604010791084 
-0.0006991407194711384 
0.002253002554275625 
3.617141568982297e-07 
0.00282481466303253 
0.0006447326484041299 
0.0002438478807320319 
-0.0009692531121400058 
-4.870399486541459e-05 
-0.001720804244819467 
-0.0001296768508297091 
-0.001868099931323385 
-0.0004593614022116266 
-0.0004223836842690335 
-0.001039696245391725 
7.020547036323306e-06 
0.000860595564806635 
0.00340206030794664 
-0.001557799983245992 
0.001490921546845034 
-0.005049060638985511 
-0.000479651651187741 
0.001947778289873745 
-0.0007779499466211786 
0.001361907538268979 
0.0001512246786347827 
0.000476142689840523 
-0.00340395586105533 
-0.001159447289929966 
0.0004548749533207849 
0.003041392655054724 
-0.0008258293988372185 
0.0007370033948798257 
-0.0003356244808233992 
0.001586519777642132 
0.002967646861195705 
-0.001373872511947228 
-0.002160909360690598 
0.0004677321219557595 
0.001367412960890823 
0.00013736054306014 
-0.002374609120582738 
0.004465883125511745 
-0.002123962394927279 
3.030992359429367e-05 
-0.001177811292888023 
-0.001336351604096052 
0.002482201936833278 
0.0005418964148171967 
0.00204607343903479 
0.001521205208972944 
-0.00167803407516083 
0.000110816730403758 
0.0008999091171777606 
5.307866370313964e-05 
0.001216961186257398 
-9.877742235430812e-05 
0.001180848525783555 
-0.001055202752847606 
-0.0002145663789397257 
-0.002900242496791483 
-0.000920292409912734 
0.0003573470217483756 
-0.003927743092886727 
-0.001249028981857508 
4.758359770857729e-06 
-0.0009796290675135133 
0.002008811431250847 
-0.0006858818876088208 
-0.001173238085026648 
0.000205624740471562 
-0.0004787674211170229 
0.0009258832916667072 
-0.001141890389331423 
0.002633720288578241 
-0.0006998074983563298 
-0.001407397224733333 
-0.0003796287772925595 
-0.000710154031649655 
0.001774793297568791 
0.001866618962025304 
0.001245089519513169 
-0.001342331160819252 
0.001218449346688593 
0.003111458835069449 
0.001939489281284453 
-0.001584500767456257 
0.00286358566664425 
0.0009095893394767945 
0.002079311950905116 
0.001058152529345613 
0.0001752848627565242 
0.0007707009787573814 
-0.00176646897514341 
0.000844970030984973 
-0.00411234805148517 
-0.001365109460427571 
-0.00174881313563813 
0.00245256272525227 
-0.001361336696444241 
-0.002124284630392333 
-0.0009454832464042425 
0.001264310969382616 
-0.002705800377761304 
0.002203441147518505 
0.001689572273392135 
-0.001165147365433452 
0.002233445913529357 
-0.0003230152559190171 
-0.002351160500044413 
-0.001922178535032713 
-0.0006627978642880165 
-0.00119905757569218 
-0.0009408058726111836 
-0.002241281202306819 
0.0003185764129912638 
-0.001911254730533074 
0.0008567887733776482 
0.0005412090426445837 
0.0009926190310014218 
4.032160505504257e-06 
-0.0006585002240868856 
0.0003940947005096693 
-0.0003785457833174682 
-0.001629980513111981 
0.0007349563379787001 
-0.0005581018609817317 
0.0005942892433779983 
0.0003913670551308312 
-0.0007980211914948986 
0.002533745575436545 
-0.001492840513279017 
-0.0004087895321985106 
0.002347932592245922 
-0.001460133698515423 
-0.00135771477932437 
-0.000418448709765643 
0.001510698364615887 
0.001839214199085532 
-0.0002944032458400523 
0.0006647120938943476 
0.0007920770958626277 
-0.0001744307422849466 
-0.001444871626845321 
0.003011306877824605 
0.001809724991337147 
-0.003972100567052664 
-0.00303805784916714 
-0.00281263697420244 
0.002550515407494305 
0.001984222413117596 
0.000752916066996477 
-0.001037387096514299 
-0.001112471365502143 
0.0005126594249180283 
-0.0002210413984265006 
0.001024129778875936 
-0.0001061356681221325 
0.0003627861393902212 
0.0006946624599099557 
0.0003470919224597358 
0.001441133859751092 
0.002107314336529283 
0.0008425822288379792 
0.0004725342355438082 
-0.0004707185545511311 
-0.002356669308450819 
0.001897127128179655 
0.001218361870159026 
-0.0001474340471247141 
0.0005438606399723971 
-0.0004876836390988483 
-0.0002340011609224433 
0.0007499588465693645 
0.0008948266971886772 
-0.001430382626557509 
0.001520559617459509 
0.001048417989257744 
0.0007418017745339846 
0.003175264120497517 
-0.001719139288001585 
0.002527600430929982 
-0.0009013218506706598 
0.0005412705073563245 
-0.001022733081260071 
0.002157217816064681 
0.0005362635201137718 
0.0005160245803587219 
-0.0006739836711117165 
-0.004136557910775527 
-0.001065150859404227 
-0.0005809521854161258 
-0.002884054573585658 
-0.001857787878885659 
0.0002461765926362676 
-0.001184805531400517 
-0.001703319117326943 
-0.00128498419087181 
0.001801046081888896 
-0.0008149974223840954 
0.001246530747504774 
0.004366702148643907 
-0.003247584464358958 
0.00309097769241955 
-0.004925559601799556 
0.001066604010791084 
-0.0006991407194711384 
0.002253002554275625 
3.617141568982297e-07 
0.00282481466303253 
0.0006447326484041299 
0.0002438478807320319 
-0.0009692531121400058 
-4.870399486541459e-05 
-0.001720804244819467 
-0.0001296768508297091 
-0.001868099931323385 
-0.0004593614022116266 
-0.0004223836842690335 
-0.001039696245391725 
7.020547036323306e-06 
0.000860595564806635 
0.00340206030794664 
-0.001557799983245992 
0.001490921546845034 
-0.005049060638985511 
-0.000479651651187741 
0.001947778289873745 
-0.0007779499466211786 
0.001361907538268979 
0.0001512246786347827 
0.000476142689840523 
-0.00340395586105533 
-0.001159447289929966 
0.0004548749533207849 
0.003041392655054724 
-0.0008258293988372185 
0.0007370033948798257 
-0.0003356244808233992 
0.001586519777642132 
0.002967646861195705 
-0.001373872511947228 
-0.002160909360690598 
0.0004677321219557595 
0.001367412960890823 
0.00013736054306014 
-0.002374609120582738 
0.004465883125511745 
-0.002123962394927279 
3.030992359429367e-05 
-0.001177811292888023 
-0.001336351604096052 
0.002482201936833278 
0.0005418964148171967 
0.00204607343903479 
0.001521205208972944 
-0.00167803407516083 
0.000110816730403758 
0.0008999091171777606 
5.307866370313964e-05 
0.001216961186257398 
-9.877742235430812e-05 
0.001180848525783555 
-0.001055202752847606 
-0.0002145663789397257 
-0.002900242496791483 
-0.000920292409912734 
0.0003573470217483756 
-0.003927743092886727 
-0.001249028981857508 
4.758359770857729e-06 
-0.0009796290675135133 
0.002008811431250847 
-0.0006858818876088208 
-0.001173238085026648 
0.000205624740471562 
-0.0004787674211170229 
0.0009258832916667072 
-0.001141890389331423 
0.002633720288578241 
-0.0006998074983563298 
-0.001407397224733333 
-0.0003796287772925595 
-0.000710154031649655 
0.001774793297568791 
0.001866618962025304 
0.001245089519513169 
-0.001342331160819252 
0.001218449346688593 
0.003111458835069449 
0.001939489281284453 
-0.001584500767456257 
0.00286358566664425 
0.0009095893394767945 
0.002079311950905116 
0.001058152529345613 
0.0001752848627565242 
0.0007707009787573814 
-0.00176646897514341 
0.000844970030984973 
-0.00411234805148517 
-0.001365109460427571 
-0.00174881313563813 
0.00245256272525227 
-0.001361336696444241 
-0.002124284630392333 
-0.0009454832464042425 
0.001264310969382616 
-0.002705800377761304 
0.002203441147518505 
0.001689572273392135 
-0.001165147365433452 
0.002233445913529357 
-0.0003230152559190171 
-0.002351160500044413 
-0.001922178535032713 
-0.0006627978642880165 
-0.00119905757569218 
-0.0009408058726111836 
-0.002241281202306819 
0.0003185764129912638 
-0.001911254730533074 
0.0008567887733776482 
0.0005412090426445837 
0.0009926190310014218 
4.032160505504257e-06 
-0.0006585002240868856 
0.0003940947005096693 
-0.0003785457833174682 
-0.001629980513111981 
0.0007349563379787001 
-0.0005581018609817317 
0.0005942892433779983 
0.0003913670551308312 
-0.0007980211914948986 
0.002533745575436545 
-0.001492840513279017 
-0.0004087895321985106 
0.002347932592245922 
-0.001460133698515423 
-0.00135771477932437 
-0.000418448709765643 
0.001510698364615887 
0.001839214199085532 
-0.0002944032458400523 
0.0006647120938943476 
0.0007920770958626277 
-0.0001744307422849466 
-0.001444871626845321 
0.003011306877824605 
0.001809724991337147 
-0.003972100567052664 
-0.00303805784916714 
-0.00281263697420244 
0.002550515407494305 
0.001984222413117596 
0.000752916066996477 
-0.001037387096514299 
-0.001112471365502143 
0.0005126594249180283 
-0.0002210413984265006 
0.001024129778875936 
-0.0001061356681221325 
0.0003627861393902212 
0.0006946624599099557 
0.0003470919224597358 
0.001441133859751092 
0.002107314336529283 
0.0008425822288379792 
0.0004725342355438082 
-0.0004707185545511311 
-0.002356669308450819 
0.001897127128179655 
0.001218361870159026 
-0.0001474340471247141 
0.0005438606399723971 
-0.0004876836390988483 
-0.0002340011609224433 
0.0007499588465693645 
0.0008948266971886772 
-0.001430382626557509 
0.001520559617459509 
0.001048417989257744 
0.0007418017745339846 
0.003175264120497517 
-0.001719139288001585 
0.002527600430929982 
-0.0009013218506706598 
0.0005412705073563245 
-0.001022733081260071 
0.002157217816064681 
0.0005362635201137718 
0.0005160245803587219 
-0.0006739836711117165 
-0.004136557910775527 
-0.001065150859404227 
-0.0005809521854161258 
-0.002884054573585658 
-0.001857787878885659 
0.0002461765926362676 
-0.001184805531400517 
-0.001703319117326943 
-0.00128498419087181 
0.001801046081888896 
-0.0008149974223840954 
0.001246530747504774 
0.004366702148643907 
-0.003247584464358958 
0.00309097769241955 
-0.004925559601799556 
0.001066604010791084 
-0.0006991407194711384 
0.002253002554275625 
3.617141568982297e-07 
0.00282481466303253 
0.0006447326484041299 
0.0002438478807320319 
-0.0009692531121400058 
-4.870399486541459e-05 
-0.001720804244819467 
-0.0001296768508297091 
-0.001868099931323385 
-0.0004593614022116266 
-0.0004223836842690335 
-0.001039696245391725 
7.020547036323306e-06 
0.000860595564806635 
0.00340206030794664 
-0.001557799983245992 
0.001490921546845034 
-0.005049060638985511 
-0.000479651651187741 
0.001947778289873745 
-0.0007779499466211786 
0.001361907538268979 
0.0001512246786347827 
0.000476142689840523 
-0.00340395586105533 
-0.001159447289929966 
0.0004548749533207849 
0.003041392655054724 
-0.0008258293988372185 
0.0007370033948798257 
-0.0003356244808233992 
0.001586519777642132 
0.002967646861195705 
-0.001373872511947228 
-0.002160909360690598 
0.0004677321219557595 
0.001367412960890823 
0.00013736054306014 
-0.002374609120582738 
0.004465883125511745 
-0.002123962394927279 
3.030992359429367e-05 
-0.001177811292888023 
-0.001336351604096052 
0.002482201936833278 
0.0005418964148171967 
0.00204607343903479 
0.001521205208972944 
-0.00167803407516083 
0.000110816730403758 
0.0008999091171777606 
5.307866370313964e-05 
0.001216961186257398 
-9.877742235430812e-05 
0.001180848525783555 
-0.001055202752847606 
-0.0002145663789397257 
-0.002900242496791483 
-0.000920292409912734 
0.0003573470217483756 
-0.003927743092886727 
-0.001249028981857508 
4.758359770857729e-06 
-0.0009796290675135133 
0.002008811431250847 
-0.0006858818876088208 
-0.001173238085026648 
0.000205624740471562 
-0.0004787674211170229 
0.0009258832916667072 
-0.001141890389331423 
0.002633720288578241 
-0.0006998074983563298 
-0.001407397224733333 
-0.0003796287772925595 
-0.000710154031649655 
0.001774793297568791 
0.001866618962025304 
0.001245089519513169 
-0.001342331160819252 
0.001218449346688593 
0.003111458835069449 
0.001939489281284453 
-0.001584500767456257 
0.00286358566664425 
0.0009095893394767945 
0.002079311950905116 
0.001058152529345613 
0.0001752848627565242 
0.0007707009787573814 
-0.00176646897514341 
0.000844970030984973 
-0.00411234805148517 
-0.001365109460427571 
-0.00174881313563813 
0.00245256272525227 
-0.001361336696444241 
-0.002124284630392333 
-0.0009454832464042425 
0.001264310969382616 
-0.002705800377761304 
0.002203441147518505 
0.001689572273392135 
-0.001165147365433452 
0.002233445913529357 
-0.0003230152559190171 
-0.002351160500044413 
-0.001922178535032713 
-0.0006627978642880165 
-0.00119905757569218 
-0.0009408058726111836 
-0.002241281202306819 
0.0003185764129912638 
-0.001911254730533074 
0.0008567887733776482 
0.0005412090426445837 
0.0009926190310014218 
4.032160505504257e-06 
-0.0006585002240868856 
0.0003940947005096693 
-0.0003785457833174682 
-0.001629980513111981 
0.0007349563379787001 
-0.0005581018609817317 
0.0005942892433779983 
0.0003913670551308312 
-0.0007980211914948986 
0.002533745575436545 
-0.001492840513279017 
-0.0004087895321985106 
0.002347932592245922 
-0.001460133698515423 
-0.00135771477932437 
-0.000418448709765643 
0.001510698364615887 
0.001839214199085532 
-0.0002944032458400523 
0.0006647120938943476 
0.0007920770958626277 
-0.0001744307422849466 
-0.001444871626845321 
0.003011306877824605 
0.001809724991337147 
-0.003972100567052664 
-0.00303805784916714 
-0.00281263697420244 
0.002550515407494305 
0.001984222413117596 
0.000752916066996477 
-0.001037387096514299 
-0.001112471365502143 
0.0005126594249180283 
-0.0002210413984265006 
0.001024129778875936 
-0.0001061356681221325 
0.0003627861393902212 
0.0006946624599099557 
0.0003470919224597358 
0.001441133859751092 
0.002107314336529283 
0.0008425822288379792 
0.0004725342355438082 
-0.0004707185545511311 
-0.002356669308450819 
0.001897127128179655 
0.001218361870159026 
-0.0001474340471247141 
0.0005438606399723971 
-0.0004876836390988483 
-0.0002340011609224433 
0.0007499588465693645 
0.0008948266971886772 
-0.001430382626557509 
0.001520559617459509 
0.001048417989257744 
0.0007418017745339846 
0.003175264120497517 
-0.001719139288001585 
0.002527600430929982 
-0.0009013218506706598 
0.0005412705073563245 
-0.001022733081260071 
0.002157217816064681 
0.0005362635201137718 
0.0005160245803587219 
-0.0006739836711117165 
-0.004136557910775527 
-0.001065150859404227 
-0.0005809521854161258 
-0.002884054573585658 
-0.001857787878885659 
0.0002461765926362676 
-0.001184805531400517 
-0.001703319117326943 
-0.00128498419087181 
0.001801046081888896 
-0.0008149974223840954 
0.001246530747504774 
0.004366702148643907 
-0.003247584464358958 
0.00309097769241955 
-0.004925559601799556 
0.001066604010791084 
-0.0006991407194711384 
0.002253002554275625 
3.617141568982297e-07 
0.00282481466303253 
0.0006447326484041299 
0.0002438478807320319 
-0.0009692531121400058 
-4.870399486541459e-05 
-0.001720804244819467 
-0.0001296768508297091 
-0.001868099931323385 
-0.0004593614022116266 
-0.0004223836842690335 
-0.001039696245391725 
7.020547036323306e-06 
0.000860595564806635 
0.00340206030794664 
-0.001557799983245992 
0.001490921546845034 
-0.005049060638985511 
-0.000479651651187741 
0.001947778289873745 
-0.0007779499466211786 
0.001361907538268979 
0.0001512246786347827 
0.000476142689840523 
-0.00340395586105533 
-0.001159447289929966 
0.0004548749533207849 
0.003041392655054724 
-0.0008258293988372185 
0.0007370033948798257 
-0.0003356244808233992 
0.001586519777642132 
0.002967646861195705 
-0.001373872511947228 
-0.002160909360690598 
0.0004677321219557595 
0.001367412960890823 
0.00013736054306014 
-0.002374609120582738 
0.004465883125511745 
-0.002123962394927279 
3.030992359429367e-05 
-0.001177811292888023 
-0.001336351604096052 
0.002482201936833278 
0.0005418964148171967 
0.00204607343903479 
0.001521205208972944 
-0.00167803407516083 
0.000110816730403758 
0.0008999091171777606 
5.307866370313964e-05 
0.001216961186257398 
-9.877742235430812e-05 
0.001180848525783555 
-0.001055202752847606 
-0.0002145663789397257 
-0.002900242496791483 
-0.000920292409912734 
0.0003573470217483756 
-0.003927743092886727 
-0.001249028981857508 
4.758359770857729e-06 
-0.0009796290675135133 
0.002008811431250847 
-0.0006858818876088208 
-0.001173238085026648 
0.000205624740471562 
-0.0004787674211170229 
0.0009258832916667072 
-0.001141890389331423 
0.002633720288578241 
-0.0006998074983563298 
-0.001407397224733333 
-0.0003796287772925595 
-0.000710154031649655 
0.001774793297568791 
0.001866618962025304 
0.001245089519513169 
-0.001342331160819252 
0.001218449346688593 
0.003111458835069449 
0.001939489281284453 
-0.001584500767456257 
0.00286358566664425 
0.0009095893394767945 
0.002079311950905116 
0.001058152529345613 
0.0001752848627565242 
0.0007707009787573814 
-0.00176646897514341 
0.000844970030984973 
-0.00411234805148517 
-0.001365109460427571 
-0.00174881313563813 
0.00245256272525227 
-0.001361336696444241 
-0.002124284630392333 
-0.0009454832464042425 
0.001264310969382616 
-0.002705800377761304 
0.002203441147518505 
0.001689572273392135 
-0.001165147365433452 
0.002233445913529357 
-0.0003230152559190171 
-0.002351160500044413 
-0.001922178535032713 
-0.0006627978642880165 
-0.00119905757569218 
-0.0009408058726111836 
-0.002241281202306819 
0.0003185764129912638 
-0.001911254730533074 
0.0008567887733776482 
0.0005412090426445837 
0.0009926190310014218 
4.032160505504257e-06 
-0.0006585002240868856 
0.0003940947005096693 
-0.0003785457833174682 
-0.001629980513111981 
0.0007349563379787001 
-0.0005581018609817317 
0.0005942892433779983 
0.0003913670551308312 
-0.0007980211914948986 
0.002533745575436545 
-0.001492840513279017 
-0.0004087895321985106 
0.002347932592245922 
-0.001460133698515423 
-0.00135771477932437 
-0.000418448709765643 
0.001510698364615887 
0.001839214199085532 
-0.0002944032458400523 
0.0006647120938943476 
0.0007920770958626277 
-0.0001744307422849466 
-0.001444871626845321 
0.003011306877824605 
0.001809724991337147 
-0.003972100567052664 
-0.00303805784916714 
-0.00281263697420244 
0.002550515407494305 
0.001984222413117596 
0.000752916066996477 
-0.001037387096514299 
-0.001112471365502143 
0.0005126594249180283 
-0.0002210413984265006 
0.001024129778875936 
-0.0001061356681221325 
0.0003627861393902212 
0.0006946624599099557 
0.0003470919224597358 
0.001441133859751092 
0.002107314336529283 
0.0008425822288379792 
0.0004725342355438082 
-0.0004707185545511311 
-0.002356669308450819 
0.001897127128179655 
0.001218361870159026 
-0.0001474340471247141 
0.0005438606399723971 
-0.0004876836390988483 
-0.0002340011609224433 
0.0007499588465693645 
0.0008948266971886772 
-0.001430382626557509 
0.001520559617459509 
0.001048417989257744 
0.0007418017745339846 
0.003175264120497517 
-0.001719139288001585 
0.002527600430929982 
-0.0009013218506706598 
0.0005412705073563245 
-0.001022733081260071 
0.002157217816064681 
0.0005362635201137718 
0.0005160245803587219 
-0.0006739836711117165 
-0.004136557910775527 
-0.001065150859404227 
-0.0005809521854161258 
-0.002884054573585658 
-0.001857787878885659 
0.0002461765926362676 
-0.001184805531400517 
-0.001703319117326943 
-0.00128498419087181 
0.001801046081888896 
-0.0008149974223840954 
0.001246530747504774 
0.004366702148643907 
-0.003247584464358958 
0.00309097769241955 
-0.004925559601799556 
0.001066604010791084 
-0.0006991407194711384 
0.002253002554275625 
3.617141568982297e-07 
0.00282481466303253 
0.0006447326484041299 
0.0002438478807320319 
-0.0009692531121400058 
-4.870399486541459e-05 
-0.001720804244819467 
-0.0001296768508297091 
-0.001868099931323385 
-0.0004593614022116266 
-0.0004223836842690335 
-0.001039696245391725 
7.020547036323306e-06 
0.000860595564806635 
0.00340206030794664 
-0.001557799983245992 
0.001490921546845034 
-0.005049060638985511 
-0.000479651651187741 
0.001947778289873745 
-0.0007779499466211786 
0.001361907538268979 
0.0001512246786347827 
0.000476142689840523 
-0.00340395586105533 
-0.001159447289929966 
0.0004548749533207849 
0.003041392655054724 
-0.0008258293988372185 
0.0007370033948798257 
-0.0003356244808233992 
0.001586519777642132 
0.002967646861195705 
-0.001373872511947228 
-0.002160909360690598 
0.0004677321219557595 
0.001367412960890823 
0.00013736054306014 
-0.002374609120582738 
0.004465883125511745 
-0.002123962394927279 
3.030992359429367e-05 
-0.001177811292888023 
-0.001336351604096052 
0.002482201936833278 
0.0005418964148171967 
0.00204607343903479 
0.001521205208972944 
-0.00167803407516083 
0.000110816730403758 
0.0008999091171777606 
5.307866370313964e-05 
0.001216961186257398 
-9.877742235430812e-05 
0.001180848525783555 
-0.001055202752847606 
-0.0002145663789397257 
-0.002900242496791483 
-0.000920292409912734 
0.0003573470217483756 
-0.003927743092886727 
-0.001249028981857508 
4.758359770857729e-06 
-0.0009796290675135133 
0.002008811431250847 
-0.0006858818876088208 
-0.001173238085026648 
0.000205624740471562 
-0.0004787674211170229 
0.0009258832916667072 
-0.001141890389331423 
0.002633720288578241 
-0.0006998074983563298 
-0.001407397224733333 
-0.0003796287772925595 
-0.000710154031649655 
0.001774793297568791 
0.001866618962025304 
0.001245089519513169 
-0.001342331160819252 
0.001218449346688593 
0.003111458835069449 
0.001939489281284453 
-0.001584500767456257 
0.00286358566664425 
0.0009095893394767945 
0.002079311950905116 
0.001058152529345613 
0.0001752848627565242 
0.0007707009787573814 
-0.00176646897514341 
0.000844970030984973 
-0.00411234805148517 
-0.001365109460427571 
-0.00174881313563813 
0.00245256272525227 
-0.001361336696444241 
-0.002124284630392333 
-0.0009454832464042425 
0.001264310969382616 
-0.002705800377761304 
0.002203441147518505 
0.001689572273392135 
-0.001165147365433452 
0.002233445913529357 
-0.0003230152559190171 
-0.002351160500044413 
-0.001922178535032713 
-0.0006627978642880165 
-0.00119905757569218 
-0.0009408058726111836 
-0.002241281202306819 
0.0003185764129912638 
-0.001911254730533074 
0.0008567887733776482 
0.0005412090426445837 
0.0009926190310014218 
4.032160505504257e-06 
-0.0006585002240868856 
0.0003940947005096693 
-0.0003785457833174682 
-0.001629980513111981 
0.0007349563379787001 
-0.0005581018609817317 
0.0005942892433779983 
0.0003913670551308312 
-0.0007980211914948986 
0.002533745575436545 
-0.001492840513279017 
-0.0004087895321985106 
0.002347932592245922 
-0.001460133698515423 
-0.00135771477932437 
-0.000418448709765643 
0.001510698364615887 
0.001839214199085532 
-0.0002944032458400523 
0.0006647120938943476 
0.0007920770958626277 
-0.0001744307422849466 
-0.001444871626845321 
0.003011306877824605 
0.001809724991337147 
-0.003972100567052664 
-0.00303805784916714 
-0.00281263697420244 
0.002550515407494305 
0.001984222413117596 
0.000752916066996477 
-0.001037387096514299 
-0.001112471365502143 
0.0005126594249180283 
-0.0002210413984265006 
0.001024129778875936 
-0.0001061356681221325 
0.0003627861393902212 
0.0006946624599099557 
0.0003470919224597358 
0.001441133859751092 
0.002107314336529283 
0.0008425822288379792 
0.0004725342355438082 
-0.0004707185545511311 
-0.002356669308450819 
0.001897127128179655 
0.001218361870159026 
-0.0001474340471247141 
0.0005438606399723971 
-0.0004876836390988483 
-0.0002340011609224433 
0.0007499588465693645 
0.0008948266971886772 
-0.001430382626557509 
0.001520559617459509 
0.001048417989257744 
0.0007418017745339846 
0.003175264120497517 
-0.001719139288001585 
0.002527600430929982 
-0.0009013218506706598 
0.0005412705073563245 
-0.001022733081260071 
0.002157217816064681 
0.0005362635201137718 
0.0005160245803587219 
-0.0006739836711117165 
-0.004136557910775527 
-0.001065150859404227 
-0.0005809521854161258 
-0.002884054573585658 
-0.001857787878885659 
0.0002461765926362676 
-0.001184805531400517 
-0.001703319117326943 
-0.00128498419087181 
0.001801046081888896 
-0.0008149974223840954 
0.001246530747504774 
0.004366702148643907 
-0.003247584464358958 
0.00309097769241955 
-0.004925559601799556 
0.001066604010791084 
-0.0006991407194711384 
0.002253002554275625 
3.617141568982297e-07 
0.00282481466303253 
0.0006447326484041299 
0.0002438478807320319 
-0.0009692531121400058 
-4.870399486541459e-05 
-0.001720804244819467 
-0.0001296768508297091 
-0.001868099931323385 
-0.0004593614022116266 
-0.0004223836842690335 
-0.001039696245391725 
7.020547036323306e-06 
0.000860595564806635 
0.00340206030794664 
-0.001557799983245992 
0.001490921546845034 
-0.005049060638985511 
-0.000479651651187741 
0.001947778289873745 
-0.0007779499466211786 
0.001361907538268979 
0.0001512246786347827 
0.000476142689840523 
-0.00340395586105533 
-0.001159447289929966 
0.0004548749533207849 
0.003041392655054724 
-0.0008258293988372185 
0.0007370033948798257 
-0.0003356244808233992 
0.001586519777642132 
0.002967646861195705 
-0.001373872511947228 
-0.002160909360690598 
0.0004677321219557595 
0.001367412960890823 
0.00013736054306014 
-0.002374609120582738 
0.004465883125511745 
-0.002123962394927279 
3.030992359429367e-05 
-0.001177811292888023 
-0.001336351604096052 
0.002482201936833278 
0.0005418964148171967 
0.00204607343903479 
0.001521205208972944 
-0.00167803407516083 
0.000110816730403758 
0.0008999091171777606 
5.307866370313964e-05 
0.001216961186257398 
-9.877742235430812e-05 
0.001180848525783555 
-0.001055202752847606 
-0.0002145663789397257 
-0.002900242496791483 
-0.000920292409912734 
0.0003573470217483756 
-0.003927743092886727 
-0.001249028981857508 
4.758359770857729e-06 
-0.0009796290675135133 
0.002008811431250847 
-0.0006858818876088208 
-0.001173238085026648 
0.000205624740471562 
-0.0004787674211170229 
0.0009258832916667072 
-0.001141890389331423 
0.002633720288578241 
-0.0006998074983563298 
-0.001407397224733333 
-0.0003796287772925595 
-0.000710154031649655 
0.001774793297568791 
0.001866618962025304 
0.001245089519513169 
-0.001342331160819252 
0.001218449346688593 
0.003111458835069449 
0.001939489281284453 
-0.001584500767456257 
0.00286358566664425 
0.0009095893394767945 
0.002079311950905116 
0.001058152529345613 
0.0001752848627565242 
0.0007707009787573814 
-0.00176646897514341 
0.000844970030984973 
-0.00411234805148517 
-0.001365109460427571 
-0.00174881313563813 
0.00245256272525227 
-0.001361336696444241 
-0.002124284630392333 
-0.0009454832464042425 
0.001264310969382616 
-0.002705800377761304 
0.002203441147518505 
0.001689572273392135 
-0.001165147365433452 
0.002233445913529357 
-0.0003230152559190171 
-0.002351160500044413 
-0.001922178535032713 
-0.0006627978642880165 
-0.00119905757569218 
-0.0009408058726111836 
-0.002241281202306819 
0.0003185764129912638 
-0.001911254730533074 
0.0008567887733776482 
0.0005412090426445837 
0.0009926190310014218 
4.032160505504257e-06 
-0.0006585002240868856 
0.0003940947005096693 
-0.0003785457833174682 
-0.001629980513111981 
0.0007349563379787001 
-0.0005581018609817317 
0.0005942892433779983 
0.0003913670551308312 
-0.0007980211914948986 
0.002533745575436545 
-0.001492840513279017 
-0.0004087895321985106 
0.002347932592245922 
-0.001460133698515423 
-0.00135771477932437 
-0.000418448709765643 
0.001510698364615887 
0.001839214199085532 
-0.0002944032458400523 
0.0006647120938943476 
0.0007920770958626277 
-0.0001744307422849466 
-0.001444871626845321 
0.003011306877824605 
0.001809724991337147 
-0.003972100567052664 
-0.00303805784916714 
-0.00281263697420244 
0.002550515407494305 
0.001984222413117596 
0.000752916066996477 
-0.001037387096514299 
-0.001112471365502143 
0.0005126594249180283 
-0.0002210413984265006 
0.001024129778875936 
-0.0001061356681221325 
0.0003627861393902212 
0.0006946624599099557 
0.0003470919224597358 
0.001441133859751092 
0.002107314336529283 
0.0008425822288379792 
0.0004725342355438082 
-0.0004707185545511311 
-0.002356669308450819 
0.001897127128179655 
0.001218361870159026 
-0.0001474340471247141 
0.0005438606399723971 
-0.0004876836390988483 
-0.0002340011609224433 
0.0007499588465693645 
0.0008948266971886772 
-0.001430382626557509 
0.001520559617459509 
0.001048417989257744 
0.0007418017745339846 
0.003175264120497517 
-0.001719139288001585 
0.002527600430929982 
-0.0009013218506706598 
0.0005412705073563245 
-0.001022733081260071 
0.002157217816064681 
0.0005362635201137718 
0.0005160245803587219 
-0.0006739836711117165 
-0.004136557910775527 
-0.001065150859404227 
-0.0005809521854161258 
-0.002884054573585658 
-0.001857787878885659 
0.0002461765926362676 
-0.001184805531400517 
-0.001703319117326943 
-0.00128498419087181 
0.001801046081888896 
-0.0008149974223840954 
0.001246530747504774 
0.004366702148643907 
-0.003247584464358958 
0.00309097769241955 
-0.004925559601799556 
0.001066604010791084 
-0.0006991407194711384 
0.002253002554275625 
3.617141568982297e-07 
0.00282481466303253 
0.0006447326484041299 
0.0002438478807320319 
-0.0009692531121400058 
-4.870399486541459e-05 
-0.001720804244819467 
-0.0001296768508297091 
-0.001868099931323385 
-0.0004593614022116266 
-0.0004223836842690335 
-0.001039696245391725 
7.020547036323306e-06 
0.000860595564806635 
0.00340206030794664 
-0.001557799983245992 
0.001490921546845034 
-0.005049060638985511 
-0.000479651651187741 
0.001947778289873745 
-0.0007779499466211786 
0.001361907538268979 
0.0001512246786347827 
0.000476142689840523 
-0.00340395586105533 
-0.001159447289929966 
0.0004548749533207849 
0.003041392655054724 
-0.0008258293988372185 
0.0007370033948798257 
-0.0003356244808233992 
0.001586519777642132 
0.002967646861195705 
-0.001373872511947228 
-0.002160909360690598 
0.0004677321219557595 
0.001367412960890823 
0.00013736054306014 
-0.002374609120582738 
0.004465883125511745 
-0.002123962394927279 
3.030992359429367e-05 
-0.001177811292888023 
-0.001336351604096052 
0.002482201936833278 
0.0005418964148171967 
0.00204607343903479 
0.001521205208972944 
-0.00167803407516083 
0.000110816730403758 
0.0008999091171777606 
5.307866370313964e-05 
0.001216961186257398 
-9.877742235430812e-05 
0.001180848525783555 
-0.001055202752847606 
-0.0002145663789397257 
-0.002900242496791483 
-0.000920292409912734 
0.0003573470217483756 
-0.003927743092886727 
-0.001249028981857508 
4.758359770857729e-06 
-0.0009796290675135133 
0.002008811431250847 
-0.0006858818876088208 
-0.001173238085026648 
0.000205624740471562 
-0.0004787674211170229 
0.0009258832916667072 
-0.001141890389331423 
0.002633720288578241 
-0.0006998074983563298 
-0.001407397224733333 
-0.0003796287772925595 
-0.000710154031649655 
0.001774793297568791 
0.001866618962025304 
0.001245089519513169 
-0.001342331160819252 
0.001218449346688593 
0.003111458835069449 
0.001939489281284453 
-0.001584500767456257 
0.00286358566664425 
0.0009095893394767945 
0.002079311950905116 
0.001058152529345613 
0.0001752848627565242 
0.0007707009787573814 
-0.00176646897514341 
0.000844970030984973 
-0.00411234805148517 
-0.001365109460427571 
-0.00174881313563813 
0.00245256272525227 
-0.001361336696444241 
-0.002124284630392333 
-0.0009454832464042425 
0.001264310969382616 
-0.002705800377761304 
0.002203441147518505 
0.001689572273392135 
-0.001165147365433452 
0.002233445913529357 
-0.0003230152559190171 
-0.002351160500044413 
-0.001922178535032713 
-0.0006627978642880165 
-0.00119905757569218 
-0.0009408058726111836 
-0.002241281202306819 
0.0003185764129912638 
-0.001911254730533074 
0.0008567887733776482 
0.0005412090426445837 
0.0009926190310014218 
4.032160505504257e-06 
-0.0006585002240868856 
0.0003940947005096693 
-0.0003785457833174682 
-0.001629980513111981 
0.0007349563379787001 
-0.0005581018609817317 
0.0005942892433779983 
0.0003913670551308312 
-0.0007980211914948986 
0.002533745575436545 
-0.001492840513279017 
-0.0004087895321985106 
0.002347932592245922 
-0.001460133698515423 
-0.00135771477932437 
-0.000418448709765643 
0.001510698364615887 
0.001839214199085532 
-0.0002944032458400523 
0.0006647120938943476 
0.0007920770958626277 
-0.0001744307422849466 
-0.001444871626845321 
0.003011306877824605 
0.001809724991337147 
-0.003972100567052664 
-0.00303805784916714 
-0.00281263697420244 
0.002550515407494305 
0.001984222413117596 
0.000752916066996477 
-0.001037387096514299 
-0.001112471365502143 
0.0005126594249180283 
-0.0002210413984265006 
0.001024129778875936 
-0.0001061356681221325 
0.0003627861393902212 
0.0006946624599099557 
0.0003470919224597358 
0.001441133859751092 
0.002107314336529283 
0.0008425822288379792 
0.0004725342355438082 
-0.0004707185545511311 
-0.002356669308450819 
0.001897127128179655 
0.001218361870159026 
-0.0001474340471247141 
0.0005438606399723971 
-0.0004876836390988483 
-0.0002340011609224433 
0.0007499588465693645 
0.0008948266971886772 
-0.001430382626557509 
0.001520559617459509 
0.001048417989257744 
0.0007418017745339846 
0.003175264120497517 
-0.001719139288001585 
0.002527600430929982 
-0.0009013218506706598 
0.0005412705073563245 
-0.001022733081260071 
0.002157217816064681 
0.0005362635201137718 
0.0005160245803587219 
-0.0006739836711117165 
-0.004136557910775527 
-0.001065150859404227 
-0.0005809521854161258 
-0.002884054573585658 
-0.001857787878885659 
0.0002461765926362676 
-0.001184805531400517 
-0.001703319117326943 
-0.00128498419087181 
0.001801046081888896 
-0.0008149974223840954 
0.001246530747504774 
0.004366702148643907 
-0.003247584464358958 
0.00309097769241955 
-0.004925559601799556 
0.001066604010791084 
-0.0006991407194711384 
0.002253002554275625 
3.617141568982297e-07 
0.00282481466303253 
0.0006447326484041299 
0.0002438478807320319 
-0.0009692531121400058 
-4.870399486541459e-05 
-0.001720804244819467 
-0.0001296768508297091 
-0.001868099931323385 
-0.0004593614022116266 
-0.0004223836842690335 
-0.001039696245391725 
7.020547036323306e-06 
0.000860595564806635 
0.00340206030794664 
-0.001557799983245992 
0.001490921546845034 
-0.005049060638985511 
-0.000479651651187741 
0.001947778289873745 
-0.0007779499466211786 
0.001361907538268979 
0.0001512246786347827 
0.000476142689840523 
-0.00340395586105533 
-0.001159447289929966 
0.0004548749533207849 
0.003041392655054724 
-0.0008258293988372185 
0.0007370033948798257 
-0.0003356244808233992 
0.001586519777642132 
0.002967646861195705 
-0.001373872511947228 
-0.002160909360690598 
0.0004677321219557595 
0.001367412960890823 
0.00013736054306014 
-0.002374609120582738 
0.004465883125511745 
-0.002123962394927279 
3.030992359429367e-05 
-0.001177811292888023 
-0.001336351604096052 
0.002482201936833278 
0.0005418964148171967 
0.00204607343903479 
0.001521205208972944 
-0.00167803407516083 
0.000110816730403758 
0.0008999091171777606 
5.307866370313964e-05 
0.001216961186257398 
-9.877742235430812e-05 
0.001180848525783555 
-0.001055202752847606 
-0.0002145663789397257 
-0.002900242496791483 
-0.000920292409912734 
0.0003573470217483756 
-0.003927743092886727 
-0.001249028981857508 
4.758359770857729e-06 
-0.0009796290675135133 
0.002008811431250847 
-0.0006858818876088208 
-0.001173238085026648 
0.000205624740471562 
-0.0004787674211170229 
0.0009258832916667072 
-0.001141890389331423 
0.002633720288578241 
-0.0006998074983563298 
-0.001407397224733333 
-0.0003796287772925595 
-0.000710154031649655 
0.001774793297568791 
0.001866618962025304 
0.001245089519513169 
-0.001342331160819252 
0.001218449346688593 
0.003111458835069449 
0.001939489281284453 
-0.001584500767456257 
0.00286358566664425 
0.0009095893394767945 
0.002079311950905116 
0.001058152529345613 
0.0001752848627565242 
0.0007707009787573814 
-0.00176646897514341 
0.000844970030984973 
-0.00411234805148517 
-0.001365109460427571 
-0.00174881313563813 
0.00245256272525227 
-0.001361336696444241 
-0.002124284630392333 
-0.0009454832464042425 
0.001264310969382616 
-0.002705800377761304 
0.002203441147518505 
0.001689569741734151 
-0.001165148070144019 
0.002233445047250601 
-0.0003230087505699994 
-0.002351154463983762 
-0.001922178694002007 
-0.0006627939163746556 
-0.001199057043209064 
-0.0009408066437827913 
-0.002241275054108433 
0.0003185652783044629 
-0.001911255754397296 
0.0008567887733776482 
0.0005412090426445837 
0.0009926190310014218 
4.032160505504257e-06 
-0.0006585002240868856 
0.0003940947005096693 
-0.0003785457833174682 
-0.001629980513111981 
0.0007349563379787001 
-0.0005581018609817317 
0.0005942892433779983 
0.0003913670551308312 
-0.0007980211914948986 
0.002533745575436545 
-0.001492840513279017 
-0.0004087895321985106 
0.002347932592245922 
-0.001460133698515423 
-0.00135771477932437 
-0.000418448709765643 
0.001510698364615887 
0.001839214199085532 
-0.0002944032458400523 
0.0006647120938943476 
0.0007920770958626277 
-0.0001744307422849466 
-0.001444871626845321 
0.003011306877824605 
0.001809724991337147 
-0.003972100567052664 
-0.00303805784916714 
-0.00281263697420244 
0.002550515407494305 
0.001984222413117596 
0.000752916066996477 
-0.001037387096514299 
-0.001112471365502143 
0.0005126594249180283 
-0.0002210413984265006 
0.001024129778875936 
-0.0001061356681221325 
0.0003627861393902212 
0.0006946624599099557 
0.0003470919224597358 
0.001441133859751092 
0.002107314336529283 
0.0008425822288379792 
0.0004725342355438082 
-0.0004707185545511311 
-0.002356669308450819 
0.001897127128179655 
0.001218361870159026 
-0.0001474340471247141 
0.0005438606399723971 
-0.0004876836390988483 
-0.0002340011609224433 
0.0007499588465693645 
0.0008948266971886772 
-0.001430382626557509 
0.001520559617459509 
0.001048417989257744 
0.0007418017745339846 
0.003175264120497517 
-0.001719139288001585 
0.002527600430929982 
-0.0009013218506706598 
0.0005412705073563245 
-0.001022733081260071 
0.002157217816064681 
0.0005362635201137718 
0.0005160245803587219 
-0.0006739836711117165 
-0.004136557910775527 
-0.001065150859404227 
-0.0005809521854161258 
-0.002884054573585658 
-0.001857787878885659 
0.0002461765926362676 
-0.001184805531400517 
-0.001703319117326943 
-0.00128498419087181 
0.001801046081888896 
-0.0008149974223840954 
0.001246530747504774 
0.004366702148643907 
-0.003247584464358958 
0.00309097769241955 
-0.004925559601799556 
0.001066604010791084 
-0.0006991407194711384 
0.002253002554275625 
3.617141568982297e-07 
0.00282481466303253 
0.0006447326484041299 
0.0002438478807320319 
-0.0009692531121400058 
-4.870399486541459e-05 
-0.001720804244819467 
-0.0001296768508297091 
-0.001868099931323385 
-0.0004593614022116266 
-0.0004223836842690335 
-0.001039696245391725 
7.020547036323306e-06 
0.000860595564806635 
0.00340206030794664 
-0.001557799983245992 
0.001490921546845034 
-0.005049060638985511 
-0.000479651651187741 
0.001947778289873745 
-0.0007779499466211786 
0.001361907538268979 
0.0001512246786347827 
0.000476142689840523 
-0.00340395586105533 
-0.001159447289929966 
0.0004548749533207849 
0.003041392655054724 
-0.0008258293988372185 
0.0007370033948798257 
-0.0003356244808233992 
0.001586519777642132 
0.002967646861195705 
-0.001373872511947228 
-0.002160909360690598 
0.0004677321219557595 
0.001367412960890823 
0.00013736054306014 
-0.002374609120582738 
0.004465883125511745 
-0.002123962394927279 
3.030992359429367e-05 
-0.001177811292888023 
-0.001336351604096052 
0.002482201936833278 
0.0005418964148171967 
0.00204607343903479 
0.001521205208972944 
-0.00167803407516083 
0.000110816730403758 
0.0008999091171777606 
5.307866370313964e-05 
0.001216961186257398 
-9.877742235430812e-05 
0.001180848525783555 
-0.001055202752847606 
-0.0002145663789397257 
-0.002900242496791483 
-0.000920292409912734 
0.0003573470217483756 
-0.003927743092886727 
-0.001249028981857508 
4.758359770857729e-06 
-0.0009796290675135133 
0.002008811431250847 
-0.0006858818876088208 
-0.001173238085026648 
0.000205624740471562 
-0.0004787674211170229 
0.0009258832916667072 
-0.001141890389331423 
0.002633720288578241 
-0.0006998074983563298 
-0.001407397224733333 
-0.0003796287772925595 
-0.000710154031649655 
0.001774793297568791 
0.001866618962025304 
0.001245089519513169 
-0.001342331160819252 
0.001218449346688593 
0.003111458835069449 
0.001939489281284453 
-0.001584500767456257 
0.00286358566664425 
0.0009095893394767945 
0.002079311950905116 
0.001058152529345613 
0.0001752848627565242 
0.0007707009787573814 
-0.00176646897514341 
0.000844970030984973 
-0.00411234805148517 
-0.001365109460427571 
-0.00174881313563813 
0.00245256272525227 
-0.001361336696444241 
-0.002124284630392333 
-0.0009454832464042425 
0.001264310969382616 
-0.002705800377761304 
0.002203441147518505 
0.001689569741734151 
-0.001165148070144019 
0.002233445047250601 
-0.0003230087505699994 
-0.002351154463983762 
-0.001922178694002007 
-0.0006627939163746556 
-0.001199057043209064 
-0.0009408066437827913 
-0.002241275054108433 
0.0003185652783044629 
-0.001911255754397296 
0.0008567887733776482 
