solver_type L2R_L2LOSS_SVR
nr_class 2
nr_feature 2050
bias -1
w
-8.131573128239635e-05 
0.0006418311662881723 
-6.991175203793307e-05 
-0.001161537556939088 
0.0008757479692885169 
-0.001110360306554298 
-0.001625358026892492 
0.001334668156622264 
-0.0001772330481583957 
7.052123644000425e-05 
-0.0008522622470469323 
-0.0004300608098665315 
-9.131563516087492e-05 
-0.0007052957750406775 
-0.0004096682536205809 
0.001185966697977241 
-0.0004831912700048781 
-3.365004826994813e-05 
0.0004188463195704574 
0.000716748938937746 
0.0008192896286634969 
0.0002891574156185179 
0.000576964243410698 
0.0009549724386517825 
0.0003681471107686809 
-0.0006509689111629309 
0.0005925746895140066 
0.0006565846867938717 
-8.656313805504251e-05 
-0.0007390381955968286 
-0.001762990277817106 
-0.0001492546593745921 
0.0005705535338606784 
0.0005642092125123346 
-0.0003369942540858165 
-0.0001699915280699202 
-0.000679546045725342 
1.859044355843309e-05 
0.0004315151126979984 
6.591409010006942e-05 
9.779776329877469e-05 
1.028061028495537e-05 
0.0004908380520367838 
0.0008541344161633716 
0.001715642759301251 
-0.0003893832956096976 
0.0007828912668898626 
0.0007920843841704577 
-0.0002049206010276162 
0.0004906601100974872 
0.0001852902962089597 
0.0009765724128779731 
0.0005916011088394204 
-0.001350414674461009 
-7.396706402599409e-05 
-8.028469020813298e-05 
-0.001379387770699412 
0.0005627443470232992 
-0.0003205875546562047 
-0.0002066138830180576 
2.030609158742486e-05 
0.000415467603489336 
-0.0001590467828999905 
-0.0001152842169873045 
0.0001686644278763012 
-0.0002953124191120706 
-0.0009536883081603871 
6.249441529974681e-05 
-0.0002154832769519814 
-0.0001617351978537849 
-0.0001743840054311998 
-0.001061744501864426 
-0.0006068754211740352 
-0.000327497616948585 
-0.0005267641832782287 
-2.805980677842717e-05 
-0.0007302061905448483 
-0.0006687006846859847 
-0.0007972680557197468 
-0.0003117331271113389 
-5.19542418047676e-05 
0.0001434717070676366 
0.0005110926976733352 
0.001989868774120028 
-0.0008174305705537027 
0.001379901701670529 
-0.0009996593736489993 
-5.861739886778061e-05 
0.0003697242380279022 
8.125927893389648e-05 
0.0004508284307338695 
0.001362120309610441 
-0.0004832865651571685 
0.0008480668552981539 
0.0008060623082206376 
-0.001033822838071314 
-0.0002559035820717006 
-0.0005668439013505105 
-0.0008290983025211822 
-0.0007035555949752258 
0.0003520871731477232 
-0.0005459398813746305 
-0.0002309776388851618 
0.0003672364732036873 
0.0003924153553162377 
-0.00105661834187427 
0.0001663999509268713 
-0.0007325726190236378 
-0.0005246131890568513 
0.0005353922226872552 
0.0004232541467835716 
0.0002088327536338885 
0.0004118626579142044 
4.467872816845676e-05 
-0.000425203528071081 
0.0003698799464639136 
0.0008740114864506036 
-0.0002648074113701857 
0.0006448956493584438 
-0.0001983597906387171 
0.0001673219527522468 
-0.0001618684846915155 
0.001793597422379444 
-0.000177449865268467 
-0.0001252790152804975 
0.0004471471971944946 
0.001081414094463256 
-0.0003613766304747145 
0.0006091942267750176 
0.001014264556205103 
-0.0002585952137730706 
-0.0009935837304363374 
-0.0008513893468064591 
0.0008338790774807827 
-8.413518667267154e-05 
0.0004460606501633545 
0.000721689370415115 
0.0008803525725168729 
-0.0008089770142996098 
-0.0005105017040540844 
0.0007484100696656427 
-6.947323053768947e-05 
0.0008050522690432494 
-0.0008125118901691878 
0.000554356508699072 
-0.0003886785922725513 
0.0001361665235234288 
-0.0009225300814790571 
0.001127349118112986 
0.0002510199031238563 
-0.000654795902515704 
-0.0006389676116055408 
0.0006241094696633601 
-0.002177006264302494 
-4.550605477019543e-05 
-0.000313252058122405 
6.30300316912377e-05 
-0.0004775778050011713 
-0.0002632416555747985 
0.0004679172590842448 
-0.0007077810881623732 
0.0006041553149122341 
-0.0001218677429319208 
-0.0002735883491185484 
0.0001410016309976186 
-0.001313928504204994 
9.385141052148613e-05 
0.001012674349126674 
0.0007682148652423588 
0.0002989464633133799 
6.652037731748287e-05 
8.554654645899067e-05 
0.0001810975925171509 
-0.0002572985013644046 
0.0009206591026964422 
0.0006392907984499207 
0.001312222696036046 
0.0007156326998255868 
0.0008536811981186322 
-0.0003916874711148191 
-0.001081961480361265 
-0.0003578378346698922 
-0.001094645493378082 
0.0004901920684901094 
-0.0004859221329610794 
0.001075253762234178 
-0.001056664688142974 
0.0001376361941491492 
0.0003572561133220936 
0.0006407569125220594 
-0.0003317359913875707 
0.0008638621420827399 
-0.0007594249393811214 
-9.397287530672584e-05 
0.0005879064177266351 
-0.0009465701337095949 
-0.0001702028141031653 
-0.001008086482407741 
0.0001572328884907003 
-0.0006037466394249311 
-0.0003128302116215184 
-0.000437861104269886 
-0.0002471199419037421 
-0.0009491470903912133 
-0.0001002135119492844 
-8.131573128239635e-05 
0.0006418311662881723 
-6.991175203793307e-05 
-0.001161537556939088 
0.0008757479692885169 
-0.001110360306554298 
-0.001625358026892492 
0.001334668156622264 
-0.0001772330481583957 
7.052123644000425e-05 
-0.0008522622470469323 
-0.0004300608098665315 
-9.131563516087492e-05 
-0.0007052957750406775 
-0.0004096682536205809 
0.001185966697977241 
-0.0004831912700048781 
-3.365004826994813e-05 
0.0004188463195704574 
0.000716748938937746 
0.0008192896286634969 
0.0002891574156185179 
0.000576964243410698 
0.0009549724386517825 
0.0003681471107686809 
-0.0006509689111629309 
0.0005925746895140066 
0.0006565846867938717 
-8.656313805504251e-05 
-0.0007390381955968286 
-0.001762990277817106 
-0.0001492546593745921 
0.0005705535338606784 
0.0005642092125123346 
-0.0003369942540858165 
-0.0001699915280699202 
-0.000679546045725342 
1.859044355843309e-05 
0.0004315151126979984 
6.591409010006942e-05 
9.779776329877469e-05 
1.028061028495537e-05 
0.0004908380520367838 
0.0008541344161633716 
0.001715642759301251 
-0.0003893832956096976 
0.0007828912668898626 
0.0007920843841704577 
-0.0002049206010276162 
0.0004906601100974872 
0.0001852902962089597 
0.0009765724128779731 
0.0005916011088394204 
-0.001350414674461009 
-7.396706402599409e-05 
-8.028469020813298e-05 
-0.001379387770699412 
0.0005627443470232992 
-0.0003205875546562047 
-0.0002066138830180576 
2.030609158742486e-05 
0.000415467603489336 
-0.0001590467828999905 
-0.0001152842169873045 
0.0001686644278763012 
-0.0002953124191120706 
-0.0009536883081603871 
6.249441529974681e-05 
-0.0002154832769519814 
-0.0001617351978537849 
-0.0001743840054311998 
-0.001061744501864426 
-0.0006068754211740352 
-0.000327497616948585 
-0.0005267641832782287 
-2.805980677842717e-05 
-0.0007302061905448483 
-0.0006687006846859847 
-0.0007972680557197468 
-0.0003117331271113389 
-5.19542418047676e-05 
0.0001434717070676366 
0.0005110926976733352 
0.001989868774120028 
-0.0008174305705537027 
0.001379901701670529 
-0.0009996593736489993 
-5.861739886778061e-05 
0.0003697242380279022 
8.125927893389648e-05 
0.0004508284307338695 
0.001362120309610441 
-0.0004832865651571685 
0.0008480668552981539 
0.0008060623082206376 
-0.001033822838071314 
-0.0002559035820717006 
-0.0005668439013505105 
-0.0008290983025211822 
-0.0007035555949752258 
0.0003520871731477232 
-0.0005459398813746305 
-0.0002309776388851618 
0.0003672364732036873 
0.0003924153553162377 
-0.00105661834187427 
0.0001663999509268713 
-0.0007325726190236378 
-0.0005246131890568513 
0.0005353922226872552 
0.0004232541467835716 
0.0002088327536338885 
0.0004118626579142044 
4.467872816845676e-05 
-0.000425203528071081 
0.0003698799464639136 
0.0008740114864506036 
-0.0002648074113701857 
0.0006448956493584438 
-0.0001983597906387171 
0.0001673219527522468 
-0.0001618684846915155 
0.001793597422379444 
-0.000177449865268467 
-0.0001252790152804975 
0.0004471471971944946 
0.001081414094463256 
-0.0003613766304747145 
0.0006091942267750176 
0.001014264556205103 
-0.0002585952137730706 
-0.0009935837304363374 
-0.0008513893468064591 
0.0008338790774807827 
-8.413518667267154e-05 
0.0004460606501633545 
0.000721689370415115 
0.0008803525725168729 
-0.0008089770142996098 
-0.0005105017040540844 
0.0007484100696656427 
-6.947323053768947e-05 
0.0008050522690432494 
-0.0008125118901691878 
0.000554356508699072 
-0.0003886785922725513 
0.0001361665235234288 
-0.0009225300814790571 
0.001127349118112986 
0.0002510199031238563 
-0.000654795902515704 
-0.0006389676116055408 
0.0006241094696633601 
-0.002177006264302494 
-4.550605477019543e-05 
-0.000313252058122405 
6.30300316912377e-05 
-0.0004775778050011713 
-0.0002632416555747985 
0.0004679172590842448 
-0.0007077810881623732 
0.0006041553149122341 
-0.0001218677429319208 
-0.0002735883491185484 
0.0001410016309976186 
-0.001313928504204994 
9.385141052148613e-05 
0.001012674349126674 
0.0007682148652423588 
0.0002989464633133799 
6.652037731748287e-05 
8.554654645899067e-05 
0.0001810975925171509 
-0.0002572985013644046 
0.0009206591026964422 
0.0006392907984499207 
0.001312222696036046 
0.0007156326998255868 
0.0008536811981186322 
-0.0003916874711148191 
-0.001081961480361265 
-0.0003578378346698922 
-0.001094645493378082 
0.0004901920684901094 
-0.0004859221329610794 
0.001075253762234178 
-0.001056664688142974 
0.0001376361941491492 
0.0003572561133220936 
0.0006407569125220594 
-0.0003317359913875707 
0.0008638621420827399 
-0.0007594249393811214 
-9.397287530672584e-05 
0.0005879064177266351 
-0.0009465701337095949 
-0.0001702028141031653 
-0.001008086482407741 
0.0001572328884907003 
-0.0006037466394249311 
-0.0003128302116215184 
-0.000437861104269886 
-0.0002471199419037421 
-0.0009491470903912133 
-0.0001002135119492844 
-8.131573128239635e-05 
0.0006418311662881723 
-6.991175203793307e-05 
-0.001161537556939088 
0.0008757479692885169 
-0.001110360306554298 
-0.001625358026892492 
0.001334668156622264 
-0.0001772330481583957 
7.052123644000425e-05 
-0.0008522622470469323 
-0.0004300608098665315 
-9.131563516087492e-05 
-0.0007052957750406775 
-0.0004096682536205809 
0.001185966697977241 
-0.0004831912700048781 
-3.365004826994813e-05 
0.0004188463195704574 
0.000716748938937746 
0.0008192896286634969 
0.0002891574156185179 
0.000576964243410698 
0.0009549724386517825 
0.0003681471107686809 
-0.0006509689111629309 
0.0005925746895140066 
0.0006565846867938717 
-8.656313805504251e-05 
-0.0007390381955968286 
-0.001762990277817106 
-0.0001492546593745921 
0.0005705535338606784 
0.0005642092125123346 
-0.0003369942540858165 
-0.0001699915280699202 
-0.000679546045725342 
1.859044355843309e-05 
0.0004315151126979984 
6.591409010006942e-05 
9.779776329877469e-05 
1.028061028495537e-05 
0.0004908380520367838 
0.0008541344161633716 
0.001715642759301251 
-0.0003893832956096976 
0.0007828912668898626 
0.0007920843841704577 
-0.0002049206010276162 
0.0004906601100974872 
0.0001852902962089597 
0.0009765724128779731 
0.0005916011088394204 
-0.001350414674461009 
-7.396706402599409e-05 
-8.028469020813298e-05 
-0.001379387770699412 
0.0005627443470232992 
-0.0003205875546562047 
-0.0002066138830180576 
2.030609158742486e-05 
0.000415467603489336 
-0.0001590467828999905 
-0.0001152842169873045 
0.0001686644278763012 
-0.0002953124191120706 
-0.0009536883081603871 
6.249441529974681e-05 
-0.0002154832769519814 
-0.0001617351978537849 
-0.0001743840054311998 
-0.001061744501864426 
-0.0006068754211740352 
-0.000327497616948585 
-0.0005267641832782287 
-2.805980677842717e-05 
-0.0007302061905448483 
-0.0006687006846859847 
-0.0007972680557197468 
-0.0003117331271113389 
-5.19542418047676e-05 
0.0001434717070676366 
0.0005110926976733352 
0.001989868774120028 
-0.0008174305705537027 
0.001379901701670529 
-0.0009996593736489993 
-5.861739886778061e-05 
0.0003697242380279022 
8.125927893389648e-05 
0.0004508284307338695 
0.001362120309610441 
-0.0004832865651571685 
0.0008480668552981539 
0.0008060623082206376 
-0.001033822838071314 
-0.0002559035820717006 
-0.0005668439013505105 
-0.0008290983025211822 
-0.0007035555949752258 
0.0003520871731477232 
-0.0005459398813746305 
-0.0002309776388851618 
0.0003672364732036873 
0.0003924153553162377 
-0.00105661834187427 
0.0001663999509268713 
-0.0007325726190236378 
-0.0005246131890568513 
0.0005353922226872552 
0.0004232541467835716 
0.0002088327536338885 
0.0004118626579142044 
4.467872816845676e-05 
-0.000425203528071081 
0.0003698799464639136 
0.0008740114864506036 
-0.0002648074113701857 
0.0006448956493584438 
-0.0001983597906387171 
0.0001673219527522468 
-0.0001618684846915155 
0.001793597422379444 
-0.000177449865268467 
-0.0001252790152804975 
0.0004471471971944946 
0.001081414094463256 
-0.0003613766304747145 
0.0006091942267750176 
0.001014264556205103 
-0.0002585952137730706 
-0.0009935837304363374 
-0.0008513893468064591 
0.0008338790774807827 
-8.413518667267154e-05 
0.0004460606501633545 
0.000721689370415115 
0.0008803525725168729 
-0.0008089770142996098 
-0.0005105017040540844 
0.0007484100696656427 
-6.947323053768947e-05 
0.0008050522690432494 
-0.0008125118901691878 
0.000554356508699072 
-0.0003886785922725513 
0.0001361665235234288 
-0.0009225300814790571 
0.001127349118112986 
0.0002510199031238563 
-0.000654795902515704 
-0.0006389676116055408 
0.0006241094696633601 
-0.002177006264302494 
-4.550605477019543e-05 
-0.000313252058122405 
6.30300316912377e-05 
-0.0004775778050011713 
-0.0002632416555747985 
0.0004679172590842448 
-0.0007077810881623732 
0.0006041553149122341 
-0.0001218677429319208 
-0.0002735883491185484 
0.0001410016309976186 
-0.001313928504204994 
9.385141052148613e-05 
0.001012674349126674 
0.0007682148652423588 
0.0002989464633133799 
6.652037731748287e-05 
8.554654645899067e-05 
0.0001810975925171509 
-0.0002572985013644046 
0.0009206591026964422 
0.0006392907984499207 
0.001312222696036046 
0.0007156326998255868 
0.0008536811981186322 
-0.0003916874711148191 
-0.001081961480361265 
-0.0003578378346698922 
-0.001094645493378082 
0.0004901920684901094 
-0.0004859221329610794 
0.001075253762234178 
-0.001056664688142974 
0.0001376361941491492 
0.0003572561133220936 
0.0006407569125220594 
-0.0003317359913875707 
0.0008638621420827399 
-0.0007594249393811214 
-9.397287530672584e-05 
0.0005879064177266351 
-0.0009465701337095949 
-0.0001702028141031653 
-0.001008086482407741 
0.0001572328884907003 
-0.0006037466394249311 
-0.0003128302116215184 
-0.000437861104269886 
-0.0002471199419037421 
-0.0009491470903912133 
-0.0001002135119492844 
-8.131573128239635e-05 
0.0006418311662881723 
-6.991175203793307e-05 
-0.001161537556939088 
0.0008757479692885169 
-0.001110360306554298 
-0.001625358026892492 
0.001334668156622264 
-0.0001772330481583957 
7.052123644000425e-05 
-0.0008522622470469323 
-0.0004300608098665315 
-9.131563516087492e-05 
-0.0007052957750406775 
-0.0004096682536205809 
0.001185966697977241 
-0.0004831912700048781 
-3.365004826994813e-05 
0.0004188463195704574 
0.000716748938937746 
0.0008192896286634969 
0.0002891574156185179 
0.000576964243410698 
0.0009549724386517825 
0.0003681471107686809 
-0.0006509689111629309 
0.0005925746895140066 
0.0006565846867938717 
-8.656313805504251e-05 
-0.0007390381955968286 
-0.001762990277817106 
-0.0001492546593745921 
0.0005705535338606784 
0.0005642092125123346 
-0.0003369942540858165 
-0.0001699915280699202 
-0.000679546045725342 
1.859044355843309e-05 
0.0004315151126979984 
6.591409010006942e-05 
9.779776329877469e-05 
1.028061028495537e-05 
0.0004908380520367838 
0.0008541344161633716 
0.001715642759301251 
-0.0003893832956096976 
0.0007828912668898626 
0.0007920843841704577 
-0.0002049206010276162 
0.0004906601100974872 
0.0001852902962089597 
0.0009765724128779731 
0.0005916011088394204 
-0.001350414674461009 
-7.396706402599409e-05 
-8.028469020813298e-05 
-0.001379387770699412 
0.0005627443470232992 
-0.0003205875546562047 
-0.0002066138830180576 
2.030609158742486e-05 
0.000415467603489336 
-0.0001590467828999905 
-0.0001152842169873045 
0.0001686644278763012 
-0.0002953124191120706 
-0.0009536883081603871 
6.249441529974681e-05 
-0.0002154832769519814 
-0.0001617351978537849 
-0.0001743840054311998 
-0.001061744501864426 
-0.0006068754211740352 
-0.000327497616948585 
-0.0005267641832782287 
-2.805980677842717e-05 
-0.0007302061905448483 
-0.0006687006846859847 
-0.0007972680557197468 
-0.0003117331271113389 
-5.19542418047676e-05 
0.0001434717070676366 
0.0005110926976733352 
0.001989868774120028 
-0.0008174305705537027 
0.001379901701670529 
-0.0009996593736489993 
-5.861739886778061e-05 
0.0003697242380279022 
8.125927893389648e-05 
0.0004508284307338695 
0.001362120309610441 
-0.0004832865651571685 
0.0008480668552981539 
0.0008060623082206376 
-0.001033822838071314 
-0.0002559035820717006 
-0.0005668439013505105 
-0.0008290983025211822 
-0.0007035555949752258 
0.0003520871731477232 
-0.0005459398813746305 
-0.0002309776388851618 
0.0003672364732036873 
0.0003924153553162377 
-0.00105661834187427 
0.0001663999509268713 
-0.0007325726190236378 
-0.0005246131890568513 
0.0005353922226872552 
0.0004232541467835716 
0.0002088327536338885 
0.0004118626579142044 
4.467872816845676e-05 
-0.000425203528071081 
0.0003698799464639136 
0.0008740114864506036 
-0.0002648074113701857 
0.0006448956493584438 
-0.0001983597906387171 
0.0001673219527522468 
-0.0001618684846915155 
0.001793597422379444 
-0.000177449865268467 
-0.0001252790152804975 
0.0004471471971944946 
0.001081414094463256 
-0.0003613766304747145 
0.0006091942267750176 
0.001014264556205103 
-0.0002585952137730706 
-0.0009935837304363374 
-0.0008513893468064591 
0.0008338790774807827 
-8.413518667267154e-05 
0.0004460606501633545 
0.000721689370415115 
0.0008803525725168729 
-0.0008089770142996098 
-0.0005105017040540844 
0.0007484100696656427 
-6.947323053768947e-05 
0.0008050522690432494 
-0.0008125118901691878 
0.000554356508699072 
-0.0003886785922725513 
0.0001361665235234288 
-0.0009225300814790571 
0.001127349118112986 
0.0002510199031238563 
-0.000654795902515704 
-0.0006389676116055408 
0.0006241094696633601 
-0.002177006264302494 
-4.550605477019543e-05 
-0.000313252058122405 
6.30300316912377e-05 
-0.0004775778050011713 
-0.0002632416555747985 
0.0004679172590842448 
-0.0007077810881623732 
0.0006041553149122341 
-0.0001218677429319208 
-0.0002735883491185484 
0.0001410016309976186 
-0.001313928504204994 
9.385141052148613e-05 
0.001012674349126674 
0.0007682148652423588 
0.0002989464633133799 
6.652037731748287e-05 
8.554654645899067e-05 
0.0001810975925171509 
-0.0002572985013644046 
0.0009206591026964422 
0.0006392907984499207 
0.001312222696036046 
0.0007156326998255868 
0.0008536811981186322 
-0.0003916874711148191 
-0.001081961480361265 
-0.0003578378346698922 
-0.001094645493378082 
0.0004901920684901094 
-0.0004859221329610794 
0.001075253762234178 
-0.001056664688142974 
0.0001376361941491492 
0.0003572561133220936 
0.0006407569125220594 
-0.0003317359913875707 
0.0008638621420827399 
-0.0007594249393811214 
-9.397287530672584e-05 
0.0005879064177266351 
-0.0009465701337095949 
-0.0001702028141031653 
-0.001008086482407741 
0.0001572328884907003 
-0.0006037466394249311 
-0.0003128302116215184 
-0.000437861104269886 
-0.0002471199419037421 
-0.0009491470903912133 
-0.0001002135119492844 
-8.131573128239635e-05 
0.0006418311662881723 
-6.991175203793307e-05 
-0.001161537556939088 
0.0008757479692885169 
-0.001110360306554298 
-0.001625358026892492 
0.001334668156622264 
-0.0001772330481583957 
7.052123644000425e-05 
-0.0008522622470469323 
-0.0004300608098665315 
-9.131563516087492e-05 
-0.0007052957750406775 
-0.0004096682536205809 
0.001185966697977241 
-0.0004831912700048781 
-3.365004826994813e-05 
0.0004188463195704574 
0.000716748938937746 
0.0008192896286634969 
0.0002891574156185179 
0.000576964243410698 
0.0009549724386517825 
0.0003681471107686809 
-0.0006509689111629309 
0.0005925746895140066 
0.0006565846867938717 
-8.656313805504251e-05 
-0.0007390381955968286 
-0.001762990277817106 
-0.0001492546593745921 
0.0005705535338606784 
0.0005642092125123346 
-0.0003369942540858165 
-0.0001699915280699202 
-0.000679546045725342 
1.859044355843309e-05 
0.0004315151126979984 
6.591409010006942e-05 
9.779776329877469e-05 
1.028061028495537e-05 
0.0004908380520367838 
0.0008541344161633716 
0.001715642759301251 
-0.0003893832956096976 
0.0007828912668898626 
0.0007920843841704577 
-0.0002049206010276162 
0.0004906601100974872 
0.0001852902962089597 
0.0009765724128779731 
0.0005916011088394204 
-0.001350414674461009 
-7.396706402599409e-05 
-8.028469020813298e-05 
-0.001379387770699412 
0.0005627443470232992 
-0.0003205875546562047 
-0.0002066138830180576 
2.030609158742486e-05 
0.000415467603489336 
-0.0001590467828999905 
-0.0001152842169873045 
0.0001686644278763012 
-0.0002953124191120706 
-0.0009536883081603871 
6.249441529974681e-05 
-0.0002154832769519814 
-0.0001617351978537849 
-0.0001743840054311998 
-0.001061744501864426 
-0.0006068754211740352 
-0.000327497616948585 
-0.0005267641832782287 
-2.805980677842717e-05 
-0.0007302061905448483 
-0.0006687006846859847 
-0.0007972680557197468 
-0.0003117331271113389 
-5.19542418047676e-05 
0.0001434717070676366 
0.0005110926976733352 
0.001989868774120028 
-0.0008174305705537027 
0.001379901701670529 
-0.0009996593736489993 
-5.861739886778061e-05 
0.0003697242380279022 
8.125927893389648e-05 
0.0004508284307338695 
0.001362120309610441 
-0.0004832865651571685 
0.0008480668552981539 
0.0008060623082206376 
-0.001033822838071314 
-0.0002559035820717006 
-0.0005668439013505105 
-0.0008290983025211822 
-0.0007035555949752258 
0.0003520871731477232 
-0.0005459398813746305 
-0.0002309776388851618 
0.0003672364732036873 
0.0003924153553162377 
-0.00105661834187427 
0.0001663999509268713 
-0.0007325726190236378 
-0.0005246131890568513 
0.0005353922226872552 
0.0004232541467835716 
0.0002088327536338885 
0.0004118626579142044 
4.467872816845676e-05 
-0.000425203528071081 
0.0003698799464639136 
0.0008740114864506036 
-0.0002648074113701857 
0.0006448956493584438 
-0.0001983597906387171 
0.0001673219527522468 
-0.0001618684846915155 
0.001793597422379444 
-0.000177449865268467 
-0.0001252790152804975 
0.0004471471971944946 
0.001081414094463256 
-0.0003613766304747145 
0.0006091942267750176 
0.001014264556205103 
-0.0002585952137730706 
-0.0009935837304363374 
-0.0008513893468064591 
0.0008338790774807827 
-8.413518667267154e-05 
0.0004460606501633545 
0.000721689370415115 
0.0008803525725168729 
-0.0008089770142996098 
-0.0005105017040540844 
0.0007484100696656427 
-6.947323053768947e-05 
0.0008050522690432494 
-0.0008125118901691878 
0.000554356508699072 
-0.0003886785922725513 
0.0001361665235234288 
-0.0009225300814790571 
0.001127349118112986 
0.0002510199031238563 
-0.000654795902515704 
-0.0006389676116055408 
0.0006241094696633601 
-0.002177006264302494 
-4.550605477019543e-05 
-0.000313252058122405 
6.30300316912377e-05 
-0.0004775778050011713 
-0.0002632416555747985 
0.0004679172590842448 
-0.0007077810881623732 
0.0006041553149122341 
-0.0001218677429319208 
-0.0002735883491185484 
0.0001410016309976186 
-0.001313928504204994 
9.385141052148613e-05 
0.001012674349126674 
0.0007682148652423588 
0.0002989464633133799 
6.652037731748287e-05 
8.554654645899067e-05 
0.0001810975925171509 
-0.0002572985013644046 
0.0009206591026964422 
0.0006392907984499207 
0.001312222696036046 
0.0007156326998255868 
0.0008536811981186322 
-0.0003916874711148191 
-0.001081961480361265 
-0.0003578378346698922 
-0.001094645493378082 
0.0004901920684901094 
-0.0004859221329610794 
0.001075253762234178 
-0.001056664688142974 
0.0001376361941491492 
0.0003572561133220936 
0.0006407569125220594 
-0.0003317359913875707 
0.0008638621420827399 
-0.0007594249393811214 
-9.397287530672584e-05 
0.0005879064177266351 
-0.0009465701337095949 
-0.0001702028141031653 
-0.001008086482407741 
0.0001572328884907003 
-0.0006037466394249311 
-0.0003128302116215184 
-0.000437861104269886 
-0.0002471199419037421 
-0.0009491470903912133 
-0.0001002135119492844 
-8.131573128239635e-05 
0.0006418311662881723 
-6.991175203793307e-05 
-0.001161537556939088 
0.0008757479692885169 
-0.001110360306554298 
-0.001625358026892492 
0.001334668156622264 
-0.0001772330481583957 
7.052123644000425e-05 
-0.0008522622470469323 
-0.0004300608098665315 
-9.131563516087492e-05 
-0.0007052957750406775 
-0.0004096682536205809 
0.001185966697977241 
-0.0004831912700048781 
-3.365004826994813e-05 
0.0004188463195704574 
0.000716748938937746 
0.0008192896286634969 
0.0002891574156185179 
0.000576964243410698 
0.0009549724386517825 
0.0003681471107686809 
-0.0006509689111629309 
0.0005925746895140066 
0.0006565846867938717 
-8.656313805504251e-05 
-0.0007390381955968286 
-0.001762990277817106 
-0.0001492546593745921 
0.0005705535338606784 
0.0005642092125123346 
-0.0003369942540858165 
-0.0001699915280699202 
-0.000679546045725342 
1.859044355843309e-05 
0.0004315151126979984 
6.591409010006942e-05 
9.779776329877469e-05 
1.028061028495537e-05 
0.0004908380520367838 
0.0008541344161633716 
0.001715642759301251 
-0.0003893832956096976 
0.0007828912668898626 
0.0007920843841704577 
-0.0002049206010276162 
0.0004906601100974872 
0.0001852902962089597 
0.0009765724128779731 
0.0005916011088394204 
-0.001350414674461009 
-7.396706402599409e-05 
-8.028469020813298e-05 
-0.001379387770699412 
0.0005627443470232992 
-0.0003205875546562047 
-0.0002066138830180576 
2.030609158742486e-05 
0.000415467603489336 
-0.0001590467828999905 
-0.0001152842169873045 
0.0001686644278763012 
-0.0002953124191120706 
-0.0009536883081603871 
6.249441529974681e-05 
-0.0002154832769519814 
-0.0001617351978537849 
-0.0001743840054311998 
-0.001061744501864426 
-0.0006068754211740352 
-0.000327497616948585 
-0.0005267641832782287 
-2.805980677842717e-05 
-0.0007302061905448483 
-0.0006687006846859847 
-0.0007972680557197468 
-0.0003117331271113389 
-5.19542418047676e-05 
0.0001434717070676366 
0.0005110926976733352 
0.001989868774120028 
-0.0008174305705537027 
0.001379901701670529 
-0.0009996593736489993 
-5.861739886778061e-05 
0.0003697242380279022 
8.125927893389648e-05 
0.0004508284307338695 
0.001362120309610441 
-0.0004832865651571685 
0.0008480668552981539 
0.0008060623082206376 
-0.001033822838071314 
-0.0002559035820717006 
-0.0005668439013505105 
-0.0008290983025211822 
-0.0007035555949752258 
0.0003520871731477232 
-0.0005459398813746305 
-0.0002309776388851618 
0.0003672364732036873 
0.0003924153553162377 
-0.00105661834187427 
0.0001663999509268713 
-0.0007325726190236378 
-0.0005246131890568513 
0.0005353922226872552 
0.0004232541467835716 
0.0002088327536338885 
0.0004118626579142044 
4.467872816845676e-05 
-0.000425203528071081 
0.0003698799464639136 
0.0008740114864506036 
-0.0002648074113701857 
0.0006448956493584438 
-0.0001983597906387171 
0.0001673219527522468 
-0.0001618684846915155 
0.001793597422379444 
-0.000177449865268467 
-0.0001252790152804975 
0.0004471471971944946 
0.001081414094463256 
-0.0003613766304747145 
0.0006091942267750176 
0.001014264556205103 
-0.0002585952137730706 
-0.0009935837304363374 
-0.0008513893468064591 
0.0008338790774807827 
-8.413518667267154e-05 
0.0004460606501633545 
0.000721689370415115 
0.0008803525725168729 
-0.0008089770142996098 
-0.0005105017040540844 
0.0007484100696656427 
-6.947323053768947e-05 
0.0008050522690432494 
-0.0008125118901691878 
0.000554356508699072 
-0.0003886785922725513 
0.0001361665235234288 
-0.0009225300814790571 
0.001127349118112986 
0.0002510199031238563 
-0.000654795902515704 
-0.0006389676116055408 
0.0006241094696633601 
-0.002177006264302494 
-4.550605477019543e-05 
-0.000313252058122405 
6.30300316912377e-05 
-0.0004775778050011713 
-0.0002632416555747985 
0.0004679172590842448 
-0.0007077810881623732 
0.0006041553149122341 
-0.0001218677429319208 
-0.0002735883491185484 
0.0001410016309976186 
-0.001313928504204994 
9.385141052148613e-05 
0.001012674349126674 
0.0007682148652423588 
0.0002989464633133799 
6.652037731748287e-05 
8.554654645899067e-05 
0.0001810975925171509 
-0.0002572985013644046 
0.0009206591026964422 
0.0006392907984499207 
0.001312222696036046 
0.0007156326998255868 
0.0008536811981186322 
-0.0003916874711148191 
-0.001081961480361265 
-0.0003578378346698922 
-0.001094645493378082 
0.0004901920684901094 
-0.0004859221329610794 
0.001075253762234178 
-0.001056664688142974 
0.0001376361941491492 
0.0003572561133220936 
0.0006407569125220594 
-0.0003317359913875707 
0.0008638621420827399 
-0.0007594249393811214 
-9.397287530672584e-05 
0.0005879064177266351 
-0.0009465701337095949 
-0.0001702028141031653 
-0.001008086482407741 
0.0001572328884907003 
-0.0006037466394249311 
-0.0003128302116215184 
-0.000437861104269886 
-0.0002471199419037421 
-0.0009491470903912133 
-0.0001002135119492844 
-8.131573128239635e-05 
0.0006418311662881723 
-6.991175203793307e-05 
-0.001161537556939088 
0.0008757479692885169 
-0.001110360306554298 
-0.001625358026892492 
0.001334668156622264 
-0.0001772330481583957 
7.052123644000425e-05 
-0.0008522622470469323 
-0.0004300608098665315 
-9.131563516087492e-05 
-0.0007052957750406775 
-0.0004096682536205809 
0.001185966697977241 
-0.0004831912700048781 
-3.365004826994813e-05 
0.0004188463195704574 
0.000716748938937746 
0.0008192896286634969 
0.0002891574156185179 
0.000576964243410698 
0.0009549724386517825 
0.0003681471107686809 
-0.0006509689111629309 
0.0005925746895140066 
0.0006565846867938717 
-8.656313805504251e-05 
-0.0007390381955968286 
-0.001762990277817106 
-0.0001492546593745921 
0.0005705535338606784 
0.0005642092125123346 
-0.0003369942540858165 
-0.0001699915280699202 
-0.000679546045725342 
1.859044355843309e-05 
0.0004315151126979984 
6.591409010006942e-05 
9.779776329877469e-05 
1.028061028495537e-05 
0.0004908380520367838 
0.0008541344161633716 
0.001715642759301251 
-0.0003893832956096976 
0.0007828912668898626 
0.0007920843841704577 
-0.0002049206010276162 
0.0004906601100974872 
0.0001852902962089597 
0.0009765724128779731 
0.0005916011088394204 
-0.001350414674461009 
-7.396706402599409e-05 
-8.028469020813298e-05 
-0.001379387770699412 
0.0005627443470232992 
-0.0003205875546562047 
-0.0002066138830180576 
2.030609158742486e-05 
0.000415467603489336 
-0.0001590467828999905 
-0.0001152842169873045 
0.0001686644278763012 
-0.0002953124191120706 
-0.0009536883081603871 
6.249441529974681e-05 
-0.0002154832769519814 
-0.0001617351978537849 
-0.0001743840054311998 
-0.001061744501864426 
-0.0006068754211740352 
-0.000327497616948585 
-0.0005267641832782287 
-2.805980677842717e-05 
-0.0007302061905448483 
-0.0006687006846859847 
-0.0007972680557197468 
-0.0003117331271113389 
-5.19542418047676e-05 
0.0001434717070676366 
0.0005110926976733352 
0.001989868774120028 
-0.0008174305705537027 
0.001379901701670529 
-0.0009996593736489993 
-5.861739886778061e-05 
0.0003697242380279022 
8.125927893389648e-05 
0.0004508284307338695 
0.001362120309610441 
-0.0004832865651571685 
0.0008480668552981539 
0.0008060623082206376 
-0.001033822838071314 
-0.0002559035820717006 
-0.0005668439013505105 
-0.0008290983025211822 
-0.0007035555949752258 
0.0003520871731477232 
-0.0005459398813746305 
-0.0002309776388851618 
0.0003672364732036873 
0.0003924153553162377 
-0.00105661834187427 
0.0001663999509268713 
-0.0007325726190236378 
-0.0005246131890568513 
0.0005353922226872552 
0.0004232541467835716 
0.0002088327536338885 
0.0004118626579142044 
4.467872816845676e-05 
-0.000425203528071081 
0.0003698799464639136 
0.0008740114864506036 
-0.0002648074113701857 
0.0006448956493584438 
-0.0001983597906387171 
0.0001673219527522468 
-0.0001618684846915155 
0.001793597422379444 
-0.000177449865268467 
-0.0001252790152804975 
0.0004471471971944946 
0.001081414094463256 
-0.0003613766304747145 
0.0006091942267750176 
0.001014264556205103 
-0.0002585952137730706 
-0.0009935837304363374 
-0.0008513893468064591 
0.0008338790774807827 
-8.413518667267154e-05 
0.0004460606501633545 
0.000721689370415115 
0.0008803525725168729 
-0.0008089770142996098 
-0.0005105017040540844 
0.0007484100696656427 
-6.947323053768947e-05 
0.0008050522690432494 
-0.0008125118901691878 
0.000554356508699072 
-0.0003886785922725513 
0.0001361665235234288 
-0.0009225300814790571 
0.001127349118112986 
0.0002510199031238563 
-0.000654795902515704 
-0.0006389676116055408 
0.0006241094696633601 
-0.002177006264302494 
-4.550605477019543e-05 
-0.000313252058122405 
6.30300316912377e-05 
-0.0004775778050011713 
-0.0002632416555747985 
0.0004679172590842448 
-0.0007077810881623732 
0.0006041553149122341 
-0.0001218677429319208 
-0.0002735883491185484 
0.0001410016309976186 
-0.001313928504204994 
9.385141052148613e-05 
0.001012674349126674 
0.0007682148652423588 
0.0002989464633133799 
6.652037731748287e-05 
8.554654645899067e-05 
0.0001810975925171509 
-0.0002572985013644046 
0.0009206591026964422 
0.0006392907984499207 
0.001312222696036046 
0.0007156326998255868 
0.0008536811981186322 
-0.0003916874711148191 
-0.001081961480361265 
-0.0003578378346698922 
-0.001094645493378082 
0.0004901920684901094 
-0.0004859221329610794 
0.001075253762234178 
-0.001056664688142974 
0.0001376361941491492 
0.0003572561133220936 
0.0006407569125220594 
-0.0003317359913875707 
0.0008638621420827399 
-0.0007594249393811214 
-9.397287530672584e-05 
0.0005879064177266351 
-0.0009465701337095949 
-0.0001702028141031653 
-0.001008086482407741 
0.0001572328884907003 
-0.0006037466394249311 
-0.0003128302116215184 
-0.000437861104269886 
-0.0002471199419037421 
-0.0009491470903912133 
-0.0001002135119492844 
-8.131573128239635e-05 
0.0006418311662881723 
-6.991175203793307e-05 
-0.001161537556939088 
0.0008757479692885169 
-0.001110360306554298 
-0.001625358026892492 
0.001334668156622264 
-0.0001772330481583957 
7.052123644000425e-05 
-0.0008522622470469323 
-0.0004300608098665315 
-9.131563516087492e-05 
-0.0007052957750406775 
-0.0004096682536205809 
0.001185966697977241 
-0.0004831912700048781 
-3.365004826994813e-05 
0.0004188463195704574 
0.000716748938937746 
0.0008192896286634969 
0.0002891574156185179 
0.000576964243410698 
0.0009549724386517825 
0.0003681471107686809 
-0.0006509689111629309 
0.0005925746895140066 
0.0006565846867938717 
-8.656313805504251e-05 
-0.0007390381955968286 
-0.001762990277817106 
-0.0001492546593745921 
0.0005705535338606784 
0.0005642092125123346 
-0.0003369942540858165 
-0.0001699915280699202 
-0.000679546045725342 
1.859044355843309e-05 
0.0004315151126979984 
6.591409010006942e-05 
9.779776329877469e-05 
1.028061028495537e-05 
0.0004908380520367838 
0.0008541344161633716 
0.001715642759301251 
-0.0003893832956096976 
0.0007828912668898626 
0.0007920843841704577 
-0.0002049206010276162 
0.0004906601100974872 
0.0001852902962089597 
0.0009765724128779731 
0.0005916011088394204 
-0.001350414674461009 
-7.396706402599409e-05 
-8.028469020813298e-05 
-0.001379387770699412 
0.0005627443470232992 
-0.0003205875546562047 
-0.0002066138830180576 
2.030609158742486e-05 
0.000415467603489336 
-0.0001590467828999905 
-0.0001152842169873045 
0.0001686644278763012 
-0.0002953124191120706 
-0.0009536883081603871 
6.249441529974681e-05 
-0.0002154832769519814 
-0.0001617351978537849 
-0.0001743840054311998 
-0.001061744501864426 
-0.0006068754211740352 
-0.000327497616948585 
-0.0005267641832782287 
-2.805980677842717e-05 
-0.0007302061905448483 
-0.0006687006846859847 
-0.0007972680557197468 
-0.0003117331271113389 
-5.19542418047676e-05 
0.0001434717070676366 
0.0005110926976733352 
0.001989868774120028 
-0.0008174305705537027 
0.001379901701670529 
-0.0009996593736489993 
-5.861739886778061e-05 
0.0003697242380279022 
8.125927893389648e-05 
0.0004508284307338695 
0.001362120309610441 
-0.0004832865651571685 
0.0008480668552981539 
0.0008060623082206376 
-0.001033822838071314 
-0.0002559035820717006 
-0.0005668439013505105 
-0.0008290983025211822 
-0.0007035555949752258 
0.0003520871731477232 
-0.0005459398813746305 
-0.0002309776388851618 
0.0003672364732036873 
0.0003924153553162377 
-0.00105661834187427 
0.0001663999509268713 
-0.0007325726190236378 
-0.0005246131890568513 
0.0005353922226872552 
0.0004232541467835716 
0.0002088327536338885 
0.0004118626579142044 
4.467872816845676e-05 
-0.000425203528071081 
0.0003698799464639136 
0.0008740114864506036 
-0.0002648074113701857 
0.0006448956493584438 
-0.0001983597906387171 
0.0001673219527522468 
-0.0001618684846915155 
0.001793597422379444 
-0.000177449865268467 
-0.0001252790152804975 
0.0004471471971944946 
0.001081414094463256 
-0.0003613766304747145 
0.0006091942267750176 
0.001014264556205103 
-0.0002585952137730706 
-0.0009935837304363374 
-0.0008513893468064591 
0.0008338790774807827 
-8.413518667267154e-05 
0.0004460606501633545 
0.000721689370415115 
0.0008803525725168729 
-0.0008089770142996098 
-0.0005105017040540844 
0.0007484100696656427 
-6.947323053768947e-05 
0.0008050522690432494 
-0.0008125118901691878 
0.000554356508699072 
-0.0003886785922725513 
0.0001361665235234288 
-0.0009225300814790571 
0.001127349118112986 
0.0002510199031238563 
-0.000654795902515704 
-0.0006389676116055408 
0.0006241094696633601 
-0.002177006264302494 
-4.550605477019543e-05 
-0.000313252058122405 
6.30300316912377e-05 
-0.0004775778050011713 
-0.0002632416555747985 
0.0004679172590842448 
-0.0007077810881623732 
0.0006041553149122341 
-0.0001218677429319208 
-0.0002735883491185484 
0.0001410016309976186 
-0.001313928504204994 
9.385141052148613e-05 
0.001012674349126674 
0.0007682148652423588 
0.0002989464633133799 
6.652037731748287e-05 
8.554654645899067e-05 
0.0001810975925171509 
-0.0002572985013644046 
0.0009206591026964422 
0.0006392907984499207 
0.001312222696036046 
0.0007156326998255868 
0.0008536811981186322 
-0.0003916874711148191 
-0.001081961480361265 
-0.0003578378346698922 
-0.001094645493378082 
0.0004901920684901094 
-0.0004859221329610794 
0.001075253762234178 
-0.001056664688142974 
0.0001376361941491492 
0.0003572561133220936 
0.0006407569125220594 
-0.0003317359913875707 
0.0008638621420827399 
-0.0007594249393811214 
-9.397287530672584e-05 
0.0005879064177266351 
-0.0009465701337095949 
-0.0001702028141031653 
-0.001008086482407741 
0.0001572328884907003 
-0.0006037466394249311 
-0.0003128302116215184 
-0.000437861104269886 
-0.0002471199419037421 
-0.0009491470903912133 
-0.0001002135119492844 
-8.131573128239635e-05 
0.0006418311662881723 
-6.991175203793307e-05 
-0.001161537556939088 
0.0008757479692885169 
-0.001110360306554298 
-0.001625358026892492 
0.001334668156622264 
-0.0001772330481583957 
7.052123644000425e-05 
-0.0008522622470469323 
-0.0004300608098665315 
-9.131563516087492e-05 
-0.0007052957750406775 
-0.0004096682536205809 
0.001185966697977241 
-0.0004831912700048781 
-3.365004826994813e-05 
0.0004188463195704574 
0.000716748938937746 
0.0008192896286634969 
0.0002891574156185179 
0.000576964243410698 
0.0009549724386517825 
0.0003681471107686809 
-0.0006509689111629309 
0.0005925746895140066 
0.0006565846867938717 
-8.656313805504251e-05 
-0.0007390381955968286 
-0.001762990277817106 
-0.0001492546593745921 
0.0005705535338606784 
0.0005642092125123346 
-0.0003369942540858165 
-0.0001699915280699202 
-0.000679546045725342 
1.859044355843309e-05 
0.0004315151126979984 
6.591409010006942e-05 
9.779776329877469e-05 
1.028061028495537e-05 
0.0004908380520367838 
0.0008541344161633716 
0.001715642759301251 
-0.0003893832956096976 
0.0007828912668898626 
0.0007920843841704577 
-0.0002049206010276162 
0.0004906601100974872 
0.0001852902962089597 
0.0009765724128779731 
0.0005916011088394204 
-0.001350414674461009 
-7.396706402599409e-05 
-8.028469020813298e-05 
-0.001379387770699412 
0.0005627443470232992 
-0.0003205875546562047 
-0.0002066138830180576 
2.030609158742486e-05 
0.000415467603489336 
-0.0001590467828999905 
-0.0001152842169873045 
0.0001686644278763012 
-0.0002953124191120706 
-0.0009536883081603871 
6.249441529974681e-05 
-0.0002154832769519814 
-0.0001617351978537849 
-0.0001743840054311998 
-0.001061744501864426 
-0.0006068754211740352 
-0.000327497616948585 
-0.0005267641832782287 
-2.805980677842717e-05 
-0.0007302061905448483 
-0.0006687006846859847 
-0.0007972680557197468 
-0.0003117331271113389 
-5.19542418047676e-05 
0.0001434717070676366 
0.0005110926976733352 
0.001989868774120028 
-0.0008174305705537027 
0.001379901701670529 
-0.0009996593736489993 
-5.861739886778061e-05 
0.0003697242380279022 
8.125927893389648e-05 
0.0004508284307338695 
0.001362120309610441 
-0.0004832865651571685 
0.0008480668552981539 
0.0008060623082206376 
-0.001033822838071314 
-0.0002559035820717006 
-0.0005668439013505105 
-0.0008290983025211822 
-0.0007035555949752258 
0.0003520871731477232 
-0.0005459398813746305 
-0.0002309776388851618 
0.0003672364732036873 
0.0003924153553162377 
-0.00105661834187427 
0.0001663999509268713 
-0.0007325726190236378 
-0.0005246131890568513 
0.0005353922226872552 
0.0004232541467835716 
0.0002088327536338885 
0.0004118626579142044 
4.467872816845676e-05 
-0.000425203528071081 
0.0003698799464639136 
0.0008740114864506036 
-0.0002648074113701857 
0.0006448956493584438 
-0.0001983597906387171 
0.0001673219527522468 
-0.0001618684846915155 
0.001793597422379444 
-0.000177449865268467 
-0.0001252790152804975 
0.0004471471971944946 
0.001081414094463256 
-0.0003613766304747145 
0.0006091942267750176 
0.001014264556205103 
-0.0002585952137730706 
-0.0009935837304363374 
-0.0008513893468064591 
0.0008338790774807827 
-8.413518667267154e-05 
0.0004460606501633545 
0.000721689370415115 
0.0008803525725168729 
-0.0008089770142996098 
-0.0005105017040540844 
0.0007484100696656427 
-6.947323053768947e-05 
0.0008050522690432494 
-0.0008125118901691878 
0.000554356508699072 
-0.0003886785922725513 
0.0001361665235234288 
-0.0009225300814790571 
0.001127349118112986 
0.0002510199031238563 
-0.000654795902515704 
-0.0006389676116055408 
0.0006241094696633601 
-0.002177006264302494 
-4.550605477019543e-05 
-0.000313252058122405 
6.30300316912377e-05 
-0.0004775778050011713 
-0.0002632416555747985 
0.0004679172590842448 
-0.0007077810881623732 
0.0006041553149122341 
-0.0001218677429319208 
-0.0002735883491185484 
0.0001410016309976186 
-0.001313928504204994 
9.385141052148613e-05 
0.001012674349126674 
0.0007682148652423588 
0.0002989464633133799 
6.652037731748287e-05 
8.554654645899067e-05 
0.0001810975925171509 
-0.0002572985013644046 
0.0009206591026964422 
0.0006392907984499207 
0.001312222696036046 
0.0007156326998255868 
0.0008536811981186322 
-0.0003916874711148191 
-0.001081961480361265 
-0.0003578378346698922 
-0.001094645493378082 
0.0004901920684901094 
-0.0004859221329610794 
0.001075253762234178 
-0.001056664688142974 
0.0001376361941491492 
0.0003572561133220936 
0.0006407569125220594 
-0.0003317359913875707 
0.0008638621420827399 
-0.0007594248054785466 
-9.397272677552378e-05 
0.0005879066050145095 
-0.0009465692351046346 
-0.0001702021208167828 
-0.001008086440953797 
0.0001572333808414882 
-0.00060374653881386 
-0.0003128299683408714 
-0.0004378607810032161 
-0.0002471202858417193 
-0.0009491472941463915 
-0.0001002135119492844 
-8.131573128239635e-05 
0.0006418311662881723 
-6.991175203793307e-05 
-0.001161537556939088 
0.0008757479692885169 
-0.001110360306554298 
-0.001625358026892492 
0.001334668156622264 
-0.0001772330481583957 
7.052123644000425e-05 
-0.0008522622470469323 
-0.0004300608098665315 
-9.131563516087492e-05 
-0.0007052957750406775 
-0.0004096682536205809 
0.001185966697977241 
-0.0004831912700048781 
-3.365004826994813e-05 
0.0004188463195704574 
0.000716748938937746 
0.0008192896286634969 
0.0002891574156185179 
0.000576964243410698 
0.0009549724386517825 
0.0003681471107686809 
-0.0006509689111629309 
0.0005925746895140066 
0.0006565846867938717 
-8.656313805504251e-05 
-0.0007390381955968286 
-0.001762990277817106 
-0.0001492546593745921 
0.0005705535338606784 
0.0005642092125123346 
-0.0003369942540858165 
-0.0001699915280699202 
-0.000679546045725342 
1.859044355843309e-05 
0.0004315151126979984 
6.591409010006942e-05 
9.779776329877469e-05 
1.028061028495537e-05 
0.0004908380520367838 
0.0008541344161633716 
0.001715642759301251 
-0.0003893832956096976 
0.0007828912668898626 
0.0007920843841704577 
-0.0002049206010276162 
0.0004906601100974872 
0.0001852902962089597 
0.0009765724128779731 
0.0005916011088394204 
-0.001350414674461009 
-7.396706402599409e-05 
-8.028469020813298e-05 
-0.001379387770699412 
0.0005627443470232992 
-0.0003205875546562047 
-0.0002066138830180576 
2.030609158742486e-05 
0.000415467603489336 
-0.0001590467828999905 
-0.0001152842169873045 
0.0001686644278763012 
-0.0002953124191120706 
-0.0009536883081603871 
6.249441529974681e-05 
-0.0002154832769519814 
-0.0001617351978537849 
-0.0001743840054311998 
-0.001061744501864426 
-0.0006068754211740352 
-0.000327497616948585 
-0.0005267641832782287 
-2.805980677842717e-05 
-0.0007302061905448483 
-0.0006687006846859847 
-0.0007972680557197468 
-0.0003117331271113389 
-5.19542418047676e-05 
0.0001434717070676366 
0.0005110926976733352 
0.001989868774120028 
-0.0008174305705537027 
0.001379901701670529 
-0.0009996593736489993 
-5.861739886778061e-05 
0.0003697242380279022 
8.125927893389648e-05 
0.0004508284307338695 
0.001362120309610441 
-0.0004832865651571685 
0.0008480668552981539 
0.0008060623082206376 
-0.001033822838071314 
-0.0002559035820717006 
-0.0005668439013505105 
-0.0008290983025211822 
-0.0007035555949752258 
0.0003520871731477232 
-0.0005459398813746305 
-0.0002309776388851618 
0.0003672364732036873 
0.0003924153553162377 
-0.00105661834187427 
0.0001663999509268713 
-0.0007325726190236378 
-0.0005246131890568513 
0.0005353922226872552 
0.0004232541467835716 
0.0002088327536338885 
0.0004118626579142044 
4.467872816845676e-05 
-0.000425203528071081 
0.0003698799464639136 
0.0008740114864506036 
-0.0002648074113701857 
0.0006448956493584438 
-0.0001983597906387171 
0.0001673219527522468 
-0.0001618684846915155 
0.001793597422379444 
-0.000177449865268467 
-0.0001252790152804975 
0.0004471471971944946 
0.001081414094463256 
-0.0003613766304747145 
0.0006091942267750176 
0.001014264556205103 
-0.0002585952137730706 
-0.0009935837304363374 
-0.0008513893468064591 
0.0008338790774807827 
-8.413518667267154e-05 
0.0004460606501633545 
0.000721689370415115 
0.0008803525725168729 
-0.0008089770142996098 
-0.0005105017040540844 
0.0007484100696656427 
-6.947323053768947e-05 
0.0008050522690432494 
-0.0008125118901691878 
0.000554356508699072 
-0.0003886785922725513 
0.0001361665235234288 
-0.0009225300814790571 
0.001127349118112986 
0.0002510199031238563 
-0.000654795902515704 
-0.0006389676116055408 
0.0006241094696633601 
-0.002177006264302494 
-4.550605477019543e-05 
-0.000313252058122405 
6.30300316912377e-05 
-0.0004775778050011713 
-0.0002632416555747985 
0.0004679172590842448 
-0.0007077810881623732 
0.0006041553149122341 
-0.0001218677429319208 
-0.0002735883491185484 
0.0001410016309976186 
-0.001313928504204994 
9.385141052148613e-05 
0.001012674349126674 
0.0007682148652423588 
0.0002989464633133799 
6.652037731748287e-05 
8.554654645899067e-05 
0.0001810975925171509 
-0.0002572985013644046 
0.0009206591026964422 
0.0006392907984499207 
0.001312222696036046 
0.0007156326998255868 
0.0008536811981186322 
-0.0003916874711148191 
-0.001081961480361265 
-0.0003578378346698922 
-0.001094645493378082 
0.0004901920684901094 
-0.0004859221329610794 
0.001075253762234178 
-0.001056664688142974 
0.0001376361941491492 
0.0003572561133220936 
0.0006407569125220594 
-0.0003317359913875707 
0.0008638621420827399 
-0.0007594248054785466 
-9.397272677552378e-05 
0.0005879066050145095 
-0.0009465692351046346 
-0.0001702021208167828 
-0.001008086440953797 
0.0001572333808414882 
-0.00060374653881386 
-0.0003128299683408714 
-0.0004378607810032161 
-0.0002471202858417193 
-0.0009491472941463915 
-0.0001002135119492844 
