solver_type L2R_L2LOSS_SVR
nr_class 2
nr_feature 2050
bias -1
w
-4.626176318307407e-05 
0.0006225175392455501 
-0.000102411382902687 
-0.000416470002184921 
0.0004789062023490687 
-0.0002893930315657954 
-0.0007806541335669964 
0.0006011451564355053 
0.0003667856768782528 
0.0005552079927820461 
-2.259116584990841e-06 
0.00022195895899453 
0.0001296025643454063 
-0.0004759895885445539 
-0.0003887699689789621 
-0.000136705624145989 
-0.0004051097616511421 
1.179549198158297e-05 
0.0002765920249329289 
0.000306186711111581 
5.634469162488054e-05 
0.0002282671596149719 
4.794069446295311e-05 
0.0005358904973324307 
4.259264269133474e-06 
-0.0004782835261782112 
0.0001858058456040139 
0.0003369311866878791 
0.0004091318862685444 
-0.0005227353514000969 
-0.001458383162225524 
0.0002201033038569946 
0.0004363951817092524 
0.0002011156939867233 
-0.0007420058034319051 
0.000141272248863037 
-0.0003145934562938596 
5.591235682509606e-05 
0.0001955810085343096 
0.0004166204687869911 
-0.0001031281934533124 
2.85407718743753e-05 
0.0002572044762103357 
0.0001915798735943979 
0.0007986031003793282 
-0.0004233468176845984 
0.0001816067267499862 
0.0002855025884780366 
0.0001143571207501088 
0.0002026452176709667 
0.0003243075461417585 
0.0004769339055153463 
0.0005590372826659141 
-0.0008062868390703373 
0.0004530527133988745 
0.0002166818978747712 
-0.000695711108696112 
-0.0002566093385586261 
-7.500426806278345e-05 
-7.476765999009564e-05 
-0.000209598035893214 
0.0001788071941651343 
-4.868717293918742e-06 
0.0001704388345106999 
9.43347228293695e-05 
-0.0001483612352578517 
-0.0001310105629211021 
0.0001685245935033808 
-0.0005030483259844012 
-0.0001079635644306966 
-0.0002813501253760341 
-1.137044284895948e-05 
-0.000863589547554426 
-0.0003245515698130193 
-0.0005816494272408199 
-0.0001859175851942456 
-0.000624741992734902 
-0.0002940864263809551 
-0.0004750277173171179 
-0.0005164483956516963 
0.0002306417083631609 
0.0003353580292024972 
0.0006496868952838844 
0.0008529742004771612 
-0.0003646087202243476 
0.0007232539001169156 
-0.000113936309744459 
-6.824634659953844e-05 
-1.07185456761607e-05 
-0.0001666270357151092 
0.0002434713541474025 
0.0008888919668863027 
-0.0002586931314769767 
0.0006410736369152017 
0.0003772112510924872 
-0.0004333813710727302 
-0.0006644712205527187 
0.0003527398138090739 
-0.0002118355638248502 
-0.0004076161197164891 
0.0004258906548550089 
-3.306361699884098e-05 
4.435329596448689e-05 
-1.534164366097845e-05 
0.0001034738582576536 
-0.0007605470085144491 
-4.847307609202994e-05 
3.970375668907282e-05 
-0.0002662921176708214 
6.093329868266764e-05 
-0.0005360311187213374 
-0.0003555293456370434 
-0.0002448023913721432 
5.712037233878272e-05 
-0.0008168532053995845 
-0.0003205362335858336 
0.0006181416974087155 
-0.0007271986732385096 
0.0005434700513670402 
-8.082858558129189e-05 
-0.0002250103200715217 
2.075105316563615e-05 
0.0006362381108900146 
-0.0002227748909465323 
6.694029668831955e-05 
-8.682356828954552e-06 
0.0005257293344078505 
-0.0003988630124314803 
0.0003488977831381679 
0.0008513752401334407 
0.0004413095652167033 
-0.0007381561688391094 
-0.0005116109921884599 
-1.723169440960124e-05 
-5.608199953566591e-05 
-2.089979027881531e-05 
-9.861397063254839e-05 
0.0004557315729736845 
-0.0003026523659869048 
0.0002121102460337707 
0.0007246169223861672 
8.451764046462127e-05 
0.000856811389605839 
-0.0002284455336446577 
0.0002251012771144453 
-7.471906119955751e-05 
-0.000266957569511282 
-0.0007126052260232167 
0.0008752894850363909 
-0.0002648726003991003 
-0.0001343599850139076 
-0.000603600805510981 
0.0003048788021314538 
-0.0008325791935217187 
-2.400051654626037e-05 
0.0001934838028611945 
0.000117948060590823 
-0.0005897429245620156 
0.0001810431169691728 
0.0004024073648772582 
-9.780434337633301e-05 
0.000325193378737117 
0.0001212548016123784 
-0.0001763946462963621 
0.0004626568566310621 
-0.0004720114753367615 
-0.0001264226591604784 
0.0004963749709178051 
0.0003397135117634261 
6.399701139287338e-05 
-0.0004160689275341038 
0.000365518223814505 
0.0002549914191772193 
0.0002269648759975131 
9.871513698762868e-05 
0.0002381277194543093 
0.000359699618010163 
0.0002818288792414605 
0.0006314378077115568 
-4.307024101779075e-05 
-0.0006188184848121623 
-0.0001762940847240036 
-0.0004929212133224619 
0.0003380387247435649 
-0.0003456246407551605 
0.0004979758604063059 
-0.0002247292376020453 
-0.0001705911257040421 
3.883148184786895e-05 
0.0001037195238739465 
-0.0002003369401772407 
0.0001737188155147961 
-0.0001730459026116826 
1.144538383981151e-05 
0.0004388312121670014 
-1.554640745156134e-05 
-5.718804297188702e-05 
0.0001572377277833878 
-0.0002418048799857904 
-0.0005512826855664985 
-5.688402008685901e-05 
-0.0001023937373894838 
-0.0002271062344826544 
-0.0003825954156186884 
0.0003688748155455172 
-4.626176318307407e-05 
0.0006225175392455501 
-0.000102411382902687 
-0.000416470002184921 
0.0004789062023490687 
-0.0002893930315657954 
-0.0007806541335669964 
0.0006011451564355053 
0.0003667856768782528 
0.0005552079927820461 
-2.259116584990841e-06 
0.00022195895899453 
0.0001296025643454063 
-0.0004759895885445539 
-0.0003887699689789621 
-0.000136705624145989 
-0.0004051097616511421 
1.179549198158297e-05 
0.0002765920249329289 
0.000306186711111581 
5.634469162488054e-05 
0.0002282671596149719 
4.794069446295311e-05 
0.0005358904973324307 
4.259264269133474e-06 
-0.0004782835261782112 
0.0001858058456040139 
0.0003369311866878791 
0.0004091318862685444 
-0.0005227353514000969 
-0.001458383162225524 
0.0002201033038569946 
0.0004363951817092524 
0.0002011156939867233 
-0.0007420058034319051 
0.000141272248863037 
-0.0003145934562938596 
5.591235682509606e-05 
0.0001955810085343096 
0.0004166204687869911 
-0.0001031281934533124 
2.85407718743753e-05 
0.0002572044762103357 
0.0001915798735943979 
0.0007986031003793282 
-0.0004233468176845984 
0.0001816067267499862 
0.0002855025884780366 
0.0001143571207501088 
0.0002026452176709667 
0.0003243075461417585 
0.0004769339055153463 
0.0005590372826659141 
-0.0008062868390703373 
0.0004530527133988745 
0.0002166818978747712 
-0.000695711108696112 
-0.0002566093385586261 
-7.500426806278345e-05 
-7.476765999009564e-05 
-0.000209598035893214 
0.0001788071941651343 
-4.868717293918742e-06 
0.0001704388345106999 
9.43347228293695e-05 
-0.0001483612352578517 
-0.0001310105629211021 
0.0001685245935033808 
-0.0005030483259844012 
-0.0001079635644306966 
-0.0002813501253760341 
-1.137044284895948e-05 
-0.000863589547554426 
-0.0003245515698130193 
-0.0005816494272408199 
-0.0001859175851942456 
-0.000624741992734902 
-0.0002940864263809551 
-0.0004750277173171179 
-0.0005164483956516963 
0.0002306417083631609 
0.0003353580292024972 
0.0006496868952838844 
0.0008529742004771612 
-0.0003646087202243476 
0.0007232539001169156 
-0.000113936309744459 
-6.824634659953844e-05 
-1.07185456761607e-05 
-0.0001666270357151092 
0.0002434713541474025 
0.0008888919668863027 
-0.0002586931314769767 
0.0006410736369152017 
0.0003772112510924872 
-0.0004333813710727302 
-0.0006644712205527187 
0.0003527398138090739 
-0.0002118355638248502 
-0.0004076161197164891 
0.0004258906548550089 
-3.306361699884098e-05 
4.435329596448689e-05 
-1.534164366097845e-05 
0.0001034738582576536 
-0.0007605470085144491 
-4.847307609202994e-05 
3.970375668907282e-05 
-0.0002662921176708214 
6.093329868266764e-05 
-0.0005360311187213374 
-0.0003555293456370434 
-0.0002448023913721432 
5.712037233878272e-05 
-0.0008168532053995845 
-0.0003205362335858336 
0.0006181416974087155 
-0.0007271986732385096 
0.0005434700513670402 
-8.082858558129189e-05 
-0.0002250103200715217 
2.075105316563615e-05 
0.0006362381108900146 
-0.0002227748909465323 
6.694029668831955e-05 
-8.682356828954552e-06 
0.0005257293344078505 
-0.0003988630124314803 
0.0003488977831381679 
0.0008513752401334407 
0.0004413095652167033 
-0.0007381561688391094 
-0.0005116109921884599 
-1.723169440960124e-05 
-5.608199953566591e-05 
-2.089979027881531e-05 
-9.861397063254839e-05 
0.0004557315729736845 
-0.0003026523659869048 
0.0002121102460337707 
0.0007246169223861672 
8.451764046462127e-05 
0.000856811389605839 
-0.0002284455336446577 
0.0002251012771144453 
-7.471906119955751e-05 
-0.000266957569511282 
-0.0007126052260232167 
0.0008752894850363909 
-0.0002648726003991003 
-0.0001343599850139076 
-0.000603600805510981 
0.0003048788021314538 
-0.0008325791935217187 
-2.400051654626037e-05 
0.0001934838028611945 
0.000117948060590823 
-0.0005897429245620156 
0.0001810431169691728 
0.0004024073648772582 
-9.780434337633301e-05 
0.000325193378737117 
0.0001212548016123784 
-0.0001763946462963621 
0.0004626568566310621 
-0.0004720114753367615 
-0.0001264226591604784 
0.0004963749709178051 
0.0003397135117634261 
6.399701139287338e-05 
-0.0004160689275341038 
0.000365518223814505 
0.0002549914191772193 
0.0002269648759975131 
9.871513698762868e-05 
0.0002381277194543093 
0.000359699618010163 
0.0002818288792414605 
0.0006314378077115568 
-4.307024101779075e-05 
-0.0006188184848121623 
-0.0001762940847240036 
-0.0004929212133224619 
0.0003380387247435649 
-0.0003456246407551605 
0.0004979758604063059 
-0.0002247292376020453 
-0.0001705911257040421 
3.883148184786895e-05 
0.0001037195238739465 
-0.0002003369401772407 
0.0001737188155147961 
-0.0001730459026116826 
1.144538383981151e-05 
0.0004388312121670014 
-1.554640745156134e-05 
-5.718804297188702e-05 
0.0001572377277833878 
-0.0002418048799857904 
-0.0005512826855664985 
-5.688402008685901e-05 
-0.0001023937373894838 
-0.0002271062344826544 
-0.0003825954156186884 
0.0003688748155455172 
-4.626176318307407e-05 
0.0006225175392455501 
-0.000102411382902687 
-0.000416470002184921 
0.0004789062023490687 
-0.0002893930315657954 
-0.0007806541335669964 
0.0006011451564355053 
0.0003667856768782528 
0.0005552079927820461 
-2.259116584990841e-06 
0.00022195895899453 
0.0001296025643454063 
-0.0004759895885445539 
-0.0003887699689789621 
-0.000136705624145989 
-0.0004051097616511421 
1.179549198158297e-05 
0.0002765920249329289 
0.000306186711111581 
5.634469162488054e-05 
0.0002282671596149719 
4.794069446295311e-05 
0.0005358904973324307 
4.259264269133474e-06 
-0.0004782835261782112 
0.0001858058456040139 
0.0003369311866878791 
0.0004091318862685444 
-0.0005227353514000969 
-0.001458383162225524 
0.0002201033038569946 
0.0004363951817092524 
0.0002011156939867233 
-0.0007420058034319051 
0.000141272248863037 
-0.0003145934562938596 
5.591235682509606e-05 
0.0001955810085343096 
0.0004166204687869911 
-0.0001031281934533124 
2.85407718743753e-05 
0.0002572044762103357 
0.0001915798735943979 
0.0007986031003793282 
-0.0004233468176845984 
0.0001816067267499862 
0.0002855025884780366 
0.0001143571207501088 
0.0002026452176709667 
0.0003243075461417585 
0.0004769339055153463 
0.0005590372826659141 
-0.0008062868390703373 
0.0004530527133988745 
0.0002166818978747712 
-0.000695711108696112 
-0.0002566093385586261 
-7.500426806278345e-05 
-7.476765999009564e-05 
-0.000209598035893214 
0.0001788071941651343 
-4.868717293918742e-06 
0.0001704388345106999 
9.43347228293695e-05 
-0.0001483612352578517 
-0.0001310105629211021 
0.0001685245935033808 
-0.0005030483259844012 
-0.0001079635644306966 
-0.0002813501253760341 
-1.137044284895948e-05 
-0.000863589547554426 
-0.0003245515698130193 
-0.0005816494272408199 
-0.0001859175851942456 
-0.000624741992734902 
-0.0002940864263809551 
-0.0004750277173171179 
-0.0005164483956516963 
0.0002306417083631609 
0.0003353580292024972 
0.0006496868952838844 
0.0008529742004771612 
-0.0003646087202243476 
0.0007232539001169156 
-0.000113936309744459 
-6.824634659953844e-05 
-1.07185456761607e-05 
-0.0001666270357151092 
0.0002434713541474025 
0.0008888919668863027 
-0.0002586931314769767 
0.0006410736369152017 
0.0003772112510924872 
-0.0004333813710727302 
-0.0006644712205527187 
0.0003527398138090739 
-0.0002118355638248502 
-0.0004076161197164891 
0.0004258906548550089 
-3.306361699884098e-05 
4.435329596448689e-05 
-1.534164366097845e-05 
0.0001034738582576536 
-0.0007605470085144491 
-4.847307609202994e-05 
3.970375668907282e-05 
-0.0002662921176708214 
6.093329868266764e-05 
-0.0005360311187213374 
-0.0003555293456370434 
-0.0002448023913721432 
5.712037233878272e-05 
-0.0008168532053995845 
-0.0003205362335858336 
0.0006181416974087155 
-0.0007271986732385096 
0.0005434700513670402 
-8.082858558129189e-05 
-0.0002250103200715217 
2.075105316563615e-05 
0.0006362381108900146 
-0.0002227748909465323 
6.694029668831955e-05 
-8.682356828954552e-06 
0.0005257293344078505 
-0.0003988630124314803 
0.0003488977831381679 
0.0008513752401334407 
0.0004413095652167033 
-0.0007381561688391094 
-0.0005116109921884599 
-1.723169440960124e-05 
-5.608199953566591e-05 
-2.089979027881531e-05 
-9.861397063254839e-05 
0.0004557315729736845 
-0.0003026523659869048 
0.0002121102460337707 
0.0007246169223861672 
8.451764046462127e-05 
0.000856811389605839 
-0.0002284455336446577 
0.0002251012771144453 
-7.471906119955751e-05 
-0.000266957569511282 
-0.0007126052260232167 
0.0008752894850363909 
-0.0002648726003991003 
-0.0001343599850139076 
-0.000603600805510981 
0.0003048788021314538 
-0.0008325791935217187 
-2.400051654626037e-05 
0.0001934838028611945 
0.000117948060590823 
-0.0005897429245620156 
0.0001810431169691728 
0.0004024073648772582 
-9.780434337633301e-05 
0.000325193378737117 
0.0001212548016123784 
-0.0001763946462963621 
0.0004626568566310621 
-0.0004720114753367615 
-0.0001264226591604784 
0.0004963749709178051 
0.0003397135117634261 
6.399701139287338e-05 
-0.0004160689275341038 
0.000365518223814505 
0.0002549914191772193 
0.0002269648759975131 
9.871513698762868e-05 
0.0002381277194543093 
0.000359699618010163 
0.0002818288792414605 
0.0006314378077115568 
-4.307024101779075e-05 
-0.0006188184848121623 
-0.0001762940847240036 
-0.0004929212133224619 
0.0003380387247435649 
-0.0003456246407551605 
0.0004979758604063059 
-0.0002247292376020453 
-0.0001705911257040421 
3.883148184786895e-05 
0.0001037195238739465 
-0.0002003369401772407 
0.0001737188155147961 
-0.0001730459026116826 
1.144538383981151e-05 
0.0004388312121670014 
-1.554640745156134e-05 
-5.718804297188702e-05 
0.0001572377277833878 
-0.0002418048799857904 
-0.0005512826855664985 
-5.688402008685901e-05 
-0.0001023937373894838 
-0.0002271062344826544 
-0.0003825954156186884 
0.0003688748155455172 
-4.626176318307407e-05 
0.0006225175392455501 
-0.000102411382902687 
-0.000416470002184921 
0.0004789062023490687 
-0.0002893930315657954 
-0.0007806541335669964 
0.0006011451564355053 
0.0003667856768782528 
0.0005552079927820461 
-2.259116584990841e-06 
0.00022195895899453 
0.0001296025643454063 
-0.0004759895885445539 
-0.0003887699689789621 
-0.000136705624145989 
-0.0004051097616511421 
1.179549198158297e-05 
0.0002765920249329289 
0.000306186711111581 
5.634469162488054e-05 
0.0002282671596149719 
4.794069446295311e-05 
0.0005358904973324307 
4.259264269133474e-06 
-0.0004782835261782112 
0.0001858058456040139 
0.0003369311866878791 
0.0004091318862685444 
-0.0005227353514000969 
-0.001458383162225524 
0.0002201033038569946 
0.0004363951817092524 
0.0002011156939867233 
-0.0007420058034319051 
0.000141272248863037 
-0.0003145934562938596 
5.591235682509606e-05 
0.0001955810085343096 
0.0004166204687869911 
-0.0001031281934533124 
2.85407718743753e-05 
0.0002572044762103357 
0.0001915798735943979 
0.0007986031003793282 
-0.0004233468176845984 
0.0001816067267499862 
0.0002855025884780366 
0.0001143571207501088 
0.0002026452176709667 
0.0003243075461417585 
0.0004769339055153463 
0.0005590372826659141 
-0.0008062868390703373 
0.0004530527133988745 
0.0002166818978747712 
-0.000695711108696112 
-0.0002566093385586261 
-7.500426806278345e-05 
-7.476765999009564e-05 
-0.000209598035893214 
0.0001788071941651343 
-4.868717293918742e-06 
0.0001704388345106999 
9.43347228293695e-05 
-0.0001483612352578517 
-0.0001310105629211021 
0.0001685245935033808 
-0.0005030483259844012 
-0.0001079635644306966 
-0.0002813501253760341 
-1.137044284895948e-05 
-0.000863589547554426 
-0.0003245515698130193 
-0.0005816494272408199 
-0.0001859175851942456 
-0.000624741992734902 
-0.0002940864263809551 
-0.0004750277173171179 
-0.0005164483956516963 
0.0002306417083631609 
0.0003353580292024972 
0.0006496868952838844 
0.0008529742004771612 
-0.0003646087202243476 
0.0007232539001169156 
-0.000113936309744459 
-6.824634659953844e-05 
-1.07185456761607e-05 
-0.0001666270357151092 
0.0002434713541474025 
0.0008888919668863027 
-0.0002586931314769767 
0.0006410736369152017 
0.0003772112510924872 
-0.0004333813710727302 
-0.0006644712205527187 
0.0003527398138090739 
-0.0002118355638248502 
-0.0004076161197164891 
0.0004258906548550089 
-3.306361699884098e-05 
4.435329596448689e-05 
-1.534164366097845e-05 
0.0001034738582576536 
-0.0007605470085144491 
-4.847307609202994e-05 
3.970375668907282e-05 
-0.0002662921176708214 
6.093329868266764e-05 
-0.0005360311187213374 
-0.0003555293456370434 
-0.0002448023913721432 
5.712037233878272e-05 
-0.0008168532053995845 
-0.0003205362335858336 
0.0006181416974087155 
-0.0007271986732385096 
0.0005434700513670402 
-8.082858558129189e-05 
-0.0002250103200715217 
2.075105316563615e-05 
0.0006362381108900146 
-0.0002227748909465323 
6.694029668831955e-05 
-8.682356828954552e-06 
0.0005257293344078505 
-0.0003988630124314803 
0.0003488977831381679 
0.0008513752401334407 
0.0004413095652167033 
-0.0007381561688391094 
-0.0005116109921884599 
-1.723169440960124e-05 
-5.608199953566591e-05 
-2.089979027881531e-05 
-9.861397063254839e-05 
0.0004557315729736845 
-0.0003026523659869048 
0.0002121102460337707 
0.0007246169223861672 
8.451764046462127e-05 
0.000856811389605839 
-0.0002284455336446577 
0.0002251012771144453 
-7.471906119955751e-05 
-0.000266957569511282 
-0.0007126052260232167 
0.0008752894850363909 
-0.0002648726003991003 
-0.0001343599850139076 
-0.000603600805510981 
0.0003048788021314538 
-0.0008325791935217187 
-2.400051654626037e-05 
0.0001934838028611945 
0.000117948060590823 
-0.0005897429245620156 
0.0001810431169691728 
0.0004024073648772582 
-9.780434337633301e-05 
0.000325193378737117 
0.0001212548016123784 
-0.0001763946462963621 
0.0004626568566310621 
-0.0004720114753367615 
-0.0001264226591604784 
0.0004963749709178051 
0.0003397135117634261 
6.399701139287338e-05 
-0.0004160689275341038 
0.000365518223814505 
0.0002549914191772193 
0.0002269648759975131 
9.871513698762868e-05 
0.0002381277194543093 
0.000359699618010163 
0.0002818288792414605 
0.0006314378077115568 
-4.307024101779075e-05 
-0.0006188184848121623 
-0.0001762940847240036 
-0.0004929212133224619 
0.0003380387247435649 
-0.0003456246407551605 
0.0004979758604063059 
-0.0002247292376020453 
-0.0001705911257040421 
3.883148184786895e-05 
0.0001037195238739465 
-0.0002003369401772407 
0.0001737188155147961 
-0.0001730459026116826 
1.144538383981151e-05 
0.0004388312121670014 
-1.554640745156134e-05 
-5.718804297188702e-05 
0.0001572377277833878 
-0.0002418048799857904 
-0.0005512826855664985 
-5.688402008685901e-05 
-0.0001023937373894838 
-0.0002271062344826544 
-0.0003825954156186884 
0.0003688748155455172 
-4.626176318307407e-05 
0.0006225175392455501 
-0.000102411382902687 
-0.000416470002184921 
0.0004789062023490687 
-0.0002893930315657954 
-0.0007806541335669964 
0.0006011451564355053 
0.0003667856768782528 
0.0005552079927820461 
-2.259116584990841e-06 
0.00022195895899453 
0.0001296025643454063 
-0.0004759895885445539 
-0.0003887699689789621 
-0.000136705624145989 
-0.0004051097616511421 
1.179549198158297e-05 
0.0002765920249329289 
0.000306186711111581 
5.634469162488054e-05 
0.0002282671596149719 
4.794069446295311e-05 
0.0005358904973324307 
4.259264269133474e-06 
-0.0004782835261782112 
0.0001858058456040139 
0.0003369311866878791 
0.0004091318862685444 
-0.0005227353514000969 
-0.001458383162225524 
0.0002201033038569946 
0.0004363951817092524 
0.0002011156939867233 
-0.0007420058034319051 
0.000141272248863037 
-0.0003145934562938596 
5.591235682509606e-05 
0.0001955810085343096 
0.0004166204687869911 
-0.0001031281934533124 
2.85407718743753e-05 
0.0002572044762103357 
0.0001915798735943979 
0.0007986031003793282 
-0.0004233468176845984 
0.0001816067267499862 
0.0002855025884780366 
0.0001143571207501088 
0.0002026452176709667 
0.0003243075461417585 
0.0004769339055153463 
0.0005590372826659141 
-0.0008062868390703373 
0.0004530527133988745 
0.0002166818978747712 
-0.000695711108696112 
-0.0002566093385586261 
-7.500426806278345e-05 
-7.476765999009564e-05 
-0.000209598035893214 
0.0001788071941651343 
-4.868717293918742e-06 
0.0001704388345106999 
9.43347228293695e-05 
-0.0001483612352578517 
-0.0001310105629211021 
0.0001685245935033808 
-0.0005030483259844012 
-0.0001079635644306966 
-0.0002813501253760341 
-1.137044284895948e-05 
-0.000863589547554426 
-0.0003245515698130193 
-0.0005816494272408199 
-0.0001859175851942456 
-0.000624741992734902 
-0.0002940864263809551 
-0.0004750277173171179 
-0.0005164483956516963 
0.0002306417083631609 
0.0003353580292024972 
0.0006496868952838844 
0.0008529742004771612 
-0.0003646087202243476 
0.0007232539001169156 
-0.000113936309744459 
-6.824634659953844e-05 
-1.07185456761607e-05 
-0.0001666270357151092 
0.0002434713541474025 
0.0008888919668863027 
-0.0002586931314769767 
0.0006410736369152017 
0.0003772112510924872 
-0.0004333813710727302 
-0.0006644712205527187 
0.0003527398138090739 
-0.0002118355638248502 
-0.0004076161197164891 
0.0004258906548550089 
-3.306361699884098e-05 
4.435329596448689e-05 
-1.534164366097845e-05 
0.0001034738582576536 
-0.0007605470085144491 
-4.847307609202994e-05 
3.970375668907282e-05 
-0.0002662921176708214 
6.093329868266764e-05 
-0.0005360311187213374 
-0.0003555293456370434 
-0.0002448023913721432 
5.712037233878272e-05 
-0.0008168532053995845 
-0.0003205362335858336 
0.0006181416974087155 
-0.0007271986732385096 
0.0005434700513670402 
-8.082858558129189e-05 
-0.0002250103200715217 
2.075105316563615e-05 
0.0006362381108900146 
-0.0002227748909465323 
6.694029668831955e-05 
-8.682356828954552e-06 
0.0005257293344078505 
-0.0003988630124314803 
0.0003488977831381679 
0.0008513752401334407 
0.0004413095652167033 
-0.0007381561688391094 
-0.0005116109921884599 
-1.723169440960124e-05 
-5.608199953566591e-05 
-2.089979027881531e-05 
-9.861397063254839e-05 
0.0004557315729736845 
-0.0003026523659869048 
0.0002121102460337707 
0.0007246169223861672 
8.451764046462127e-05 
0.000856811389605839 
-0.0002284455336446577 
0.0002251012771144453 
-7.471906119955751e-05 
-0.000266957569511282 
-0.0007126052260232167 
0.0008752894850363909 
-0.0002648726003991003 
-0.0001343599850139076 
-0.000603600805510981 
0.0003048788021314538 
-0.0008325791935217187 
-2.400051654626037e-05 
0.0001934838028611945 
0.000117948060590823 
-0.0005897429245620156 
0.0001810431169691728 
0.0004024073648772582 
-9.780434337633301e-05 
0.000325193378737117 
0.0001212548016123784 
-0.0001763946462963621 
0.0004626568566310621 
-0.0004720114753367615 
-0.0001264226591604784 
0.0004963749709178051 
0.0003397135117634261 
6.399701139287338e-05 
-0.0004160689275341038 
0.000365518223814505 
0.0002549914191772193 
0.0002269648759975131 
9.871513698762868e-05 
0.0002381277194543093 
0.000359699618010163 
0.0002818288792414605 
0.0006314378077115568 
-4.307024101779075e-05 
-0.0006188184848121623 
-0.0001762940847240036 
-0.0004929212133224619 
0.0003380387247435649 
-0.0003456246407551605 
0.0004979758604063059 
-0.0002247292376020453 
-0.0001705911257040421 
3.883148184786895e-05 
0.0001037195238739465 
-0.0002003369401772407 
0.0001737188155147961 
-0.0001730459026116826 
1.144538383981151e-05 
0.0004388312121670014 
-1.554640745156134e-05 
-5.718804297188702e-05 
0.0001572377277833878 
-0.0002418048799857904 
-0.0005512826855664985 
-5.688402008685901e-05 
-0.0001023937373894838 
-0.0002271062344826544 
-0.0003825954156186884 
0.0003688748155455172 
-4.626176318307407e-05 
0.0006225175392455501 
-0.000102411382902687 
-0.000416470002184921 
0.0004789062023490687 
-0.0002893930315657954 
-0.0007806541335669964 
0.0006011451564355053 
0.0003667856768782528 
0.0005552079927820461 
-2.259116584990841e-06 
0.00022195895899453 
0.0001296025643454063 
-0.0004759895885445539 
-0.0003887699689789621 
-0.000136705624145989 
-0.0004051097616511421 
1.179549198158297e-05 
0.0002765920249329289 
0.000306186711111581 
5.634469162488054e-05 
0.0002282671596149719 
4.794069446295311e-05 
0.0005358904973324307 
4.259264269133474e-06 
-0.0004782835261782112 
0.0001858058456040139 
0.0003369311866878791 
0.0004091318862685444 
-0.0005227353514000969 
-0.001458383162225524 
0.0002201033038569946 
0.0004363951817092524 
0.0002011156939867233 
-0.0007420058034319051 
0.000141272248863037 
-0.0003145934562938596 
5.591235682509606e-05 
0.0001955810085343096 
0.0004166204687869911 
-0.0001031281934533124 
2.85407718743753e-05 
0.0002572044762103357 
0.0001915798735943979 
0.0007986031003793282 
-0.0004233468176845984 
0.0001816067267499862 
0.0002855025884780366 
0.0001143571207501088 
0.0002026452176709667 
0.0003243075461417585 
0.0004769339055153463 
0.0005590372826659141 
-0.0008062868390703373 
0.0004530527133988745 
0.0002166818978747712 
-0.000695711108696112 
-0.0002566093385586261 
-7.500426806278345e-05 
-7.476765999009564e-05 
-0.000209598035893214 
0.0001788071941651343 
-4.868717293918742e-06 
0.0001704388345106999 
9.43347228293695e-05 
-0.0001483612352578517 
-0.0001310105629211021 
0.0001685245935033808 
-0.0005030483259844012 
-0.0001079635644306966 
-0.0002813501253760341 
-1.137044284895948e-05 
-0.000863589547554426 
-0.0003245515698130193 
-0.0005816494272408199 
-0.0001859175851942456 
-0.000624741992734902 
-0.0002940864263809551 
-0.0004750277173171179 
-0.0005164483956516963 
0.0002306417083631609 
0.0003353580292024972 
0.0006496868952838844 
0.0008529742004771612 
-0.0003646087202243476 
0.0007232539001169156 
-0.000113936309744459 
-6.824634659953844e-05 
-1.07185456761607e-05 
-0.0001666270357151092 
0.0002434713541474025 
0.0008888919668863027 
-0.0002586931314769767 
0.0006410736369152017 
0.0003772112510924872 
-0.0004333813710727302 
-0.0006644712205527187 
0.0003527398138090739 
-0.0002118355638248502 
-0.0004076161197164891 
0.0004258906548550089 
-3.306361699884098e-05 
4.435329596448689e-05 
-1.534164366097845e-05 
0.0001034738582576536 
-0.0007605470085144491 
-4.847307609202994e-05 
3.970375668907282e-05 
-0.0002662921176708214 
6.093329868266764e-05 
-0.0005360311187213374 
-0.0003555293456370434 
-0.0002448023913721432 
5.712037233878272e-05 
-0.0008168532053995845 
-0.0003205362335858336 
0.0006181416974087155 
-0.0007271986732385096 
0.0005434700513670402 
-8.082858558129189e-05 
-0.0002250103200715217 
2.075105316563615e-05 
0.0006362381108900146 
-0.0002227748909465323 
6.694029668831955e-05 
-8.682356828954552e-06 
0.0005257293344078505 
-0.0003988630124314803 
0.0003488977831381679 
0.0008513752401334407 
0.0004413095652167033 
-0.0007381561688391094 
-0.0005116109921884599 
-1.723169440960124e-05 
-5.608199953566591e-05 
-2.089979027881531e-05 
-9.861397063254839e-05 
0.0004557315729736845 
-0.0003026523659869048 
0.0002121102460337707 
0.0007246169223861672 
8.451764046462127e-05 
0.000856811389605839 
-0.0002284455336446577 
0.0002251012771144453 
-7.471906119955751e-05 
-0.000266957569511282 
-0.0007126052260232167 
0.0008752894850363909 
-0.0002648726003991003 
-0.0001343599850139076 
-0.000603600805510981 
0.0003048788021314538 
-0.0008325791935217187 
-2.400051654626037e-05 
0.0001934838028611945 
0.000117948060590823 
-0.0005897429245620156 
0.0001810431169691728 
0.0004024073648772582 
-9.780434337633301e-05 
0.000325193378737117 
0.0001212548016123784 
-0.0001763946462963621 
0.0004626568566310621 
-0.0004720114753367615 
-0.0001264226591604784 
0.0004963749709178051 
0.0003397135117634261 
6.399701139287338e-05 
-0.0004160689275341038 
0.000365518223814505 
0.0002549914191772193 
0.0002269648759975131 
9.871513698762868e-05 
0.0002381277194543093 
0.000359699618010163 
0.0002818288792414605 
0.0006314378077115568 
-4.307024101779075e-05 
-0.0006188184848121623 
-0.0001762940847240036 
-0.0004929212133224619 
0.0003380387247435649 
-0.0003456246407551605 
0.0004979758604063059 
-0.0002247292376020453 
-0.0001705911257040421 
3.883148184786895e-05 
0.0001037195238739465 
-0.0002003369401772407 
0.0001737188155147961 
-0.0001730459026116826 
1.144538383981151e-05 
0.0004388312121670014 
-1.554640745156134e-05 
-5.718804297188702e-05 
0.0001572377277833878 
-0.0002418048799857904 
-0.0005512826855664985 
-5.688402008685901e-05 
-0.0001023937373894838 
-0.0002271062344826544 
-0.0003825954156186884 
0.0003688748155455172 
-4.626176318307407e-05 
0.0006225175392455501 
-0.000102411382902687 
-0.000416470002184921 
0.0004789062023490687 
-0.0002893930315657954 
-0.0007806541335669964 
0.0006011451564355053 
0.0003667856768782528 
0.0005552079927820461 
-2.259116584990841e-06 
0.00022195895899453 
0.0001296025643454063 
-0.0004759895885445539 
-0.0003887699689789621 
-0.000136705624145989 
-0.0004051097616511421 
1.179549198158297e-05 
0.0002765920249329289 
0.000306186711111581 
5.634469162488054e-05 
0.0002282671596149719 
4.794069446295311e-05 
0.0005358904973324307 
4.259264269133474e-06 
-0.0004782835261782112 
0.0001858058456040139 
0.0003369311866878791 
0.0004091318862685444 
-0.0005227353514000969 
-0.001458383162225524 
0.0002201033038569946 
0.0004363951817092524 
0.0002011156939867233 
-0.0007420058034319051 
0.000141272248863037 
-0.0003145934562938596 
5.591235682509606e-05 
0.0001955810085343096 
0.0004166204687869911 
-0.0001031281934533124 
2.85407718743753e-05 
0.0002572044762103357 
0.0001915798735943979 
0.0007986031003793282 
-0.0004233468176845984 
0.0001816067267499862 
0.0002855025884780366 
0.0001143571207501088 
0.0002026452176709667 
0.0003243075461417585 
0.0004769339055153463 
0.0005590372826659141 
-0.0008062868390703373 
0.0004530527133988745 
0.0002166818978747712 
-0.000695711108696112 
-0.0002566093385586261 
-7.500426806278345e-05 
-7.476765999009564e-05 
-0.000209598035893214 
0.0001788071941651343 
-4.868717293918742e-06 
0.0001704388345106999 
9.43347228293695e-05 
-0.0001483612352578517 
-0.0001310105629211021 
0.0001685245935033808 
-0.0005030483259844012 
-0.0001079635644306966 
-0.0002813501253760341 
-1.137044284895948e-05 
-0.000863589547554426 
-0.0003245515698130193 
-0.0005816494272408199 
-0.0001859175851942456 
-0.000624741992734902 
-0.0002940864263809551 
-0.0004750277173171179 
-0.0005164483956516963 
0.0002306417083631609 
0.0003353580292024972 
0.0006496868952838844 
0.0008529742004771612 
-0.0003646087202243476 
0.0007232539001169156 
-0.000113936309744459 
-6.824634659953844e-05 
-1.07185456761607e-05 
-0.0001666270357151092 
0.0002434713541474025 
0.0008888919668863027 
-0.0002586931314769767 
0.0006410736369152017 
0.0003772112510924872 
-0.0004333813710727302 
-0.0006644712205527187 
0.0003527398138090739 
-0.0002118355638248502 
-0.0004076161197164891 
0.0004258906548550089 
-3.306361699884098e-05 
4.435329596448689e-05 
-1.534164366097845e-05 
0.0001034738582576536 
-0.0007605470085144491 
-4.847307609202994e-05 
3.970375668907282e-05 
-0.0002662921176708214 
6.093329868266764e-05 
-0.0005360311187213374 
-0.0003555293456370434 
-0.0002448023913721432 
5.712037233878272e-05 
-0.0008168532053995845 
-0.0003205362335858336 
0.0006181416974087155 
-0.0007271986732385096 
0.0005434700513670402 
-8.082858558129189e-05 
-0.0002250103200715217 
2.075105316563615e-05 
0.0006362381108900146 
-0.0002227748909465323 
6.694029668831955e-05 
-8.682356828954552e-06 
0.0005257293344078505 
-0.0003988630124314803 
0.0003488977831381679 
0.0008513752401334407 
0.0004413095652167033 
-0.0007381561688391094 
-0.0005116109921884599 
-1.723169440960124e-05 
-5.608199953566591e-05 
-2.089979027881531e-05 
-9.861397063254839e-05 
0.0004557315729736845 
-0.0003026523659869048 
0.0002121102460337707 
0.0007246169223861672 
8.451764046462127e-05 
0.000856811389605839 
-0.0002284455336446577 
0.0002251012771144453 
-7.471906119955751e-05 
-0.000266957569511282 
-0.0007126052260232167 
0.0008752894850363909 
-0.0002648726003991003 
-0.0001343599850139076 
-0.000603600805510981 
0.0003048788021314538 
-0.0008325791935217187 
-2.400051654626037e-05 
0.0001934838028611945 
0.000117948060590823 
-0.0005897429245620156 
0.0001810431169691728 
0.0004024073648772582 
-9.780434337633301e-05 
0.000325193378737117 
0.0001212548016123784 
-0.0001763946462963621 
0.0004626568566310621 
-0.0004720114753367615 
-0.0001264226591604784 
0.0004963749709178051 
0.0003397135117634261 
6.399701139287338e-05 
-0.0004160689275341038 
0.000365518223814505 
0.0002549914191772193 
0.0002269648759975131 
9.871513698762868e-05 
0.0002381277194543093 
0.000359699618010163 
0.0002818288792414605 
0.0006314378077115568 
-4.307024101779075e-05 
-0.0006188184848121623 
-0.0001762940847240036 
-0.0004929212133224619 
0.0003380387247435649 
-0.0003456246407551605 
0.0004979758604063059 
-0.0002247292376020453 
-0.0001705911257040421 
3.883148184786895e-05 
0.0001037195238739465 
-0.0002003369401772407 
0.0001737188155147961 
-0.0001730459026116826 
1.144538383981151e-05 
0.0004388312121670014 
-1.554640745156134e-05 
-5.718804297188702e-05 
0.0001572377277833878 
-0.0002418048799857904 
-0.0005512826855664985 
-5.688402008685901e-05 
-0.0001023937373894838 
-0.0002271062344826544 
-0.0003825954156186884 
0.0003688748155455172 
-4.626176318307407e-05 
0.0006225175392455501 
-0.000102411382902687 
-0.000416470002184921 
0.0004789062023490687 
-0.0002893930315657954 
-0.0007806541335669964 
0.0006011451564355053 
0.0003667856768782528 
0.0005552079927820461 
-2.259116584990841e-06 
0.00022195895899453 
0.0001296025643454063 
-0.0004759895885445539 
-0.0003887699689789621 
-0.000136705624145989 
-0.0004051097616511421 
1.179549198158297e-05 
0.0002765920249329289 
0.000306186711111581 
5.634469162488054e-05 
0.0002282671596149719 
4.794069446295311e-05 
0.0005358904973324307 
4.259264269133474e-06 
-0.0004782835261782112 
0.0001858058456040139 
0.0003369311866878791 
0.0004091318862685444 
-0.0005227353514000969 
-0.001458383162225524 
0.0002201033038569946 
0.0004363951817092524 
0.0002011156939867233 
-0.0007420058034319051 
0.000141272248863037 
-0.0003145934562938596 
5.591235682509606e-05 
0.0001955810085343096 
0.0004166204687869911 
-0.0001031281934533124 
2.85407718743753e-05 
0.0002572044762103357 
0.0001915798735943979 
0.0007986031003793282 
-0.0004233468176845984 
0.0001816067267499862 
0.0002855025884780366 
0.0001143571207501088 
0.0002026452176709667 
0.0003243075461417585 
0.0004769339055153463 
0.0005590372826659141 
-0.0008062868390703373 
0.0004530527133988745 
0.0002166818978747712 
-0.000695711108696112 
-0.0002566093385586261 
-7.500426806278345e-05 
-7.476765999009564e-05 
-0.000209598035893214 
0.0001788071941651343 
-4.868717293918742e-06 
0.0001704388345106999 
9.43347228293695e-05 
-0.0001483612352578517 
-0.0001310105629211021 
0.0001685245935033808 
-0.0005030483259844012 
-0.0001079635644306966 
-0.0002813501253760341 
-1.137044284895948e-05 
-0.000863589547554426 
-0.0003245515698130193 
-0.0005816494272408199 
-0.0001859175851942456 
-0.000624741992734902 
-0.0002940864263809551 
-0.0004750277173171179 
-0.0005164483956516963 
0.0002306417083631609 
0.0003353580292024972 
0.0006496868952838844 
0.0008529742004771612 
-0.0003646087202243476 
0.0007232539001169156 
-0.000113936309744459 
-6.824634659953844e-05 
-1.07185456761607e-05 
-0.0001666270357151092 
0.0002434713541474025 
0.0008888919668863027 
-0.0002586931314769767 
0.0006410736369152017 
0.0003772112510924872 
-0.0004333813710727302 
-0.0006644712205527187 
0.0003527398138090739 
-0.0002118355638248502 
-0.0004076161197164891 
0.0004258906548550089 
-3.306361699884098e-05 
4.435329596448689e-05 
-1.534164366097845e-05 
0.0001034738582576536 
-0.0007605470085144491 
-4.847307609202994e-05 
3.970375668907282e-05 
-0.0002662921176708214 
6.093329868266764e-05 
-0.0005360311187213374 
-0.0003555293456370434 
-0.0002448023913721432 
5.712037233878272e-05 
-0.0008168532053995845 
-0.0003205362335858336 
0.0006181416974087155 
-0.0007271986732385096 
0.0005434700513670402 
-8.082858558129189e-05 
-0.0002250103200715217 
2.075105316563615e-05 
0.0006362381108900146 
-0.0002227748909465323 
6.694029668831955e-05 
-8.682356828954552e-06 
0.0005257293344078505 
-0.0003988630124314803 
0.0003488977831381679 
0.0008513752401334407 
0.0004413095652167033 
-0.0007381561688391094 
-0.0005116109921884599 
-1.723169440960124e-05 
-5.608199953566591e-05 
-2.089979027881531e-05 
-9.861397063254839e-05 
0.0004557315729736845 
-0.0003026523659869048 
0.0002121102460337707 
0.0007246169223861672 
8.451764046462127e-05 
0.000856811389605839 
-0.0002284455336446577 
0.0002251012771144453 
-7.471906119955751e-05 
-0.000266957569511282 
-0.0007126052260232167 
0.0008752894850363909 
-0.0002648726003991003 
-0.0001343599850139076 
-0.000603600805510981 
0.0003048788021314538 
-0.0008325791935217187 
-2.400051654626037e-05 
0.0001934838028611945 
0.000117948060590823 
-0.0005897429245620156 
0.0001810431169691728 
0.0004024073648772582 
-9.780434337633301e-05 
0.000325193378737117 
0.0001212548016123784 
-0.0001763946462963621 
0.0004626568566310621 
-0.0004720114753367615 
-0.0001264226591604784 
0.0004963749709178051 
0.0003397135117634261 
6.399701139287338e-05 
-0.0004160689275341038 
0.000365518223814505 
0.0002549914191772193 
0.0002269648759975131 
9.871513698762868e-05 
0.0002381277194543093 
0.000359699618010163 
0.0002818288792414605 
0.0006314378077115568 
-4.307024101779075e-05 
-0.0006188184848121623 
-0.0001762940847240036 
-0.0004929212133224619 
0.0003380387247435649 
-0.0003456246407551605 
0.0004979758604063059 
-0.0002247292376020453 
-0.0001705911257040421 
3.883148184786895e-05 
0.0001037195238739465 
-0.0002003369401772407 
0.0001737188155147961 
-0.0001730459026116826 
1.144538383981151e-05 
0.0004388312121670014 
-1.554640745156134e-05 
-5.718804297188702e-05 
0.0001572377277833878 
-0.0002418048799857904 
-0.0005512826855664985 
-5.688402008685901e-05 
-0.0001023937373894838 
-0.0002271062344826544 
-0.0003825954156186884 
0.0003688748155455172 
-4.626176318307407e-05 
0.0006225175392455501 
-0.000102411382902687 
-0.000416470002184921 
0.0004789062023490687 
-0.0002893930315657954 
-0.0007806541335669964 
0.0006011451564355053 
0.0003667856768782528 
0.0005552079927820461 
-2.259116584990841e-06 
0.00022195895899453 
0.0001296025643454063 
-0.0004759895885445539 
-0.0003887699689789621 
-0.000136705624145989 
-0.0004051097616511421 
1.179549198158297e-05 
0.0002765920249329289 
0.000306186711111581 
5.634469162488054e-05 
0.0002282671596149719 
4.794069446295311e-05 
0.0005358904973324307 
4.259264269133474e-06 
-0.0004782835261782112 
0.0001858058456040139 
0.0003369311866878791 
0.0004091318862685444 
-0.0005227353514000969 
-0.001458383162225524 
0.0002201033038569946 
0.0004363951817092524 
0.0002011156939867233 
-0.0007420058034319051 
0.000141272248863037 
-0.0003145934562938596 
5.591235682509606e-05 
0.0001955810085343096 
0.0004166204687869911 
-0.0001031281934533124 
2.85407718743753e-05 
0.0002572044762103357 
0.0001915798735943979 
0.0007986031003793282 
-0.0004233468176845984 
0.0001816067267499862 
0.0002855025884780366 
0.0001143571207501088 
0.0002026452176709667 
0.0003243075461417585 
0.0004769339055153463 
0.0005590372826659141 
-0.0008062868390703373 
0.0004530527133988745 
0.0002166818978747712 
-0.000695711108696112 
-0.0002566093385586261 
-7.500426806278345e-05 
-7.476765999009564e-05 
-0.000209598035893214 
0.0001788071941651343 
-4.868717293918742e-06 
0.0001704388345106999 
9.43347228293695e-05 
-0.0001483612352578517 
-0.0001310105629211021 
0.0001685245935033808 
-0.0005030483259844012 
-0.0001079635644306966 
-0.0002813501253760341 
-1.137044284895948e-05 
-0.000863589547554426 
-0.0003245515698130193 
-0.0005816494272408199 
-0.0001859175851942456 
-0.000624741992734902 
-0.0002940864263809551 
-0.0004750277173171179 
-0.0005164483956516963 
0.0002306417083631609 
0.0003353580292024972 
0.0006496868952838844 
0.0008529742004771612 
-0.0003646087202243476 
0.0007232539001169156 
-0.000113936309744459 
-6.824634659953844e-05 
-1.07185456761607e-05 
-0.0001666270357151092 
0.0002434713541474025 
0.0008888919668863027 
-0.0002586931314769767 
0.0006410736369152017 
0.0003772112510924872 
-0.0004333813710727302 
-0.0006644712205527187 
0.0003527398138090739 
-0.0002118355638248502 
-0.0004076161197164891 
0.0004258906548550089 
-3.306361699884098e-05 
4.435329596448689e-05 
-1.534164366097845e-05 
0.0001034738582576536 
-0.0007605470085144491 
-4.847307609202994e-05 
3.970375668907282e-05 
-0.0002662921176708214 
6.093329868266764e-05 
-0.0005360311187213374 
-0.0003555293456370434 
-0.0002448023913721432 
5.712037233878272e-05 
-0.0008168532053995845 
-0.0003205362335858336 
0.0006181416974087155 
-0.0007271986732385096 
0.0005434700513670402 
-8.082858558129189e-05 
-0.0002250103200715217 
2.075105316563615e-05 
0.0006362381108900146 
-0.0002227748909465323 
6.694029668831955e-05 
-8.682356828954552e-06 
0.0005257293344078505 
-0.0003988630124314803 
0.0003488977831381679 
0.0008513752401334407 
0.0004413095652167033 
-0.0007381561688391094 
-0.0005116109921884599 
-1.723169440960124e-05 
-5.608199953566591e-05 
-2.089979027881531e-05 
-9.861397063254839e-05 
0.0004557315729736845 
-0.0003026523659869048 
0.0002121102460337707 
0.0007246169223861672 
8.451764046462127e-05 
0.000856811389605839 
-0.0002284455336446577 
0.0002251012771144453 
-7.471906119955751e-05 
-0.000266957569511282 
-0.0007126052260232167 
0.0008752894850363909 
-0.0002648726003991003 
-0.0001343599850139076 
-0.000603600805510981 
0.0003048788021314538 
-0.0008325791935217187 
-2.400051654626037e-05 
0.0001934838028611945 
0.000117948060590823 
-0.0005897429245620156 
0.0001810431169691728 
0.0004024073648772582 
-9.780434337633301e-05 
0.000325193378737117 
0.0001212548016123784 
-0.0001763946462963621 
0.0004626568566310621 
-0.0004720114753367615 
-0.0001264226591604784 
0.0004963749709178051 
0.0003397135117634261 
6.399701139287338e-05 
-0.0004160689275341038 
0.000365518223814505 
0.0002549914191772193 
0.0002269648759975131 
9.871513698762868e-05 
0.0002381277194543093 
0.000359699618010163 
0.0002818288792414605 
0.0006314378077115568 
-4.307024101779075e-05 
-0.0006188184848121623 
-0.0001762940847240036 
-0.0004929212133224619 
0.0003380387247435649 
-0.0003456246407551605 
0.0004979758604063059 
-0.0002247292376020453 
-0.0001705911257040421 
3.883148184786895e-05 
0.0001037195238739465 
-0.0002003369401772407 
0.0001737188155147961 
-0.0001730461036917318 
1.144520870246515e-05 
0.000438831332616371 
-1.554610276816978e-05 
-5.718793180841159e-05 
0.0001572377730308168 
-0.0002418049208689345 
-0.0005512827049980513 
-5.688391807249347e-05 
-0.0001023935910276875 
-0.0002271063206180127 
-0.0003825954272314138 
0.0003688748155455172 
-4.626176318307407e-05 
0.0006225175392455501 
-0.000102411382902687 
-0.000416470002184921 
0.0004789062023490687 
-0.0002893930315657954 
-0.0007806541335669964 
0.0006011451564355053 
0.0003667856768782528 
0.0005552079927820461 
-2.259116584990841e-06 
0.00022195895899453 
0.0001296025643454063 
-0.0004759895885445539 
-0.0003887699689789621 
-0.000136705624145989 
-0.0004051097616511421 
1.179549198158297e-05 
0.0002765920249329289 
0.000306186711111581 
5.634469162488054e-05 
0.0002282671596149719 
4.794069446295311e-05 
0.0005358904973324307 
4.259264269133474e-06 
-0.0004782835261782112 
0.0001858058456040139 
0.0003369311866878791 
0.0004091318862685444 
-0.0005227353514000969 
-0.001458383162225524 
0.0002201033038569946 
0.0004363951817092524 
0.0002011156939867233 
-0.0007420058034319051 
0.000141272248863037 
-0.0003145934562938596 
5.591235682509606e-05 
0.0001955810085343096 
0.0004166204687869911 
-0.0001031281934533124 
2.85407718743753e-05 
0.0002572044762103357 
0.0001915798735943979 
0.0007986031003793282 
-0.0004233468176845984 
0.0001816067267499862 
0.0002855025884780366 
0.0001143571207501088 
0.0002026452176709667 
0.0003243075461417585 
0.0004769339055153463 
0.0005590372826659141 
-0.0008062868390703373 
0.0004530527133988745 
0.0002166818978747712 
-0.000695711108696112 
-0.0002566093385586261 
-7.500426806278345e-05 
-7.476765999009564e-05 
-0.000209598035893214 
0.0001788071941651343 
-4.868717293918742e-06 
0.0001704388345106999 
9.43347228293695e-05 
-0.0001483612352578517 
-0.0001310105629211021 
0.0001685245935033808 
-0.0005030483259844012 
-0.0001079635644306966 
-0.0002813501253760341 
-1.137044284895948e-05 
-0.000863589547554426 
-0.0003245515698130193 
-0.0005816494272408199 
-0.0001859175851942456 
-0.000624741992734902 
-0.0002940864263809551 
-0.0004750277173171179 
-0.0005164483956516963 
0.0002306417083631609 
0.0003353580292024972 
0.0006496868952838844 
0.0008529742004771612 
-0.0003646087202243476 
0.0007232539001169156 
-0.000113936309744459 
-6.824634659953844e-05 
-1.07185456761607e-05 
-0.0001666270357151092 
0.0002434713541474025 
0.0008888919668863027 
-0.0002586931314769767 
0.0006410736369152017 
0.0003772112510924872 
-0.0004333813710727302 
-0.0006644712205527187 
0.0003527398138090739 
-0.0002118355638248502 
-0.0004076161197164891 
0.0004258906548550089 
-3.306361699884098e-05 
4.435329596448689e-05 
-1.534164366097845e-05 
0.0001034738582576536 
-0.0007605470085144491 
-4.847307609202994e-05 
3.970375668907282e-05 
-0.0002662921176708214 
6.093329868266764e-05 
-0.0005360311187213374 
-0.0003555293456370434 
-0.0002448023913721432 
5.712037233878272e-05 
-0.0008168532053995845 
-0.0003205362335858336 
0.0006181416974087155 
-0.0007271986732385096 
0.0005434700513670402 
-8.082858558129189e-05 
-0.0002250103200715217 
2.075105316563615e-05 
0.0006362381108900146 
-0.0002227748909465323 
6.694029668831955e-05 
-8.682356828954552e-06 
0.0005257293344078505 
-0.0003988630124314803 
0.0003488977831381679 
0.0008513752401334407 
0.0004413095652167033 
-0.0007381561688391094 
-0.0005116109921884599 
-1.723169440960124e-05 
-5.608199953566591e-05 
-2.089979027881531e-05 
-9.861397063254839e-05 
0.0004557315729736845 
-0.0003026523659869048 
0.0002121102460337707 
0.0007246169223861672 
8.451764046462127e-05 
0.000856811389605839 
-0.0002284455336446577 
0.0002251012771144453 
-7.471906119955751e-05 
-0.000266957569511282 
-0.0007126052260232167 
0.0008752894850363909 
-0.0002648726003991003 
-0.0001343599850139076 
-0.000603600805510981 
0.0003048788021314538 
-0.0008325791935217187 
-2.400051654626037e-05 
0.0001934838028611945 
0.000117948060590823 
-0.0005897429245620156 
0.0001810431169691728 
0.0004024073648772582 
-9.780434337633301e-05 
0.000325193378737117 
0.0001212548016123784 
-0.0001763946462963621 
0.0004626568566310621 
-0.0004720114753367615 
-0.0001264226591604784 
0.0004963749709178051 
0.0003397135117634261 
6.399701139287338e-05 
-0.0004160689275341038 
0.000365518223814505 
0.0002549914191772193 
0.0002269648759975131 
9.871513698762868e-05 
0.0002381277194543093 
0.000359699618010163 
0.0002818288792414605 
0.0006314378077115568 
-4.307024101779075e-05 
-0.0006188184848121623 
-0.0001762940847240036 
-0.0004929212133224619 
0.0003380387247435649 
-0.0003456246407551605 
0.0004979758604063059 
-0.0002247292376020453 
-0.0001705911257040421 
3.883148184786895e-05 
0.0001037195238739465 
-0.0002003369401772407 
0.0001737188155147961 
-0.0001730461036917318 
1.144520870246515e-05 
0.000438831332616371 
-1.554610276816978e-05 
-5.718793180841159e-05 
0.0001572377730308168 
-0.0002418049208689345 
-0.0005512827049980513 
-5.688391807249347e-05 
-0.0001023935910276875 
-0.0002271063206180127 
-0.0003825954272314138 
0.0003688748155455172 
