solver_type L2R_L1LOSS_SVR_DUAL
nr_class 2
nr_feature 2050
bias -1
w
0.0005213827565862617 
0.0007347475198278466 
-5.838950543509284e-05 
-0.0006166213053032727 
0.0006919483982795931 
-0.0007816591419893138 
-0.001127975499430749 
0.0003562384005799583 
0.0003689526106505528 
-9.816427489567434e-06 
0.0003329530295378153 
-0.0002487275112347277 
0.0004494559830802548 
-0.0005141319880317779 
-0.0002604943359830614 
0.0005115701046811527 
-0.0009127077963830082 
2.875130644340692e-05 
-0.000186438025331136 
0.0005107715975685657 
0.0005628835127576001 
0.0003814323729631154 
-0.0002667848212105166 
0.0005466097660827304 
3.205727909601614e-05 
-0.0009819544234752427 
0.0006721599827160759 
0.0005817349723643234 
0.0003272259636813706 
-0.0008084143250943017 
-0.001570244923456305 
0.0001842011856901018 
0.00056576457486965 
0.0004904210601181626 
-0.0006966161443608465 
0.0002914756736341182 
-0.0001494777966697946 
0.0001654407127852895 
0.0004473206653304805 
0.000602025916979149 
0.0005365268721167357 
-0.0001013631317549263 
0.001071173368144427 
0.0003540960039853809 
0.001101508230598092 
-0.0007523479806973213 
0.0004257222345787308 
0.0004455919490951933 
-0.0005369489971640091 
0.0005132547253757669 
0.001008332518366569 
0.001033732492213845 
0.000349429562842008 
-0.001194622370540573 
0.000277098052138045 
-5.495543361117311e-05 
-0.0009931395911255262 
0.000142789068459125 
3.929243456601814e-05 
-7.752816577067855e-05 
-0.0005613173385500768 
0.0005214480712120332 
-6.671850603039462e-05 
-0.0002595916256071893 
-0.0002179439174766259 
0.0001063006006838427 
-2.597601592895962e-05 
0.0005675909682678279 
-0.000432526480756769 
-0.0005062526134910303 
-0.0006774093440026493 
-0.001082675356985914 
-0.0007624008743156793 
-0.001207209153261246 
-0.001002088480016095 
-0.000219006976049307 
-0.0008743428530012142 
-0.0006878035046575838 
-0.0006957689396499502 
-0.0002211951402261043 
3.834199710414519e-05 
0.0001802358006767477 
0.0004297664771813556 
0.001781273903258622 
-0.0009948800748415872 
0.0009806112008701815 
-0.0009377086572985363 
-0.0001025046970500913 
-0.0002495958347126277 
0.0004435737341079928 
0.0002238454352629928 
0.001301527412144456 
-0.0004633961473693429 
0.0009557216439913859 
0.000213294698968831 
-0.0009458364643100658 
-0.0005828908760792448 
0.0002284728036290012 
-0.0007216996476235888 
-0.001124766882029622 
0.0001226413512595751 
-0.000311892747183545 
5.319968813558124e-05 
-7.056197927579651e-05 
0.0006774500064718644 
-0.001115679041389272 
0.0002345625083723401 
-0.001139505209345986 
-0.0005492345366276086 
0.0004130261589056141 
0.0001843562049673287 
2.564728470856462e-05 
-0.0001275529730648798 
9.039226697204814e-05 
-0.0009563511137737482 
-7.103842674556408e-05 
0.0007348092869874776 
7.593104502423974e-05 
0.0008683973131780495 
0.0001249555723515759 
0.0002564680786522753 
0.0001807962249494245 
0.001485017221548877 
9.438530979108612e-05 
-3.424126129557697e-05 
-0.0003568083810642148 
0.001125021509577401 
-2.894089665137206e-05 
0.00053481497115974 
0.001776396184919785 
0.0003403392864805923 
-0.0007128552918271935 
-0.000989535092465384 
0.0003733784971306565 
8.622324684567465e-07 
0.0008417376329093631 
0.0001575481106243855 
0.0006044216163858852 
-0.000495379917031549 
1.041338335196652e-05 
0.0009882500144017118 
6.174809709368318e-05 
0.0008711012814396005 
-0.0002380223604610843 
0.0006279213432870515 
-0.0001965023017280683 
-0.0002155704151969189 
-0.0007015567250376102 
0.0009548140955500118 
0.0002036349973282399 
-0.001157294184127801 
-0.0008543051108468597 
0.0007325585602563962 
-0.0009911341282059251 
5.932386511949866e-05 
2.415433932643735e-05 
-0.0003229355189592177 
-0.0007771262638591987 
0.0003196316023155667 
5.550961686952167e-05 
-0.0009076225746608153 
0.001214775394184939 
2.414172459954007e-05 
-0.0006612636577210179 
0.0007276701145410244 
-0.0007411267294777325 
-0.0001980083474055571 
0.001026792531368251 
0.0004539309537714667 
-5.813894497787765e-05 
0.0002579130530109285 
0.0003451401575458637 
0.0007674152732014169 
-0.0004456185142987536 
0.0006702112610318272 
0.0006983625738805408 
0.001174433560625587 
0.0003620891249362015 
0.0008704760144900266 
-0.0001953599677972597 
-0.001039122960418624 
-2.173451810787491e-05 
-0.001480715145051226 
0.0002677008953646374 
-0.0007132681391047806 
0.001053008190644939 
-0.0009501264140963324 
-0.0004580829925873835 
-0.0001630782910201266 
-0.0001430771779999843 
-0.000656974584776868 
0.0008095373230153957 
3.022914420448202e-05 
-0.000389404421267146 
0.0008974547815378687 
-0.0006011775530892491 
-9.386349406526071e-05 
-0.000551695519818579 
4.223262558451579e-05 
-0.0005833069323214665 
-6.785088157680381e-05 
-0.0008988041313962541 
3.856277510380499e-05 
-0.0004659070914207179 
-0.00024877227630644 
0.0005213827565862617 
0.0007347475198278466 
-5.838950543509284e-05 
-0.0006166213053032727 
0.0006919483982795931 
-0.0007816591419893138 
-0.001127975499430749 
0.0003562384005799583 
0.0003689526106505528 
-9.816427489567434e-06 
0.0003329530295378153 
-0.0002487275112347277 
0.0004494559830802548 
-0.0005141319880317779 
-0.0002604943359830614 
0.0005115701046811527 
-0.0009127077963830082 
2.875130644340692e-05 
-0.000186438025331136 
0.0005107715975685657 
0.0005628835127576001 
0.0003814323729631154 
-0.0002667848212105166 
0.0005466097660827304 
3.205727909601614e-05 
-0.0009819544234752427 
0.0006721599827160759 
0.0005817349723643234 
0.0003272259636813706 
-0.0008084143250943017 
-0.001570244923456305 
0.0001842011856901018 
0.00056576457486965 
0.0004904210601181626 
-0.0006966161443608465 
0.0002914756736341182 
-0.0001494777966697946 
0.0001654407127852895 
0.0004473206653304805 
0.000602025916979149 
0.0005365268721167357 
-0.0001013631317549263 
0.001071173368144427 
0.0003540960039853809 
0.001101508230598092 
-0.0007523479806973213 
0.0004257222345787308 
0.0004455919490951933 
-0.0005369489971640091 
0.0005132547253757669 
0.001008332518366569 
0.001033732492213845 
0.000349429562842008 
-0.001194622370540573 
0.000277098052138045 
-5.495543361117311e-05 
-0.0009931395911255262 
0.000142789068459125 
3.929243456601814e-05 
-7.752816577067855e-05 
-0.0005613173385500768 
0.0005214480712120332 
-6.671850603039462e-05 
-0.0002595916256071893 
-0.0002179439174766259 
0.0001063006006838427 
-2.597601592895962e-05 
0.0005675909682678279 
-0.000432526480756769 
-0.0005062526134910303 
-0.0006774093440026493 
-0.001082675356985914 
-0.0007624008743156793 
-0.001207209153261246 
-0.001002088480016095 
-0.000219006976049307 
-0.0008743428530012142 
-0.0006878035046575838 
-0.0006957689396499502 
-0.0002211951402261043 
3.834199710414519e-05 
0.0001802358006767477 
0.0004297664771813556 
0.001781273903258622 
-0.0009948800748415872 
0.0009806112008701815 
-0.0009377086572985363 
-0.0001025046970500913 
-0.0002495958347126277 
0.0004435737341079928 
0.0002238454352629928 
0.001301527412144456 
-0.0004633961473693429 
0.0009557216439913859 
0.000213294698968831 
-0.0009458364643100658 
-0.0005828908760792448 
0.0002284728036290012 
-0.0007216996476235888 
-0.001124766882029622 
0.0001226413512595751 
-0.000311892747183545 
5.319968813558124e-05 
-7.056197927579651e-05 
0.0006774500064718644 
-0.001115679041389272 
0.0002345625083723401 
-0.001139505209345986 
-0.0005492345366276086 
0.0004130261589056141 
0.0001843562049673287 
2.564728470856462e-05 
-0.0001275529730648798 
9.039226697204814e-05 
-0.0009563511137737482 
-7.103842674556408e-05 
0.0007348092869874776 
7.593104502423974e-05 
0.0008683973131780495 
0.0001249555723515759 
0.0002564680786522753 
0.0001807962249494245 
0.001485017221548877 
9.438530979108612e-05 
-3.424126129557697e-05 
-0.0003568083810642148 
0.001125021509577401 
-2.894089665137206e-05 
0.00053481497115974 
0.001776396184919785 
0.0003403392864805923 
-0.0007128552918271935 
-0.000989535092465384 
0.0003733784971306565 
8.622324684567465e-07 
0.0008417376329093631 
0.0001575481106243855 
0.0006044216163858852 
-0.000495379917031549 
1.041338335196652e-05 
0.0009882500144017118 
6.174809709368318e-05 
0.0008711012814396005 
-0.0002380223604610843 
0.0006279213432870515 
-0.0001965023017280683 
-0.0002155704151969189 
-0.0007015567250376102 
0.0009548140955500118 
0.0002036349973282399 
-0.001157294184127801 
-0.0008543051108468597 
0.0007325585602563962 
-0.0009911341282059251 
5.932386511949866e-05 
2.415433932643735e-05 
-0.0003229355189592177 
-0.0007771262638591987 
0.0003196316023155667 
5.550961686952167e-05 
-0.0009076225746608153 
0.001214775394184939 
2.414172459954007e-05 
-0.0006612636577210179 
0.0007276701145410244 
-0.0007411267294777325 
-0.0001980083474055571 
0.001026792531368251 
0.0004539309537714667 
-5.813894497787765e-05 
0.0002579130530109285 
0.0003451401575458637 
0.0007674152732014169 
-0.0004456185142987536 
0.0006702112610318272 
0.0006983625738805408 
0.001174433560625587 
0.0003620891249362015 
0.0008704760144900266 
-0.0001953599677972597 
-0.001039122960418624 
-2.173451810787491e-05 
-0.001480715145051226 
0.0002677008953646374 
-0.0007132681391047806 
0.001053008190644939 
-0.0009501264140963324 
-0.0004580829925873835 
-0.0001630782910201266 
-0.0001430771779999843 
-0.000656974584776868 
0.0008095373230153957 
3.022914420448202e-05 
-0.000389404421267146 
0.0008974547815378687 
-0.0006011775530892491 
-9.386349406526071e-05 
-0.000551695519818579 
4.223262558451579e-05 
-0.0005833069323214665 
-6.785088157680381e-05 
-0.0008988041313962541 
3.856277510380499e-05 
-0.0004659070914207179 
-0.00024877227630644 
0.0005213827565862617 
0.0007347475198278466 
-5.838950543509284e-05 
-0.0006166213053032727 
0.0006919483982795931 
-0.0007816591419893138 
-0.001127975499430749 
0.0003562384005799583 
0.0003689526106505528 
-9.816427489567434e-06 
0.0003329530295378153 
-0.0002487275112347277 
0.0004494559830802548 
-0.0005141319880317779 
-0.0002604943359830614 
0.0005115701046811527 
-0.0009127077963830082 
2.875130644340692e-05 
-0.000186438025331136 
0.0005107715975685657 
0.0005628835127576001 
0.0003814323729631154 
-0.0002667848212105166 
0.0005466097660827304 
3.205727909601614e-05 
-0.0009819544234752427 
0.0006721599827160759 
0.0005817349723643234 
0.0003272259636813706 
-0.0008084143250943017 
-0.001570244923456305 
0.0001842011856901018 
0.00056576457486965 
0.0004904210601181626 
-0.0006966161443608465 
0.0002914756736341182 
-0.0001494777966697946 
0.0001654407127852895 
0.0004473206653304805 
0.000602025916979149 
0.0005365268721167357 
-0.0001013631317549263 
0.001071173368144427 
0.0003540960039853809 
0.001101508230598092 
-0.0007523479806973213 
0.0004257222345787308 
0.0004455919490951933 
-0.0005369489971640091 
0.0005132547253757669 
0.001008332518366569 
0.001033732492213845 
0.000349429562842008 
-0.001194622370540573 
0.000277098052138045 
-5.495543361117311e-05 
-0.0009931395911255262 
0.000142789068459125 
3.929243456601814e-05 
-7.752816577067855e-05 
-0.0005613173385500768 
0.0005214480712120332 
-6.671850603039462e-05 
-0.0002595916256071893 
-0.0002179439174766259 
0.0001063006006838427 
-2.597601592895962e-05 
0.0005675909682678279 
-0.000432526480756769 
-0.0005062526134910303 
-0.0006774093440026493 
-0.001082675356985914 
-0.0007624008743156793 
-0.001207209153261246 
-0.001002088480016095 
-0.000219006976049307 
-0.0008743428530012142 
-0.0006878035046575838 
-0.0006957689396499502 
-0.0002211951402261043 
3.834199710414519e-05 
0.0001802358006767477 
0.0004297664771813556 
0.001781273903258622 
-0.0009948800748415872 
0.0009806112008701815 
-0.0009377086572985363 
-0.0001025046970500913 
-0.0002495958347126277 
0.0004435737341079928 
0.0002238454352629928 
0.001301527412144456 
-0.0004633961473693429 
0.0009557216439913859 
0.000213294698968831 
-0.0009458364643100658 
-0.0005828908760792448 
0.0002284728036290012 
-0.0007216996476235888 
-0.001124766882029622 
0.0001226413512595751 
-0.000311892747183545 
5.319968813558124e-05 
-7.056197927579651e-05 
0.0006774500064718644 
-0.001115679041389272 
0.0002345625083723401 
-0.001139505209345986 
-0.0005492345366276086 
0.0004130261589056141 
0.0001843562049673287 
2.564728470856462e-05 
-0.0001275529730648798 
9.039226697204814e-05 
-0.0009563511137737482 
-7.103842674556408e-05 
0.0007348092869874776 
7.593104502423974e-05 
0.0008683973131780495 
0.0001249555723515759 
0.0002564680786522753 
0.0001807962249494245 
0.001485017221548877 
9.438530979108612e-05 
-3.424126129557697e-05 
-0.0003568083810642148 
0.001125021509577401 
-2.894089665137206e-05 
0.00053481497115974 
0.001776396184919785 
0.0003403392864805923 
-0.0007128552918271935 
-0.000989535092465384 
0.0003733784971306565 
8.622324684567465e-07 
0.0008417376329093631 
0.0001575481106243855 
0.0006044216163858852 
-0.000495379917031549 
1.041338335196652e-05 
0.0009882500144017118 
6.174809709368318e-05 
0.0008711012814396005 
-0.0002380223604610843 
0.0006279213432870515 
-0.0001965023017280683 
-0.0002155704151969189 
-0.0007015567250376102 
0.0009548140955500118 
0.0002036349973282399 
-0.001157294184127801 
-0.0008543051108468597 
0.0007325585602563962 
-0.0009911341282059251 
5.932386511949866e-05 
2.415433932643735e-05 
-0.0003229355189592177 
-0.0007771262638591987 
0.0003196316023155667 
5.550961686952167e-05 
-0.0009076225746608153 
0.001214775394184939 
2.414172459954007e-05 
-0.0006612636577210179 
0.0007276701145410244 
-0.0007411267294777325 
-0.0001980083474055571 
0.001026792531368251 
0.0004539309537714667 
-5.813894497787765e-05 
0.0002579130530109285 
0.0003451401575458637 
0.0007674152732014169 
-0.0004456185142987536 
0.0006702112610318272 
0.0006983625738805408 
0.001174433560625587 
0.0003620891249362015 
0.0008704760144900266 
-0.0001953599677972597 
-0.001039122960418624 
-2.173451810787491e-05 
-0.001480715145051226 
0.0002677008953646374 
-0.0007132681391047806 
0.001053008190644939 
-0.0009501264140963324 
-0.0004580829925873835 
-0.0001630782910201266 
-0.0001430771779999843 
-0.000656974584776868 
0.0008095373230153957 
3.022914420448202e-05 
-0.000389404421267146 
0.0008974547815378687 
-0.0006011775530892491 
-9.386349406526071e-05 
-0.000551695519818579 
4.223262558451579e-05 
-0.0005833069323214665 
-6.785088157680381e-05 
-0.0008988041313962541 
3.856277510380499e-05 
-0.0004659070914207179 
-0.00024877227630644 
0.0005213827565862617 
0.0007347475198278466 
-5.838950543509284e-05 
-0.0006166213053032727 
0.0006919483982795931 
-0.0007816591419893138 
-0.001127975499430749 
0.0003562384005799583 
0.0003689526106505528 
-9.816427489567434e-06 
0.0003329530295378153 
-0.0002487275112347277 
0.0004494559830802548 
-0.0005141319880317779 
-0.0002604943359830614 
0.0005115701046811527 
-0.0009127077963830082 
2.875130644340692e-05 
-0.000186438025331136 
0.0005107715975685657 
0.0005628835127576001 
0.0003814323729631154 
-0.0002667848212105166 
0.0005466097660827304 
3.205727909601614e-05 
-0.0009819544234752427 
0.0006721599827160759 
0.0005817349723643234 
0.0003272259636813706 
-0.0008084143250943017 
-0.001570244923456305 
0.0001842011856901018 
0.00056576457486965 
0.0004904210601181626 
-0.0006966161443608465 
0.0002914756736341182 
-0.0001494777966697946 
0.0001654407127852895 
0.0004473206653304805 
0.000602025916979149 
0.0005365268721167357 
-0.0001013631317549263 
0.001071173368144427 
0.0003540960039853809 
0.001101508230598092 
-0.0007523479806973213 
0.0004257222345787308 
0.0004455919490951933 
-0.0005369489971640091 
0.0005132547253757669 
0.001008332518366569 
0.001033732492213845 
0.000349429562842008 
-0.001194622370540573 
0.000277098052138045 
-5.495543361117311e-05 
-0.0009931395911255262 
0.000142789068459125 
3.929243456601814e-05 
-7.752816577067855e-05 
-0.0005613173385500768 
0.0005214480712120332 
-6.671850603039462e-05 
-0.0002595916256071893 
-0.0002179439174766259 
0.0001063006006838427 
-2.597601592895962e-05 
0.0005675909682678279 
-0.000432526480756769 
-0.0005062526134910303 
-0.0006774093440026493 
-0.001082675356985914 
-0.0007624008743156793 
-0.001207209153261246 
-0.001002088480016095 
-0.000219006976049307 
-0.0008743428530012142 
-0.0006878035046575838 
-0.0006957689396499502 
-0.0002211951402261043 
3.834199710414519e-05 
0.0001802358006767477 
0.0004297664771813556 
0.001781273903258622 
-0.0009948800748415872 
0.0009806112008701815 
-0.0009377086572985363 
-0.0001025046970500913 
-0.0002495958347126277 
0.0004435737341079928 
0.0002238454352629928 
0.001301527412144456 
-0.0004633961473693429 
0.0009557216439913859 
0.000213294698968831 
-0.0009458364643100658 
-0.0005828908760792448 
0.0002284728036290012 
-0.0007216996476235888 
-0.001124766882029622 
0.0001226413512595751 
-0.000311892747183545 
5.319968813558124e-05 
-7.056197927579651e-05 
0.0006774500064718644 
-0.001115679041389272 
0.0002345625083723401 
-0.001139505209345986 
-0.0005492345366276086 
0.0004130261589056141 
0.0001843562049673287 
2.564728470856462e-05 
-0.0001275529730648798 
9.039226697204814e-05 
-0.0009563511137737482 
-7.103842674556408e-05 
0.0007348092869874776 
7.593104502423974e-05 
0.0008683973131780495 
0.0001249555723515759 
0.0002564680786522753 
0.0001807962249494245 
0.001485017221548877 
9.438530979108612e-05 
-3.424126129557697e-05 
-0.0003568083810642148 
0.001125021509577401 
-2.894089665137206e-05 
0.00053481497115974 
0.001776396184919785 
0.0003403392864805923 
-0.0007128552918271935 
-0.000989535092465384 
0.0003733784971306565 
8.622324684567465e-07 
0.0008417376329093631 
0.0001575481106243855 
0.0006044216163858852 
-0.000495379917031549 
1.041338335196652e-05 
0.0009882500144017118 
6.174809709368318e-05 
0.0008711012814396005 
-0.0002380223604610843 
0.0006279213432870515 
-0.0001965023017280683 
-0.0002155704151969189 
-0.0007015567250376102 
0.0009548140955500118 
0.0002036349973282399 
-0.001157294184127801 
-0.0008543051108468597 
0.0007325585602563962 
-0.0009911341282059251 
5.932386511949866e-05 
2.415433932643735e-05 
-0.0003229355189592177 
-0.0007771262638591987 
0.0003196316023155667 
5.550961686952167e-05 
-0.0009076225746608153 
0.001214775394184939 
2.414172459954007e-05 
-0.0006612636577210179 
0.0007276701145410244 
-0.0007411267294777325 
-0.0001980083474055571 
0.001026792531368251 
0.0004539309537714667 
-5.813894497787765e-05 
0.0002579130530109285 
0.0003451401575458637 
0.0007674152732014169 
-0.0004456185142987536 
0.0006702112610318272 
0.0006983625738805408 
0.001174433560625587 
0.0003620891249362015 
0.0008704760144900266 
-0.0001953599677972597 
-0.001039122960418624 
-2.173451810787491e-05 
-0.001480715145051226 
0.0002677008953646374 
-0.0007132681391047806 
0.001053008190644939 
-0.0009501264140963324 
-0.0004580829925873835 
-0.0001630782910201266 
-0.0001430771779999843 
-0.000656974584776868 
0.0008095373230153957 
3.022914420448202e-05 
-0.000389404421267146 
0.0008974547815378687 
-0.0006011775530892491 
-9.386349406526071e-05 
-0.000551695519818579 
4.223262558451579e-05 
-0.0005833069323214665 
-6.785088157680381e-05 
-0.0008988041313962541 
3.856277510380499e-05 
-0.0004659070914207179 
-0.00024877227630644 
0.0005213827565862617 
0.0007347475198278466 
-5.838950543509284e-05 
-0.0006166213053032727 
0.0006919483982795931 
-0.0007816591419893138 
-0.001127975499430749 
0.0003562384005799583 
0.0003689526106505528 
-9.816427489567434e-06 
0.0003329530295378153 
-0.0002487275112347277 
0.0004494559830802548 
-0.0005141319880317779 
-0.0002604943359830614 
0.0005115701046811527 
-0.0009127077963830082 
2.875130644340692e-05 
-0.000186438025331136 
0.0005107715975685657 
0.0005628835127576001 
0.0003814323729631154 
-0.0002667848212105166 
0.0005466097660827304 
3.205727909601614e-05 
-0.0009819544234752427 
0.0006721599827160759 
0.0005817349723643234 
0.0003272259636813706 
-0.0008084143250943017 
-0.001570244923456305 
0.0001842011856901018 
0.00056576457486965 
0.0004904210601181626 
-0.0006966161443608465 
0.0002914756736341182 
-0.0001494777966697946 
0.0001654407127852895 
0.0004473206653304805 
0.000602025916979149 
0.0005365268721167357 
-0.0001013631317549263 
0.001071173368144427 
0.0003540960039853809 
0.001101508230598092 
-0.0007523479806973213 
0.0004257222345787308 
0.0004455919490951933 
-0.0005369489971640091 
0.0005132547253757669 
0.001008332518366569 
0.001033732492213845 
0.000349429562842008 
-0.001194622370540573 
0.000277098052138045 
-5.495543361117311e-05 
-0.0009931395911255262 
0.000142789068459125 
3.929243456601814e-05 
-7.752816577067855e-05 
-0.0005613173385500768 
0.0005214480712120332 
-6.671850603039462e-05 
-0.0002595916256071893 
-0.0002179439174766259 
0.0001063006006838427 
-2.597601592895962e-05 
0.0005675909682678279 
-0.000432526480756769 
-0.0005062526134910303 
-0.0006774093440026493 
-0.001082675356985914 
-0.0007624008743156793 
-0.001207209153261246 
-0.001002088480016095 
-0.000219006976049307 
-0.0008743428530012142 
-0.0006878035046575838 
-0.0006957689396499502 
-0.0002211951402261043 
3.834199710414519e-05 
0.0001802358006767477 
0.0004297664771813556 
0.001781273903258622 
-0.0009948800748415872 
0.0009806112008701815 
-0.0009377086572985363 
-0.0001025046970500913 
-0.0002495958347126277 
0.0004435737341079928 
0.0002238454352629928 
0.001301527412144456 
-0.0004633961473693429 
0.0009557216439913859 
0.000213294698968831 
-0.0009458364643100658 
-0.0005828908760792448 
0.0002284728036290012 
-0.0007216996476235888 
-0.001124766882029622 
0.0001226413512595751 
-0.000311892747183545 
5.319968813558124e-05 
-7.056197927579651e-05 
0.0006774500064718644 
-0.001115679041389272 
0.0002345625083723401 
-0.001139505209345986 
-0.0005492345366276086 
0.0004130261589056141 
0.0001843562049673287 
2.564728470856462e-05 
-0.0001275529730648798 
9.039226697204814e-05 
-0.0009563511137737482 
-7.103842674556408e-05 
0.0007348092869874776 
7.593104502423974e-05 
0.0008683973131780495 
0.0001249555723515759 
0.0002564680786522753 
0.0001807962249494245 
0.001485017221548877 
9.438530979108612e-05 
-3.424126129557697e-05 
-0.0003568083810642148 
0.001125021509577401 
-2.894089665137206e-05 
0.00053481497115974 
0.001776396184919785 
0.0003403392864805923 
-0.0007128552918271935 
-0.000989535092465384 
0.0003733784971306565 
8.622324684567465e-07 
0.0008417376329093631 
0.0001575481106243855 
0.0006044216163858852 
-0.000495379917031549 
1.041338335196652e-05 
0.0009882500144017118 
6.174809709368318e-05 
0.0008711012814396005 
-0.0002380223604610843 
0.0006279213432870515 
-0.0001965023017280683 
-0.0002155704151969189 
-0.0007015567250376102 
0.0009548140955500118 
0.0002036349973282399 
-0.001157294184127801 
-0.0008543051108468597 
0.0007325585602563962 
-0.0009911341282059251 
5.932386511949866e-05 
2.415433932643735e-05 
-0.0003229355189592177 
-0.0007771262638591987 
0.0003196316023155667 
5.550961686952167e-05 
-0.0009076225746608153 
0.001214775394184939 
2.414172459954007e-05 
-0.0006612636577210179 
0.0007276701145410244 
-0.0007411267294777325 
-0.0001980083474055571 
0.001026792531368251 
0.0004539309537714667 
-5.813894497787765e-05 
0.0002579130530109285 
0.0003451401575458637 
0.0007674152732014169 
-0.0004456185142987536 
0.0006702112610318272 
0.0006983625738805408 
0.001174433560625587 
0.0003620891249362015 
0.0008704760144900266 
-0.0001953599677972597 
-0.001039122960418624 
-2.173451810787491e-05 
-0.001480715145051226 
0.0002677008953646374 
-0.0007132681391047806 
0.001053008190644939 
-0.0009501264140963324 
-0.0004580829925873835 
-0.0001630782910201266 
-0.0001430771779999843 
-0.000656974584776868 
0.0008095373230153957 
3.022914420448202e-05 
-0.000389404421267146 
0.0008974547815378687 
-0.0006011775530892491 
-9.386349406526071e-05 
-0.000551695519818579 
4.223262558451579e-05 
-0.0005833069323214665 
-6.785088157680381e-05 
-0.0008988041313962541 
3.856277510380499e-05 
-0.0004659070914207179 
-0.00024877227630644 
0.0005213827565862617 
0.0007347475198278466 
-5.838950543509284e-05 
-0.0006166213053032727 
0.0006919483982795931 
-0.0007816591419893138 
-0.001127975499430749 
0.0003562384005799583 
0.0003689526106505528 
-9.816427489567434e-06 
0.0003329530295378153 
-0.0002487275112347277 
0.0004494559830802548 
-0.0005141319880317779 
-0.0002604943359830614 
0.0005115701046811527 
-0.0009127077963830082 
2.875130644340692e-05 
-0.000186438025331136 
0.0005107715975685657 
0.0005628835127576001 
0.0003814323729631154 
-0.0002667848212105166 
0.0005466097660827304 
3.205727909601614e-05 
-0.0009819544234752427 
0.0006721599827160759 
0.0005817349723643234 
0.0003272259636813706 
-0.0008084143250943017 
-0.001570244923456305 
0.0001842011856901018 
0.00056576457486965 
0.0004904210601181626 
-0.0006966161443608465 
0.0002914756736341182 
-0.0001494777966697946 
0.0001654407127852895 
0.0004473206653304805 
0.000602025916979149 
0.0005365268721167357 
-0.0001013631317549263 
0.001071173368144427 
0.0003540960039853809 
0.001101508230598092 
-0.0007523479806973213 
0.0004257222345787308 
0.0004455919490951933 
-0.0005369489971640091 
0.0005132547253757669 
0.001008332518366569 
0.001033732492213845 
0.000349429562842008 
-0.001194622370540573 
0.000277098052138045 
-5.495543361117311e-05 
-0.0009931395911255262 
0.000142789068459125 
3.929243456601814e-05 
-7.752816577067855e-05 
-0.0005613173385500768 
0.0005214480712120332 
-6.671850603039462e-05 
-0.0002595916256071893 
-0.0002179439174766259 
0.0001063006006838427 
-2.597601592895962e-05 
0.0005675909682678279 
-0.000432526480756769 
-0.0005062526134910303 
-0.0006774093440026493 
-0.001082675356985914 
-0.0007624008743156793 
-0.001207209153261246 
-0.001002088480016095 
-0.000219006976049307 
-0.0008743428530012142 
-0.0006878035046575838 
-0.0006957689396499502 
-0.0002211951402261043 
3.834199710414519e-05 
0.0001802358006767477 
0.0004297664771813556 
0.001781273903258622 
-0.0009948800748415872 
0.0009806112008701815 
-0.0009377086572985363 
-0.0001025046970500913 
-0.0002495958347126277 
0.0004435737341079928 
0.0002238454352629928 
0.001301527412144456 
-0.0004633961473693429 
0.0009557216439913859 
0.000213294698968831 
-0.0009458364643100658 
-0.0005828908760792448 
0.0002284728036290012 
-0.0007216996476235888 
-0.001124766882029622 
0.0001226413512595751 
-0.000311892747183545 
5.319968813558124e-05 
-7.056197927579651e-05 
0.0006774500064718644 
-0.001115679041389272 
0.0002345625083723401 
-0.001139505209345986 
-0.0005492345366276086 
0.0004130261589056141 
0.0001843562049673287 
2.564728470856462e-05 
-0.0001275529730648798 
9.039226697204814e-05 
-0.0009563511137737482 
-7.103842674556408e-05 
0.0007348092869874776 
7.593104502423974e-05 
0.0008683973131780495 
0.0001249555723515759 
0.0002564680786522753 
0.0001807962249494245 
0.001485017221548877 
9.438530979108612e-05 
-3.424126129557697e-05 
-0.0003568083810642148 
0.001125021509577401 
-2.894089665137206e-05 
0.00053481497115974 
0.001776396184919785 
0.0003403392864805923 
-0.0007128552918271935 
-0.000989535092465384 
0.0003733784971306565 
8.622324684567465e-07 
0.0008417376329093631 
0.0001575481106243855 
0.0006044216163858852 
-0.000495379917031549 
1.041338335196652e-05 
0.0009882500144017118 
6.174809709368318e-05 
0.0008711012814396005 
-0.0002380223604610843 
0.0006279213432870515 
-0.0001965023017280683 
-0.0002155704151969189 
-0.0007015567250376102 
0.0009548140955500118 
0.0002036349973282399 
-0.001157294184127801 
-0.0008543051108468597 
0.0007325585602563962 
-0.0009911341282059251 
5.932386511949866e-05 
2.415433932643735e-05 
-0.0003229355189592177 
-0.0007771262638591987 
0.0003196316023155667 
5.550961686952167e-05 
-0.0009076225746608153 
0.001214775394184939 
2.414172459954007e-05 
-0.0006612636577210179 
0.0007276701145410244 
-0.0007411267294777325 
-0.0001980083474055571 
0.001026792531368251 
0.0004539309537714667 
-5.813894497787765e-05 
0.0002579130530109285 
0.0003451401575458637 
0.0007674152732014169 
-0.0004456185142987536 
0.0006702112610318272 
0.0006983625738805408 
0.001174433560625587 
0.0003620891249362015 
0.0008704760144900266 
-0.0001953599677972597 
-0.001039122960418624 
-2.173451810787491e-05 
-0.001480715145051226 
0.0002677008953646374 
-0.0007132681391047806 
0.001053008190644939 
-0.0009501264140963324 
-0.0004580829925873835 
-0.0001630782910201266 
-0.0001430771779999843 
-0.000656974584776868 
0.0008095373230153957 
3.022914420448202e-05 
-0.000389404421267146 
0.0008974547815378687 
-0.0006011775530892491 
-9.386349406526071e-05 
-0.000551695519818579 
4.223262558451579e-05 
-0.0005833069323214665 
-6.785088157680381e-05 
-0.0008988041313962541 
3.856277510380499e-05 
-0.0004659070914207179 
-0.00024877227630644 
0.0005213827565862617 
0.0007347475198278466 
-5.838950543509284e-05 
-0.0006166213053032727 
0.0006919483982795931 
-0.0007816591419893138 
-0.001127975499430749 
0.0003562384005799583 
0.0003689526106505528 
-9.816427489567434e-06 
0.0003329530295378153 
-0.0002487275112347277 
0.0004494559830802548 
-0.0005141319880317779 
-0.0002604943359830614 
0.0005115701046811527 
-0.0009127077963830082 
2.875130644340692e-05 
-0.000186438025331136 
0.0005107715975685657 
0.0005628835127576001 
0.0003814323729631154 
-0.0002667848212105166 
0.0005466097660827304 
3.205727909601614e-05 
-0.0009819544234752427 
0.0006721599827160759 
0.0005817349723643234 
0.0003272259636813706 
-0.0008084143250943017 
-0.001570244923456305 
0.0001842011856901018 
0.00056576457486965 
0.0004904210601181626 
-0.0006966161443608465 
0.0002914756736341182 
-0.0001494777966697946 
0.0001654407127852895 
0.0004473206653304805 
0.000602025916979149 
0.0005365268721167357 
-0.0001013631317549263 
0.001071173368144427 
0.0003540960039853809 
0.001101508230598092 
-0.0007523479806973213 
0.0004257222345787308 
0.0004455919490951933 
-0.0005369489971640091 
0.0005132547253757669 
0.001008332518366569 
0.001033732492213845 
0.000349429562842008 
-0.001194622370540573 
0.000277098052138045 
-5.495543361117311e-05 
-0.0009931395911255262 
0.000142789068459125 
3.929243456601814e-05 
-7.752816577067855e-05 
-0.0005613173385500768 
0.0005214480712120332 
-6.671850603039462e-05 
-0.0002595916256071893 
-0.0002179439174766259 
0.0001063006006838427 
-2.597601592895962e-05 
0.0005675909682678279 
-0.000432526480756769 
-0.0005062526134910303 
-0.0006774093440026493 
-0.001082675356985914 
-0.0007624008743156793 
-0.001207209153261246 
-0.001002088480016095 
-0.000219006976049307 
-0.0008743428530012142 
-0.0006878035046575838 
-0.0006957689396499502 
-0.0002211951402261043 
3.834199710414519e-05 
0.0001802358006767477 
0.0004297664771813556 
0.001781273903258622 
-0.0009948800748415872 
0.0009806112008701815 
-0.0009377086572985363 
-0.0001025046970500913 
-0.0002495958347126277 
0.0004435737341079928 
0.0002238454352629928 
0.001301527412144456 
-0.0004633961473693429 
0.0009557216439913859 
0.000213294698968831 
-0.0009458364643100658 
-0.0005828908760792448 
0.0002284728036290012 
-0.0007216996476235888 
-0.001124766882029622 
0.0001226413512595751 
-0.000311892747183545 
5.319968813558124e-05 
-7.056197927579651e-05 
0.0006774500064718644 
-0.001115679041389272 
0.0002345625083723401 
-0.001139505209345986 
-0.0005492345366276086 
0.0004130261589056141 
0.0001843562049673287 
2.564728470856462e-05 
-0.0001275529730648798 
9.039226697204814e-05 
-0.0009563511137737482 
-7.103842674556408e-05 
0.0007348092869874776 
7.593104502423974e-05 
0.0008683973131780495 
0.0001249555723515759 
0.0002564680786522753 
0.0001807962249494245 
0.001485017221548877 
9.438530979108612e-05 
-3.424126129557697e-05 
-0.0003568083810642148 
0.001125021509577401 
-2.894089665137206e-05 
0.00053481497115974 
0.001776396184919785 
0.0003403392864805923 
-0.0007128552918271935 
-0.000989535092465384 
0.0003733784971306565 
8.622324684567465e-07 
0.0008417376329093631 
0.0001575481106243855 
0.0006044216163858852 
-0.000495379917031549 
1.041338335196652e-05 
0.0009882500144017118 
6.174809709368318e-05 
0.0008711012814396005 
-0.0002380223604610843 
0.0006279213432870515 
-0.0001965023017280683 
-0.0002155704151969189 
-0.0007015567250376102 
0.0009548140955500118 
0.0002036349973282399 
-0.001157294184127801 
-0.0008543051108468597 
0.0007325585602563962 
-0.0009911341282059251 
5.932386511949866e-05 
2.415433932643735e-05 
-0.0003229355189592177 
-0.0007771262638591987 
0.0003196316023155667 
5.550961686952167e-05 
-0.0009076225746608153 
0.001214775394184939 
2.414172459954007e-05 
-0.0006612636577210179 
0.0007276701145410244 
-0.0007411267294777325 
-0.0001980083474055571 
0.001026792531368251 
0.0004539309537714667 
-5.813894497787765e-05 
0.0002579130530109285 
0.0003451401575458637 
0.0007674152732014169 
-0.0004456185142987536 
0.0006702112610318272 
0.0006983625738805408 
0.001174433560625587 
0.0003620891249362015 
0.0008704760144900266 
-0.0001953599677972597 
-0.001039122960418624 
-2.173451810787491e-05 
-0.001480715145051226 
0.0002677008953646374 
-0.0007132681391047806 
0.001053008190644939 
-0.0009501264140963324 
-0.0004580829925873835 
-0.0001630782910201266 
-0.0001430771779999843 
-0.000656974584776868 
0.0008095373230153957 
3.022914420448202e-05 
-0.000389404421267146 
0.0008974547815378687 
-0.0006011775530892491 
-9.386349406526071e-05 
-0.000551695519818579 
4.223262558451579e-05 
-0.0005833069323214665 
-6.785088157680381e-05 
-0.0008988041313962541 
3.856277510380499e-05 
-0.0004659070914207179 
-0.00024877227630644 
0.0005213827565862617 
0.0007347475198278466 
-5.838950543509284e-05 
-0.0006166213053032727 
0.0006919483982795931 
-0.0007816591419893138 
-0.001127975499430749 
0.0003562384005799583 
0.0003689526106505528 
-9.816427489567434e-06 
0.0003329530295378153 
-0.0002487275112347277 
0.0004494559830802548 
-0.0005141319880317779 
-0.0002604943359830614 
0.0005115701046811527 
-0.0009127077963830082 
2.875130644340692e-05 
-0.000186438025331136 
0.0005107715975685657 
0.0005628835127576001 
0.0003814323729631154 
-0.0002667848212105166 
0.0005466097660827304 
3.205727909601614e-05 
-0.0009819544234752427 
0.0006721599827160759 
0.0005817349723643234 
0.0003272259636813706 
-0.0008084143250943017 
-0.001570244923456305 
0.0001842011856901018 
0.00056576457486965 
0.0004904210601181626 
-0.0006966161443608465 
0.0002914756736341182 
-0.0001494777966697946 
0.0001654407127852895 
0.0004473206653304805 
0.000602025916979149 
0.0005365268721167357 
-0.0001013631317549263 
0.001071173368144427 
0.0003540960039853809 
0.001101508230598092 
-0.0007523479806973213 
0.0004257222345787308 
0.0004455919490951933 
-0.0005369489971640091 
0.0005132547253757669 
0.001008332518366569 
0.001033732492213845 
0.000349429562842008 
-0.001194622370540573 
0.000277098052138045 
-5.495543361117311e-05 
-0.0009931395911255262 
0.000142789068459125 
3.929243456601814e-05 
-7.752816577067855e-05 
-0.0005613173385500768 
0.0005214480712120332 
-6.671850603039462e-05 
-0.0002595916256071893 
-0.0002179439174766259 
0.0001063006006838427 
-2.597601592895962e-05 
0.0005675909682678279 
-0.000432526480756769 
-0.0005062526134910303 
-0.0006774093440026493 
-0.001082675356985914 
-0.0007624008743156793 
-0.001207209153261246 
-0.001002088480016095 
-0.000219006976049307 
-0.0008743428530012142 
-0.0006878035046575838 
-0.0006957689396499502 
-0.0002211951402261043 
3.834199710414519e-05 
0.0001802358006767477 
0.0004297664771813556 
0.001781273903258622 
-0.0009948800748415872 
0.0009806112008701815 
-0.0009377086572985363 
-0.0001025046970500913 
-0.0002495958347126277 
0.0004435737341079928 
0.0002238454352629928 
0.001301527412144456 
-0.0004633961473693429 
0.0009557216439913859 
0.000213294698968831 
-0.0009458364643100658 
-0.0005828908760792448 
0.0002284728036290012 
-0.0007216996476235888 
-0.001124766882029622 
0.0001226413512595751 
-0.000311892747183545 
5.319968813558124e-05 
-7.056197927579651e-05 
0.0006774500064718644 
-0.001115679041389272 
0.0002345625083723401 
-0.001139505209345986 
-0.0005492345366276086 
0.0004130261589056141 
0.0001843562049673287 
2.564728470856462e-05 
-0.0001275529730648798 
9.039226697204814e-05 
-0.0009563511137737482 
-7.103842674556408e-05 
0.0007348092869874776 
7.593104502423974e-05 
0.0008683973131780495 
0.0001249555723515759 
0.0002564680786522753 
0.0001807962249494245 
0.001485017221548877 
9.438530979108612e-05 
-3.424126129557697e-05 
-0.0003568083810642148 
0.001125021509577401 
-2.894089665137206e-05 
0.00053481497115974 
0.001776396184919785 
0.0003403392864805923 
-0.0007128552918271935 
-0.000989535092465384 
0.0003733784971306565 
8.622324684567465e-07 
0.0008417376329093631 
0.0001575481106243855 
0.0006044216163858852 
-0.000495379917031549 
1.041338335196652e-05 
0.0009882500144017118 
6.174809709368318e-05 
0.0008711012814396005 
-0.0002380223604610843 
0.0006279213432870515 
-0.0001965023017280683 
-0.0002155704151969189 
-0.0007015567250376102 
0.0009548140955500118 
0.0002036349973282399 
-0.001157294184127801 
-0.0008543051108468597 
0.0007325585602563962 
-0.0009911341282059251 
5.932386511949866e-05 
2.415433932643735e-05 
-0.0003229355189592177 
-0.0007771262638591987 
0.0003196316023155667 
5.550961686952167e-05 
-0.0009076225746608153 
0.001214775394184939 
2.414172459954007e-05 
-0.0006612636577210179 
0.0007276701145410244 
-0.0007411267294777325 
-0.0001980083474055571 
0.001026792531368251 
0.0004539309537714667 
-5.813894497787765e-05 
0.0002579130530109285 
0.0003451401575458637 
0.0007674152732014169 
-0.0004456185142987536 
0.0006702112610318272 
0.0006983625738805408 
0.001174433560625587 
0.0003620891249362015 
0.0008704760144900266 
-0.0001953599677972597 
-0.001039122960418624 
-2.173451810787491e-05 
-0.001480715145051226 
0.0002677008953646374 
-0.0007132681391047806 
0.001053008190644939 
-0.0009501264140963324 
-0.0004580829925873835 
-0.0001630782910201266 
-0.0001430771779999843 
-0.000656974584776868 
0.0008095373230153957 
3.022914420448202e-05 
-0.000389404421267146 
0.0008974547815378687 
-0.0006011775530892491 
-9.386349406526071e-05 
-0.000551695519818579 
4.223262558451579e-05 
-0.0005833069323214665 
-6.785088157680381e-05 
-0.0008988041313962541 
3.856277510380499e-05 
-0.0004659070914207179 
-0.00024877227630644 
0.0005213827565862617 
0.0007347475198278466 
-5.838950543509284e-05 
-0.0006166213053032727 
0.0006919483982795931 
-0.0007816591419893138 
-0.001127975499430749 
0.0003562384005799583 
0.0003689526106505528 
-9.816427489567434e-06 
0.0003329530295378153 
-0.0002487275112347277 
0.0004494559830802548 
-0.0005141319880317779 
-0.0002604943359830614 
0.0005115701046811527 
-0.0009127077963830082 
2.875130644340692e-05 
-0.000186438025331136 
0.0005107715975685657 
0.0005628835127576001 
0.0003814323729631154 
-0.0002667848212105166 
0.0005466097660827304 
3.205727909601614e-05 
-0.0009819544234752427 
0.0006721599827160759 
0.0005817349723643234 
0.0003272259636813706 
-0.0008084143250943017 
-0.001570244923456305 
0.0001842011856901018 
0.00056576457486965 
0.0004904210601181626 
-0.0006966161443608465 
0.0002914756736341182 
-0.0001494777966697946 
0.0001654407127852895 
0.0004473206653304805 
0.000602025916979149 
0.0005365268721167357 
-0.0001013631317549263 
0.001071173368144427 
0.0003540960039853809 
0.001101508230598092 
-0.0007523479806973213 
0.0004257222345787308 
0.0004455919490951933 
-0.0005369489971640091 
0.0005132547253757669 
0.001008332518366569 
0.001033732492213845 
0.000349429562842008 
-0.001194622370540573 
0.000277098052138045 
-5.495543361117311e-05 
-0.0009931395911255262 
0.000142789068459125 
3.929243456601814e-05 
-7.752816577067855e-05 
-0.0005613173385500768 
0.0005214480712120332 
-6.671850603039462e-05 
-0.0002595916256071893 
-0.0002179439174766259 
0.0001063006006838427 
-2.597601592895962e-05 
0.0005675909682678279 
-0.000432526480756769 
-0.0005062526134910303 
-0.0006774093440026493 
-0.001082675356985914 
-0.0007624008743156793 
-0.001207209153261246 
-0.001002088480016095 
-0.000219006976049307 
-0.0008743428530012142 
-0.0006878035046575838 
-0.0006957689396499502 
-0.0002211951402261043 
3.834199710414519e-05 
0.0001802358006767477 
0.0004297664771813556 
0.001781273903258622 
-0.0009948800748415872 
0.0009806112008701815 
-0.0009377086572985363 
-0.0001025046970500913 
-0.0002495958347126277 
0.0004435737341079928 
0.0002238454352629928 
0.001301527412144456 
-0.0004633961473693429 
0.0009557216439913859 
0.000213294698968831 
-0.0009458364643100658 
-0.0005828908760792448 
0.0002284728036290012 
-0.0007216996476235888 
-0.001124766882029622 
0.0001226413512595751 
-0.000311892747183545 
5.319968813558124e-05 
-7.056197927579651e-05 
0.0006774500064718644 
-0.001115679041389272 
0.0002345625083723401 
-0.001139505209345986 
-0.0005492345366276086 
0.0004130261589056141 
0.0001843562049673287 
2.564728470856462e-05 
-0.0001275529730648798 
9.039226697204814e-05 
-0.0009563511137737482 
-7.103842674556408e-05 
0.0007348092869874776 
7.593104502423974e-05 
0.0008683973131780495 
0.0001249555723515759 
0.0002564680786522753 
0.0001807962249494245 
0.001485017221548877 
9.438530979108612e-05 
-3.424126129557697e-05 
-0.0003568083810642148 
0.001125021509577401 
-2.894089665137206e-05 
0.00053481497115974 
0.001776396184919785 
0.0003403392864805923 
-0.0007128552918271935 
-0.000989535092465384 
0.0003733784971306565 
8.622324684567465e-07 
0.0008417376329093631 
0.0001575481106243855 
0.0006044216163858852 
-0.000495379917031549 
1.041338335196652e-05 
0.0009882500144017118 
6.174809709368318e-05 
0.0008711012814396005 
-0.0002380223604610843 
0.0006279213432870515 
-0.0001965023017280683 
-0.0002155704151969189 
-0.0007015567250376102 
0.0009548140955500118 
0.0002036349973282399 
-0.001157294184127801 
-0.0008543051108468597 
0.0007325585602563962 
-0.0009911341282059251 
5.932386511949866e-05 
2.415433932643735e-05 
-0.0003229355189592177 
-0.0007771262638591987 
0.0003196316023155667 
5.550961686952167e-05 
-0.0009076225746608153 
0.001214775394184939 
2.414172459954007e-05 
-0.0006612636577210179 
0.0007276701145410244 
-0.0007411267294777325 
-0.0001980083474055571 
0.001026792531368251 
0.0004539309537714667 
-5.813894497787765e-05 
0.0002579130530109285 
0.0003451401575458637 
0.0007674152732014169 
-0.0004456185142987536 
0.0006702112610318272 
0.0006983625738805408 
0.001174433560625587 
0.0003620891249362015 
0.0008704760144900266 
-0.0001953599677972597 
-0.001039122960418624 
-2.173451810787491e-05 
-0.001480715145051226 
0.0002677008953646374 
-0.0007132681391047806 
0.001053008190644939 
-0.0009501264140963324 
-0.0004580829925873835 
-0.0001630782910201266 
-0.0001430771779999843 
-0.000656974584776868 
0.0008095373230153957 
3.022901317373081e-05 
-0.0003894044940281139 
0.0008974558623041281 
-0.0006011765135313302 
-9.386277467454111e-05 
-0.0005516960369343871 
4.223279837800232e-05 
-0.000583306997597991 
-6.785056229813647e-05 
-0.000898803614834334 
3.856190615555554e-05 
-0.0004659076522928619 
-0.00024877227630644 
0.0005213827565862617 
0.0007347475198278466 
-5.838950543509284e-05 
-0.0006166213053032727 
0.0006919483982795931 
-0.0007816591419893138 
-0.001127975499430749 
0.0003562384005799583 
0.0003689526106505528 
-9.816427489567434e-06 
0.0003329530295378153 
-0.0002487275112347277 
0.0004494559830802548 
-0.0005141319880317779 
-0.0002604943359830614 
0.0005115701046811527 
-0.0009127077963830082 
2.875130644340692e-05 
-0.000186438025331136 
0.0005107715975685657 
0.0005628835127576001 
0.0003814323729631154 
-0.0002667848212105166 
0.0005466097660827304 
3.205727909601614e-05 
-0.0009819544234752427 
0.0006721599827160759 
0.0005817349723643234 
0.0003272259636813706 
-0.0008084143250943017 
-0.001570244923456305 
0.0001842011856901018 
0.00056576457486965 
0.0004904210601181626 
-0.0006966161443608465 
0.0002914756736341182 
-0.0001494777966697946 
0.0001654407127852895 
0.0004473206653304805 
0.000602025916979149 
0.0005365268721167357 
-0.0001013631317549263 
0.001071173368144427 
0.0003540960039853809 
0.001101508230598092 
-0.0007523479806973213 
0.0004257222345787308 
0.0004455919490951933 
-0.0005369489971640091 
0.0005132547253757669 
0.001008332518366569 
0.001033732492213845 
0.000349429562842008 
-0.001194622370540573 
0.000277098052138045 
-5.495543361117311e-05 
-0.0009931395911255262 
0.000142789068459125 
3.929243456601814e-05 
-7.752816577067855e-05 
-0.0005613173385500768 
0.0005214480712120332 
-6.671850603039462e-05 
-0.0002595916256071893 
-0.0002179439174766259 
0.0001063006006838427 
-2.597601592895962e-05 
0.0005675909682678279 
-0.000432526480756769 
-0.0005062526134910303 
-0.0006774093440026493 
-0.001082675356985914 
-0.0007624008743156793 
-0.001207209153261246 
-0.001002088480016095 
-0.000219006976049307 
-0.0008743428530012142 
-0.0006878035046575838 
-0.0006957689396499502 
-0.0002211951402261043 
3.834199710414519e-05 
0.0001802358006767477 
0.0004297664771813556 
0.001781273903258622 
-0.0009948800748415872 
0.0009806112008701815 
-0.0009377086572985363 
-0.0001025046970500913 
-0.0002495958347126277 
0.0004435737341079928 
0.0002238454352629928 
0.001301527412144456 
-0.0004633961473693429 
0.0009557216439913859 
0.000213294698968831 
-0.0009458364643100658 
-0.0005828908760792448 
0.0002284728036290012 
-0.0007216996476235888 
-0.001124766882029622 
0.0001226413512595751 
-0.000311892747183545 
5.319968813558124e-05 
-7.056197927579651e-05 
0.0006774500064718644 
-0.001115679041389272 
0.0002345625083723401 
-0.001139505209345986 
-0.0005492345366276086 
0.0004130261589056141 
0.0001843562049673287 
2.564728470856462e-05 
-0.0001275529730648798 
9.039226697204814e-05 
-0.0009563511137737482 
-7.103842674556408e-05 
0.0007348092869874776 
7.593104502423974e-05 
0.0008683973131780495 
0.0001249555723515759 
0.0002564680786522753 
0.0001807962249494245 
0.001485017221548877 
9.438530979108612e-05 
-3.424126129557697e-05 
-0.0003568083810642148 
0.001125021509577401 
-2.894089665137206e-05 
0.00053481497115974 
0.001776396184919785 
0.0003403392864805923 
-0.0007128552918271935 
-0.000989535092465384 
0.0003733784971306565 
8.622324684567465e-07 
0.0008417376329093631 
0.0001575481106243855 
0.0006044216163858852 
-0.000495379917031549 
1.041338335196652e-05 
0.0009882500144017118 
6.174809709368318e-05 
0.0008711012814396005 
-0.0002380223604610843 
0.0006279213432870515 
-0.0001965023017280683 
-0.0002155704151969189 
-0.0007015567250376102 
0.0009548140955500118 
0.0002036349973282399 
-0.001157294184127801 
-0.0008543051108468597 
0.0007325585602563962 
-0.0009911341282059251 
5.932386511949866e-05 
2.415433932643735e-05 
-0.0003229355189592177 
-0.0007771262638591987 
0.0003196316023155667 
5.550961686952167e-05 
-0.0009076225746608153 
0.001214775394184939 
2.414172459954007e-05 
-0.0006612636577210179 
0.0007276701145410244 
-0.0007411267294777325 
-0.0001980083474055571 
0.001026792531368251 
0.0004539309537714667 
-5.813894497787765e-05 
0.0002579130530109285 
0.0003451401575458637 
0.0007674152732014169 
-0.0004456185142987536 
0.0006702112610318272 
0.0006983625738805408 
0.001174433560625587 
0.0003620891249362015 
0.0008704760144900266 
-0.0001953599677972597 
-0.001039122960418624 
-2.173451810787491e-05 
-0.001480715145051226 
0.0002677008953646374 
-0.0007132681391047806 
0.001053008190644939 
-0.0009501264140963324 
-0.0004580829925873835 
-0.0001630782910201266 
-0.0001430771779999843 
-0.000656974584776868 
0.0008095373230153957 
3.022901317373081e-05 
-0.0003894044940281139 
0.0008974558623041281 
-0.0006011765135313302 
-9.386277467454111e-05 
-0.0005516960369343871 
4.223279837800232e-05 
-0.000583306997597991 
-6.785056229813647e-05 
-0.000898803614834334 
3.856190615555554e-05 
-0.0004659076522928619 
-0.00024877227630644 
