solver_type L2R_L1LOSS_SVR_DUAL
nr_class 2
nr_feature 2050
bias -1
w
-1.213349782875798e-05 
0.0001684208907772909 
-0.0002250561700929047 
3.127029333208414e-05 
0.0005686610499411671 
-8.729896256785348e-05 
-0.000326441255228696 
0.0007432439743892323 
0.0007658889223650026 
0.0007137044228848671 
-0.0001138069657276486 
0.0001455941942261914 
0.0001581473342975193 
-0.0002776135261442046 
-0.0002140878087282019 
-0.0002276971977294726 
-0.0003989338681828895 
0.0001094145417049761 
-8.67009359945211e-05 
0.0002089215515275215 
-6.537479081320766e-05 
2.861011148947607e-05 
-7.192120344569332e-06 
0.0004422561968242996 
0.0001576850701834457 
0.0001384569052028128 
-2.177816744063594e-05 
1.851710657187917e-05 
0.0004717301774210283 
-0.0004902040352411563 
-0.0008277653751406325 
0.0003431702860252256 
0.0004047205153324524 
0.0002531052215851245 
-0.0005714825711373447 
1.946479543288679e-05 
-6.812223757052599e-05 
-1.19258760927491e-06 
-5.287647204419243e-05 
0.0003804940031019852 
-0.0001596641316699137 
7.30220891170105e-05 
0.0005592743718404912 
-4.458481423583739e-05 
0.0004849095179476213 
-0.0002840438369268436 
0.0001841738116366267 
0.0001422990108023249 
6.384587355994135e-05 
6.909152501411285e-05 
0.0002195553972534423 
0.0003442721010292824 
9.565264092645961e-05 
-0.0002984592245716427 
8.765779607771539e-05 
0.0002887373587865121 
-0.0005518714717115935 
9.066241962006001e-05 
-3.795320408866571e-05 
-0.0003624887835311454 
-0.0001958108114651215 
-2.80501381365887e-05 
1.192294215824466e-05 
0.0001425075490575441 
-9.45380199594436e-05 
-6.354814611012961e-05 
5.235551893821493e-05 
-0.0001235096439493048 
-0.0001774147328429015 
2.410705397525079e-05 
-0.0002675712634138181 
0.0001609202037826125 
-0.0006483208516605081 
-0.000564143129062509 
-0.0004824297692716259 
-5.257380371555555e-05 
-0.000368457723483182 
-0.0001833376895917885 
-0.0003947593298688817 
-0.0003541283840590662 
0.0003162861220383427 
0.0003589878590577606 
0.000349001894291538 
0.0005810680358499459 
-0.0005161796948639322 
0.0003084653332420231 
-1.252887111669755e-05 
-0.0003371140667296539 
0.0003046699939941038 
-0.0002141224340763973 
0.0001640400321435607 
0.0004942364454978542 
-0.0001805978978834046 
0.0002312878485678305 
5.244224457615894e-05 
-0.0004501576372906903 
-0.000195305551716248 
0.0001204398740538945 
-0.0002530935239559972 
-7.794805667753606e-05 
6.399431160870307e-05 
-8.728091842638326e-05 
1.913596229985096e-05 
-5.648354111607281e-05 
-8.129604007077801e-05 
-0.0003946665542651037 
-0.0002201068514994597 
-4.634076223529518e-06 
-0.0002716293531322285 
5.412663160127262e-06 
-7.569545576249597e-05 
-0.0002083209903010615 
-0.0002135928110751557 
0.0001184483948331569 
-0.0002670429500782296 
-0.0003120286932036 
0.0003172823059741431 
-0.0004725007764398896 
0.0004691146009933489 
-0.000169517280650026 
-0.0003134929597215303 
0.0001911710010470413 
0.0005891925686795986 
-7.094840880121061e-05 
7.411027306451828e-05 
-0.000115669796834446 
0.0003960328354680929 
-0.0002165428459361808 
0.0001688630216372909 
0.0005508912281844241 
0.000229863915255671 
-0.0001072262425662913 
-0.0005082243926781995 
-5.221182030120289e-05 
-0.0003201747386647058 
0.0001895712985565079 
2.520509054399305e-06 
0.0001075145510490933 
-2.368062201865069e-05 
0.0004057510557950597 
0.0003993881519824944 
-8.201534146466239e-05 
0.0006217242718506124 
0.0001229803789669243 
0.0002492885471761885 
-2.426790540412024e-05 
-0.0002371363309340065 
-0.0004815400926547038 
0.0007016217378330053 
-0.0003442785447857411 
-0.0001574610262660929 
-0.000439180889912149 
0.0001783050370424676 
-0.0006645740433052022 
-8.022384574188144e-05 
-0.0002135001806147801 
0.0001579241011644928 
-0.0004424626426956592 
-8.522854237740863e-05 
0.0002006748131045451 
-0.0003376791726995847 
-3.3562655104803e-05 
-0.0001141709202854818 
-0.0001232031212766147 
0.0004337512984961643 
-0.0001710921097990193 
5.971455700153743e-05 
0.0007431763168129851 
0.0002296993749188375 
-0.0001225582080690982 
-2.604627745201845e-05 
9.272683891844024e-05 
-9.656273003279112e-05 
-8.415510398113399e-05 
5.452033022805792e-05 
0.000132685645114587 
0.0001541477551160892 
0.0002634428334306741 
0.0006859001021318212 
5.995295402081651e-05 
-0.0001991459945890587 
-0.0001206742546365613 
-0.0002680841631912606 
0.0002193084671596536 
-0.0001621592097717867 
0.0003037919426044209 
-0.0001069029159432927 
-0.0002800759167947178 
-1.988234163498003e-05 
-0.0001510299685004773 
-0.000304392677119695 
0.0002026988088301131 
1.532189447419479e-05 
0.0001146582803315528 
0.0003390998604764671 
9.122060699231516e-05 
9.024089315863421e-05 
8.960464670123956e-05 
-9.277505944988134e-05 
-0.0002103540015063183 
-0.0001655347232460048 
3.537248418099708e-05 
-0.0003097994648171823 
-0.0005015253768286878 
0.000266265219780275 
-1.213349782875798e-05 
0.0001684208907772909 
-0.0002250561700929047 
3.127029333208414e-05 
0.0005686610499411671 
-8.729896256785348e-05 
-0.000326441255228696 
0.0007432439743892323 
0.0007658889223650026 
0.0007137044228848671 
-0.0001138069657276486 
0.0001455941942261914 
0.0001581473342975193 
-0.0002776135261442046 
-0.0002140878087282019 
-0.0002276971977294726 
-0.0003989338681828895 
0.0001094145417049761 
-8.67009359945211e-05 
0.0002089215515275215 
-6.537479081320766e-05 
2.861011148947607e-05 
-7.192120344569332e-06 
0.0004422561968242996 
0.0001576850701834457 
0.0001384569052028128 
-2.177816744063594e-05 
1.851710657187917e-05 
0.0004717301774210283 
-0.0004902040352411563 
-0.0008277653751406325 
0.0003431702860252256 
0.0004047205153324524 
0.0002531052215851245 
-0.0005714825711373447 
1.946479543288679e-05 
-6.812223757052599e-05 
-1.19258760927491e-06 
-5.287647204419243e-05 
0.0003804940031019852 
-0.0001596641316699137 
7.30220891170105e-05 
0.0005592743718404912 
-4.458481423583739e-05 
0.0004849095179476213 
-0.0002840438369268436 
0.0001841738116366267 
0.0001422990108023249 
6.384587355994135e-05 
6.909152501411285e-05 
0.0002195553972534423 
0.0003442721010292824 
9.565264092645961e-05 
-0.0002984592245716427 
8.765779607771539e-05 
0.0002887373587865121 
-0.0005518714717115935 
9.066241962006001e-05 
-3.795320408866571e-05 
-0.0003624887835311454 
-0.0001958108114651215 
-2.80501381365887e-05 
1.192294215824466e-05 
0.0001425075490575441 
-9.45380199594436e-05 
-6.354814611012961e-05 
5.235551893821493e-05 
-0.0001235096439493048 
-0.0001774147328429015 
2.410705397525079e-05 
-0.0002675712634138181 
0.0001609202037826125 
-0.0006483208516605081 
-0.000564143129062509 
-0.0004824297692716259 
-5.257380371555555e-05 
-0.000368457723483182 
-0.0001833376895917885 
-0.0003947593298688817 
-0.0003541283840590662 
0.0003162861220383427 
0.0003589878590577606 
0.000349001894291538 
0.0005810680358499459 
-0.0005161796948639322 
0.0003084653332420231 
-1.252887111669755e-05 
-0.0003371140667296539 
0.0003046699939941038 
-0.0002141224340763973 
0.0001640400321435607 
0.0004942364454978542 
-0.0001805978978834046 
0.0002312878485678305 
5.244224457615894e-05 
-0.0004501576372906903 
-0.000195305551716248 
0.0001204398740538945 
-0.0002530935239559972 
-7.794805667753606e-05 
6.399431160870307e-05 
-8.728091842638326e-05 
1.913596229985096e-05 
-5.648354111607281e-05 
-8.129604007077801e-05 
-0.0003946665542651037 
-0.0002201068514994597 
-4.634076223529518e-06 
-0.0002716293531322285 
5.412663160127262e-06 
-7.569545576249597e-05 
-0.0002083209903010615 
-0.0002135928110751557 
0.0001184483948331569 
-0.0002670429500782296 
-0.0003120286932036 
0.0003172823059741431 
-0.0004725007764398896 
0.0004691146009933489 
-0.000169517280650026 
-0.0003134929597215303 
0.0001911710010470413 
0.0005891925686795986 
-7.094840880121061e-05 
7.411027306451828e-05 
-0.000115669796834446 
0.0003960328354680929 
-0.0002165428459361808 
0.0001688630216372909 
0.0005508912281844241 
0.000229863915255671 
-0.0001072262425662913 
-0.0005082243926781995 
-5.221182030120289e-05 
-0.0003201747386647058 
0.0001895712985565079 
2.520509054399305e-06 
0.0001075145510490933 
-2.368062201865069e-05 
0.0004057510557950597 
0.0003993881519824944 
-8.201534146466239e-05 
0.0006217242718506124 
0.0001229803789669243 
0.0002492885471761885 
-2.426790540412024e-05 
-0.0002371363309340065 
-0.0004815400926547038 
0.0007016217378330053 
-0.0003442785447857411 
-0.0001574610262660929 
-0.000439180889912149 
0.0001783050370424676 
-0.0006645740433052022 
-8.022384574188144e-05 
-0.0002135001806147801 
0.0001579241011644928 
-0.0004424626426956592 
-8.522854237740863e-05 
0.0002006748131045451 
-0.0003376791726995847 
-3.3562655104803e-05 
-0.0001141709202854818 
-0.0001232031212766147 
0.0004337512984961643 
-0.0001710921097990193 
5.971455700153743e-05 
0.0007431763168129851 
0.0002296993749188375 
-0.0001225582080690982 
-2.604627745201845e-05 
9.272683891844024e-05 
-9.656273003279112e-05 
-8.415510398113399e-05 
5.452033022805792e-05 
0.000132685645114587 
0.0001541477551160892 
0.0002634428334306741 
0.0006859001021318212 
5.995295402081651e-05 
-0.0001991459945890587 
-0.0001206742546365613 
-0.0002680841631912606 
0.0002193084671596536 
-0.0001621592097717867 
0.0003037919426044209 
-0.0001069029159432927 
-0.0002800759167947178 
-1.988234163498003e-05 
-0.0001510299685004773 
-0.000304392677119695 
0.0002026988088301131 
1.532189447419479e-05 
0.0001146582803315528 
0.0003390998604764671 
9.122060699231516e-05 
9.024089315863421e-05 
8.960464670123956e-05 
-9.277505944988134e-05 
-0.0002103540015063183 
-0.0001655347232460048 
3.537248418099708e-05 
-0.0003097994648171823 
-0.0005015253768286878 
0.000266265219780275 
-1.213349782875798e-05 
0.0001684208907772909 
-0.0002250561700929047 
3.127029333208414e-05 
0.0005686610499411671 
-8.729896256785348e-05 
-0.000326441255228696 
0.0007432439743892323 
0.0007658889223650026 
0.0007137044228848671 
-0.0001138069657276486 
0.0001455941942261914 
0.0001581473342975193 
-0.0002776135261442046 
-0.0002140878087282019 
-0.0002276971977294726 
-0.0003989338681828895 
0.0001094145417049761 
-8.67009359945211e-05 
0.0002089215515275215 
-6.537479081320766e-05 
2.861011148947607e-05 
-7.192120344569332e-06 
0.0004422561968242996 
0.0001576850701834457 
0.0001384569052028128 
-2.177816744063594e-05 
1.851710657187917e-05 
0.0004717301774210283 
-0.0004902040352411563 
-0.0008277653751406325 
0.0003431702860252256 
0.0004047205153324524 
0.0002531052215851245 
-0.0005714825711373447 
1.946479543288679e-05 
-6.812223757052599e-05 
-1.19258760927491e-06 
-5.287647204419243e-05 
0.0003804940031019852 
-0.0001596641316699137 
7.30220891170105e-05 
0.0005592743718404912 
-4.458481423583739e-05 
0.0004849095179476213 
-0.0002840438369268436 
0.0001841738116366267 
0.0001422990108023249 
6.384587355994135e-05 
6.909152501411285e-05 
0.0002195553972534423 
0.0003442721010292824 
9.565264092645961e-05 
-0.0002984592245716427 
8.765779607771539e-05 
0.0002887373587865121 
-0.0005518714717115935 
9.066241962006001e-05 
-3.795320408866571e-05 
-0.0003624887835311454 
-0.0001958108114651215 
-2.80501381365887e-05 
1.192294215824466e-05 
0.0001425075490575441 
-9.45380199594436e-05 
-6.354814611012961e-05 
5.235551893821493e-05 
-0.0001235096439493048 
-0.0001774147328429015 
2.410705397525079e-05 
-0.0002675712634138181 
0.0001609202037826125 
-0.0006483208516605081 
-0.000564143129062509 
-0.0004824297692716259 
-5.257380371555555e-05 
-0.000368457723483182 
-0.0001833376895917885 
-0.0003947593298688817 
-0.0003541283840590662 
0.0003162861220383427 
0.0003589878590577606 
0.000349001894291538 
0.0005810680358499459 
-0.0005161796948639322 
0.0003084653332420231 
-1.252887111669755e-05 
-0.0003371140667296539 
0.0003046699939941038 
-0.0002141224340763973 
0.0001640400321435607 
0.0004942364454978542 
-0.0001805978978834046 
0.0002312878485678305 
5.244224457615894e-05 
-0.0004501576372906903 
-0.000195305551716248 
0.0001204398740538945 
-0.0002530935239559972 
-7.794805667753606e-05 
6.399431160870307e-05 
-8.728091842638326e-05 
1.913596229985096e-05 
-5.648354111607281e-05 
-8.129604007077801e-05 
-0.0003946665542651037 
-0.0002201068514994597 
-4.634076223529518e-06 
-0.0002716293531322285 
5.412663160127262e-06 
-7.569545576249597e-05 
-0.0002083209903010615 
-0.0002135928110751557 
0.0001184483948331569 
-0.0002670429500782296 
-0.0003120286932036 
0.0003172823059741431 
-0.0004725007764398896 
0.0004691146009933489 
-0.000169517280650026 
-0.0003134929597215303 
0.0001911710010470413 
0.0005891925686795986 
-7.094840880121061e-05 
7.411027306451828e-05 
-0.000115669796834446 
0.0003960328354680929 
-0.0002165428459361808 
0.0001688630216372909 
0.0005508912281844241 
0.000229863915255671 
-0.0001072262425662913 
-0.0005082243926781995 
-5.221182030120289e-05 
-0.0003201747386647058 
0.0001895712985565079 
2.520509054399305e-06 
0.0001075145510490933 
-2.368062201865069e-05 
0.0004057510557950597 
0.0003993881519824944 
-8.201534146466239e-05 
0.0006217242718506124 
0.0001229803789669243 
0.0002492885471761885 
-2.426790540412024e-05 
-0.0002371363309340065 
-0.0004815400926547038 
0.0007016217378330053 
-0.0003442785447857411 
-0.0001574610262660929 
-0.000439180889912149 
0.0001783050370424676 
-0.0006645740433052022 
-8.022384574188144e-05 
-0.0002135001806147801 
0.0001579241011644928 
-0.0004424626426956592 
-8.522854237740863e-05 
0.0002006748131045451 
-0.0003376791726995847 
-3.3562655104803e-05 
-0.0001141709202854818 
-0.0001232031212766147 
0.0004337512984961643 
-0.0001710921097990193 
5.971455700153743e-05 
0.0007431763168129851 
0.0002296993749188375 
-0.0001225582080690982 
-2.604627745201845e-05 
9.272683891844024e-05 
-9.656273003279112e-05 
-8.415510398113399e-05 
5.452033022805792e-05 
0.000132685645114587 
0.0001541477551160892 
0.0002634428334306741 
0.0006859001021318212 
5.995295402081651e-05 
-0.0001991459945890587 
-0.0001206742546365613 
-0.0002680841631912606 
0.0002193084671596536 
-0.0001621592097717867 
0.0003037919426044209 
-0.0001069029159432927 
-0.0002800759167947178 
-1.988234163498003e-05 
-0.0001510299685004773 
-0.000304392677119695 
0.0002026988088301131 
1.532189447419479e-05 
0.0001146582803315528 
0.0003390998604764671 
9.122060699231516e-05 
9.024089315863421e-05 
8.960464670123956e-05 
-9.277505944988134e-05 
-0.0002103540015063183 
-0.0001655347232460048 
3.537248418099708e-05 
-0.0003097994648171823 
-0.0005015253768286878 
0.000266265219780275 
-1.213349782875798e-05 
0.0001684208907772909 
-0.0002250561700929047 
3.127029333208414e-05 
0.0005686610499411671 
-8.729896256785348e-05 
-0.000326441255228696 
0.0007432439743892323 
0.0007658889223650026 
0.0007137044228848671 
-0.0001138069657276486 
0.0001455941942261914 
0.0001581473342975193 
-0.0002776135261442046 
-0.0002140878087282019 
-0.0002276971977294726 
-0.0003989338681828895 
0.0001094145417049761 
-8.67009359945211e-05 
0.0002089215515275215 
-6.537479081320766e-05 
2.861011148947607e-05 
-7.192120344569332e-06 
0.0004422561968242996 
0.0001576850701834457 
0.0001384569052028128 
-2.177816744063594e-05 
1.851710657187917e-05 
0.0004717301774210283 
-0.0004902040352411563 
-0.0008277653751406325 
0.0003431702860252256 
0.0004047205153324524 
0.0002531052215851245 
-0.0005714825711373447 
1.946479543288679e-05 
-6.812223757052599e-05 
-1.19258760927491e-06 
-5.287647204419243e-05 
0.0003804940031019852 
-0.0001596641316699137 
7.30220891170105e-05 
0.0005592743718404912 
-4.458481423583739e-05 
0.0004849095179476213 
-0.0002840438369268436 
0.0001841738116366267 
0.0001422990108023249 
6.384587355994135e-05 
6.909152501411285e-05 
0.0002195553972534423 
0.0003442721010292824 
9.565264092645961e-05 
-0.0002984592245716427 
8.765779607771539e-05 
0.0002887373587865121 
-0.0005518714717115935 
9.066241962006001e-05 
-3.795320408866571e-05 
-0.0003624887835311454 
-0.0001958108114651215 
-2.80501381365887e-05 
1.192294215824466e-05 
0.0001425075490575441 
-9.45380199594436e-05 
-6.354814611012961e-05 
5.235551893821493e-05 
-0.0001235096439493048 
-0.0001774147328429015 
2.410705397525079e-05 
-0.0002675712634138181 
0.0001609202037826125 
-0.0006483208516605081 
-0.000564143129062509 
-0.0004824297692716259 
-5.257380371555555e-05 
-0.000368457723483182 
-0.0001833376895917885 
-0.0003947593298688817 
-0.0003541283840590662 
0.0003162861220383427 
0.0003589878590577606 
0.000349001894291538 
0.0005810680358499459 
-0.0005161796948639322 
0.0003084653332420231 
-1.252887111669755e-05 
-0.0003371140667296539 
0.0003046699939941038 
-0.0002141224340763973 
0.0001640400321435607 
0.0004942364454978542 
-0.0001805978978834046 
0.0002312878485678305 
5.244224457615894e-05 
-0.0004501576372906903 
-0.000195305551716248 
0.0001204398740538945 
-0.0002530935239559972 
-7.794805667753606e-05 
6.399431160870307e-05 
-8.728091842638326e-05 
1.913596229985096e-05 
-5.648354111607281e-05 
-8.129604007077801e-05 
-0.0003946665542651037 
-0.0002201068514994597 
-4.634076223529518e-06 
-0.0002716293531322285 
5.412663160127262e-06 
-7.569545576249597e-05 
-0.0002083209903010615 
-0.0002135928110751557 
0.0001184483948331569 
-0.0002670429500782296 
-0.0003120286932036 
0.0003172823059741431 
-0.0004725007764398896 
0.0004691146009933489 
-0.000169517280650026 
-0.0003134929597215303 
0.0001911710010470413 
0.0005891925686795986 
-7.094840880121061e-05 
7.411027306451828e-05 
-0.000115669796834446 
0.0003960328354680929 
-0.0002165428459361808 
0.0001688630216372909 
0.0005508912281844241 
0.000229863915255671 
-0.0001072262425662913 
-0.0005082243926781995 
-5.221182030120289e-05 
-0.0003201747386647058 
0.0001895712985565079 
2.520509054399305e-06 
0.0001075145510490933 
-2.368062201865069e-05 
0.0004057510557950597 
0.0003993881519824944 
-8.201534146466239e-05 
0.0006217242718506124 
0.0001229803789669243 
0.0002492885471761885 
-2.426790540412024e-05 
-0.0002371363309340065 
-0.0004815400926547038 
0.0007016217378330053 
-0.0003442785447857411 
-0.0001574610262660929 
-0.000439180889912149 
0.0001783050370424676 
-0.0006645740433052022 
-8.022384574188144e-05 
-0.0002135001806147801 
0.0001579241011644928 
-0.0004424626426956592 
-8.522854237740863e-05 
0.0002006748131045451 
-0.0003376791726995847 
-3.3562655104803e-05 
-0.0001141709202854818 
-0.0001232031212766147 
0.0004337512984961643 
-0.0001710921097990193 
5.971455700153743e-05 
0.0007431763168129851 
0.0002296993749188375 
-0.0001225582080690982 
-2.604627745201845e-05 
9.272683891844024e-05 
-9.656273003279112e-05 
-8.415510398113399e-05 
5.452033022805792e-05 
0.000132685645114587 
0.0001541477551160892 
0.0002634428334306741 
0.0006859001021318212 
5.995295402081651e-05 
-0.0001991459945890587 
-0.0001206742546365613 
-0.0002680841631912606 
0.0002193084671596536 
-0.0001621592097717867 
0.0003037919426044209 
-0.0001069029159432927 
-0.0002800759167947178 
-1.988234163498003e-05 
-0.0001510299685004773 
-0.000304392677119695 
0.0002026988088301131 
1.532189447419479e-05 
0.0001146582803315528 
0.0003390998604764671 
9.122060699231516e-05 
9.024089315863421e-05 
8.960464670123956e-05 
-9.277505944988134e-05 
-0.0002103540015063183 
-0.0001655347232460048 
3.537248418099708e-05 
-0.0003097994648171823 
-0.0005015253768286878 
0.000266265219780275 
-1.213349782875798e-05 
0.0001684208907772909 
-0.0002250561700929047 
3.127029333208414e-05 
0.0005686610499411671 
-8.729896256785348e-05 
-0.000326441255228696 
0.0007432439743892323 
0.0007658889223650026 
0.0007137044228848671 
-0.0001138069657276486 
0.0001455941942261914 
0.0001581473342975193 
-0.0002776135261442046 
-0.0002140878087282019 
-0.0002276971977294726 
-0.0003989338681828895 
0.0001094145417049761 
-8.67009359945211e-05 
0.0002089215515275215 
-6.537479081320766e-05 
2.861011148947607e-05 
-7.192120344569332e-06 
0.0004422561968242996 
0.0001576850701834457 
0.0001384569052028128 
-2.177816744063594e-05 
1.851710657187917e-05 
0.0004717301774210283 
-0.0004902040352411563 
-0.0008277653751406325 
0.0003431702860252256 
0.0004047205153324524 
0.0002531052215851245 
-0.0005714825711373447 
1.946479543288679e-05 
-6.812223757052599e-05 
-1.19258760927491e-06 
-5.287647204419243e-05 
0.0003804940031019852 
-0.0001596641316699137 
7.30220891170105e-05 
0.0005592743718404912 
-4.458481423583739e-05 
0.0004849095179476213 
-0.0002840438369268436 
0.0001841738116366267 
0.0001422990108023249 
6.384587355994135e-05 
6.909152501411285e-05 
0.0002195553972534423 
0.0003442721010292824 
9.565264092645961e-05 
-0.0002984592245716427 
8.765779607771539e-05 
0.0002887373587865121 
-0.0005518714717115935 
9.066241962006001e-05 
-3.795320408866571e-05 
-0.0003624887835311454 
-0.0001958108114651215 
-2.80501381365887e-05 
1.192294215824466e-05 
0.0001425075490575441 
-9.45380199594436e-05 
-6.354814611012961e-05 
5.235551893821493e-05 
-0.0001235096439493048 
-0.0001774147328429015 
2.410705397525079e-05 
-0.0002675712634138181 
0.0001609202037826125 
-0.0006483208516605081 
-0.000564143129062509 
-0.0004824297692716259 
-5.257380371555555e-05 
-0.000368457723483182 
-0.0001833376895917885 
-0.0003947593298688817 
-0.0003541283840590662 
0.0003162861220383427 
0.0003589878590577606 
0.000349001894291538 
0.0005810680358499459 
-0.0005161796948639322 
0.0003084653332420231 
-1.252887111669755e-05 
-0.0003371140667296539 
0.0003046699939941038 
-0.0002141224340763973 
0.0001640400321435607 
0.0004942364454978542 
-0.0001805978978834046 
0.0002312878485678305 
5.244224457615894e-05 
-0.0004501576372906903 
-0.000195305551716248 
0.0001204398740538945 
-0.0002530935239559972 
-7.794805667753606e-05 
6.399431160870307e-05 
-8.728091842638326e-05 
1.913596229985096e-05 
-5.648354111607281e-05 
-8.129604007077801e-05 
-0.0003946665542651037 
-0.0002201068514994597 
-4.634076223529518e-06 
-0.0002716293531322285 
5.412663160127262e-06 
-7.569545576249597e-05 
-0.0002083209903010615 
-0.0002135928110751557 
0.0001184483948331569 
-0.0002670429500782296 
-0.0003120286932036 
0.0003172823059741431 
-0.0004725007764398896 
0.0004691146009933489 
-0.000169517280650026 
-0.0003134929597215303 
0.0001911710010470413 
0.0005891925686795986 
-7.094840880121061e-05 
7.411027306451828e-05 
-0.000115669796834446 
0.0003960328354680929 
-0.0002165428459361808 
0.0001688630216372909 
0.0005508912281844241 
0.000229863915255671 
-0.0001072262425662913 
-0.0005082243926781995 
-5.221182030120289e-05 
-0.0003201747386647058 
0.0001895712985565079 
2.520509054399305e-06 
0.0001075145510490933 
-2.368062201865069e-05 
0.0004057510557950597 
0.0003993881519824944 
-8.201534146466239e-05 
0.0006217242718506124 
0.0001229803789669243 
0.0002492885471761885 
-2.426790540412024e-05 
-0.0002371363309340065 
-0.0004815400926547038 
0.0007016217378330053 
-0.0003442785447857411 
-0.0001574610262660929 
-0.000439180889912149 
0.0001783050370424676 
-0.0006645740433052022 
-8.022384574188144e-05 
-0.0002135001806147801 
0.0001579241011644928 
-0.0004424626426956592 
-8.522854237740863e-05 
0.0002006748131045451 
-0.0003376791726995847 
-3.3562655104803e-05 
-0.0001141709202854818 
-0.0001232031212766147 
0.0004337512984961643 
-0.0001710921097990193 
5.971455700153743e-05 
0.0007431763168129851 
0.0002296993749188375 
-0.0001225582080690982 
-2.604627745201845e-05 
9.272683891844024e-05 
-9.656273003279112e-05 
-8.415510398113399e-05 
5.452033022805792e-05 
0.000132685645114587 
0.0001541477551160892 
0.0002634428334306741 
0.0006859001021318212 
5.995295402081651e-05 
-0.0001991459945890587 
-0.0001206742546365613 
-0.0002680841631912606 
0.0002193084671596536 
-0.0001621592097717867 
0.0003037919426044209 
-0.0001069029159432927 
-0.0002800759167947178 
-1.988234163498003e-05 
-0.0001510299685004773 
-0.000304392677119695 
0.0002026988088301131 
1.532189447419479e-05 
0.0001146582803315528 
0.0003390998604764671 
9.122060699231516e-05 
9.024089315863421e-05 
8.960464670123956e-05 
-9.277505944988134e-05 
-0.0002103540015063183 
-0.0001655347232460048 
3.537248418099708e-05 
-0.0003097994648171823 
-0.0005015253768286878 
0.000266265219780275 
-1.213349782875798e-05 
0.0001684208907772909 
-0.0002250561700929047 
3.127029333208414e-05 
0.0005686610499411671 
-8.729896256785348e-05 
-0.000326441255228696 
0.0007432439743892323 
0.0007658889223650026 
0.0007137044228848671 
-0.0001138069657276486 
0.0001455941942261914 
0.0001581473342975193 
-0.0002776135261442046 
-0.0002140878087282019 
-0.0002276971977294726 
-0.0003989338681828895 
0.0001094145417049761 
-8.67009359945211e-05 
0.0002089215515275215 
-6.537479081320766e-05 
2.861011148947607e-05 
-7.192120344569332e-06 
0.0004422561968242996 
0.0001576850701834457 
0.0001384569052028128 
-2.177816744063594e-05 
1.851710657187917e-05 
0.0004717301774210283 
-0.0004902040352411563 
-0.0008277653751406325 
0.0003431702860252256 
0.0004047205153324524 
0.0002531052215851245 
-0.0005714825711373447 
1.946479543288679e-05 
-6.812223757052599e-05 
-1.19258760927491e-06 
-5.287647204419243e-05 
0.0003804940031019852 
-0.0001596641316699137 
7.30220891170105e-05 
0.0005592743718404912 
-4.458481423583739e-05 
0.0004849095179476213 
-0.0002840438369268436 
0.0001841738116366267 
0.0001422990108023249 
6.384587355994135e-05 
6.909152501411285e-05 
0.0002195553972534423 
0.0003442721010292824 
9.565264092645961e-05 
-0.0002984592245716427 
8.765779607771539e-05 
0.0002887373587865121 
-0.0005518714717115935 
9.066241962006001e-05 
-3.795320408866571e-05 
-0.0003624887835311454 
-0.0001958108114651215 
-2.80501381365887e-05 
1.192294215824466e-05 
0.0001425075490575441 
-9.45380199594436e-05 
-6.354814611012961e-05 
5.235551893821493e-05 
-0.0001235096439493048 
-0.0001774147328429015 
2.410705397525079e-05 
-0.0002675712634138181 
0.0001609202037826125 
-0.0006483208516605081 
-0.000564143129062509 
-0.0004824297692716259 
-5.257380371555555e-05 
-0.000368457723483182 
-0.0001833376895917885 
-0.0003947593298688817 
-0.0003541283840590662 
0.0003162861220383427 
0.0003589878590577606 
0.000349001894291538 
0.0005810680358499459 
-0.0005161796948639322 
0.0003084653332420231 
-1.252887111669755e-05 
-0.0003371140667296539 
0.0003046699939941038 
-0.0002141224340763973 
0.0001640400321435607 
0.0004942364454978542 
-0.0001805978978834046 
0.0002312878485678305 
5.244224457615894e-05 
-0.0004501576372906903 
-0.000195305551716248 
0.0001204398740538945 
-0.0002530935239559972 
-7.794805667753606e-05 
6.399431160870307e-05 
-8.728091842638326e-05 
1.913596229985096e-05 
-5.648354111607281e-05 
-8.129604007077801e-05 
-0.0003946665542651037 
-0.0002201068514994597 
-4.634076223529518e-06 
-0.0002716293531322285 
5.412663160127262e-06 
-7.569545576249597e-05 
-0.0002083209903010615 
-0.0002135928110751557 
0.0001184483948331569 
-0.0002670429500782296 
-0.0003120286932036 
0.0003172823059741431 
-0.0004725007764398896 
0.0004691146009933489 
-0.000169517280650026 
-0.0003134929597215303 
0.0001911710010470413 
0.0005891925686795986 
-7.094840880121061e-05 
7.411027306451828e-05 
-0.000115669796834446 
0.0003960328354680929 
-0.0002165428459361808 
0.0001688630216372909 
0.0005508912281844241 
0.000229863915255671 
-0.0001072262425662913 
-0.0005082243926781995 
-5.221182030120289e-05 
-0.0003201747386647058 
0.0001895712985565079 
2.520509054399305e-06 
0.0001075145510490933 
-2.368062201865069e-05 
0.0004057510557950597 
0.0003993881519824944 
-8.201534146466239e-05 
0.0006217242718506124 
0.0001229803789669243 
0.0002492885471761885 
-2.426790540412024e-05 
-0.0002371363309340065 
-0.0004815400926547038 
0.0007016217378330053 
-0.0003442785447857411 
-0.0001574610262660929 
-0.000439180889912149 
0.0001783050370424676 
-0.0006645740433052022 
-8.022384574188144e-05 
-0.0002135001806147801 
0.0001579241011644928 
-0.0004424626426956592 
-8.522854237740863e-05 
0.0002006748131045451 
-0.0003376791726995847 
-3.3562655104803e-05 
-0.0001141709202854818 
-0.0001232031212766147 
0.0004337512984961643 
-0.0001710921097990193 
5.971455700153743e-05 
0.0007431763168129851 
0.0002296993749188375 
-0.0001225582080690982 
-2.604627745201845e-05 
9.272683891844024e-05 
-9.656273003279112e-05 
-8.415510398113399e-05 
5.452033022805792e-05 
0.000132685645114587 
0.0001541477551160892 
0.0002634428334306741 
0.0006859001021318212 
5.995295402081651e-05 
-0.0001991459945890587 
-0.0001206742546365613 
-0.0002680841631912606 
0.0002193084671596536 
-0.0001621592097717867 
0.0003037919426044209 
-0.0001069029159432927 
-0.0002800759167947178 
-1.988234163498003e-05 
-0.0001510299685004773 
-0.000304392677119695 
0.0002026988088301131 
1.532189447419479e-05 
0.0001146582803315528 
0.0003390998604764671 
9.122060699231516e-05 
9.024089315863421e-05 
8.960464670123956e-05 
-9.277505944988134e-05 
-0.0002103540015063183 
-0.0001655347232460048 
3.537248418099708e-05 
-0.0003097994648171823 
-0.0005015253768286878 
0.000266265219780275 
-1.213349782875798e-05 
0.0001684208907772909 
-0.0002250561700929047 
3.127029333208414e-05 
0.0005686610499411671 
-8.729896256785348e-05 
-0.000326441255228696 
0.0007432439743892323 
0.0007658889223650026 
0.0007137044228848671 
-0.0001138069657276486 
0.0001455941942261914 
0.0001581473342975193 
-0.0002776135261442046 
-0.0002140878087282019 
-0.0002276971977294726 
-0.0003989338681828895 
0.0001094145417049761 
-8.67009359945211e-05 
0.0002089215515275215 
-6.537479081320766e-05 
2.861011148947607e-05 
-7.192120344569332e-06 
0.0004422561968242996 
0.0001576850701834457 
0.0001384569052028128 
-2.177816744063594e-05 
1.851710657187917e-05 
0.0004717301774210283 
-0.0004902040352411563 
-0.0008277653751406325 
0.0003431702860252256 
0.0004047205153324524 
0.0002531052215851245 
-0.0005714825711373447 
1.946479543288679e-05 
-6.812223757052599e-05 
-1.19258760927491e-06 
-5.287647204419243e-05 
0.0003804940031019852 
-0.0001596641316699137 
7.30220891170105e-05 
0.0005592743718404912 
-4.458481423583739e-05 
0.0004849095179476213 
-0.0002840438369268436 
0.0001841738116366267 
0.0001422990108023249 
6.384587355994135e-05 
6.909152501411285e-05 
0.0002195553972534423 
0.0003442721010292824 
9.565264092645961e-05 
-0.0002984592245716427 
8.765779607771539e-05 
0.0002887373587865121 
-0.0005518714717115935 
9.066241962006001e-05 
-3.795320408866571e-05 
-0.0003624887835311454 
-0.0001958108114651215 
-2.80501381365887e-05 
1.192294215824466e-05 
0.0001425075490575441 
-9.45380199594436e-05 
-6.354814611012961e-05 
5.235551893821493e-05 
-0.0001235096439493048 
-0.0001774147328429015 
2.410705397525079e-05 
-0.0002675712634138181 
0.0001609202037826125 
-0.0006483208516605081 
-0.000564143129062509 
-0.0004824297692716259 
-5.257380371555555e-05 
-0.000368457723483182 
-0.0001833376895917885 
-0.0003947593298688817 
-0.0003541283840590662 
0.0003162861220383427 
0.0003589878590577606 
0.000349001894291538 
0.0005810680358499459 
-0.0005161796948639322 
0.0003084653332420231 
-1.252887111669755e-05 
-0.0003371140667296539 
0.0003046699939941038 
-0.0002141224340763973 
0.0001640400321435607 
0.0004942364454978542 
-0.0001805978978834046 
0.0002312878485678305 
5.244224457615894e-05 
-0.0004501576372906903 
-0.000195305551716248 
0.0001204398740538945 
-0.0002530935239559972 
-7.794805667753606e-05 
6.399431160870307e-05 
-8.728091842638326e-05 
1.913596229985096e-05 
-5.648354111607281e-05 
-8.129604007077801e-05 
-0.0003946665542651037 
-0.0002201068514994597 
-4.634076223529518e-06 
-0.0002716293531322285 
5.412663160127262e-06 
-7.569545576249597e-05 
-0.0002083209903010615 
-0.0002135928110751557 
0.0001184483948331569 
-0.0002670429500782296 
-0.0003120286932036 
0.0003172823059741431 
-0.0004725007764398896 
0.0004691146009933489 
-0.000169517280650026 
-0.0003134929597215303 
0.0001911710010470413 
0.0005891925686795986 
-7.094840880121061e-05 
7.411027306451828e-05 
-0.000115669796834446 
0.0003960328354680929 
-0.0002165428459361808 
0.0001688630216372909 
0.0005508912281844241 
0.000229863915255671 
-0.0001072262425662913 
-0.0005082243926781995 
-5.221182030120289e-05 
-0.0003201747386647058 
0.0001895712985565079 
2.520509054399305e-06 
0.0001075145510490933 
-2.368062201865069e-05 
0.0004057510557950597 
0.0003993881519824944 
-8.201534146466239e-05 
0.0006217242718506124 
0.0001229803789669243 
0.0002492885471761885 
-2.426790540412024e-05 
-0.0002371363309340065 
-0.0004815400926547038 
0.0007016217378330053 
-0.0003442785447857411 
-0.0001574610262660929 
-0.000439180889912149 
0.0001783050370424676 
-0.0006645740433052022 
-8.022384574188144e-05 
-0.0002135001806147801 
0.0001579241011644928 
-0.0004424626426956592 
-8.522854237740863e-05 
0.0002006748131045451 
-0.0003376791726995847 
-3.3562655104803e-05 
-0.0001141709202854818 
-0.0001232031212766147 
0.0004337512984961643 
-0.0001710921097990193 
5.971455700153743e-05 
0.0007431763168129851 
0.0002296993749188375 
-0.0001225582080690982 
-2.604627745201845e-05 
9.272683891844024e-05 
-9.656273003279112e-05 
-8.415510398113399e-05 
5.452033022805792e-05 
0.000132685645114587 
0.0001541477551160892 
0.0002634428334306741 
0.0006859001021318212 
5.995295402081651e-05 
-0.0001991459945890587 
-0.0001206742546365613 
-0.0002680841631912606 
0.0002193084671596536 
-0.0001621592097717867 
0.0003037919426044209 
-0.0001069029159432927 
-0.0002800759167947178 
-1.988234163498003e-05 
-0.0001510299685004773 
-0.000304392677119695 
0.0002026988088301131 
1.532189447419479e-05 
0.0001146582803315528 
0.0003390998604764671 
9.122060699231516e-05 
9.024089315863421e-05 
8.960464670123956e-05 
-9.277505944988134e-05 
-0.0002103540015063183 
-0.0001655347232460048 
3.537248418099708e-05 
-0.0003097994648171823 
-0.0005015253768286878 
0.000266265219780275 
-1.213349782875798e-05 
0.0001684208907772909 
-0.0002250561700929047 
3.127029333208414e-05 
0.0005686610499411671 
-8.729896256785348e-05 
-0.000326441255228696 
0.0007432439743892323 
0.0007658889223650026 
0.0007137044228848671 
-0.0001138069657276486 
0.0001455941942261914 
0.0001581473342975193 
-0.0002776135261442046 
-0.0002140878087282019 
-0.0002276971977294726 
-0.0003989338681828895 
0.0001094145417049761 
-8.67009359945211e-05 
0.0002089215515275215 
-6.537479081320766e-05 
2.861011148947607e-05 
-7.192120344569332e-06 
0.0004422561968242996 
0.0001576850701834457 
0.0001384569052028128 
-2.177816744063594e-05 
1.851710657187917e-05 
0.0004717301774210283 
-0.0004902040352411563 
-0.0008277653751406325 
0.0003431702860252256 
0.0004047205153324524 
0.0002531052215851245 
-0.0005714825711373447 
1.946479543288679e-05 
-6.812223757052599e-05 
-1.19258760927491e-06 
-5.287647204419243e-05 
0.0003804940031019852 
-0.0001596641316699137 
7.30220891170105e-05 
0.0005592743718404912 
-4.458481423583739e-05 
0.0004849095179476213 
-0.0002840438369268436 
0.0001841738116366267 
0.0001422990108023249 
6.384587355994135e-05 
6.909152501411285e-05 
0.0002195553972534423 
0.0003442721010292824 
9.565264092645961e-05 
-0.0002984592245716427 
8.765779607771539e-05 
0.0002887373587865121 
-0.0005518714717115935 
9.066241962006001e-05 
-3.795320408866571e-05 
-0.0003624887835311454 
-0.0001958108114651215 
-2.80501381365887e-05 
1.192294215824466e-05 
0.0001425075490575441 
-9.45380199594436e-05 
-6.354814611012961e-05 
5.235551893821493e-05 
-0.0001235096439493048 
-0.0001774147328429015 
2.410705397525079e-05 
-0.0002675712634138181 
0.0001609202037826125 
-0.0006483208516605081 
-0.000564143129062509 
-0.0004824297692716259 
-5.257380371555555e-05 
-0.000368457723483182 
-0.0001833376895917885 
-0.0003947593298688817 
-0.0003541283840590662 
0.0003162861220383427 
0.0003589878590577606 
0.000349001894291538 
0.0005810680358499459 
-0.0005161796948639322 
0.0003084653332420231 
-1.252887111669755e-05 
-0.0003371140667296539 
0.0003046699939941038 
-0.0002141224340763973 
0.0001640400321435607 
0.0004942364454978542 
-0.0001805978978834046 
0.0002312878485678305 
5.244224457615894e-05 
-0.0004501576372906903 
-0.000195305551716248 
0.0001204398740538945 
-0.0002530935239559972 
-7.794805667753606e-05 
6.399431160870307e-05 
-8.728091842638326e-05 
1.913596229985096e-05 
-5.648354111607281e-05 
-8.129604007077801e-05 
-0.0003946665542651037 
-0.0002201068514994597 
-4.634076223529518e-06 
-0.0002716293531322285 
5.412663160127262e-06 
-7.569545576249597e-05 
-0.0002083209903010615 
-0.0002135928110751557 
0.0001184483948331569 
-0.0002670429500782296 
-0.0003120286932036 
0.0003172823059741431 
-0.0004725007764398896 
0.0004691146009933489 
-0.000169517280650026 
-0.0003134929597215303 
0.0001911710010470413 
0.0005891925686795986 
-7.094840880121061e-05 
7.411027306451828e-05 
-0.000115669796834446 
0.0003960328354680929 
-0.0002165428459361808 
0.0001688630216372909 
0.0005508912281844241 
0.000229863915255671 
-0.0001072262425662913 
-0.0005082243926781995 
-5.221182030120289e-05 
-0.0003201747386647058 
0.0001895712985565079 
2.520509054399305e-06 
0.0001075145510490933 
-2.368062201865069e-05 
0.0004057510557950597 
0.0003993881519824944 
-8.201534146466239e-05 
0.0006217242718506124 
0.0001229803789669243 
0.0002492885471761885 
-2.426790540412024e-05 
-0.0002371363309340065 
-0.0004815400926547038 
0.0007016217378330053 
-0.0003442785447857411 
-0.0001574610262660929 
-0.000439180889912149 
0.0001783050370424676 
-0.0006645740433052022 
-8.022384574188144e-05 
-0.0002135001806147801 
0.0001579241011644928 
-0.0004424626426956592 
-8.522854237740863e-05 
0.0002006748131045451 
-0.0003376791726995847 
-3.3562655104803e-05 
-0.0001141709202854818 
-0.0001232031212766147 
0.0004337512984961643 
-0.0001710921097990193 
5.971455700153743e-05 
0.0007431763168129851 
0.0002296993749188375 
-0.0001225582080690982 
-2.604627745201845e-05 
9.272683891844024e-05 
-9.656273003279112e-05 
-8.415510398113399e-05 
5.452033022805792e-05 
0.000132685645114587 
0.0001541477551160892 
0.0002634428334306741 
0.0006859001021318212 
5.995295402081651e-05 
-0.0001991459945890587 
-0.0001206742546365613 
-0.0002680841631912606 
0.0002193084671596536 
-0.0001621592097717867 
0.0003037919426044209 
-0.0001069029159432927 
-0.0002800759167947178 
-1.988234163498003e-05 
-0.0001510299685004773 
-0.000304392677119695 
0.0002026988088301131 
1.532189447419479e-05 
0.0001146582803315528 
0.0003390998604764671 
9.122060699231516e-05 
9.024089315863421e-05 
8.960464670123956e-05 
-9.277505944988134e-05 
-0.0002103540015063183 
-0.0001655347232460048 
3.537248418099708e-05 
-0.0003097994648171823 
-0.0005015253768286878 
0.000266265219780275 
-1.213349782875798e-05 
0.0001684208907772909 
-0.0002250561700929047 
3.127029333208414e-05 
0.0005686610499411671 
-8.729896256785348e-05 
-0.000326441255228696 
0.0007432439743892323 
0.0007658889223650026 
0.0007137044228848671 
-0.0001138069657276486 
0.0001455941942261914 
0.0001581473342975193 
-0.0002776135261442046 
-0.0002140878087282019 
-0.0002276971977294726 
-0.0003989338681828895 
0.0001094145417049761 
-8.67009359945211e-05 
0.0002089215515275215 
-6.537479081320766e-05 
2.861011148947607e-05 
-7.192120344569332e-06 
0.0004422561968242996 
0.0001576850701834457 
0.0001384569052028128 
-2.177816744063594e-05 
1.851710657187917e-05 
0.0004717301774210283 
-0.0004902040352411563 
-0.0008277653751406325 
0.0003431702860252256 
0.0004047205153324524 
0.0002531052215851245 
-0.0005714825711373447 
1.946479543288679e-05 
-6.812223757052599e-05 
-1.19258760927491e-06 
-5.287647204419243e-05 
0.0003804940031019852 
-0.0001596641316699137 
7.30220891170105e-05 
0.0005592743718404912 
-4.458481423583739e-05 
0.0004849095179476213 
-0.0002840438369268436 
0.0001841738116366267 
0.0001422990108023249 
6.384587355994135e-05 
6.909152501411285e-05 
0.0002195553972534423 
0.0003442721010292824 
9.565264092645961e-05 
-0.0002984592245716427 
8.765779607771539e-05 
0.0002887373587865121 
-0.0005518714717115935 
9.066241962006001e-05 
-3.795320408866571e-05 
-0.0003624887835311454 
-0.0001958108114651215 
-2.80501381365887e-05 
1.192294215824466e-05 
0.0001425075490575441 
-9.45380199594436e-05 
-6.354814611012961e-05 
5.235551893821493e-05 
-0.0001235096439493048 
-0.0001774147328429015 
2.410705397525079e-05 
-0.0002675712634138181 
0.0001609202037826125 
-0.0006483208516605081 
-0.000564143129062509 
-0.0004824297692716259 
-5.257380371555555e-05 
-0.000368457723483182 
-0.0001833376895917885 
-0.0003947593298688817 
-0.0003541283840590662 
0.0003162861220383427 
0.0003589878590577606 
0.000349001894291538 
0.0005810680358499459 
-0.0005161796948639322 
0.0003084653332420231 
-1.252887111669755e-05 
-0.0003371140667296539 
0.0003046699939941038 
-0.0002141224340763973 
0.0001640400321435607 
0.0004942364454978542 
-0.0001805978978834046 
0.0002312878485678305 
5.244224457615894e-05 
-0.0004501576372906903 
-0.000195305551716248 
0.0001204398740538945 
-0.0002530935239559972 
-7.794805667753606e-05 
6.399431160870307e-05 
-8.728091842638326e-05 
1.913596229985096e-05 
-5.648354111607281e-05 
-8.129604007077801e-05 
-0.0003946665542651037 
-0.0002201068514994597 
-4.634076223529518e-06 
-0.0002716293531322285 
5.412663160127262e-06 
-7.569545576249597e-05 
-0.0002083209903010615 
-0.0002135928110751557 
0.0001184483948331569 
-0.0002670429500782296 
-0.0003120286932036 
0.0003172823059741431 
-0.0004725007764398896 
0.0004691146009933489 
-0.000169517280650026 
-0.0003134929597215303 
0.0001911710010470413 
0.0005891925686795986 
-7.094840880121061e-05 
7.411027306451828e-05 
-0.000115669796834446 
0.0003960328354680929 
-0.0002165428459361808 
0.0001688630216372909 
0.0005508912281844241 
0.000229863915255671 
-0.0001072262425662913 
-0.0005082243926781995 
-5.221182030120289e-05 
-0.0003201747386647058 
0.0001895712985565079 
2.520509054399305e-06 
0.0001075145510490933 
-2.368062201865069e-05 
0.0004057510557950597 
0.0003993881519824944 
-8.201534146466239e-05 
0.0006217242718506124 
0.0001229803789669243 
0.0002492885471761885 
-2.426790540412024e-05 
-0.0002371363309340065 
-0.0004815400926547038 
0.0007016217378330053 
-0.0003442785447857411 
-0.0001574610262660929 
-0.000439180889912149 
0.0001783050370424676 
-0.0006645740433052022 
-8.022384574188144e-05 
-0.0002135001806147801 
0.0001579241011644928 
-0.0004424626426956592 
-8.522854237740863e-05 
0.0002006748131045451 
-0.0003376791726995847 
-3.3562655104803e-05 
-0.0001141709202854818 
-0.0001232031212766147 
0.0004337512984961643 
-0.0001710921097990193 
5.971455700153743e-05 
0.0007431763168129851 
0.0002296993749188375 
-0.0001225582080690982 
-2.604627745201845e-05 
9.272683891844024e-05 
-9.656273003279112e-05 
-8.415510398113399e-05 
5.452033022805792e-05 
0.000132685645114587 
0.0001541477551160892 
0.0002634428334306741 
0.0006859001021318212 
5.995295402081651e-05 
-0.0001991459945890587 
-0.0001206742546365613 
-0.0002680841631912606 
0.0002193084671596536 
-0.0001621592097717867 
0.0003037919426044209 
-0.0001069029159432927 
-0.0002800759167947178 
-1.988234163498003e-05 
-0.0001510299685004773 
-0.000304392677119695 
0.0002026988088301131 
1.532188464740266e-05 
0.0001146583046272905 
0.0003390999006441247 
9.122067731995678e-05 
9.02409419145864e-05 
8.960458136428393e-05 
-9.277506494071804e-05 
-0.0002103540408794554 
-0.0001655346532089252 
3.537256786540467e-05 
-0.0003097995038249823 
-0.0005015254030050272 
0.000266265219780275 
-1.213349782875798e-05 
0.0001684208907772909 
-0.0002250561700929047 
3.127029333208414e-05 
0.0005686610499411671 
-8.729896256785348e-05 
-0.000326441255228696 
0.0007432439743892323 
0.0007658889223650026 
0.0007137044228848671 
-0.0001138069657276486 
0.0001455941942261914 
0.0001581473342975193 
-0.0002776135261442046 
-0.0002140878087282019 
-0.0002276971977294726 
-0.0003989338681828895 
0.0001094145417049761 
-8.67009359945211e-05 
0.0002089215515275215 
-6.537479081320766e-05 
2.861011148947607e-05 
-7.192120344569332e-06 
0.0004422561968242996 
0.0001576850701834457 
0.0001384569052028128 
-2.177816744063594e-05 
1.851710657187917e-05 
0.0004717301774210283 
-0.0004902040352411563 
-0.0008277653751406325 
0.0003431702860252256 
0.0004047205153324524 
0.0002531052215851245 
-0.0005714825711373447 
1.946479543288679e-05 
-6.812223757052599e-05 
-1.19258760927491e-06 
-5.287647204419243e-05 
0.0003804940031019852 
-0.0001596641316699137 
7.30220891170105e-05 
0.0005592743718404912 
-4.458481423583739e-05 
0.0004849095179476213 
-0.0002840438369268436 
0.0001841738116366267 
0.0001422990108023249 
6.384587355994135e-05 
6.909152501411285e-05 
0.0002195553972534423 
0.0003442721010292824 
9.565264092645961e-05 
-0.0002984592245716427 
8.765779607771539e-05 
0.0002887373587865121 
-0.0005518714717115935 
9.066241962006001e-05 
-3.795320408866571e-05 
-0.0003624887835311454 
-0.0001958108114651215 
-2.80501381365887e-05 
1.192294215824466e-05 
0.0001425075490575441 
-9.45380199594436e-05 
-6.354814611012961e-05 
5.235551893821493e-05 
-0.0001235096439493048 
-0.0001774147328429015 
2.410705397525079e-05 
-0.0002675712634138181 
0.0001609202037826125 
-0.0006483208516605081 
-0.000564143129062509 
-0.0004824297692716259 
-5.257380371555555e-05 
-0.000368457723483182 
-0.0001833376895917885 
-0.0003947593298688817 
-0.0003541283840590662 
0.0003162861220383427 
0.0003589878590577606 
0.000349001894291538 
0.0005810680358499459 
-0.0005161796948639322 
0.0003084653332420231 
-1.252887111669755e-05 
-0.0003371140667296539 
0.0003046699939941038 
-0.0002141224340763973 
0.0001640400321435607 
0.0004942364454978542 
-0.0001805978978834046 
0.0002312878485678305 
5.244224457615894e-05 
-0.0004501576372906903 
-0.000195305551716248 
0.0001204398740538945 
-0.0002530935239559972 
-7.794805667753606e-05 
6.399431160870307e-05 
-8.728091842638326e-05 
1.913596229985096e-05 
-5.648354111607281e-05 
-8.129604007077801e-05 
-0.0003946665542651037 
-0.0002201068514994597 
-4.634076223529518e-06 
-0.0002716293531322285 
5.412663160127262e-06 
-7.569545576249597e-05 
-0.0002083209903010615 
-0.0002135928110751557 
0.0001184483948331569 
-0.0002670429500782296 
-0.0003120286932036 
0.0003172823059741431 
-0.0004725007764398896 
0.0004691146009933489 
-0.000169517280650026 
-0.0003134929597215303 
0.0001911710010470413 
0.0005891925686795986 
-7.094840880121061e-05 
7.411027306451828e-05 
-0.000115669796834446 
0.0003960328354680929 
-0.0002165428459361808 
0.0001688630216372909 
0.0005508912281844241 
0.000229863915255671 
-0.0001072262425662913 
-0.0005082243926781995 
-5.221182030120289e-05 
-0.0003201747386647058 
0.0001895712985565079 
2.520509054399305e-06 
0.0001075145510490933 
-2.368062201865069e-05 
0.0004057510557950597 
0.0003993881519824944 
-8.201534146466239e-05 
0.0006217242718506124 
0.0001229803789669243 
0.0002492885471761885 
-2.426790540412024e-05 
-0.0002371363309340065 
-0.0004815400926547038 
0.0007016217378330053 
-0.0003442785447857411 
-0.0001574610262660929 
-0.000439180889912149 
0.0001783050370424676 
-0.0006645740433052022 
-8.022384574188144e-05 
-0.0002135001806147801 
0.0001579241011644928 
-0.0004424626426956592 
-8.522854237740863e-05 
0.0002006748131045451 
-0.0003376791726995847 
-3.3562655104803e-05 
-0.0001141709202854818 
-0.0001232031212766147 
0.0004337512984961643 
-0.0001710921097990193 
5.971455700153743e-05 
0.0007431763168129851 
0.0002296993749188375 
-0.0001225582080690982 
-2.604627745201845e-05 
9.272683891844024e-05 
-9.656273003279112e-05 
-8.415510398113399e-05 
5.452033022805792e-05 
0.000132685645114587 
0.0001541477551160892 
0.0002634428334306741 
0.0006859001021318212 
5.995295402081651e-05 
-0.0001991459945890587 
-0.0001206742546365613 
-0.0002680841631912606 
0.0002193084671596536 
-0.0001621592097717867 
0.0003037919426044209 
-0.0001069029159432927 
-0.0002800759167947178 
-1.988234163498003e-05 
-0.0001510299685004773 
-0.000304392677119695 
0.0002026988088301131 
1.532188464740266e-05 
0.0001146583046272905 
0.0003390999006441247 
9.122067731995678e-05 
9.02409419145864e-05 
8.960458136428393e-05 
-9.277506494071804e-05 
-0.0002103540408794554 
-0.0001655346532089252 
3.537256786540467e-05 
-0.0003097995038249823 
-0.0005015254030050272 
0.000266265219780275 
