solver_type L2R_L2LOSS_SVR
nr_class 2
nr_feature 79534
bias -1
w
5.502759044559685e-07 
1.387255140395552e-06 
3.356328056090468e-06 
2.821924435046366e-06 
2.168717286397709e-06 
2.781389756339165e-06 
3.363748624212876e-06 
3.465771309874622e-06 
4.402796306355817e-06 
4.860078169951648e-06 
4.132218160385014e-06 
4.153773004581779e-06 
3.995129874712521e-06 
4.510932397803731e-06 
4.712420278250918e-06 
5.208810394836533e-06 
5.300791754094053e-06 
5.736800656364342e-06 
5.358603975408669e-06 
3.068162166124384e-06 
1.04370872374611e-06 
8.639437413118812e-07 
1.984432883182819e-06 
4.273783787449592e-06 
3.781790860013306e-06 
2.169225938313341e-06 
1.159491637348575e-06 
1.933807504333715e-06 
3.653833670735335e-06 
2.490694970385912e-06 
8.296613172913976e-07 
2.067796243777072e-06 
3.006994776464243e-06 
2.565890323021937e-06 
3.595137177138394e-06 
4.294424436175097e-06 
3.798032483918762e-06 
2.924523562894074e-06 
3.025929319176583e-06 
3.863935536648855e-06 
4.246816600654919e-06 
4.164262789765383e-06 
4.529285641592394e-06 
5.169673502852669e-06 
5.0633412983731e-06 
3.731020434253503e-06 
2.239337805876135e-06 
2.21865843265018e-06 
2.870006107453556e-06 
4.188957443697985e-06 
2.918426523016105e-06 
1.021080688373638e-06 
1.658512747335879e-06 
2.555898211600712e-06 
3.557390465290534e-06 
2.856085770742512e-06 
7.64310089909326e-07 
1.983773710381078e-06 
2.149514017651302e-06 
2.517980791386741e-06 
3.764097681180476e-06 
4.188148719072066e-06 
3.676481822160629e-06 
2.545008826006665e-06 
2.211218081774161e-06 
2.802286597947626e-06 
3.178625979998078e-06 
3.14993472529714e-06 
3.814420547311001e-06 
4.572426141077533e-06 
4.498678868020439e-06 
3.296256637808953e-06 
1.591334212541171e-06 
1.780416163867222e-06 
2.59297158991618e-06 
3.281345065136583e-06 
1.969836647713452e-06 
5.10061253767882e-07 
2.48394418373603e-06 
1.871951131495768e-06 
3.196396990871594e-06 
2.510615238244856e-06 
1.631245648986561e-06 
2.210845295010655e-06 
2.797814338538139e-06 
2.367612991645337e-06 
3.133773917690811e-06 
3.877256576670011e-06 
2.810160990378304e-06 
1.676201686168058e-06 
1.986358346889785e-06 
2.790794420017877e-06 
2.810183861727637e-06 
2.941235432325611e-06 
3.028756852166095e-06 
3.805011274472918e-06 
3.924773443020154e-06 
2.647182182025211e-06 
1.896695533858925e-06 
2.110050823695465e-06 
2.200850593541591e-06 
2.579037565098731e-06 
1.588877518721131e-06 
2.775058603001631e-07 
5.424226328718917e-07 
1.911697165937417e-06 
3.47603691553344e-06 
2.019240322109146e-06 
1.406430487492742e-06 
2.954731429851107e-06 
3.46087492271303e-06 
2.167438403896261e-06 
3.220697977832754e-06 
3.935700885831597e-06 
2.947307713463851e-06 
1.820857662449335e-06 
2.00947722252197e-06 
2.528122741556777e-06 
2.51935949035084e-06 
3.05219123872624e-06 
3.233040597393005e-06 
4.068417864551895e-06 
4.27395565307598e-06 
2.390401763777053e-06 
1.988488429187329e-06 
2.135781420357112e-06 
1.729402289286927e-06 
2.491839307813983e-06 
1.410395029486392e-06 
-8.041433754226851e-09 
8.474392379112916e-07 
1.227648975377594e-06 
3.137457352365407e-06 
2.557926823797746e-06 
1.551801014810618e-06 
2.712690526154491e-06 
3.301965215725956e-06 
2.392695697361323e-06 
2.956746221047252e-06 
3.779123439120786e-06 
2.961024728224088e-06 
1.690445602261317e-06 
1.949916766922988e-06 
2.594516320334347e-06 
2.722672400731377e-06 
3.352004830507922e-06 
3.233816909413478e-06 
4.004986024417849e-06 
3.988703208554612e-06 
2.213196941627562e-06 
9.187016306630713e-07 
1.176414229186189e-06 
1.794036073653805e-06 
2.570921103982034e-06 
1.613473824434304e-06 
-4.210468764505598e-08 
1.458012835892844e-06 
2.408381239711256e-06 
3.37149666928598e-06 
2.934803450564671e-06 
1.910121105394016e-06 
2.820439921519326e-06 
2.626551668618614e-06 
2.237115282891619e-06 
3.103669866815954e-06 
3.798448794825572e-06 
3.151528974083953e-06 
1.999472174360842e-06 
2.283400819264958e-06 
2.735099487449999e-06 
2.889123256683352e-06 
3.495580017095239e-06 
3.096859517084758e-06 
3.752678323843572e-06 
3.737853002470165e-06 
2.511162228707945e-06 
2.210719185537951e-06 
2.379377463162612e-06 
2.265639765247478e-06 
2.448122915495264e-06 
1.933339257834465e-06 
3.113273898632541e-07 
1.404423046157061e-06 
1.965067341783222e-06 
3.988013496275556e-06 
3.111861182338256e-06 
1.811758941542933e-06 
2.616622042114471e-06 
3.538480939936126e-06 
2.754902178140007e-06 
3.386651233336819e-06 
3.984323144105836e-06 
2.793733034886266e-06 
1.809989241199438e-06 
1.900363839214172e-06 
2.729312779035734e-06 
3.183425382765927e-06 
3.76411638468487e-06 
3.074909648988839e-06 
3.289352487109779e-06 
3.49641184482035e-06 
1.688175965058006e-06 
8.315180411150437e-07 
9.296443167969415e-07 
1.433126076402188e-06 
2.106170299335719e-06 
2.083469049847968e-06 
6.651559676996448e-07 
1.650365365951515e-06 
1.527248702789812e-06 
3.999052741663296e-06 
2.41351638002518e-06 
1.440856525812318e-06 
2.298977473521656e-06 
2.656563701631009e-06 
1.96989303807506e-06 
3.018595773160439e-06 
3.492129825795552e-06 
3.08740243666095e-06 
1.948350925328954e-06 
1.547540817696016e-06 
2.758699315336613e-06 
3.128917243642532e-06 
3.258470228518906e-06 
3.121073668902421e-06 
3.868785586317549e-06 
3.487359961697365e-06 
1.921649266612917e-06 
1.337154071756886e-06 
1.505390943155411e-06 
1.577752910673046e-06 
2.429915975871024e-06 
2.185280669497092e-06 
4.808159373959539e-07 
1.993963731245278e-06 
5.510957728294653e-07 
4.058315637806374e-06 
2.61564394625305e-06 
1.502522061203975e-06 
2.117498947629991e-06 
2.313643818434924e-06 
1.897270907595718e-06 
2.502508963411346e-06 
2.921495902992937e-06 
2.68567405946968e-06 
1.389074596691356e-06 
1.50352995345953e-06 
2.271979719858654e-06 
3.111286048624664e-06 
3.786072018962853e-06 
3.520996015264866e-06 
4.3292478738718e-06 
3.875343899043953e-06 
1.826624885110335e-06 
6.53727608035767e-07 
7.500177227343404e-07 
1.394113741833027e-06 
2.60256561392579e-06 
2.162684352043915e-06 
1.531326710417875e-07 
1.763700863406605e-06 
1.492018163530381e-06 
3.313934985374309e-06 
3.268155167228466e-06 
2.188765445973347e-06 
2.147424808995756e-06 
2.467726430787851e-06 
2.529459006847475e-06 
2.677469779909649e-06 
3.609627984136143e-06 
3.325646197140975e-06 
2.324641197468348e-06 
2.123849116384049e-06 
2.876569064041132e-06 
3.789196546547005e-06 
4.131132253829146e-06 
3.408872104983776e-06 
4.097192170214367e-06 
3.724051368212147e-06 
1.986606645190778e-06 
1.107429593196054e-06 
1.111329797993783e-06 
1.563755767675449e-06 
2.571319647520831e-06 
2.622917123266096e-06 
1.046878321871933e-06 
2.469705652677996e-06 
2.159316434947858e-06 
3.645655513385795e-06 
3.290852428906668e-06 
2.379383017239598e-06 
2.453011863574883e-06 
3.175992332507327e-06 
2.435457800867136e-06 
3.203423694999983e-06 
3.794032122664313e-06 
3.330645028357535e-06 
2.758104368471767e-06 
2.121345339619615e-06 
2.519082096498622e-06 
3.277099515000337e-06 
3.69017274854935e-06 
3.441988313054854e-06 
3.373955772424315e-06 
3.09019990054563e-06 
1.62559662193196e-06 
4.615756742743309e-07 
6.09924809338947e-07 
1.270445686827386e-06 
2.317057526988249e-06 
2.360721801443099e-06 
7.372484828143389e-07 
2.418646555824001e-06 
3.20042724103654e-06 
4.015620657473467e-06 
3.477118412953476e-06 
2.005368532456279e-06 
2.246553607472456e-06 
3.392504160854349e-06 
3.568128938769806e-06 
3.469600811604393e-06 
3.962450891358731e-06 
3.154644103040142e-06 
2.127139826113732e-06 
2.278886818231315e-06 
2.866271140580953e-06 
3.310769280798689e-06 
3.255006057350802e-06 
3.000038381555637e-06 
3.066094088569892e-06 
2.918298941939775e-06 
1.763910495483047e-06 
1.457550169064622e-06 
1.783652213918541e-06 
1.512207834226303e-06 
2.157922118440078e-06 
2.252635080752289e-06 
6.278478860403036e-07 
2.748115267352538e-06 
3.234050415519747e-06 
4.830323520023614e-06 
3.838936390050353e-06 
2.811225710533057e-06 
2.546544065427147e-06 
3.702858603496978e-06 
3.819494495672806e-06 
4.229853371646412e-06 
4.803252595512968e-06 
4.021143668195338e-06 
2.842535940353617e-06 
2.731984648339586e-06 
3.904560226848899e-06 
4.374217472966582e-06 
4.038894961596965e-06 
4.020756325677873e-06 
4.102611253849657e-06 
3.750555233360657e-06 
2.653389768128261e-06 
2.389918109214762e-06 
2.322040019728948e-06 
2.135079581851322e-06 
2.940305337924549e-06 
2.852729250760322e-06 
1.540443286425465e-06 
2.482364469804663e-06 
3.564681128720995e-06 
5.061035985331508e-06 
3.922107056308898e-06 
2.520843822664401e-06 
3.549499393300833e-06 
4.617610319188584e-06 
4.308374390472059e-06 
4.585599972170335e-06 
4.968455626717394e-06 
4.304408093996111e-06 
3.201633211166369e-06 
3.123262169185321e-06 
3.977344764947527e-06 
4.542145707270746e-06 
4.100626180925799e-06 
3.859565483708959e-06 
4.51721257047065e-06 
4.084955517411198e-06 
2.374917105859066e-06 
2.181870798965285e-06 
2.095437989763416e-06 
2.040164819167633e-06 
3.204384695865244e-06 
3.013978675133103e-06 
1.833863603419043e-06 
2.576361692522959e-06 
2.720667394615323e-06 
6.03524848792084e-06 
3.963843357769931e-06 
2.613139253769111e-06 
3.337444315456383e-06 
4.347370248439219e-06 
4.030570111908228e-06 
4.727727062491353e-06 
5.025299942728807e-06 
3.825825993196755e-06 
3.146216029960795e-06 
2.799408591844133e-06 
3.489222132977025e-06 
3.663399032286302e-06 
3.779977666716007e-06 
3.521706875387699e-06 
3.501177447825753e-06 
3.270553421120403e-06 
1.869087427874938e-06 
1.910303684993226e-06 
2.045337326278242e-06 
1.698138362252371e-06 
2.258870757059458e-06 
2.227392284333271e-06 
1.682449843939668e-06 
2.714490838677576e-06 
3.64970210371095e-06 
5.607287843609742e-06 
4.452759694081158e-06 
2.84616863927866e-06 
3.509831968752955e-06 
4.254690558289058e-06 
4.657201840422808e-06 
4.684491352335034e-06 
4.557409204891574e-06 
3.564562565669584e-06 
2.864416657514613e-06 
2.743440789791681e-06 
2.965830804498345e-06 
3.188362529041612e-06 
3.397016736048745e-06 
3.408429249899674e-06 
3.478343401370322e-06 
3.183698733077773e-06 
1.807384707986404e-06 
1.99211461882067e-06 
2.295772971818894e-06 
1.664479934916082e-06 
2.261540741080756e-06 
2.270366186516752e-06 
1.367835733944713e-06 
3.982942847910286e-06 
3.860562449652981e-06 
6.009352397845531e-06 
4.372174827289086e-06 
2.658285895407817e-06 
3.159197257117671e-06 
4.552413665702025e-06 
5.052119729903529e-06 
5.351608666114707e-06 
4.856618167001461e-06 
4.003061810017342e-06 
3.32045132805233e-06 
2.708787346676787e-06 
3.261412768552774e-06 
3.195229396853852e-06 
3.389462624837444e-06 
3.127435215927365e-06 
3.354710892078632e-06 
3.008434824425716e-06 
1.822880570220892e-06 
2.015650906600225e-06 
2.35671186712612e-06 
1.652560619633629e-06 
1.606736959896708e-06 
1.657179143626438e-06 
1.633627741761001e-06 
2.825542021209487e-06 
3.189230584052826e-06 
5.961455298753348e-06 
4.748986331713919e-06 
2.759002374900045e-06 
3.004614738621219e-06 
3.971246867051179e-06 
4.277049866378794e-06 
4.597324254606067e-06 
4.537110836084369e-06 
3.981715590057273e-06 
2.784488677213548e-06 
2.500860289543471e-06 
3.031167419887472e-06 
3.216257910044352e-06 
3.404523302923895e-06 
3.292582345477288e-06 
3.396196300615028e-06 
3.597226326431876e-06 
2.350604155095068e-06 
2.862283008026277e-06 
2.975366999290218e-06 
2.155896165128308e-06 
2.161874210089064e-06 
2.030824762945624e-06 
1.627686023019904e-06 
3.512947838096087e-06 
3.893372101770533e-06 
6.429043625524903e-06 
4.577344905820994e-06 
2.725488912227306e-06 
3.52421965634726e-06 
4.275295889286087e-06 
4.803591550156355e-06 
4.905694309460901e-06 
4.715128996737866e-06 
4.27368206715354e-06 
3.316874126257125e-06 
2.542789146972319e-06 
2.824941400809035e-06 
3.035374118265118e-06 
2.946308568870144e-06 
2.752225431970665e-06 
3.237976918044738e-06 
3.348528520548363e-06 
2.289819982364343e-06 
2.459416056207692e-06 
2.858034228650012e-06 
2.248290344316104e-06 
2.006775534827644e-06 
1.640784016753599e-06 
1.584685441813872e-06 
3.150039714356588e-06 
3.060109539437476e-06 
6.045453458674142e-06 
4.591468993777867e-06 
2.96889351866726e-06 
3.043256470477852e-06 
3.738943325352071e-06 
4.288713343779584e-06 
4.403789166999175e-06 
3.963830469697399e-06 
3.485038658580943e-06 
2.80028486792085e-06 
2.239460550811607e-06 
2.271980407406895e-06 
2.655084590689648e-06 
2.818700779154416e-06 
2.754123766922661e-06 
3.031077572437513e-06 
3.157895712562667e-06 
2.056985269929497e-06 
2.303162924262192e-06 
2.394405281957942e-06 
1.938053025805559e-06 
1.680251911829566e-06 
1.41649218740009e-06 
1.357416917930438e-06 
4.102381208488976e-06 
3.586853299637446e-06 
5.943851870203554e-06 
5.086845439741115e-06 
3.014130853607917e-06 
2.936022712208685e-06 
3.881428969986903e-06 
4.567121625905196e-06 
4.604112553262141e-06 
4.32189150299314e-06 
4.111042532905464e-06 
2.885807906039219e-06 
2.429598623222604e-06 
2.653600025904407e-06 
2.257210098925397e-06 
2.625978823361359e-06 
2.533061044288776e-06 
2.857308687610881e-06 
2.751421949817956e-06 
9.809813608698295e-07 
8.131266837038546e-07 
1.092430541631311e-06 
1.022200015168975e-06 
1.473302713902411e-06 
9.563281946457797e-07 
1.349431881835115e-06 
3.369600925268536e-06 
3.594806628009238e-06 
6.193989759844533e-06 
4.337751230269932e-06 
2.866716824332219e-06 
2.248741031078459e-06 
3.288770335041807e-06 
4.507181586923237e-06 
4.835739762984468e-06 
4.406061842384729e-06 
4.219997138364349e-06 
2.585367614334073e-06 
1.769339908727428e-06 
2.42571451889352e-06 
2.501303294246307e-06 
1.898961372781253e-06 
2.106129308097533e-06 
3.212132087139191e-06 
2.634241656685842e-06 
1.132247115614911e-06 
1.562570175048181e-06 
1.660681621246674e-06 
1.186967311859187e-06 
1.248115956452005e-06 
8.112267951329048e-07 
9.056728597652339e-07 
2.904106357241529e-06 
2.340598773470834e-06 
5.205160288864472e-06 
3.275049322325149e-06 
2.161788449813413e-06 
2.47292293982458e-06 
3.213941597528442e-06 
3.945915541986091e-06 
4.542020063195908e-06 
4.182380157651471e-06 
3.754998730740227e-06 
2.012906851545731e-06 
1.881774796567005e-06 
2.548086632029548e-06 
2.630910503655006e-06 
2.53239571485071e-06 
2.387665047908119e-06 
3.059582920903614e-06 
2.770469111134782e-06 
1.398508750821478e-06 
1.436005632506934e-06 
1.681603342943823e-06 
1.074703143210569e-06 
1.390908918149052e-06 
1.243815918405367e-06 
1.182114164542341e-06 
2.396351205488894e-06 
2.499131065262385e-06 
3.807049342839921e-06 
2.680492247863918e-06 
1.735180253183782e-06 
1.160234797190287e-06 
2.836076506334231e-06 
3.953334097717756e-06 
3.769244437594693e-06 
3.594407828150252e-06 
3.66093592367897e-06 
2.203027230756436e-06 
1.700655257431327e-06 
2.186121905376186e-06 
2.503540229527207e-06 
2.524892982104932e-06 
2.284433763143455e-06 
2.816043435593956e-06 
2.543587649002888e-06 
1.355888145908195e-06 
1.52965042660576e-06 
1.934950189080785e-06 
1.140030515896468e-06 
1.395691960680275e-06 
9.212753447674604e-07 
2.958158138896472e-07 
2.043727339536656e-06 
2.261669266418598e-06 
5.35179006643149e-06 
3.039478550796644e-06 
1.647589633420124e-06 
1.749963083809195e-06 
3.945915675554199e-06 
4.188591855514272e-06 
3.813960234974296e-06 
3.568618176042434e-06 
3.316400678024049e-06 
2.246491013022567e-06 
1.761159369430906e-06 
2.353318536548708e-06 
2.706647062931099e-06 
2.389352262285792e-06 
2.305659138262915e-06 
2.552500102459754e-06 
2.430413605545899e-06 
9.391747540750153e-07 
9.098380620692943e-07 
1.090590503067306e-06 
7.209338558245748e-07 
1.109930842376568e-06 
7.951673412639728e-07 
4.910360762330408e-07 
1.987914805031487e-06 
1.926594002487338e-06 
4.837415150936789e-06 
3.196693521394622e-06 
1.874854139066722e-06 
1.542328546101332e-06 
2.753485176544558e-06 
3.180465474631992e-06 
3.599399851764797e-06 
3.653163305363259e-06 
3.504697022111083e-06 
2.156223265787923e-06 
1.988869132695853e-06 
2.451321977076771e-06 
2.007249582864125e-06 
1.72117249332241e-06 
2.048529207075385e-06 
2.409757045112059e-06 
2.145649708403712e-06 
1.032279009413486e-06 
1.074669977493951e-06 
1.310407172353124e-06 
1.380273070647083e-07 
9.543423052054143e-07 
6.05149063122677e-07 
4.251427304956734e-07 
1.812721815125538e-06 
1.890069280215277e-06 
4.089173539918681e-06 
2.681014277716732e-06 
1.655438602369638e-06 
2.234440949973373e-06 
3.749811538487878e-06 
3.764470925324725e-06 
3.46638557528794e-06 
3.334711788383149e-06 
3.219830122208931e-06 
2.121915940397822e-06 
1.401384007826471e-06 
2.202386664231693e-06 
2.322548292528518e-06 
1.842091032495765e-06 
1.901450670087971e-06 
2.367635024050399e-06 
1.745707860435518e-06 
5.884924581281337e-07 
4.972118368903092e-07 
5.836164187657225e-07 
2.074554038219948e-07 
7.272564102394662e-07 
5.038833251694778e-07 
2.724747781479638e-07 
3.753287175956353e-06 
1.641890327895204e-06 
4.293036458701221e-06 
3.199798540959314e-06 
1.27139196623245e-06 
1.647008447222787e-06 
2.884511572567625e-06 
3.252782777289815e-06 
3.535492242391516e-06 
3.164478010759917e-06 
3.114805144603531e-06 
2.06706701493567e-06 
1.494509097454268e-06 
1.587319743137834e-06 
1.841825695802434e-06 
1.400101781517996e-06 
1.911094705424798e-06 
2.278925111440815e-06 
1.863183611637546e-06 
-3.434075508834431e-07 
-1.021679213813086e-07 
2.150765418313068e-07 
-3.572629344403389e-07 
9.186259993139809e-07 
3.639671893860443e-07 
3.302425211700064e-07 
2.880921202940182e-06 
1.919143047102644e-06 
3.262067997249278e-06 
2.373240888236353e-06 
7.292711077130224e-07 
9.734147674373311e-07 
2.144097322292492e-06 
2.817997554785854e-06 
2.364991859908565e-06 
2.176538361016706e-06 
2.629376251222768e-06 
2.057018641126057e-06 
1.258449260381854e-06 
1.566372141145124e-06 
1.74845545192388e-06 
1.217622504062855e-06 
1.620711633393439e-06 
2.30111225485993e-06 
1.872063721130684e-06 
2.821253518137995e-07 
7.873018001186035e-08 
1.534700227363513e-07 
-3.152528439331218e-07 
6.101726670657573e-07 
2.974195864415024e-07 
3.133104660796302e-08 
1.940748837641629e-06 
6.833595832766275e-07 
3.041318535319875e-06 
2.112956444432668e-06 
1.201196757936705e-06 
1.349927922900905e-06 
2.552395597677041e-06 
3.182409051028341e-06 
2.239574803403423e-06 
2.366185006716551e-06 
2.642280991457302e-06 
1.862064209959677e-06 
1.239276181865024e-06 
1.495455430839053e-06 
1.995810350329429e-06 
1.184773950825991e-06 
1.615365933705959e-06 
2.375496010436358e-06 
2.515190539590837e-06 
2.095893470350364e-07 
-5.730403424703206e-08 
1.76328410363706e-08 
1.447556394077377e-08 
1.018924384073378e-06 
2.915685205541719e-07 
2.342708806793957e-07 
2.13770368928005e-06 
8.568701164707358e-07 
2.948563485110069e-06 
2.221111035197732e-06 
1.449423535267609e-06 
1.615256805279456e-06 
2.928499163965911e-06 
2.687770733216959e-06 
2.39029319265033e-06 
2.889475196478745e-06 
3.489274523651283e-06 
1.83305497772744e-06 
8.797788613842447e-07 
1.944322612577846e-06 
1.964353078767329e-06 
1.363338767001556e-06 
1.642948827800932e-06 
2.506566570220936e-06 
2.457038093577142e-06 
4.090453039456625e-07 
2.16906465459192e-07 
1.68729326791029e-07 
1.82914060755015e-07 
1.124233635269605e-06 
4.124894895501963e-07 
2.12701344316088e-07 
1.432164390689645e-06 
6.5929340304633e-07 
2.227071517659191e-06 
2.089282263513056e-06 
1.863690831036727e-06 
1.533584328492468e-06 
2.71250672698794e-06 
2.997895216737289e-06 
2.983129974848477e-06 
3.181738475247032e-06 
3.293355067736812e-06 
1.745841648037407e-06 
1.479577971286523e-06 
1.771620861150397e-06 
2.545235708514219e-06 
1.746032759253874e-06 
1.678441105052627e-06 
2.654955098926216e-06 
2.687249717953327e-06 
9.016961955293749e-07 
2.070153333696706e-07 
2.763429110811837e-07 
4.801679168933857e-07 
1.422103063559707e-06 
6.659658222493748e-07 
4.631402387899314e-07 
9.332831647938212e-07 
9.583331392895161e-07 
2.322211929236326e-06 
1.756512882188333e-06 
1.307289527362706e-06 
1.439351431957956e-06 
2.413427744948824e-06 
3.067256293505152e-06 
3.386612596268902e-06 
3.308106205369778e-06 
3.426218097400225e-06 
2.337814200580834e-06 
1.779981459975773e-06 
2.539509428229634e-06 
2.877255608083009e-06 
2.037574938267887e-06 
1.963904251602607e-06 
2.918365087399828e-06 
3.262813893798132e-06 
1.373040682122659e-06 
7.43419113955328e-07 
8.030708108796718e-07 
1.083276289698986e-06 
1.554712197088583e-06 
6.925145898983968e-07 
7.223216489944625e-07 
6.597080134593476e-07 
8.715192490054087e-07 
2.198582346409709e-06 
1.63549273471047e-06 
1.261441132122544e-06 
1.697234251806716e-06 
2.811394444780101e-06 
2.559496394403153e-06 
2.909411682182914e-06 
2.894600999467643e-06 
2.704052611954766e-06 
2.084198751548671e-06 
1.592552862367492e-06 
2.335985937440198e-06 
2.871738069405001e-06 
2.118303501461619e-06 
1.593643820896358e-06 
3.124514049991676e-06 
2.855424666114266e-06 
1.40962717190306e-06 
1.377562791637336e-06 
1.53246921338e-06 
7.393266692917758e-07 
1.231136553050649e-06 
6.16404400085282e-07 
4.987079272783742e-07 
5.502430664158716e-07 
1.377047065943245e-06 
2.490845549216618e-06 
2.132688925088225e-06 
9.793233430927804e-07 
1.19926289214416e-06 
2.238093251807128e-06 
2.761487308732343e-06 
3.007511669941106e-06 
3.250338680097961e-06 
3.096687160409301e-06 
2.306044737490036e-06 
1.459341840278871e-06 
2.32267224974613e-06 
2.910755610636981e-06 
1.759055240209169e-06 
1.303439414636456e-06 
2.32998169812775e-06 
1.964802292360662e-06 
4.205514045436562e-07 
-7.119145266967056e-08 
1.73026596110295e-07 
-3.063276819648854e-07 
7.811469934434452e-07 
4.314854802591659e-07 
4.132365750607016e-07 
1.05045644912914e-06 
1.268956670024439e-06 
2.266176585536514e-06 
1.850938257581531e-06 
3.064346182630157e-07 
4.149739869576914e-07 
1.898091331233602e-06 
2.669597561954481e-06 
2.680969395742035e-06 
3.107405488251368e-06 
2.808887816362419e-06 
2.539135983608269e-06 
1.583157320527265e-06 
2.338982297295206e-06 
2.717224682924249e-06 
1.807098986695582e-06 
1.46269249502229e-06 
2.864127145441587e-06 
2.447994443156519e-06 
7.937980399684022e-07 
2.124791205075901e-07 
4.002484009399442e-07 
6.240188451104466e-08 
8.848136801571594e-07 
4.217651360124804e-07 
3.970384080328108e-07 
1.055836909607421e-06 
1.135338570871575e-06 
1.989561432548453e-06 
1.450102772712839e-06 
7.448504814328793e-07 
1.005009784483313e-06 
2.395114868868182e-06 
2.622174318220436e-06 
3.264382563617321e-06 
2.961842246274532e-06 
2.615789205226581e-06 
2.058839784207222e-06 
2.148646497239488e-06 
3.011304865210262e-06 
3.600188752023778e-06 
2.313982938540254e-06 
2.168624172641951e-06 
2.979041864819947e-06 
2.944262133147327e-06 
1.385379324044179e-06 
4.670600730194543e-07 
6.834513929094023e-07 
8.168336255832989e-07 
1.266075116253548e-06 
7.862709922201174e-07 
6.395045795966499e-07 
1.27582387001184e-06 
1.13725906738841e-06 
2.636234617754498e-06 
2.432927586847337e-06 
1.179227947857268e-06 
1.646213204962337e-06 
2.761923204279177e-06 
3.176102827586597e-06 
3.394460884061611e-06 
2.914998096181755e-06 
2.992375308162164e-06 
2.052706521059483e-06 
2.153037803628364e-06 
2.754864101879813e-06 
3.222535708625819e-06 
2.341932288925532e-06 
2.368868593714465e-06 
3.246569012050108e-06 
2.788370009372972e-06 
5.76249034229746e-07 
6.8127016892216e-09 
1.815584126667512e-07 
1.695120598374053e-07 
1.419003130090514e-06 
9.309360829011071e-07 
8.38168171627235e-07 
1.610656765378179e-06 
6.995757838922281e-07 
1.970069121896695e-06 
1.887092597631885e-06 
1.374475245075263e-06 
1.635739452437891e-06 
2.520144799873331e-06 
3.142181928085174e-06 
3.318734252798209e-06 
3.20366926383346e-06 
3.04749542748568e-06 
2.046155585649973e-06 
1.917611770036805e-06 
2.929848863252386e-06 
3.475617798957643e-06 
2.569511444850011e-06 
2.681174268379119e-06 
3.122220529482801e-06 
2.848264967154295e-06 
7.257963156768758e-07 
-1.586341504468269e-07 
-1.383764456197914e-07 
9.740801144986905e-08 
1.519567602986995e-06 
1.108530493545089e-06 
7.339787177049341e-07 
1.251361963469174e-06 
2.761318106594992e-07 
2.186988737015722e-06 
2.199855040751078e-06 
1.252696577558644e-06 
1.064777406040618e-06 
2.295075070795064e-06 
2.985790088522702e-06 
2.807799440465622e-06 
3.297989356588136e-06 
3.290607462224902e-06 
2.254337638093565e-06 
2.286600169531851e-06 
2.364273138283707e-06 
3.194899643618063e-06 
2.344357777937582e-06 
2.720547278503568e-06 
3.581123901521662e-06 
2.835544090551e-06 
1.014137517587991e-06 
3.422775633763503e-07 
3.565291060082907e-07 
6.28677685492908e-07 
1.951039757573747e-06 
1.215126896044471e-06 
8.014011801828915e-07 
6.953003175626778e-07 
1.022547349422783e-06 
2.240436324275258e-06 
2.291147504125866e-06 
1.755329475205045e-06 
1.884157566957668e-06 
2.16962868454602e-06 
3.013132765961171e-06 
2.380143729379884e-06 
2.382936240911717e-06 
2.856760171705313e-06 
1.793807991111918e-06 
1.815244072291103e-06 
2.522061603141212e-06 
3.091528405111752e-06 
2.314021746309937e-06 
2.523687652628072e-06 
3.326660241064193e-06 
2.685018826580249e-06 
1.633434367573749e-06 
1.498163594798637e-06 
1.395722442592568e-06 
1.145271984994784e-06 
1.946100311342259e-06 
1.329311462786865e-06 
6.465463455708598e-07 
1.248208474971661e-06 
8.761416686268797e-08 
1.954607784001609e-06 
1.815781033645943e-06 
1.478530855893363e-06 
1.516537635697636e-06 
2.010343680114579e-06 
2.898977172463382e-06 
2.851955046183806e-06 
2.329929587633395e-06 
2.488107707144381e-06 
1.668540436668514e-06 
1.122223917857333e-06 
2.155424705650022e-06 
2.513364088046418e-06 
1.811317759191753e-06 
1.813571436346274e-06 
2.93487264974985e-06 
1.936329794277298e-06 
1.189970350343024e-06 
1.454610169035306e-06 
1.600645623317934e-06 
1.182470400100794e-06 
1.606896545480605e-06 
1.00253108534403e-06 
4.33444222785371e-07 
1.337985375567098e-06 
-4.475330727666888e-07 
1.408336055187091e-06 
1.990470482229486e-06 
1.55780602470673e-06 
1.731691638394947e-06 
1.951984377132454e-06 
2.810893715012397e-06 
2.508626351831476e-06 
1.845066520276479e-06 
2.114622783606041e-06 
1.625662170710182e-06 
1.018421785826537e-06 
1.669364220350618e-06 
2.019173042731789e-06 
1.203435215417435e-06 
1.420840522779032e-06 
2.519146016838427e-06 
2.299610679701577e-06 
5.926193818932486e-07 
-1.349090977146064e-07 
-1.435726110672939e-07 
2.229163745307653e-07 
1.242291086454934e-06 
5.293947984271542e-07 
4.206095038592049e-07 
6.861373136221518e-07 
-7.21696957613873e-07 
8.116302348900446e-07 
9.089545734300424e-07 
3.739109279304617e-07 
3.107806066083611e-07 
1.421419598386622e-06 
2.017693691091655e-06 
1.36888676258483e-06 
8.105115275210237e-07 
1.254347605583172e-06 
1.342594071708287e-06 
2.586389549475495e-07 
8.52865867096219e-07 
1.368201637509818e-06 
9.324383635715441e-07 
1.030795184170782e-06 
1.942747288968059e-06 
1.575364550930858e-06 
1.870412833273847e-07 
-1.99127634593461e-07 
-1.870551075614456e-07 
-5.269982828476581e-08 
8.906354414432976e-07 
-2.930515483081051e-09 
-3.462416895539982e-07 
1.409373314484059e-06 
-1.396439578492845e-06 
4.60294467713012e-07 
8.227377819368878e-07 
5.855895476527853e-07 
-1.69654888155044e-07 
1.588705188474802e-06 
1.951081241467559e-06 
1.346770709767611e-06 
5.992828602509651e-07 
7.049953483356915e-07 
2.41015562942269e-07 
-2.353793250044975e-08 
5.569296925294252e-07 
9.733844776514079e-07 
-3.78932996278181e-09 
4.813437096917163e-07 
1.135830616567229e-06 
6.627409798196479e-07 
-7.932694916589504e-07 
-1.336419624103189e-06 
-1.464106652612682e-06 
-1.113487108563242e-06 
-7.437197795459604e-08 
-6.617909447278678e-07 
-7.8667111506895e-07 
5.272482781683658e-07 
-6.762239800404699e-07 
4.096224644070629e-07 
-2.633575304952481e-08 
-4.057337609504066e-07 
-9.124220191293161e-07 
5.756607524809858e-07 
8.880454802678179e-07 
5.058895829540219e-07 
-4.396324375994061e-07 
9.388122229209045e-08 
-2.276586141338746e-07 
-5.431887356259954e-07 
4.342766992022006e-08 
3.423843787688624e-07 
-4.028394942406512e-07 
-7.703501720277248e-08 
7.660513649640044e-07 
2.951554979003711e-07 
-7.830971342794762e-07 
-6.513284329980899e-07 
-4.995461016195994e-07 
-9.795272952980418e-07 
-3.604039131753146e-07 
-1.168858536048444e-06 
-1.63057970870588e-06 
6.049123284527131e-07 
2.516819478749947e-08 
1.407355874508718e-06 
2.267863371561363e-07 
5.099300721502054e-08 
7.709651777332926e-08 
1.911034388844938e-07 
1.218478433614869e-06 
1.385622090266016e-06 
5.668890409465543e-07 
1.787970781799353e-07 
-4.552542411211072e-07 
-5.595530699520505e-07 
4.49960843810775e-08 
3.468138836819509e-07 
-9.212884217835685e-07 
4.210084607425782e-07 
1.194124099185194e-06 
3.928812115617393e-07 
-1.501489526257635e-06 
-1.930194985909086e-06 
-1.680214372274295e-06 
-1.837881090239654e-06 
-4.854044514312258e-07 
-1.281025636745095e-06 
-1.601612053343811e-06 
-2.52758370293677e-08 
-1.387810565098373e-07 
1.065144622479135e-06 
3.738151275543289e-07 
3.317989020366005e-07 
2.788296612250323e-07 
5.263263560101639e-07 
9.919096361358728e-07 
1.586983924977846e-06 
8.127093029691303e-07 
1.670331248503955e-07 
-1.047672933512254e-07 
-2.314958236383526e-07 
-1.796395609906298e-08 
3.19938430169987e-07 
-6.195481103512789e-07 
4.450179970753517e-07 
1.798736160224788e-06 
1.076046541926119e-06 
-4.818844322491306e-08 
-3.753666856626798e-07 
-3.815223148675179e-07 
-7.490476789493294e-07 
3.852359194080956e-08 
-1.150956201309103e-06 
-1.887058247240016e-06 
6.829534290763333e-07 
1.254253192064157e-07 
9.247148727468957e-07 
1.096018615679456e-06 
8.42533475826557e-07 
5.256537525339635e-07 
1.041618040942748e-06 
1.253162350636221e-06 
1.517094546698429e-06 
8.250698797403293e-07 
5.117348006453545e-07 
-2.011526872287529e-07 
-6.710702849108281e-07 
1.285558670168935e-09 
3.039335662837129e-07 
-2.699861616611022e-07 
7.111030197794508e-07 
1.183570209052489e-06 
7.532712767032357e-07 
-7.675969111077455e-07 
-1.182682827911945e-06 
-1.05398394841895e-06 
-1.14758472331707e-06 
-3.779844638176082e-07 
-1.074780238727004e-06 
-1.688503586759057e-06 
-4.47064270937575e-07 
-1.385306650961048e-07 
3.108969205309191e-09 
8.471313755951388e-08 
3.111916170347293e-07 
-2.6835787577711e-08 
1.902188157243255e-07 
8.519586516888996e-07 
7.370174926383104e-07 
-1.041083805040711e-07 
-3.158498542898156e-07 
-6.711745626096877e-07 
-9.723543045968114e-07 
-9.02612406562032e-07 
-3.530292924199044e-07 
-7.836865130214653e-07 
-7.025167557063233e-07 
2.346999714070423e-07 
2.226843410112555e-07 
-1.853260650093009e-06 
-8.871889310942414e-07 
-7.697342526345318e-07 
-2.158239858805275e-06 
-1.472969720467018e-06 
-2.383531041272993e-06 
-2.582792767816515e-06 
1.155193120654624e-06 
-2.551021260602547e-07 
1.921983073136459e-06 
1.156343189462204e-06 
7.917219782331134e-07 
1.248408793334497e-06 
1.507507889144607e-06 
2.108488361244902e-06 
2.21071669290366e-06 
1.386754147830674e-06 
1.096751168149205e-06 
4.477192600230044e-07 
-3.197297275977492e-07 
7.609672313166944e-08 
1.148067802144642e-06 
4.288363025468104e-07 
9.048626553846406e-07 
1.52788169303417e-06 
1.373958448343353e-06 
-3.403962567230647e-07 
-9.689094960306214e-07 
-7.805448050737449e-07 
-8.311210650338141e-07 
-1.131058661545432e-07 
-8.220756340416007e-07 
-1.1439466400059e-06 
1.400264124387197e-07 
9.290102529474545e-08 
2.098960444552519e-06 
1.822610557861682e-06 
1.786458042455884e-06 
2.022588043904201e-06 
2.296851160158531e-06 
2.742753362398184e-06 
2.660007119954221e-06 
2.049954697340047e-06 
1.478646764187471e-06 
1.196616443056653e-06 
6.412671791297957e-07 
9.508090218275826e-07 
1.615283623243713e-06 
8.195869146618077e-07 
1.339078403798531e-06 
1.960511826507537e-06 
1.414011242517541e-06 
-4.336214600764659e-07 
-8.102291896681109e-07 
-6.031311874718468e-07 
-6.500311891994538e-07 
2.65848161203738e-07 
-2.624183564362011e-07 
-4.602469394507709e-07 
9.771527605857323e-07 
2.491174789726523e-07 
2.061275268358966e-06 
1.727156289910883e-06 
9.670402762358188e-07 
1.751593553801591e-06 
2.12941489766686e-06 
2.227699771332832e-06 
1.637543571721059e-06 
1.360474931933375e-06 
1.020227320335565e-06 
1.140941005146267e-06 
7.074927912087127e-07 
7.275185855690064e-07 
1.468762453806119e-06 
8.167658886120411e-07 
1.572688919898939e-06 
1.810072214744545e-06 
1.673630893533549e-06 
3.823283356908995e-07 
1.412635169788489e-07 
3.021416071896502e-07 
-6.118201261806301e-07 
1.20269276580853e-07 
-7.131721598847072e-07 
-1.240376934991692e-06 
-6.969220318628132e-08 
3.502281882690833e-07 
2.232744577673975e-06 
2.155317541145925e-06 
1.314426155791666e-06 
2.286741339148074e-06 
2.28636580071225e-06 
3.057931246404815e-06 
2.838778429025562e-06 
2.163422816039598e-06 
1.915447765703795e-06 
1.199248759521546e-06 
1.05446458676925e-06 
1.216526542470759e-06 
1.886068783523574e-06 
1.395344653003031e-06 
1.897015290666721e-06 
2.619498202792986e-06 
1.837762996896629e-06 
-2.313615148260757e-07 
-4.930327493074455e-07 
-3.552812892925227e-07 
-9.258120118338689e-07 
5.482036378932332e-07 
1.907744796014911e-07 
-1.823108555385149e-07 
-5.09666267645885e-07 
5.939775298478244e-08 
2.316442650341182e-06 
1.117801026913734e-06 
1.036659896687584e-06 
8.288793164143687e-07 
1.783670176155729e-06 
2.381201570146906e-06 
1.684892575883841e-06 
1.670854470649849e-06 
1.295228608108743e-06 
1.019603761412109e-06 
7.093811554347864e-07 
1.146110853786111e-06 
1.884308945695974e-06 
1.73851662341818e-06 
2.0101165072229e-06 
2.644160968808701e-06 
1.972194763411437e-06 
-2.586495721047496e-08 
-3.330365350804495e-07 
-1.478840881665793e-07 
-2.706387323901801e-07 
6.928992667888788e-07 
2.642944649746993e-07 
-7.448813613248506e-07 
-1.505078422434423e-07 
1.021454887409881e-06 
3.060574096380101e-06 
1.799818531103057e-06 
4.170589590154828e-07 
8.486366190367184e-07 
1.448692433829298e-06 
2.240220265572636e-06 
1.619769517656171e-06 
1.287057111637234e-06 
1.096796806065048e-06 
5.864941225763923e-07 
-2.743475920483082e-07 
4.514337187472658e-07 
1.529060237298721e-06 
1.091196883564893e-06 
1.935352330321721e-06 
2.292333989561965e-06 
1.594232950154132e-06 
-3.34787114287805e-07 
-1.257787763202252e-06 
-9.348439122362884e-07 
-1.202383080784662e-06 
3.049528021203412e-07 
2.255257503710364e-07 
-8.833734569491884e-07 
-7.707739879404557e-08 
-4.106622460283828e-07 
2.440474197446084e-06 
1.740865183474314e-06 
9.789027800878168e-07 
3.082263826151558e-07 
1.020112789572887e-06 
1.818842664574545e-06 
1.396831627972759e-06 
1.07449353525159e-06 
5.976977942416893e-07 
1.21242726472739e-07 
-7.609831733794084e-07 
-4.201334259128733e-08 
1.191384486112916e-06 
5.816825710941903e-07 
1.07569186603416e-06 
1.64024846656342e-06 
1.728434166919891e-06 
-1.416095738601945e-07 
-2.310451446843102e-07 
-3.04009576638083e-07 
-7.582579309365683e-07 
-1.297998517710003e-07 
-4.158464620459666e-07 
-1.290763005334619e-06 
-1.224971392126662e-06 
5.538554167363704e-07 
2.348896186280401e-06 
1.369011829309484e-06 
3.230575045406765e-07 
8.11598186804871e-09 
9.934591072683416e-07 
2.158131645647516e-06 
1.298592163485824e-06 
7.068259463480746e-07 
4.322983690847262e-07 
-1.346297808130189e-07 
-7.874591211588378e-07 
-9.966464779926132e-07 
2.068632063140394e-07 
-4.915813826766651e-10 
5.25977455361279e-07 
6.709263103886468e-07 
4.10022911327147e-07 
-1.455264763281077e-06 
-1.182404204154761e-06 
-9.035759112038129e-07 
-1.713686281923993e-06 
-8.816205203463216e-07 
-1.106626198590331e-06 
-1.526116283974487e-06 
-5.82515046601461e-07 
5.10729287560946e-07 
2.084818345469371e-06 
1.362312250823847e-06 
7.134085366215903e-08 
9.51137194748679e-08 
1.224413611235562e-06 
1.786357607314453e-06 
1.488460622610121e-06 
9.912705471856033e-07 
1.159708899697973e-06 
1.985813375773649e-07 
-7.98057017874476e-07 
-7.814613708581777e-07 
7.979790433273962e-07 
2.419872222180042e-07 
7.870549886107398e-07 
1.085086826775164e-06 
5.800799969292854e-07 
-8.833247811906631e-07 
-9.625187722874872e-07 
-6.905182720095299e-07 
-1.183956190723421e-06 
-6.090902340737112e-07 
-9.344494800224577e-07 
-1.486925905925713e-06 
2.6261253956868e-07 
1.197093727106483e-06 
1.750805111270913e-06 
1.020981760463511e-06 
3.00831016533873e-07 
-4.794121928508829e-07 
1.274572513232607e-06 
1.743261674450718e-06 
1.684809380089521e-06 
1.39942542917417e-06 
1.367981397313416e-06 
4.2522405226016e-07 
-4.483036448054028e-07 
-5.933281876434419e-07 
9.165725575638624e-07 
7.899397939089088e-07 
6.661794077262029e-07 
9.337701642570788e-07 
4.837932132322831e-07 
-1.028345661539626e-06 
-1.611591433785706e-06 
-1.520731107548207e-06 
-1.6348558687012e-06 
-6.508864239758119e-07 
-6.089172731511578e-07 
-1.11687228828815e-06 
-7.801803441033613e-08 
3.955995195724502e-07 
2.625837799882064e-06 
1.137030936084173e-06 
1.049454668216417e-07 
4.788501169680207e-08 
1.003680544760092e-06 
1.625472645074262e-06 
1.522519620869992e-06 
1.228583207020276e-06 
1.198336196655968e-06 
2.197731415356562e-07 
-1.721171064211942e-07 
5.40724691261553e-08 
1.071629044784552e-06 
6.093248082266205e-07 
6.042322997928199e-07 
8.756853973859298e-07 
3.455614548451893e-07 
-1.009411289281268e-06 
-1.419424259158434e-06 
-1.188685048005028e-06 
-1.321081240373031e-06 
-7.450281761063774e-07 
-7.858756401174011e-07 
-1.136486831582462e-06 
-2.475911722624143e-07 
5.024633106937638e-07 
1.322228458722594e-06 
1.344882389808809e-06 
-1.518028082293096e-07 
4.476849207445793e-07 
1.364528555675183e-06 
1.190250568993741e-06 
1.561348677555817e-06 
1.566224933093145e-06 
9.655622217094523e-07 
1.302497139638979e-08 
-1.111933578761473e-06 
-7.0665816245593e-07 
8.170958156638941e-07 
5.443308766825746e-07 
3.553025467099065e-07 
4.874549069444251e-07 
4.020718722120231e-07 
-9.448362784749389e-07 
-8.436835046437649e-07 
-6.54511553829485e-07 
-1.243735612419785e-06 
-8.864618268829546e-07 
-1.01681092618732e-06 
-1.510006674693613e-06 
3.562571025524676e-07 
-8.106096334211863e-08 
6.074036087414105e-07 
5.27807011759228e-07 
1.501543906335713e-07 
-6.530052029115827e-08 
1.256665160387938e-06 
1.488541637721762e-06 
1.307386793546245e-06 
1.406562531114604e-06 
1.110084323188425e-06 
-4.254566917756677e-07 
-1.390795155772723e-06 
-1.09979414981732e-06 
2.991970409429496e-07 
-2.005503972803396e-08 
3.17712957548384e-09 
4.122755163297832e-07 
-5.133818756894746e-07 
-2.502240480236272e-06 
-3.032274627691159e-06 
-2.735037825778763e-06 
-2.931307153262617e-06 
-1.721201803198046e-06 
-1.879160766258235e-06 
-1.822458659950489e-06 
-8.553390527848604e-07 
3.06676683231683e-07 
1.478224252811505e-06 
3.725043602062277e-07 
-4.140261312542289e-07 
-4.950486054196436e-07 
1.032777588590834e-06 
1.78956299039879e-06 
1.354955925780945e-06 
7.455575061984412e-07 
8.898265801139146e-07 
1.281726646040862e-07 
-9.764126666650101e-07 
-7.667470577791853e-07 
2.821699076555745e-07 
1.692024405673202e-07 
5.859947130268575e-07 
9.942713898400833e-07 
-5.314851897285133e-08 
-1.05450088250402e-06 
-3.647854541215707e-07 
-2.479287105398664e-07 
-1.427370023977543e-06 
-9.894808823908154e-07 
-1.350763904442193e-06 
-1.791612906321739e-06 
-7.619203166168431e-07 
-1.843924069780641e-07 
1.775701301529887e-06 
1.053608818377711e-06 
-4.296768756062289e-07 
-8.665635945504739e-07 
6.514022322433568e-07 
1.312327567268385e-06 
1.365298083641263e-06 
1.450957205576651e-06 
1.126153142301644e-06 
3.340984678516929e-07 
-8.460883006648388e-07 
-9.497127213396736e-07 
6.360802738252109e-07 
2.890751006820108e-07 
5.876512567937244e-07 
1.286066187477229e-06 
2.035945006818994e-07 
-1.350742935668057e-06 
-1.53889285143568e-06 
-1.429953070875952e-06 
-1.7896501384288e-06 
-7.681895526630687e-07 
-1.081486975121649e-06 
-1.814176840589455e-06 
-1.229285125792272e-06 
-7.968545170626423e-07 
2.227610324275859e-06 
1.170248515427235e-06 
-1.130902718000201e-07 
-8.382694742786647e-07 
3.678360740502757e-07 
1.549945799131849e-06 
1.668119114672595e-06 
1.460387346892851e-06 
1.276687762615085e-06 
2.00382776112432e-07 
-6.7393876694225e-07 
-1.346834129120368e-06 
6.132044305434991e-07 
5.034973906063672e-07 
8.837794709722999e-07 
1.201152846838079e-06 
5.52479210804532e-07 
-1.30477425640382e-06 
-1.5066149787357e-06 
-1.399036388232523e-06 
-1.642361630576243e-06 
-8.302035486531636e-07 
-1.053140267839436e-06 
-1.645637932332453e-06 
-4.68228219119527e-07 
4.752335745303493e-07 
2.007769044422866e-06 
8.382389870326639e-07 
-6.483346192780806e-08 
-6.660552793805219e-07 
-2.845286854220987e-08 
1.152123278429097e-06 
1.444348151353163e-06 
9.677693910591241e-07 
9.291871511976021e-07 
7.309631714802056e-08 
-1.258477359656439e-06 
-1.078545861115137e-06 
4.561453939597792e-07 
-2.899155624818328e-08 
6.685236387430967e-07 
9.835977876237177e-07 
9.343551819258767e-08 
-1.696056918805841e-06 
-2.186933925439801e-06 
-2.012742768794966e-06 
-1.781229137451044e-06 
-8.613227732802871e-07 
-1.274915155957131e-06 
-1.714948634215669e-06 
6.807839146918652e-07 
1.082557368762972e-06 
2.110273321487715e-06 
8.398378692178463e-07 
-7.540706266432873e-08 
-5.971432294363346e-07 
2.877700600000077e-07 
8.841552651956578e-07 
1.331495521347481e-06 
4.078596134041778e-07 
4.374660041339877e-07 
2.64635060731892e-08 
-1.173766105447355e-06 
-7.39430210510167e-07 
4.520671491243442e-07 
1.552060700345181e-07 
5.961758929110128e-07 
1.01459412991088e-06 
4.380933712201323e-07 
-7.532839245996875e-07 
-6.495843175943679e-07 
-5.680712650312914e-07 
-1.115080684669751e-06 
-1.065001505961772e-06 
-1.507096274202353e-06 
-2.23580516729044e-06 
1.325078064304343e-06 
1.590238253803233e-06 
2.920313996971491e-06 
1.530342363206207e-06 
-3.973390856493613e-07 
-4.501174181496957e-07 
2.848498017035533e-07 
1.210557061464558e-06 
1.623284795373492e-06 
3.9194514420999e-07 
8.174046583587036e-08 
-1.965478054898317e-07 
-1.303831801406208e-06 
-1.054965306883645e-06 
2.651089478886439e-07 
9.27877381364978e-08 
3.563434768904214e-07 
7.991555825628474e-07 
3.252006390919066e-07 
-6.113985038594581e-07 
-7.426348079111042e-07 
-7.066340310326966e-07 
-1.038941548221342e-06 
-1.15107253041379e-06 
-1.637434219610302e-06 
-2.266152166356831e-06 
5.769896289658378e-07 
7.36846805224244e-07 
2.506718377568744e-06 
1.164576566837961e-06 
-5.968669634759655e-08 
-9.317210172996551e-07 
-6.125934724148843e-08 
5.016920878896168e-07 
8.391683358609289e-07 
1.216928674632111e-07 
-9.857994249413284e-09 
-1.701664121352168e-07 
-1.258147144903578e-06 
-1.006600647926796e-06 
2.885269850405901e-07 
-3.594152341772406e-07 
-1.504582111597647e-07 
6.895861376527955e-07 
3.305440125355103e-07 
-1.01538603162262e-06 
-7.34698286671616e-07 
-4.501287269159249e-07 
-1.173730119241653e-06 
-1.115690605044784e-06 
-1.918318611533646e-06 
-2.146614761341553e-06 
8.223341477027968e-07 
1.676377335686922e-06 
3.128397227915344e-06 
1.249317747956047e-06 
-4.220435093652568e-08 
-2.729031639027316e-07 
1.347203021533478e-07 
1.065854912519755e-06 
1.620799085291346e-06 
8.351478937925213e-07 
2.883375379195199e-07 
-6.424812134995376e-07 
-1.384614994271494e-06 
-9.934114474684094e-07 
-8.195045493977148e-08 
-3.115120340992134e-07 
-2.580490902403768e-07 
3.829321304997613e-07 
3.183612708166431e-07 
-1.158869276092259e-06 
-1.335602865494505e-06 
-1.245955797819203e-06 
-1.45442730369451e-06 
-1.582249610240187e-06 
-2.173477767103714e-06 
-2.331217303744443e-06 
9.459819164864468e-07 
1.285701319951703e-06 
3.024004791009587e-06 
1.795735721806523e-06 
2.740938266361811e-07 
-3.685586061164172e-07 
7.402947830546931e-07 
1.814231675399492e-06 
1.599983242758945e-06 
5.469230190814198e-07 
4.306237517757903e-08 
-3.484047755779602e-07 
-1.446400760481809e-06 
-9.789715415220917e-07 
-2.661612089108607e-07 
-4.579674878565908e-07 
-1.888790270331331e-07 
4.930349193984228e-07 
1.207020165748564e-08 
-1.079946952352931e-06 
-1.016742008737011e-06 
-8.351802037248651e-07 
-1.42897872249281e-06 
-1.43381701962038e-06 
-1.845198920934883e-06 
-2.209075034171047e-06 
9.91147401872258e-07 
1.028552500360702e-06 
3.329350539142066e-06 
2.587102387519867e-06 
1.292459018145773e-06 
4.532484238330414e-07 
1.234774291386797e-06 
1.855364616324338e-06 
2.292665939663065e-06 
7.673431392699269e-07 
7.089268967559503e-07 
7.685503089745395e-08 
-1.471514970155815e-06 
-5.638967128987925e-07 
6.773611468869502e-07 
5.795519874867835e-07 
6.917189195836276e-07 
1.393991371461108e-06 
6.486617192251019e-07 
-1.015567456362412e-06 
-6.600601712043565e-07 
-2.88644257997527e-07 
-1.048047891967974e-06 
-8.301887815591618e-07 
-1.364188523939816e-06 
-1.966959415520469e-06 
1.603883999980501e-06 
1.459968019412181e-06 
2.906333287958838e-06 
2.632870930718029e-06 
1.173926307186014e-06 
-6.432995633370472e-08 
8.093293913472786e-07 
2.019533528585167e-06 
1.716948016987915e-06 
7.495741960525031e-07 
5.699649597224298e-08 
-4.800897576745376e-07 
-1.411476558610045e-06 
-5.451810720962351e-07 
3.210872812017117e-07 
5.092250419440175e-07 
5.12059577087618e-07 
1.029822414110064e-06 
5.372115505592847e-07 
-8.985206485334896e-07 
-1.003580709875804e-06 
-6.828555887068101e-07 
-1.160599820800189e-06 
-8.351623174332979e-07 
-1.400291681477493e-06 
-1.879298061374668e-06 
1.637260790444223e-06 
1.647304736722645e-06 
2.688681116746118e-06 
2.026409067202799e-06 
4.509511783669975e-07 
-4.149229059009771e-07 
7.995705409877614e-07 
1.074023404742549e-06 
1.244925452618245e-06 
6.926502691859212e-07 
5.854156553664257e-07 
-3.314585298266158e-07 
-1.83908167068522e-06 
-1.413579070883584e-06 
-3.007498777319019e-07 
2.843698621312362e-07 
4.381754716762371e-07 
9.564900548844282e-07 
6.774752430068842e-07 
-1.393818251298098e-06 
-1.369301376724751e-06 
-1.198149150733295e-06 
-1.538054198813531e-06 
-9.716087618854489e-07 
-1.583073321123209e-06 
-1.904672771093958e-06 
-3.227390128772182e-08 
8.129573524586037e-07 
2.089119306487284e-06 
1.482813585062777e-06 
-9.573741283766452e-08 
3.602615773385748e-07 
8.287695327502442e-07 
9.542746485485011e-07 
1.926515660709024e-06 
5.395271056855219e-07 
1.232471863836545e-07 
-4.959090738908099e-07 
-1.437326191513963e-06 
-8.444341769538528e-07 
-4.250272006047353e-08 
7.51350725583449e-07 
8.325848188960239e-07 
1.330978275217892e-06 
9.667199202331224e-07 
-4.645388193550197e-07 
1.836995142116856e-08 
3.675510441688878e-07 
-8.511025404909019e-07 
-3.416320485718495e-07 
-1.365040657013913e-06 
-1.88144463624328e-06 
1.620548337337987e-06 
2.515126843550321e-06 
3.351979331825041e-06 
2.711508911775868e-06 
1.117555036518955e-06 
7.731251570035223e-07 
8.586054893759905e-07 
1.59530969284769e-06 
1.923834251995865e-06 
1.144483884801345e-06 
4.801384029630767e-07 
-6.381112245628351e-07 
-1.78747696345981e-06 
-1.334718847577662e-06 
-1.423101808427345e-07 
2.456045241325822e-07 
3.075321294296961e-07 
1.046276263394982e-06 
7.141977427983275e-07 
-7.837577618744217e-07 
-1.317758002185295e-06 
-1.089184588367299e-06 
-9.838208195713814e-07 
-1.956633812772437e-07 
-8.621921307006215e-07 
-1.709800002300393e-06 
1.274868751669359e-06 
1.91319178359865e-06 
3.448778405997472e-06 
2.537103778353775e-06 
6.634329238070227e-07 
6.715299689809287e-07 
1.429683849675699e-06 
1.609324173616743e-06 
1.684455894700449e-06 
7.740345944003559e-07 
9.130004132850717e-07 
-6.988137934776882e-07 
-1.99290187100632e-06 
-1.35137247451169e-06 
-8.544399080400209e-07 
7.181426653974157e-07 
7.836687871490465e-07 
1.562747141746974e-06 
9.073276280281719e-07 
-3.023881578546906e-07 
1.061516421080553e-07 
2.575950164926441e-07 
-7.128284869019095e-07 
-2.126849318602701e-07 
-1.084278561684843e-06 
-2.170382060018213e-06 
1.196409553072533e-07 
8.684968276505576e-07 
3.332427405574483e-06 
2.949112909521393e-06 
3.007468612414675e-07 
1.356095220719453e-07 
1.324679993564377e-06 
1.911345911100099e-06 
1.539086485645243e-06 
1.164208586102695e-06 
9.133101533552655e-07 
-5.239567618465409e-07 
-1.53747900315114e-06 
-8.645953384412746e-07 
-4.07606528853758e-07 
5.172495799077085e-07 
1.031278017125378e-06 
1.783151032658643e-06 
1.374477042496295e-06 
-1.102203224656041e-06 
-1.415381412237444e-06 
-1.092198592138098e-06 
-1.429460732761671e-06 
-4.274975288157458e-09 
-1.031168363028822e-06 
-1.899626307256355e-06 
5.862482175847878e-07 
1.914708667422393e-06 
2.310643742676397e-06 
2.13900198006742e-06 
6.230427617614905e-10 
-3.058492608130513e-08 
6.719886530606945e-07 
5.534394421443884e-07 
7.836082155067797e-07 
5.552295876121129e-07 
6.661229627920134e-07 
-7.296576074275979e-07 
-1.669377891416885e-06 
-1.311488451409603e-06 
-5.423420503114289e-07 
3.771699751946161e-07 
6.74366563615405e-07 
1.221713914308038e-06 
8.352308109925834e-07 
-8.504787183229357e-07 
-9.489816429128221e-07 
-6.446511861976664e-07 
-1.157593247885042e-06 
-4.027675982734421e-07 
-1.403373107535723e-06 
-2.33811132942361e-06 
1.568996045702742e-07 
3.821385252976048e-07 
2.444658252540178e-06 
2.263083529229202e-06 
4.979581765123205e-07 
1.745835291845577e-08 
1.579904371328348e-06 
1.365965919768744e-06 
1.088847517711993e-06 
7.062858547791234e-07 
6.321311195557562e-07 
-1.014010491374251e-06 
-1.820189679449874e-06 
-1.121114387230315e-06 
-1.82496250720195e-07 
1.139453910663395e-07 
4.796681039401507e-07 
1.311601592831253e-06 
1.208953799172887e-06 
-3.755127829971305e-07 
-8.502959835634923e-07 
-7.201045847974932e-07 
-9.629838033175867e-07 
-1.078972762789835e-07 
-1.11889042942989e-06 
-2.109749271604275e-06 
7.139633490054721e-07 
1.73733898622577e-06 
2.747928935349444e-06 
2.494934411347068e-06 
4.671811347421446e-07 
6.346107922488132e-07 
8.686959999795706e-07 
1.434100010531433e-06 
9.957821192146008e-07 
1.995940137252435e-07 
1.240174576407865e-07 
-1.009407511708256e-06 
-1.458861996131157e-06 
-1.189676339495213e-06 
-5.515599623896351e-07 
3.019514908665647e-08 
3.618072662857992e-07 
1.3268006541227e-06 
7.634723519361158e-07 
-8.491228920684105e-07 
-6.635157661421104e-07 
-5.328324332954857e-07 
-1.085445756482524e-06 
-3.430838032164794e-07 
-1.481913885576135e-06 
-2.526535270639203e-06 
1.104593170503033e-07 
8.603831130158701e-07 
1.813382602817669e-06 
1.414733912971929e-06 
-5.227686158151395e-07 
-1.036981778829766e-06 
1.975168230116274e-07 
6.779980340487232e-07 
6.237526350519513e-07 
-1.595318638013349e-07 
1.14694024155939e-07 
-1.360540294224035e-06 
-1.385963312698342e-06 
-1.373962730454197e-06 
-1.021986184386799e-06 
-5.719073342398744e-07 
-1.944180342597687e-07 
7.218725302393466e-07 
3.047764247875838e-07 
-1.386149384101652e-06 
-1.695834768109121e-06 
-1.428982181011614e-06 
-1.636057639105891e-06 
-7.16490398801281e-07 
-1.67128926385853e-06 
-2.726613088374561e-06 
9.12018647592516e-09 
6.124583428055971e-07 
1.992436260314543e-06 
1.124867478953592e-06 
2.348542218987423e-07 
-7.21370245626359e-07 
7.841632395316318e-07 
1.005838610198954e-06 
9.157930696550681e-07 
7.894823577951777e-07 
5.7829129167604e-07 
-1.16882774307708e-06 
-1.115132935309126e-06 
-5.807928837864596e-07 
-6.349532207085939e-07 
-4.923360282046457e-07 
1.112597783924431e-07 
9.36188003439737e-07 
1.042780714279695e-06 
-2.971316550974301e-07 
-4.771465595396223e-07 
-2.552524951023059e-07 
-4.783401092069107e-07 
-3.653379438478079e-07 
-1.482818696993887e-06 
-2.173430322304861e-06 
5.184432043682501e-07 
1.29818220037631e-06 
1.68470391744124e-06 
1.843660529028623e-06 
8.360571325071606e-07 
-3.921153702288184e-07 
1.128696189693123e-06 
1.197926697077486e-06 
8.425663369699905e-07 
1.260259502529216e-06 
1.225357278068093e-06 
-4.406551306208702e-07 
-9.522857570660888e-07 
-5.440532240843337e-07 
-3.157834729793344e-07 
-3.122793767676337e-07 
7.484784037042338e-07 
1.996186411989754e-06 
1.686936091723053e-06 
3.242252591314135e-07 
-5.008494983989533e-07 
-4.63688817776324e-07 
-2.568320925803782e-07 
7.76360322604381e-07 
-6.627874980686244e-07 
-1.778450361252402e-06 
1.47880605226641e-06 
5.854213793251261e-07 
2.663586866463276e-06 
2.098416883679804e-06 
8.612451263278901e-07 
-1.439863993532675e-07 
1.167479751067242e-06 
1.917469855649932e-06 
1.64588231101683e-06 
1.443999565249805e-06 
1.286824210634205e-06 
-3.869064628405988e-07 
-8.383198624048171e-07 
-1.283782388402807e-07 
-1.470603492956605e-08 
1.690412997621854e-07 
1.252928169017254e-06 
2.361289759060351e-06 
2.181622271037729e-06 
9.757338365993827e-07 
8.139058337130387e-07 
1.019419933722536e-06 
9.499069042394578e-07 
1.01969938190573e-06 
-3.156035023244652e-07 
-1.443854723861071e-06 
1.236062402636151e-06 
1.109781963616686e-06 
2.981606861247552e-06 
1.969047846502519e-06 
8.255728938095469e-07 
5.458964989616394e-07 
1.031957538901594e-06 
2.005032951671052e-06 
1.443732016680371e-06 
1.916610396406544e-06 
2.147905454050165e-06 
1.356465492433971e-07 
4.649470145606567e-09 
4.223078482141198e-07 
1.059256728600189e-06 
7.872846717597837e-07 
1.63900592820344e-06 
3.0456255682076e-06 
2.650561305188728e-06 
6.32850334158478e-07 
4.796774720022716e-07 
5.730985365846919e-07 
6.016834463946044e-07 
1.487532520159974e-06 
-1.534409825115482e-08 
-1.095591065798441e-06 
1.976425535042781e-06 
1.01749108509477e-06 
3.741685254252074e-06 
2.737669693002062e-06 
1.088652534927754e-06 
7.367327877786191e-07 
1.720677333359939e-06 
2.974149386487593e-06 
2.769325632022e-06 
2.585019833667163e-06 
2.5407269163037e-06 
8.376265405165933e-07 
9.467167246939249e-07 
9.207372045968303e-07 
1.447742590346504e-06 
8.684692495650811e-07 
1.628603680180268e-06 
2.471960181909577e-06 
2.271570751943942e-06 
1.222610677772556e-07 
-2.195449274466471e-07 
-1.837065789196674e-07 
2.870379063370121e-08 
1.108948117578978e-06 
1.482683260912339e-07 
-9.081176443649092e-07 
2.716073826476281e-06 
1.935017731203804e-06 
3.507030449861004e-06 
2.998403711061303e-06 
1.479332133127173e-06 
9.73710276867585e-07 
2.112120067045913e-06 
2.690141605565907e-06 
2.966658258297784e-06 
2.603471442178692e-06 
2.559134036034227e-06 
1.045678644111669e-06 
1.661673724007006e-07 
2.388011742162684e-07 
1.042445754404778e-06 
1.172467228274347e-06 
1.967158911411667e-06 
2.372462603199675e-06 
2.235108746249735e-06 
1.901272478021496e-08 
-7.344941151202358e-08 
2.186746607517013e-07 
-7.193668780078293e-09 
1.220012685865791e-06 
4.890910471094505e-09 
-1.004601104966057e-06 
5.315017801025312e-07 
1.273716760261311e-06 
3.49124024799705e-06 
2.649095112297593e-06 
1.690942274897237e-06 
9.919384280908801e-07 
2.380973612831858e-06 
3.073795110193228e-06 
2.549181659563311e-06 
2.284061430080638e-06 
2.021142771496174e-06 
9.091292085420536e-07 
2.690874278817677e-07 
6.503679293884814e-07 
1.332662366082461e-06 
1.545785619522996e-06 
2.035901686635693e-06 
2.62238886726128e-06 
2.768526397313248e-06 
8.521526098409729e-07 
8.009110793515641e-07 
1.055175381202834e-06 
8.358901078680615e-07 
1.59416587046537e-06 
3.031482331750541e-07 
-9.401773347473112e-07 
7.014213269532256e-07 
9.04935366908003e-07 
3.841615536004688e-06 
2.430969763206393e-06 
1.064334747697868e-06 
1.071960099045029e-06 
2.610515919557603e-06 
3.471157777149263e-06 
3.217957582013783e-06 
3.153530858433416e-06 
3.014574952087092e-06 
1.528471004250828e-06 
1.123130697489218e-06 
1.580966505655294e-06 
1.986808829285309e-06 
2.120358328331843e-06 
2.284324403503603e-06 
2.743559236208865e-06 
2.826207991854852e-06 
1.221833937861449e-06 
1.009773559232992e-06 
1.195816351287459e-06 
9.169835132045022e-07 
1.443756646339815e-06 
8.973761770789981e-07 
-4.745919544173676e-09 
2.0700180938463e-06 
1.662797768891642e-06 
3.633522746245719e-06 
2.357926565121145e-06 
1.794599183828778e-06 
1.221008877021235e-06 
2.956845791756313e-06 
3.443012839601999e-06 
3.283902965832715e-06 
2.911500189716737e-06 
2.888261706240264e-06 
1.469285628187765e-06 
7.174337700863886e-07 
1.099806738369778e-06 
1.848857740362225e-06 
2.358643251621777e-06 
2.715548041572103e-06 
3.050495787990956e-06 
2.95772061545493e-06 
5.741549687491884e-07 
3.41415531371565e-07 
6.317768727762813e-07 
5.870480495424442e-07 
2.063557419749769e-06 
9.659221756858947e-07 
-4.333095017818277e-07 
6.534946947609674e-07 
1.43375863297113e-06 
4.811465339330461e-06 
2.834256449704803e-06 
1.72628621898684e-06 
1.54225489841896e-06 
3.219976774431681e-06 
3.701770728481368e-06 
3.46558623429453e-06 
3.187428690848586e-06 
3.370167989531116e-06 
2.168168526630465e-06 
6.199000019269777e-07 
1.536644735803981e-06 
2.192067009531208e-06 
2.099508994752748e-06 
2.432404050873869e-06 
3.142127659943752e-06 
2.914586677268028e-06 
5.544203745079618e-07 
8.08230522478508e-07 
1.070784460685148e-06 
3.652961733995617e-07 
1.873550862628288e-06 
1.238037899967648e-06 
3.184478864328765e-07 
1.767188572805335e-06 
1.615828019435994e-06 
4.069900575246955e-06 
2.887565040708821e-06 
2.105680141779629e-06 
1.488654711935123e-06 
3.033046774471423e-06 
2.97742118533625e-06 
3.358137130011475e-06 
2.393967465762125e-06 
2.267100260567365e-06 
1.268573181425147e-06 
7.068114349003381e-07 
1.167344895801971e-06 
2.190255515296979e-06 
2.002460515815657e-06 
2.115306947807317e-06 
2.400365603394164e-06 
2.524143459837884e-06 
2.99827874221994e-08 
2.463120254647595e-08 
3.811788223907618e-07 
8.700229601587709e-08 
1.332720856340131e-06 
8.582729540328026e-07 
-5.467796840089029e-07 
1.054201370664957e-06 
2.747631452396305e-06 
4.176524506605822e-06 
3.347397837150014e-06 
2.259730581158126e-06 
1.598493529639572e-06 
2.352613330445538e-06 
2.688077851472303e-06 
2.34184520427255e-06 
1.821134375612273e-06 
2.523722369102816e-06 
1.392266718004958e-06 
5.708347795468695e-07 
1.111116407120822e-06 
2.187486490045636e-06 
1.768799385344396e-06 
1.934329720387219e-06 
2.558011051878272e-06 
2.47425567760825e-06 
9.51388028300438e-07 
7.061641409351806e-07 
8.69787221351475e-07 
8.971311719717321e-07 
1.331698297886922e-06 
4.729034924384452e-07 
-6.230171982872711e-07 
1.530792103677362e-06 
1.016503499964756e-06 
3.70616041515413e-06 
2.467321990267564e-06 
1.773010163338476e-06 
1.444209961121573e-06 
2.653120052705013e-06 
3.176860756137129e-06 
2.994946428764401e-06 
2.467396107315878e-06 
2.637559001586767e-06 
1.031006796302297e-06 
-6.731727843710973e-08 
4.530005527206333e-07 
1.502210732539528e-06 
1.334155390931348e-06 
2.094218101808235e-06 
2.574905319270173e-06 
2.47292558252014e-06 
1.167487764866299e-06 
1.096901407974178e-06 
1.393487571526468e-06 
9.703174177066692e-07 
1.1945002486655e-06 
2.805152431104303e-07 
-7.210418122495907e-07 
1.186392535811494e-06 
3.098136546934657e-06 
3.846312408659413e-06 
2.838852185942791e-06 
1.958087368547422e-06 
1.913743916939238e-06 
2.845923128478271e-06 
3.045437667611042e-06 
3.45309574053467e-06 
2.662722837884446e-06 
2.781282067882641e-06 
9.617411520477685e-07 
2.160969238750183e-07 
9.426993135552342e-07 
1.350979296333093e-06 
1.237262223233614e-06 
1.746389718077907e-06 
2.174505869874917e-06 
1.721021202905539e-06 
-5.362192843401622e-08 
5.616084231396578e-07 
6.325384960256696e-07 
3.027997326341691e-08 
1.038567923258462e-06 
3.814264800784026e-07 
-4.531286231673631e-07 
1.695325823559078e-06 
2.2603571854558e-06 
3.843001494416492e-06 
3.107468665651088e-06 
2.493098793980749e-06 
1.629753265438008e-06 
2.817217128892893e-06 
3.172820897611101e-06 
3.14107395200178e-06 
2.584897074687612e-06 
2.475357270826974e-06 
9.224672193200693e-07 
-4.729464968760274e-07 
-2.258358123482892e-07 
8.319841468481615e-07 
9.14728500058192e-07 
1.176269329708674e-06 
1.80435459545696e-06 
1.526854844763915e-06 
5.167799201255712e-09 
9.752805475427652e-08 
2.131639681460015e-07 
-8.648605339884183e-08 
6.332481153266929e-07 
-1.010732757238687e-07 
-6.659269738664745e-07 
1.106637299149577e-06 
2.811348428458272e-06 
4.796907181529595e-06 
2.891264532048445e-06 
2.246583841856443e-06 
1.939894631368001e-06 
2.812297753460889e-06 
3.177661745564016e-06 
3.566305997676713e-06 
3.099850606375853e-06 
2.707284052104104e-06 
1.807218322167702e-06 
2.210985461810043e-07 
5.880771105600707e-07 
1.273554181974966e-06 
1.115756484836151e-06 
1.243478087103048e-06 
1.846108145002025e-06 
1.956234081388848e-06 
2.081685391055944e-07 
6.996043521494725e-07 
1.066389379816017e-06 
2.999513340751057e-07 
7.298339076177704e-07 
-3.395617591999344e-08 
-5.338282017722449e-07 
1.288844630921522e-06 
1.767698553222356e-06 
4.071183997327032e-06 
3.182886509019851e-06 
1.680350582470908e-06 
2.142427301210392e-06 
3.115696875167115e-06 
3.585273130000321e-06 
3.537401194815643e-06 
2.937495322342324e-06 
2.482488763308291e-06 
1.321525873905035e-06 
4.105537971750609e-07 
8.32859001843207e-07 
1.522428993951329e-06 
1.276877444450281e-06 
1.366661885351283e-06 
1.649597460415973e-06 
1.442609178947861e-06 
-6.294132857463787e-07 
-4.625327239159893e-07 
-1.367189707000527e-07 
-5.464342741841189e-07 
5.608946428062206e-07 
-1.700342909938614e-08 
-2.854816619002016e-07 
2.701764429465211e-06 
1.717313506583208e-06 
3.776230105364325e-06 
3.236815043196623e-06 
2.30263811109959e-06 
3.03871317994937e-06 
3.465830591013433e-06 
4.350302739877539e-06 
4.272968206065806e-06 
3.893855124130472e-06 
2.974770158248479e-06 
1.411599686591779e-06 
3.515406249187723e-08 
6.237078126665943e-07 
1.246588285740568e-06 
1.031227965673938e-06 
1.368601124771874e-06 
1.992532728399737e-06 
1.740235911811362e-06 
1.425218620727653e-07 
6.004989159990675e-07 
7.441227111944615e-07 
8.061328489005601e-08 
7.003839414120286e-07 
1.301416136440193e-07 
-2.100066716460347e-07 
2.6639773135375e-06 
2.435239506032349e-06 
4.347214955887738e-06 
3.055859593445063e-06 
2.089993193552028e-06 
2.473161242848618e-06 
2.78544973419252e-06 
3.779757728373091e-06 
3.919078467153212e-06 
3.843569276635664e-06 
2.958279105330752e-06 
2.017653333033089e-06 
8.293260255045069e-07 
1.30861538069848e-06 
1.565135197495107e-06 
1.117051451185405e-06 
1.44175590047468e-06 
1.823921883909842e-06 
1.29931154322402e-06 
-1.421323789676261e-07 
1.718390135130603e-08 
1.274835551823871e-07 
-4.340815341527857e-07 
5.487109925953024e-07 
3.77617949774813e-08 
-1.382834735264329e-07 
1.815765152797273e-06 
2.623674458700827e-06 
3.993631665991081e-06 
3.607564393440481e-06 
2.690121975654839e-06 
3.050758614034301e-06 
3.02064071404121e-06 
3.984839606029552e-06 
4.326025264255867e-06 
3.772865525277793e-06 
3.43767834705067e-06 
2.420451629476839e-06 
1.337557289401633e-06 
1.917722465522216e-06 
2.133886712878207e-06 
1.577915266823778e-06 
1.569448846238575e-06 
2.020083734718635e-06 
1.669550281904172e-06 
-3.401829684008441e-08 
4.029138698695723e-07 
5.744487918620151e-07 
-2.471943503841509e-07 
8.103943713322941e-07 
6.254286307711243e-07 
1.876288604241805e-07 
2.09393230884238e-06 
1.858804118845076e-06 
4.571540748044161e-06 
3.081447674502385e-06 
2.11418647210789e-06 
2.397975858562729e-06 
3.493699687095176e-06 
4.192837392291366e-06 
3.900870633952119e-06 
3.40231393851442e-06 
3.590949068495487e-06 
2.327662667472793e-06 
1.51567632638336e-06 
1.90677745924732e-06 
2.21454101105958e-06 
2.077771942446713e-06 
1.735261556654107e-06 
2.581914111028073e-06 
2.008868721687564e-06 
6.013749743919499e-07 
3.429969404035223e-07 
6.443542938174749e-07 
8.169612898767865e-07 
1.322745082176062e-06 
7.086001748275546e-07 
3.954897200635396e-07 
2.30837635206799e-06 
1.464237037302793e-06 
4.025142165349974e-06 
3.072075759799949e-06 
1.594501086694622e-06 
1.742716787345301e-06 
3.092270058866742e-06 
3.622105122939663e-06 
3.63643547700238e-06 
3.741054915470956e-06 
3.393921905215487e-06 
2.295651378048457e-06 
1.218835362549498e-06 
1.907687386803193e-06 
2.523964620167003e-06 
1.951684809600502e-06 
1.9544625097712e-06 
2.635064962487342e-06 
1.833515814931718e-06 
1.90799175651609e-07 
-2.935784807590181e-07 
-9.908254726862595e-08 
3.415932622969043e-11 
1.155913184005735e-06 
6.82253153634304e-07 
2.440730610781369e-07 
2.86023474897149e-06 
1.414909002107657e-06 
3.532833540780243e-06 
2.547616057637287e-06 
2.072730350098021e-06 
1.994168429031925e-06 
3.761115247292134e-06 
4.176300061900363e-06 
4.622080460992079e-06 
4.092304094082664e-06 
3.769641723426891e-06 
2.680277617502849e-06 
1.32915484821836e-06 
1.993910814149017e-06 
2.352822896446894e-06 
2.067134490422317e-06 
1.909642713238036e-06 
2.568454700804856e-06 
2.169992617616863e-06 
1.171766321502637e-06 
1.095197620212208e-06 
1.140079398423861e-06 
7.909277524691288e-07 
1.308937647201434e-06 
8.498393854382342e-07 
5.628185682411717e-07 
1.764543891439995e-06 
1.662193061008176e-06 
3.770834403029771e-06 
2.715857996232488e-06 
2.617525235529336e-06 
2.358925264922492e-06 
4.054793094275467e-06 
4.858955975343179e-06 
4.333669104998294e-06 
3.898936420280948e-06 
3.334299559434618e-06 
2.675526713379255e-06 
1.680748732670158e-06 
2.175674040940412e-06 
2.576059576013782e-06 
1.973409869897676e-06 
2.07629504525785e-06 
2.336982107983174e-06 
2.123320882839741e-06 
5.919255677631232e-07 
5.120694372807249e-07 
8.042323159162899e-07 
4.272305062859535e-07 
1.050900882198775e-06 
8.408091988872013e-07 
6.120109903131225e-07 
3.123970521480505e-06 
1.779142884194153e-06 
4.335430423587776e-06 
3.196164168929363e-06 
1.95484938998762e-06 
2.654807443643518e-06 
4.185968343309809e-06 
5.083602053052961e-06 
4.324795769311463e-06 
3.874541770740813e-06 
3.550021372119133e-06 
2.836870646319938e-06 
2.056070727629424e-06 
2.316669793388497e-06 
3.003492244476871e-06 
2.363163723973868e-06 
2.451325476304771e-06 
2.889618767985862e-06 
2.493990611484741e-06 
4.004711061166474e-07 
3.598167539170324e-07 
4.337782419269048e-07 
2.676137164000288e-07 
1.380773692351185e-06 
1.169274168955063e-06 
1.033048857500765e-06 
2.784164777555925e-06 
9.091560169475726e-07 
4.01774319721914e-06 
3.287740712105362e-06 
3.033689993443077e-06 
2.782498914556759e-06 
4.001081093872735e-06 
4.261594495555343e-06 
3.904931896992051e-06 
3.928717032979616e-06 
3.378838489407646e-06 
2.745181997536952e-06 
1.753209126094962e-06 
2.464696965285077e-06 
3.111496982719825e-06 
2.430421855169467e-06 
2.566801047539737e-06 
3.241954102156656e-06 
2.879367664834795e-06 
1.340234022353715e-06 
1.218442647006733e-06 
1.309945097776362e-06 
9.405131418122866e-07 
1.89323135235232e-06 
1.503927320480203e-06 
8.535631674771338e-07 
2.094788353104678e-06 
1.875456073592534e-06 
4.015060205696971e-06 
2.872595151863295e-06 
2.352676513915833e-06 
2.91313280416744e-06 
3.821066155979615e-06 
3.794118272019539e-06 
3.400475471287783e-06 
3.096619705757738e-06 
3.561452267637446e-06 
2.245063147537244e-06 
1.364273528011829e-06 
2.426846701506682e-06 
3.020398573261326e-06 
2.325145385400368e-06 
2.150668889363185e-06 
2.706150278429249e-06 
2.256759914154596e-06 
1.822525370449496e-07 
1.639860034675395e-07 
3.249352980873152e-07 
-2.470601633178224e-07 
1.371835810009709e-06 
1.225004542341226e-06 
6.169475452160353e-07 
2.431043356700491e-06 
1.338020773558868e-06 
4.26844598003944e-06 
3.627152122795393e-06 
2.885327272048778e-06 
2.308138441077762e-06 
3.826784176154159e-06 
3.901491380394551e-06 
3.607023185668692e-06 
3.467481188604498e-06 
3.733695650451238e-06 
2.41532964670794e-06 
1.126023808593236e-06 
2.022933572112872e-06 
3.009658684615818e-06 
2.438421636627841e-06 
2.171507438075172e-06 
2.37258043688037e-06 
2.128850912412434e-06 
3.281662852013716e-07 
-5.294295378426676e-08 
2.282692916994676e-08 
2.128471623161073e-08 
1.04003243869216e-06 
1.051298395399899e-06 
1.019583394825696e-06 
1.167680237892389e-06 
1.282590814409442e-06 
3.945727958498576e-06 
3.202817108760372e-06 
2.521636724380088e-06 
3.398905091073818e-06 
4.352509587947394e-06 
4.050318682834708e-06 
3.479081992393311e-06 
3.014788909599555e-06 
2.797541454861367e-06 
2.261354873592617e-06 
2.073954963084598e-06 
2.468312797576044e-06 
2.792872661414306e-06 
2.202187832036841e-06 
2.267538596336274e-06 
2.774797602141013e-06 
2.07544649781123e-06 
1.123790938516696e-06 
8.502739812834258e-07 
6.948620981274688e-07 
8.282274063890948e-07 
1.164540272477968e-06 
1.045227140991939e-06 
9.014701671341993e-07 
3.71593566347975e-06 
1.819322667624032e-06 
4.629412164295657e-06 
3.34503318356133e-06 
3.187362078963424e-06 
3.748893402468492e-06 
4.312294038526343e-06 
4.37424745352503e-06 
3.374715726666663e-06 
3.389433173663638e-06 
3.154976618584159e-06 
2.482145941244621e-06 
1.857860439314941e-06 
2.254824243771378e-06 
2.979922638904487e-06 
2.622613219278624e-06 
2.353869655783082e-06 
2.78352356101569e-06 
2.357858826254091e-06 
8.790017064881001e-07 
6.093523148866888e-07 
6.513341931765768e-07 
4.543527927517856e-07 
1.342606733360809e-06 
1.394570649865002e-06 
8.119582982548818e-07 
2.854004085566163e-06 
1.16589612145717e-06 
3.235561056821966e-06 
2.92774952829219e-06 
3.27928227524068e-06 
3.266409688701865e-06 
3.919831665914693e-06 
4.754682898361946e-06 
3.860250818205492e-06 
4.160369899835142e-06 
3.777747239198457e-06 
3.010256950926009e-06 
2.099886519307569e-06 
2.843822674943944e-06 
3.194986794122487e-06 
2.560790706862653e-06 
2.350459996163939e-06 
2.967521401056689e-06 
2.317693925050056e-06 
2.266290299266173e-07 
7.658812504450761e-08 
2.014102922552904e-07 
-1.141514322149761e-07 
1.286994371021965e-06 
1.496482431020807e-06 
1.423238250075017e-06 
1.848849505529444e-06 
2.014485543956299e-06 
3.363316516572387e-06 
3.098159915339599e-06 
2.979021385391523e-06 
3.356040859217149e-06 
3.915191483156575e-06 
4.434127455546605e-06 
3.745728026583168e-06 
3.580431170805718e-06 
3.467005443679948e-06 
3.097344254617598e-06 
2.405650853455678e-06 
2.562769062632345e-06 
3.307550619217204e-06 
2.423779056055567e-06 
2.330877252314568e-06 
3.184008322364512e-06 
2.894098206873289e-06 
1.236402782019636e-06 
7.229757103725274e-07 
8.426137062989928e-07 
1.070743579957672e-06 
1.808907867499883e-06 
1.491035540885455e-06 
1.062619237987692e-06 
1.357685527502289e-06 
2.435470995080211e-06 
3.182654565192522e-06 
3.44437510800189e-06 
3.268760681502121e-06 
3.029342610530849e-06 
3.680498894456963e-06 
4.548940252525284e-06 
4.044554255456889e-06 
3.563807313465188e-06 
3.32927346086497e-06 
2.833033507427302e-06 
2.257319829896267e-06 
2.874789301993432e-06 
3.664441143962557e-06 
2.463446113971993e-06 
2.335741872591593e-06 
2.77825667139617e-06 
2.566260551912332e-06 
-6.610484975994939e-08 
-6.411622398649615e-07 
-2.301197772537577e-07 
-3.261096556794944e-07 
1.080562668219383e-06 
1.068127673241174e-06 
8.4276689738516e-07 
2.201739413661999e-06 
2.18644300819935e-06 
3.560884344484948e-06 
2.805958790858799e-06 
2.70341625040997e-06 
2.309511470265364e-06 
3.707062857529251e-06 
3.846122292414642e-06 
3.293477794741181e-06 
3.242829128939957e-06 
3.256200298692945e-06 
2.284424783473742e-06 
2.096672579610524e-06 
2.583555971067643e-06 
2.938029794795474e-06 
2.42847086912313e-06 
2.500798104726668e-06 
2.928951898332609e-06 
2.797738554470577e-06 
7.880936099309581e-07 
9.106650326822225e-07 
7.332320897961479e-07 
4.938053208313732e-07 
1.396982908714273e-06 
1.130043902179782e-06 
5.675921433420975e-07 
1.542899354268802e-06 
1.469000917198247e-06 
3.917808727122653e-06 
3.204629309708439e-06 
2.025275499566022e-06 
2.362357539462564e-06 
3.194168160735557e-06 
4.112426776539764e-06 
3.758933188370999e-06 
3.066493197204693e-06 
3.030920014140535e-06 
2.521425989822748e-06 
2.185599718147659e-06 
2.458040802718082e-06 
2.768592277002792e-06 
2.219614992048168e-06 
2.403457202796075e-06 
2.551830427586211e-06 
2.440768180409896e-06 
1.103646910232791e-06 
1.132100007058137e-06 
1.275445977269103e-06 
1.090031756888512e-06 
1.217740490922338e-06 
9.04412798650315e-07 
5.490597674058351e-07 
2.365774583668112e-06 
8.354698658739615e-07 
3.851804445593138e-06 
2.990022580269892e-06 
2.177423218165995e-06 
2.367151267249059e-06 
2.972218960584077e-06 
3.705641781984015e-06 
3.18507339779025e-06 
2.1858620396738e-06 
2.258714443700657e-06 
1.779259230674558e-06 
1.175056670666427e-06 
2.10562095527835e-06 
2.441971256708082e-06 
1.876166102783078e-06 
1.856406588606516e-06 
2.074779490006063e-06 
1.767546428017931e-06 
-3.055732285419051e-07 
-9.577144152549568e-07 
-5.729915540557814e-07 
-2.039110177522725e-07 
8.155997784674103e-07 
4.374063841966349e-07 
-5.53606474228991e-08 
2.121076084877294e-06 
1.98786795075274e-06 
2.901001361392124e-06 
3.016375516938763e-06 
2.576615236200595e-06 
2.027979333717427e-06 
3.609843298640973e-06 
3.706062347340261e-06 
2.918808554831383e-06 
2.508577851693963e-06 
3.056670685773315e-06 
2.481845772134453e-06 
1.830320933533972e-06 
2.031533553494659e-06 
2.557763579432257e-06 
2.355296674635244e-06 
1.939805599250203e-06 
2.356340602208736e-06 
2.101448388038592e-06 
-3.547574687070947e-07 
-6.482088602587448e-08 
2.650414438600496e-07 
-3.12189948204565e-07 
1.061078525863108e-06 
5.043603023778361e-07 
2.608371057587693e-07 
1.435632635954305e-06 
7.125643620525536e-08 
2.787779872613142e-06 
2.33685562366262e-06 
1.693059731595388e-06 
1.754590309113815e-06 
2.884549561133031e-06 
3.472277141143294e-06 
2.920156467559252e-06 
2.93439368383702e-06 
2.834597643336986e-06 
2.145562569900281e-06 
1.30826456451595e-06 
1.461046297576204e-06 
1.905523505311584e-06 
1.617428647891359e-06 
1.537306800439028e-06 
2.088929256426761e-06 
2.107109051089293e-06 
2.138951145547497e-07 
-9.561879066052743e-07 
-6.017150364678149e-07 
-9.032242007019195e-08 
7.910576750347997e-07 
1.347743142398049e-07 
-1.903107323603613e-07 
4.145451746254951e-07 
7.390627252223998e-07 
2.570558566112712e-06 
1.504048335425e-06 
1.266657240604603e-06 
8.892815003251994e-07 
2.208950190402094e-06 
2.997316369926224e-06 
2.856395583399307e-06 
2.430723247280522e-06 
2.175264569772111e-06 
1.569599935349501e-06 
8.470572240888291e-07 
1.489728722484943e-06 
1.622792042962779e-06 
1.866471294464671e-06 
1.46064560495798e-06 
1.957132963969154e-06 
1.701579702004069e-06 
-4.114440859907566e-08 
-1.450279050280764e-07 
2.394964315454718e-07 
1.16575967694981e-07 
9.065773144641285e-07 
1.281681802308151e-07 
-5.65322894833559e-07 
5.813401639334627e-07 
1.077400096945894e-06 
2.536788014282054e-06 
1.991296133338165e-06 
1.537426536042099e-06 
1.108212175502256e-06 
2.641916668849131e-06 
3.475623253005919e-06 
3.519318345970374e-06 
3.149098557923331e-06 
2.704258545473747e-06 
1.675457455969974e-06 
1.024636596854287e-06 
1.688328038296567e-06 
1.531206733624878e-06 
1.429810444916273e-06 
1.542176638586613e-06 
2.541345134772399e-06 
1.810383565514065e-06 
1.682089796954353e-07 
5.50843650344161e-07 
1.019102997207636e-06 
2.196653250789664e-07 
8.870859911000845e-07 
1.994635375083036e-07 
-2.008480357264049e-07 
1.105334913500557e-06 
1.557484158196532e-06 
2.334379317047613e-06 
1.822277289238818e-06 
1.445690650355501e-06 
9.746886391135386e-07 
2.039693966111765e-06 
2.927254311447533e-06 
3.331138604807874e-06 
2.68154272481503e-06 
2.485028554246138e-06 
1.987598646542892e-06 
8.755811132474455e-07 
1.726761855765581e-06 
2.064499911786334e-06 
2.000951142995005e-06 
2.020728670207745e-06 
2.526801346883777e-06 
2.048193211466983e-06 
2.979720731497551e-07 
-2.115004010933092e-08 
5.254222080223779e-08 
-3.171599483591654e-08 
5.473559340352235e-07 
1.780128688655707e-07 
-4.812571162417564e-07 
1.07408779460841e-06 
-3.13037766980771e-07 
2.465557442505227e-06 
2.009818498998674e-06 
1.066782706985299e-06 
6.787746732427021e-07 
2.661612436161014e-06 
3.831605791094278e-06 
3.054917389839228e-06 
2.733836767800851e-06 
2.708660874273148e-06 
1.888812491598924e-06 
1.101169319812155e-06 
1.928046627994339e-06 
1.451096759407251e-06 
1.626049542497453e-06 
2.232259619106442e-06 
2.80835571785551e-06 
2.532510788306776e-06 
8.339982756125251e-07 
6.956433186769258e-07 
8.406287389062349e-07 
4.583624747327092e-07 
9.100555973862061e-07 
9.832945126112626e-08 
-2.006509433621626e-07 
2.193877483149952e-07 
2.17779818800225e-07 
1.924046428923417e-06 
1.733620460657828e-06 
1.222924614346997e-06 
5.834861420836664e-07 
1.725739232741597e-06 
2.644138356310988e-06 
2.225180785117497e-06 
1.547997523109151e-06 
1.638904098289941e-06 
1.27864717743869e-06 
1.02904082613223e-06 
1.666240953626491e-06 
1.529115306589105e-06 
1.197704303344278e-06 
1.614672449339965e-06 
2.237635486649367e-06 
1.962873266652942e-06 
1.005076091576207e-07 
-1.499931821015413e-07 
-2.678140597641587e-07 
-5.065584020463162e-07 
2.162995419187535e-07 
-2.119686435553388e-09 
-3.946522554851302e-07 
3.116847572710249e-07 
6.181222429517432e-08 
1.601449019943117e-06 
1.480383465271314e-06 
1.770275758532756e-06 
8.6425168383403e-07 
1.807814886654042e-06 
2.990872034743022e-06 
2.987346700675678e-06 
2.128345361047352e-06 
1.790535012056331e-06 
1.696468251015153e-06 
8.077437090321431e-07 
1.640994469945176e-06 
1.934475538929705e-06 
1.467362626659756e-06 
1.699810131420259e-06 
2.68916007343917e-06 
2.796042390459298e-06 
9.337470207726613e-07 
4.763132615196523e-08 
1.840085199205523e-07 
6.387374910882465e-07 
1.050959743429699e-06 
2.47488889142495e-07 
8.666822047660159e-09 
-1.835312965765205e-07 
-9.077671991277605e-07 
3.857255955220996e-07 
6.379289096089167e-07 
7.354022417037772e-07 
5.25505413862052e-07 
1.325454077682395e-06 
2.892707347717926e-06 
2.423907829480975e-06 
1.722564348907371e-06 
1.762279027189639e-06 
1.162734899700578e-06 
8.200360018167508e-07 
1.297017847866444e-06 
1.411112656058043e-06 
1.000826102248993e-06 
1.501317884647457e-06 
2.286510816077098e-06 
2.542173968029046e-06 
6.963108866627083e-07 
8.631671728363741e-07 
8.650651808533658e-07 
2.318998592744998e-07 
8.85867471951567e-07 
1.749076136989518e-07 
-2.356814519618263e-07 
-5.756264628996408e-07 
-7.19786376092601e-07 
-1.4743105095442e-08 
2.303929950109151e-07 
1.612162412819432e-07 
2.845506788419241e-07 
8.215293450006456e-07 
1.429345015243544e-06 
1.490271594735253e-06 
1.071195577235393e-06 
1.24666275276054e-06 
7.570920830068367e-07 
2.989787847701077e-07 
5.758085932062285e-07 
5.696256547214149e-07 
5.255802869904857e-07 
5.976891879976967e-07 
1.255161674010564e-06 
1.584532151902495e-06 
-1.313761800106534e-07 
-1.382879230109718e-07 
1.737006821381583e-07 
-2.722371324163231e-07 
1.890009441169703e-07 
-6.178634250679627e-07 
-9.352202451419946e-07 
7.902265458907664e-07 
2.071309879627571e-10 
1.384706959581668e-07 
4.49399595820787e-08 
4.282677883968498e-07 
-5.054253865454827e-07 
6.65532962997326e-07 
1.855833104307773e-06 
9.70312090483139e-07 
1.39335214686615e-07 
5.331533919652894e-07 
2.005696715888834e-07 
-6.907897369287291e-08 
3.342327021834627e-07 
4.792075264453712e-07 
4.125032969777265e-07 
7.78503069452564e-07 
1.735659062453544e-06 
1.640884762498536e-06 
-1.505830215677834e-07 
-7.768910376864458e-08 
1.459253149984198e-07 
-1.749767000210452e-08 
3.298823355300835e-07 
-4.66533174598592e-07 
-1.251907164591079e-06 
4.413625676421746e-07 
-1.850100707293325e-07 
3.471396199941864e-07 
4.395302567603051e-07 
1.249717661473312e-07 
-5.644285138450893e-07 
1.193998532838381e-06 
1.237217423962934e-06 
9.287380359126798e-07 
6.005897738697466e-07 
5.990363629386206e-07 
-1.377343268072099e-07 
-3.063783104898864e-07 
3.613402716443671e-07 
7.742091508648187e-07 
2.612767573415735e-07 
7.669065152073326e-07 
1.809755791949333e-06 
1.300725691416951e-06 
-6.390287883234043e-07 
-6.393936371317959e-07 
-4.132976372360939e-07 
-8.235349239026597e-07 
2.925371318755431e-07 
-7.259294085776644e-07 
-1.550822903551564e-06 
1.053684630131881e-06 
2.618126953608057e-08 
1.231238019901432e-06 
3.416299271771581e-07 
-1.492874800930594e-07 
-5.663429576218482e-07 
1.54143337801834e-06 
2.004902987811932e-06 
1.68752148267749e-06 
9.976638135788993e-07 
4.221647361725005e-07 
2.337154989754752e-07 
2.900480150175552e-07 
5.546984288848539e-07 
3.708779572263928e-07 
-1.206177847983489e-07 
6.828663558851953e-07 
1.546827903010153e-06 
1.586686245412506e-06 
-8.261243591911268e-07 
-1.437385703385799e-06 
-1.310658152097175e-06 
-1.015744868011849e-06 
3.546614503554465e-07 
-4.967676921387928e-07 
-1.345837989216633e-06 
1.19560705945247e-06 
-5.55099161552898e-07 
1.194837327930265e-06 
4.701144722627123e-07 
-1.170459118586723e-07 
3.401720316228204e-07 
1.322615011881474e-06 
2.280602521178965e-06 
1.509775022241733e-06 
5.901137930661683e-07 
6.550061462553115e-07 
2.541460140894773e-07 
3.156210670157079e-07 
7.51977504796332e-07 
7.365983744939537e-08 
6.548602836456444e-09 
4.641592262748935e-07 
1.772427464352872e-06 
1.740698484357334e-06 
-2.716126332902328e-07 
-1.445694473637329e-06 
-1.328689905048203e-06 
-6.520223162373216e-07 
6.427089129276619e-07 
-3.563625630235878e-07 
-1.317680831604841e-06 
4.509055422546725e-07 
-4.214032356047924e-07 
1.602400048395048e-06 
1.592039190055212e-06 
3.640107989805243e-07 
7.117277582691339e-07 
1.25612936350858e-06 
2.6318321185825e-06 
2.573983949999708e-06 
1.294340388383461e-06 
1.123274057606617e-06 
1.050488116110848e-06 
6.869427387546944e-07 
1.116372771528088e-06 
4.974929554284042e-07 
3.689723284377557e-07 
8.112884540399543e-07 
2.066312062012617e-06 
2.267679220149607e-06 
9.413793483855451e-07 
7.824119777611517e-07 
1.074963234524399e-06 
6.533662906234936e-07 
9.466856718480855e-07 
-5.777038388492601e-08 
-8.280468427925532e-07 
-5.044902782386258e-07 
2.285456917806322e-07 
1.328652750397845e-06 
1.112778636870714e-06 
8.71662894818808e-07 
4.341080491539886e-07 
1.734818640364786e-06 
2.446255116525612e-06 
2.528984367408797e-06 
1.45279908025477e-06 
5.7041705677466e-07 
6.505334688939599e-07 
5.684667993327303e-07 
8.918687513445028e-07 
6.560702242131731e-07 
1.777546711586243e-07 
8.139112935258996e-07 
1.753360175094659e-06 
1.988346863651997e-06 
5.196654688308314e-07 
-5.414578696085925e-08 
2.585029385809693e-08 
3.772724784642116e-07 
7.827690071464724e-07 
-2.238736655055738e-07 
-7.062795980016901e-07 
4.008485142670878e-08 
-1.02196321741665e-06 
1.584753138628817e-06 
1.857575364825308e-06 
1.458126991780814e-06 
4.817589634758143e-07 
1.765544814641736e-06 
2.134089346320944e-06 
2.157600534058815e-06 
8.11017020016658e-07 
7.941504936732619e-07 
2.616233804007849e-07 
7.419247783019371e-08 
5.565053806682168e-07 
5.090627750900121e-07 
1.082024720686372e-07 
5.074630223944579e-07 
1.764355105001846e-06 
1.730098022745001e-06 
3.423723403560386e-07 
-4.468040811238968e-08 
3.02781918316952e-07 
2.384236280839482e-07 
6.792501500831151e-07 
-5.531103679365681e-07 
-1.011335855238977e-06 
-4.692785411657598e-07 
9.248188332776054e-07 
1.562166604131438e-06 
1.477952800048761e-06 
1.344003278532464e-06 
1.586308629562487e-06 
2.268936350281439e-06 
3.131023927976252e-06 
3.014591680636598e-06 
1.748921724502835e-06 
1.171844400811442e-06 
9.201368571556296e-07 
6.921368683978117e-07 
5.87886554281708e-07 
5.009263082577955e-07 
8.085669193196792e-07 
1.134353728030182e-06 
2.301567504299289e-06 
2.276180012830924e-06 
1.562679079460813e-06 
1.453136453594992e-06 
1.730082090134965e-06 
1.350312887920707e-06 
1.073452988785592e-06 
-2.507926614727986e-07 
-8.824386765184411e-07 
-3.33574237855724e-07 
4.347452631385092e-08 
2.196779454952972e-06 
2.088490196853601e-06 
2.115615023594303e-06 
1.52586643956531e-06 
2.28787455624745e-06 
2.998504677503505e-06 
3.43967491769837e-06 
2.406717206149088e-06 
1.81229062218412e-06 
1.161016529550239e-06 
9.479450296787644e-07 
1.312757243512696e-06 
1.245721187301093e-06 
8.93323178460116e-07 
1.360927379124441e-06 
2.817650904875696e-06 
2.791859365917614e-06 
1.047107720161796e-06 
-2.506531261639543e-07 
7.009011002044144e-08 
8.037329857331642e-07 
1.509683078228916e-06 
1.200120921516777e-07 
-4.40963646089474e-07 
4.95187797610992e-07 
1.210101553206508e-06 
2.618814203739081e-06 
1.736201373432961e-06 
1.677981906479141e-06 
1.554160425097781e-06 
2.871262243223567e-06 
2.930444606981578e-06 
3.430121488055966e-06 
2.340292885013081e-06 
1.990950507127189e-06 
1.320993466837136e-06 
1.409050753336773e-06 
1.293654369759537e-06 
1.162807331742749e-06 
1.326795675315703e-06 
1.21794457324652e-06 
2.069398103935343e-06 
2.615492213742452e-06 
1.419052617378528e-06 
1.958182241596136e-07 
5.383551467321104e-07 
1.12181197494572e-06 
1.250200000828123e-06 
7.167396215663471e-08 
-2.914487122118119e-07 
7.440554167187475e-07 
-2.841878093364528e-07 
2.428331161578666e-06 
1.555114868640671e-06 
1.231666895314849e-06 
7.662691584346849e-07 
2.031346371202446e-06 
2.867078040029792e-06 
2.906563040914301e-06 
2.280986168488801e-06 
1.934800369682227e-06 
1.352432621212622e-06 
7.41070549083399e-07 
8.960072009902416e-07 
5.268968753913775e-07 
5.943516696367632e-07 
1.214922963822774e-06 
2.196460172210201e-06 
2.284687897067851e-06 
5.289613013275373e-07 
-5.491336986635491e-07 
-5.337318044978117e-07 
2.790049968382843e-08 
9.015657700344862e-07 
2.998530810008001e-10 
-6.56678471582787e-07 
-4.110620093870273e-07 
-7.670760565757554e-07 
2.65850255632155e-06 
2.302719688557293e-06 
1.904327819122533e-06 
1.847693850034913e-06 
2.408810110154186e-06 
3.419070974123787e-06 
3.344312052271672e-06 
2.804311694614169e-06 
2.063917899010813e-06 
1.552548643606186e-06 
6.357409219046926e-07 
7.012288679648008e-07 
8.840958174516794e-07 
1.123652777240908e-06 
1.613215989577653e-06 
2.139774763414044e-06 
1.87197762115543e-06 
1.005932911073206e-06 
-7.825239236425492e-08 
4.381511943881222e-07 
6.841198659151608e-07 
9.423287219290215e-07 
3.199523211386089e-07 
-5.750692520004289e-07 
7.913229011226266e-07 
1.20814463428104e-07 
2.071298750452518e-06 
2.467225451723911e-06 
1.957761510555475e-06 
2.344420575435398e-06 
2.983031188396066e-06 
3.971628489999124e-06 
4.222320966590486e-06 
3.081722830029527e-06 
2.726379608197227e-06 
1.998763880570455e-06 
1.633635444871089e-06 
1.974707754834803e-06 
2.249611080507801e-06 
1.971166644364638e-06 
2.404294703744536e-06 
3.568939922327718e-06 
3.276816000528406e-06 
1.699681935443362e-06 
8.928988895496099e-07 
1.138670271762231e-06 
1.34636009287752e-06 
2.306970693583682e-06 
1.176173214729244e-06 
1.664925795417454e-07 
1.001838563063383e-06 
1.13391429531572e-06 
2.804836997217944e-06 
2.826327258066273e-06 
1.701346754331909e-06 
2.440387364499519e-06 
3.426733524849655e-06 
4.296205478934728e-06 
4.022114151604136e-06 
3.347418242020512e-06 
3.101702939632768e-06 
2.192835598469955e-06 
1.625671470822098e-06 
1.796532990483768e-06 
2.13173126250202e-06 
2.019698006172415e-06 
2.717959214821625e-06 
3.483198657288635e-06 
3.034371162288987e-06 
1.31275962313835e-06 
8.894951157641928e-07 
1.35763809456504e-06 
1.345298938544498e-06 
2.217254238097051e-06 
1.518899064058921e-06 
5.475465930083742e-07 
1.485171689391191e-06 
8.67279270743432e-07 
3.036814318934907e-06 
3.117369651914939e-06 
1.513208199917105e-06 
2.055244429030867e-06 
3.396899612081289e-06 
4.121431997385018e-06 
4.051117811724916e-06 
3.126567059185642e-06 
2.620680352789755e-06 
2.267585153651504e-06 
1.73515045169547e-06 
2.022618000570977e-06 
2.482131201835682e-06 
2.528598732341097e-06 
2.740677740186688e-06 
3.255229494127405e-06 
2.699348110059114e-06 
1.607466990999647e-06 
1.649306486016844e-06 
2.065928093225621e-06 
1.451618831325952e-06 
1.926394249782531e-06 
1.384236015133628e-06 
4.607620443817211e-07 
1.515343388277057e-06 
1.015444367859442e-06 
2.964834051401e-06 
2.562421288625371e-06 
1.937294727689955e-06 
2.213705801155396e-06 
3.172925268748355e-06 
3.970996712620041e-06 
4.390052718028968e-06 
3.328968306971906e-06 
2.556592775771689e-06 
1.987571554040693e-06 
1.693948912378787e-06 
1.731705952896688e-06 
2.182234243920267e-06 
2.370644835947186e-06 
2.594577676038445e-06 
3.505281480957511e-06 
2.897085361987035e-06 
1.260185262424974e-06 
5.965447332877718e-07 
8.180753483466321e-07 
9.20927162733807e-07 
1.667812715808608e-06 
1.138723306328384e-06 
4.579154661947777e-07 
1.49302699593563e-06 
1.743768037382949e-06 
3.18361853856307e-06 
2.991480346367794e-06 
2.736697424000726e-06 
2.892059029640088e-06 
4.03665128170591e-06 
4.647615336922746e-06 
4.460581541550862e-06 
3.543862260456149e-06 
2.868816103128818e-06 
2.897663467684161e-06 
2.108900474465698e-06 
2.074255436281411e-06 
2.413302929392124e-06 
2.478281867747696e-06 
2.983415809952221e-06 
3.774980567193773e-06 
3.622974339408526e-06 
1.620118673572765e-06 
1.210978444819446e-06 
1.576237228562675e-06 
1.409989592110577e-06 
2.191987781297311e-06 
1.476798731194658e-06 
5.823283845441774e-07 
3.094724933161959e-06 
1.157520043323653e-06 
3.877150966188631e-06 
3.278518582198284e-06 
2.260825578363314e-06 
2.652585397032358e-06 
3.653673073332947e-06 
4.358640149913069e-06 
4.736049276554988e-06 
3.771491793299725e-06 
3.151475261452739e-06 
3.229066295431046e-06 
2.487381402044086e-06 
2.604781092442996e-06 
2.530965005306466e-06 
2.928814267055358e-06 
2.969607829862672e-06 
3.262897166948576e-06 
3.242939840247724e-06 
1.652185271786342e-06 
1.158382889884365e-06 
1.401987047617094e-06 
1.35957016519834e-06 
1.913695074747054e-06 
1.605411955258706e-06 
1.112418864793023e-06 
2.50566344310869e-06 
2.535363086014937e-06 
4.328121399073629e-06 
3.613936435900738e-06 
2.904232013221739e-06 
3.232936591291648e-06 
4.258506165858517e-06 
5.02118181767886e-06 
5.049826459906125e-06 
4.151630359549527e-06 
3.766636678437914e-06 
3.072314778401441e-06 
2.344728809780608e-06 
2.453154246319959e-06 
2.661031492628453e-06 
2.618270923497025e-06 
2.968152195281656e-06 
3.511039395639304e-06 
3.349328952756556e-06 
1.684904386115952e-06 
1.87343240425677e-06 
2.13674678634337e-06 
1.559117573236619e-06 
1.855990366730405e-06 
1.407072662426626e-06 
1.132322308105191e-06 
2.937011205270842e-06 
2.896231074492807e-06 
4.37937424222133e-06 
3.878604995140607e-06 
2.998778184174167e-06 
2.591719053748961e-06 
3.969463148418067e-06 
4.389399960697602e-06 
4.938627494949679e-06 
4.307615319556104e-06 
3.907147449972008e-06 
3.200602783093781e-06 
2.502883648169025e-06 
2.892656394437915e-06 
2.809557537020652e-06 
2.601285933675716e-06 
2.483255203610007e-06 
3.173120002268164e-06 
2.907347757227895e-06 
1.483575479849884e-06 
1.898818041851796e-06 
2.207239692667346e-06 
1.802053639005242e-06 
1.7067870503839e-06 
9.955882935561051e-07 
9.127091774968324e-07 
2.85549135233223e-06 
3.181142031386892e-06 
5.22321811852038e-06 
4.053172084530475e-06 
2.772573002052625e-06 
3.253356323019524e-06 
4.414656183207345e-06 
5.134670098437929e-06 
5.416595694455359e-06 
4.619886896884382e-06 
4.353068589234831e-06 
3.482290456504552e-06 
2.553437271470196e-06 
2.768649947986931e-06 
3.075971833207359e-06 
2.538277433263767e-06 
2.72790595728818e-06 
3.548815466684093e-06 
3.332369139130054e-06 
1.793001510832575e-06 
1.02792541897645e-06 
1.131791460662601e-06 
1.739726200423671e-06 
2.249058346049419e-06 
1.486575105895924e-06 
1.612058315439779e-06 
1.886042232302496e-06 
2.164591956658676e-06 
4.796565210588003e-06 
3.318328834764247e-06 
2.827777474377089e-06 
3.385804335406715e-06 
3.7071431569927e-06 
4.863267135417201e-06 
5.253558663901849e-06 
4.865307351242717e-06 
4.239426470683039e-06 
3.18109801443009e-06 
2.249984298365332e-06 
2.694519084393673e-06 
2.672721110116416e-06 
2.201612081332388e-06 
2.262077144335564e-06 
3.397615671746359e-06 
3.225941901349732e-06 
1.299421217030466e-06 
9.524507208599111e-07 
1.161914242398614e-06 
1.152251420186808e-06 
2.0264170775881e-06 
1.63792911394975e-06 
1.774661845476899e-06 
1.017758761608633e-06 
1.140273335295746e-06 
4.006614326737327e-06 
2.483927680320949e-06 
1.688755901174175e-06 
2.328308340035358e-06 
3.437741719422184e-06 
4.846056096940629e-06 
4.877729220349229e-06 
4.413240078413436e-06 
3.638840090640841e-06 
2.919459105064582e-06 
2.293754176034852e-06 
2.723997610319398e-06 
2.78695521370754e-06 
2.509464969992091e-06 
2.824001338107186e-06 
4.084778578023435e-06 
3.647979358433222e-06 
1.833865658122525e-06 
1.69455749577194e-06 
1.941628248286641e-06 
1.626350868319194e-06 
2.434455602541323e-06 
1.710546208313642e-06 
1.505685871543031e-06 
3.190185115003306e-06 
2.232856761906723e-06 
3.825573338214936e-06 
3.725511949394343e-06 
2.855204139364191e-06 
2.886991611002323e-06 
3.868674450823868e-06 
4.886979719474471e-06 
5.859608332544042e-06 
5.297435606452146e-06 
4.597802518928609e-06 
3.351274186925072e-06 
2.980783446400219e-06 
3.634928733284839e-06 
3.697009354880479e-06 
2.799339899118991e-06 
3.065446934093528e-06 
4.277288295903033e-06 
4.00959134867612e-06 
1.922923409288834e-06 
1.485242895723313e-06 
1.825894289209941e-06 
2.104355120588652e-06 
2.882342319905582e-06 
2.156288874136265e-06 
1.680808068685999e-06 
2.721504526930009e-06 
2.890952883742929e-06 
5.359798384019868e-06 
4.353270581192355e-06 
2.686860304209826e-06 
3.694598330094627e-06 
4.202573692520681e-06 
4.945624200453935e-06 
5.379255668190639e-06 
5.319375886041906e-06 
4.790549980359444e-06 
4.175325997919368e-06 
3.706462054483306e-06 
4.26357124240203e-06 
3.901469802322616e-06 
3.126381568848112e-06 
3.299868216003245e-06 
3.634432525775752e-06 
3.319692528942194e-06 
2.143733515301222e-06 
2.168206089030031e-06 
2.236141109073318e-06 
1.906109960339335e-06 
2.36743400078377e-06 
2.28812950346956e-06 
2.087869671371244e-06 
3.574200923539216e-06 
2.715912771327767e-06 
5.115902847815131e-06 
4.367333876982324e-06 
3.777743047839892e-06 
3.783430009290204e-06 
3.762006060689957e-06 
5.76304341098136e-06 
6.108972328822767e-06 
6.236078313694772e-06 
5.374967265944583e-06 
3.853381247797736e-06 
4.059509643362271e-06 
4.641753666328699e-06 
4.720823363646186e-06 
3.963442417577382e-06 
3.853572929303081e-06 
3.825061368068152e-06 
3.740075674873869e-06 
2.442100421792351e-06 
1.393628072727481e-06 
1.551506191257309e-06 
2.241184715268966e-06 
2.785961058735602e-06 
3.03410396702965e-06 
2.996466860894193e-06 
3.191848005896435e-06 
2.38892636761407e-06 
5.748362005284252e-06 
4.064504025703585e-06 
3.441281319261115e-06 
3.509189818957912e-06 
3.986230999885605e-06 
5.203835426861738e-06 
5.753680884701057e-06 
5.37095764352454e-06 
5.125567074198852e-06 
4.440104816238019e-06 
4.15764922074292e-06 
4.667644500477412e-06 
5.075792305607714e-06 
4.418948684323898e-06 
4.21134042923608e-06 
4.561742605265873e-06 
4.677922631467164e-06 
3.708923094043166e-06 
3.849585776510182e-06 
4.047418630957033e-06 
3.870025436272982e-06 
3.471080859558839e-06 
3.177124518121231e-06 
2.501717097387943e-06 
2.739103880527197e-06 
2.158963145206767e-06 
5.888824778485824e-06 
4.157355241034097e-06 
3.941280602606987e-06 
4.02950305835286e-06 
4.325778302408772e-06 
5.619631972584182e-06 
5.743891489615402e-06 
5.610523374746084e-06 
5.050306479654487e-06 
4.565491926524974e-06 
4.635614438810789e-06 
4.73601157243688e-06 
4.946244854365569e-06 
4.390863205318622e-06 
3.785003225470178e-06 
4.382391735565647e-06 
4.669102842822966e-06 
2.848854519773342e-06 
2.434112070590541e-06 
2.791949073536072e-06 
2.581620418525022e-06 
3.13802020725309e-06 
3.005175554075665e-06 
2.590346282482045e-06 
3.44687405963038e-06 
3.150435716258718e-06 
6.169579400461994e-06 
4.968347598708684e-06 
4.009590958206027e-06 
3.465637887734344e-06 
3.777666480870397e-06 
5.191657929339425e-06 
5.164345814876269e-06 
4.860623754395531e-06 
4.979122410877572e-06 
4.458236723863577e-06 
4.611065888127795e-06 
5.198241704494822e-06 
5.540131586014982e-06 
5.058690528156934e-06 
4.415081908575634e-06 
4.837621482918163e-06 
4.840588594642717e-06 
3.840509670179911e-06 
2.803283969360156e-06 
3.305200264516659e-06 
3.299402146026892e-06 
3.288356241222254e-06 
3.294164822910667e-06 
2.668822933069675e-06 
2.397856880259104e-06 
2.02677881577275e-06 
5.46220268747556e-06 
4.501702813785683e-06 
3.921219300274492e-06 
3.248395998956815e-06 
4.081117013535222e-06 
5.411954083699892e-06 
5.388430474037137e-06 
5.517256266389085e-06 
4.971266988760836e-06 
4.698525217288687e-06 
4.291537266120731e-06 
4.742428724581036e-06 
5.50665356723076e-06 
5.058671359026504e-06 
4.706149940929568e-06 
4.973912576901327e-06 
4.812305229277405e-06 
3.784556051962233e-06 
3.6601123863312e-06 
3.975731905309086e-06 
3.5288080980903e-06 
3.127374773798449e-06 
2.73105063045009e-06 
2.40217633497843e-06 
3.726624908801402e-06 
3.269003523870075e-06 
4.879714397719924e-06 
4.100495378617871e-06 
3.655099521382139e-06 
3.206698976390249e-06 
3.731263479874769e-06 
4.348923572865794e-06 
5.300331323003623e-06 
4.821406748793884e-06 
4.137835281095271e-06 
4.091544810781619e-06 
3.736250590785778e-06 
4.303169671272628e-06 
4.967929251372121e-06 
4.141229483309052e-06 
4.148327795353928e-06 
4.586115285457789e-06 
4.630874856741709e-06 
3.351620077721109e-06 
3.098368852984109e-06 
3.444371913047529e-06 
3.107412736788622e-06 
3.287680749118965e-06 
2.607899548079485e-06 
2.125840792846121e-06 
4.049484215482223e-06 
3.386779222362221e-06 
5.289320814416501e-06 
3.384172641916384e-06 
3.269728259518233e-06 
2.961060685526054e-06 
2.725580477377086e-06 
4.028391874339649e-06 
4.064539333206384e-06 
3.983291858634088e-06 
4.071214530615855e-06 
3.622872423122291e-06 
3.397229735215078e-06 
3.761342218325194e-06 
4.389324026510791e-06 
3.998450887346768e-06 
4.229435758250458e-06 
4.760744782556385e-06 
4.789057300196694e-06 
3.46927083811542e-06 
3.4233682422896e-06 
3.599820439099858e-06 
3.084351871627619e-06 
3.010668439229791e-06 
2.375008469887023e-06 
1.539685199307707e-06 
2.972281837243742e-06 
2.176827582989266e-06 
4.729832804962589e-06 
3.166373919982443e-06 
2.871600417795846e-06 
2.189397829621621e-06 
2.383989069522272e-06 
2.858460507855584e-06 
3.347351317955421e-06 
3.561695990136765e-06 
3.487121238288729e-06 
3.393285457330252e-06 
2.636203187991584e-06 
3.216265216963881e-06 
4.208425296989057e-06 
3.570579701731994e-06 
3.61502867683943e-06 
3.874841264562578e-06 
3.402726806280139e-06 
1.541812353267016e-06 
1.101401246907794e-06 
1.165043881368709e-06 
9.851582341030725e-07 
2.131803544769356e-06 
2.031830383120591e-06 
1.573206151294678e-06 
3.555794289871281e-06 
3.225614842028456e-06 
4.36725300091125e-06 
3.85083621120935e-06 
2.835609331050976e-06 
2.542329230992111e-06 
2.426562594521605e-06 
3.147098934648757e-06 
3.593906013239704e-06 
3.402503546387334e-06 
3.308202089472634e-06 
3.098224430770127e-06 
3.324401497379316e-06 
3.57706328279208e-06 
4.075948906386994e-06 
3.529707439194004e-06 
3.700690306691392e-06 
4.374774489000382e-06 
3.760544667983205e-06 
2.478622364199651e-06 
2.432260126795851e-06 
2.457120931590849e-06 
1.944830313400507e-06 
2.579151497645276e-06 
2.065831891288645e-06 
1.292949732291091e-06 
2.771847317066342e-06 
1.416497300419295e-06 
4.181278078847536e-06 
3.175088433334739e-06 
2.570585148615961e-06 
2.666131035107877e-06 
2.751705815698483e-06 
3.285176477409737e-06 
3.519986132880743e-06 
3.249316731247871e-06 
2.816150921680028e-06 
2.674860698690285e-06 
2.733738087474595e-06 
3.513386980524146e-06 
4.144084711400034e-06 
3.403568245713888e-06 
3.806823889592264e-06 
4.182699534527693e-06 
3.432806514411366e-06 
2.094936802830057e-06 
1.434215469522445e-06 
1.532475225378774e-06 
1.726809780240379e-06 
2.49182429088859e-06 
1.929513427768948e-06 
1.21367778938531e-06 
3.363996787249259e-06 
3.871164660035656e-06 
4.562768700382106e-06 
3.882997910026751e-06 
2.541946111898132e-06 
2.298499664664269e-06 
2.201771704894508e-06 
3.222532003062975e-06 
3.820068613273753e-06 
3.498201405117619e-06 
3.36377155587941e-06 
3.04082513599686e-06 
3.182237117560458e-06 
4.055856547473267e-06 
4.826616388159999e-06 
4.087971936299637e-06 
4.419058834400274e-06 
4.835658470678377e-06 
4.292418001561153e-06 
2.865587489472729e-06 
2.384316623245281e-06 
2.540314457556603e-06 
2.312761796103017e-06 
2.91072410135282e-06 
2.59257368881428e-06 
1.768207592879902e-06 
2.406649531480264e-06 
2.568860894476577e-06 
3.892376834846409e-06 
3.553127841201406e-06 
1.73133765224652e-06 
2.1071981414716e-06 
2.047765946837664e-06 
3.126712191056964e-06 
3.399797344979308e-06 
3.121277266903469e-06 
2.996631111082466e-06 
2.933597908209483e-06 
2.984319115717121e-06 
3.618149286734623e-06 
4.16248721650937e-06 
3.747235483039959e-06 
3.533510133375568e-06 
3.994387320338638e-06 
3.657991305851309e-06 
2.388178275834019e-06 
2.052119462919298e-06 
