solver_type L2R_L2LOSS_SVR
nr_class 2
nr_feature 79534
bias -1
w
-2.46328837051133e-07 
7.220416036798442e-07 
4.462584987428038e-06 
8.785974643567801e-07 
-3.644677633228726e-06 
-2.474477214015242e-06 
7.825954518162885e-07 
1.80232288519648e-06 
2.592836660896124e-06 
1.586124345958552e-06 
2.099091833438261e-06 
3.567821301391975e-06 
2.924522958860469e-06 
4.716235972461855e-06 
6.311638215512033e-06 
9.777475748095807e-06 
9.708896030634946e-06 
8.961596155175755e-06 
7.680524524605859e-06 
2.047561697717885e-06 
-4.458523088899021e-06 
-4.688756243365577e-06 
-1.872329064119094e-07 
6.048785063647957e-06 
5.114881066043233e-06 
-1.477564253310736e-06 
-4.875175138118802e-06 
4.290970531893797e-06 
3.754547976061568e-06 
-2.486022640413629e-06 
-7.967433994764002e-06 
-4.865690268384653e-06 
-8.445190287134299e-07 
-1.275659792657565e-06 
-3.10440772943432e-07 
-3.06402301344842e-06 
-5.181396822610428e-07 
1.120453928037247e-06 
-4.857871523827115e-07 
2.041318426929881e-06 
5.024832312668693e-06 
6.908194148151189e-06 
7.867105314876795e-06 
7.316748455484987e-06 
6.970320576910696e-06 
4.281537522224334e-06 
1.266074564701574e-07 
8.111300296152815e-07 
2.874221398007399e-06 
5.904274232756054e-06 
4.048194952564102e-06 
-3.860411188542299e-06 
2.035284794169987e-06 
3.273514154883284e-06 
2.972096633162915e-06 
-1.567581142614245e-06 
-9.016494894192016e-06 
-7.237474333271895e-06 
-4.244045302858094e-06 
-3.678954345314071e-06 
-2.490961652934826e-06 
-4.166782629226402e-06 
-1.05031472518892e-07 
-7.047023841627444e-07 
-2.357107907178195e-06 
2.166797191324902e-07 
3.052915953618779e-06 
4.047577101437918e-06 
6.323571703707978e-06 
6.17778954030509e-06 
5.863416906967502e-06 
4.591705971439728e-06 
-5.474567077008422e-07 
-4.443669410680199e-07 
2.232430838182341e-06 
4.137331614374374e-06 
1.395022649504899e-06 
-6.134509776504728e-06 
-3.767137486388596e-07 
5.465437443495693e-07 
7.789086832478242e-07 
-3.947769369255365e-06 
-8.208311322529483e-06 
-6.571430206727337e-06 
-1.830635885906752e-06 
-2.857682820658758e-06 
-3.102144634902798e-06 
-4.163722996529618e-06 
-2.546913013935909e-06 
-4.833786915165858e-06 
-3.398664252630113e-06 
1.494098734579309e-06 
2.842590113209755e-06 
3.954954001453223e-06 
3.374036233041146e-06 
3.480556026824285e-06 
4.977000511636979e-06 
3.292530087830201e-06 
3.033831126865831e-06 
4.009081952112112e-06 
3.437859598093727e-06 
2.814061165268508e-06 
4.774896412741241e-07 
-6.707185168298371e-06 
-4.11693857783083e-06 
9.059941820409146e-07 
3.149128088498344e-06 
-2.174687783457781e-06 
-6.253281231358443e-06 
-5.453782006962592e-06 
-7.965356580793296e-07 
-3.554590178713144e-06 
-2.076108557049421e-06 
-2.579261103224915e-06 
-1.593973665493637e-06 
-3.378636437209163e-06 
-3.056041584012185e-06 
2.2144896999012e-07 
1.402855049102971e-06 
3.344728312119727e-06 
4.325748080063223e-06 
4.900741064812175e-06 
6.078682348372884e-06 
2.052493830188226e-06 
-6.121489832066966e-07 
-7.893193524308657e-07 
4.92352434657266e-07 
2.301169336831988e-06 
9.34441015831469e-07 
-5.902507790214885e-06 
-4.466503353862835e-06 
1.900473395118298e-06 
2.649808249866196e-06 
-3.419269269244959e-07 
-3.856695525608871e-06 
-3.366695297658727e-06 
-2.265228654536633e-08 
4.7571759378535e-07 
-1.866220276978823e-06 
-2.454685635568407e-06 
1.204948025666284e-06 
-1.870822406632117e-06 
-1.913213067599035e-06 
2.878662193208138e-06 
4.882790414310174e-06 
6.180108653479289e-06 
5.476102834861824e-06 
6.414943696332946e-06 
5.90330610248881e-06 
2.193398017222057e-06 
-5.504461655201716e-07 
-2.386328675273522e-07 
9.37171991566629e-07 
2.604424705851082e-06 
1.7695686123911e-06 
-5.245128550006669e-06 
9.289167279632858e-07 
2.267684956315939e-06 
3.869647866510488e-06 
1.23305924399676e-06 
-2.648459252916532e-06 
-8.49423990941579e-07 
1.414111016087507e-07 
-2.391284117797671e-07 
-8.846324115765661e-07 
-2.147519290026075e-06 
-1.414275459411399e-07 
-1.256672650731502e-06 
-1.350268483375145e-06 
1.553488557462825e-06 
4.753167545537119e-06 
5.810856240990921e-06 
3.943473054536979e-06 
4.001092086235376e-06 
4.074744336306617e-06 
2.998248375819986e-06 
2.033301174122118e-06 
2.237228945111218e-06 
2.718428906181312e-06 
2.355076719013821e-06 
1.513869097863353e-06 
-4.735169245851716e-06 
-5.590800042521311e-06 
1.478206995905416e-06 
4.114315486976317e-06 
7.483680912709894e-07 
-3.317030380087887e-06 
-3.079856427241542e-06 
1.370030066987359e-06 
1.279725664223635e-06 
1.794194823284577e-06 
7.750462743665361e-07 
9.929978086425458e-07 
-7.183115207839624e-07 
-6.57188143819349e-07 
1.60397261216125e-06 
4.549390409949866e-06 
5.375753518970983e-06 
2.115752284718459e-06 
1.653347668204694e-06 
2.674758197294443e-06 
-8.801792086556247e-08 
-4.661649214501772e-06 
-4.061069348389043e-06 
-5.271333230338842e-07 
3.81563970587945e-07 
5.51051596525832e-07 
-4.781405145790354e-06 
-8.520429408078085e-07 
-5.473536092421729e-07 
4.172798557999871e-06 
2.107453102932112e-07 
-5.63833597651126e-06 
-2.873535498681492e-06 
2.594108088509623e-06 
2.674389668590492e-08 
1.039362187665467e-07 
6.557465549887416e-08 
3.04076995851533e-06 
9.454095211097037e-07 
-6.236296484066388e-07 
1.399555425038388e-06 
3.664963415174936e-06 
4.609137322309724e-06 
3.203330161868121e-06 
2.068909292556059e-06 
1.497506211836349e-06 
1.464564815808614e-06 
-5.665607392801223e-07 
-5.445056041391916e-07 
7.601648803433014e-07 
5.23452450752488e-07 
8.077098445744823e-07 
-5.400377078301242e-06 
1.117747501254296e-06 
-6.764720507573382e-06 
3.813518098522359e-06 
2.219201576414047e-06 
-3.869365050966031e-06 
-2.400437021503169e-06 
5.81479627583392e-07 
-3.736174670824956e-07 
-8.762723471046002e-07 
-1.375847740760117e-06 
9.382150207001302e-07 
-1.552199158019152e-06 
-2.571108382704188e-06 
-3.333200576748789e-07 
2.533080346586606e-06 
5.82725813839472e-06 
3.613982884659788e-06 
3.487250602810503e-06 
2.267652318519149e-06 
-2.470244436066679e-07 
-2.902830726989723e-06 
-2.731950073288621e-06 
-5.085883489095088e-07 
1.351779941690792e-06 
1.038054777245712e-06 
-5.501881658429159e-06 
1.165571970274153e-06 
-2.721806659320808e-06 
1.253657654503535e-06 
2.448380567121515e-06 
-1.041639840888048e-06 
-1.458645587487975e-06 
9.76137918225052e-07 
-4.368997642653136e-07 
-1.871955406622546e-06 
-1.183128185244387e-06 
2.986590991529034e-06 
1.583009748007332e-06 
1.88216913863365e-07 
3.226807617217664e-06 
6.040096110292904e-06 
6.241962315673801e-06 
4.398509512429309e-06 
3.611299230194339e-06 
3.421639251760806e-06 
7.350334699928415e-07 
-2.464942777598135e-06 
-2.100971864196971e-06 
2.145226223118412e-07 
2.682008682086973e-06 
2.140970574718352e-06 
-2.989455282625924e-06 
3.596195677885707e-06 
-1.810646189639113e-06 
1.21048818221625e-06 
3.572863692327423e-06 
-3.014437204837343e-07 
-1.680814936856537e-06 
2.962394537742076e-06 
2.273857903258164e-06 
2.289978115800728e-06 
2.242542047340736e-06 
4.365309930260323e-06 
3.354596432563031e-06 
7.87819485996302e-07 
2.898694959561851e-06 
6.387543990785626e-06 
7.481545672096292e-06 
6.799693709754897e-06 
3.017092137213404e-06 
2.545609772301907e-06 
1.830799784479608e-06 
-1.147336614010253e-06 
-4.26299003498607e-07 
2.057524626450092e-06 
2.638912085013278e-06 
3.681895107524282e-06 
-2.340646796875826e-06 
1.649550004791454e-06 
8.029720232664957e-06 
5.430469158064142e-06 
5.458664868311158e-06 
-1.244181740425662e-06 
-8.906844961992976e-07 
4.888513253271869e-06 
5.11844566906523e-06 
2.474586976872324e-06 
3.405668233962997e-06 
6.301730613865961e-06 
2.389345734006558e-06 
2.956235098064759e-06 
5.361689038624949e-06 
7.731456149215686e-06 
6.711394919551827e-06 
5.400155758990636e-06 
2.416391399382656e-06 
2.794068900266679e-06 
2.421411560864557e-06 
1.249146732826972e-06 
2.622800993841452e-06 
2.45868810278654e-06 
2.12242966290487e-06 
3.629831328374631e-06 
-2.511677078544213e-06 
5.689119091610431e-06 
5.744505559572164e-06 
8.093430953085821e-06 
8.271802282827015e-06 
2.570413928825969e-06 
-1.755939534052147e-07 
4.195954834902678e-06 
4.620253624643737e-06 
4.896063817531948e-06 
4.256022355648434e-06 
7.700454129288462e-06 
3.766829673752809e-06 
3.183177926467081e-06 
6.928334532438918e-06 
9.088064798017907e-06 
8.294986638895993e-06 
8.646126458398435e-06 
4.448781875380942e-06 
3.628895764172391e-06 
2.890434496830301e-06 
2.556135231448888e-06 
2.68199765219593e-06 
3.552289821507332e-06 
3.79351726260522e-06 
5.231026917470078e-06 
-5.118336074449212e-07 
2.749859628117695e-06 
4.876896343131929e-06 
9.17874868491222e-06 
6.773513406846148e-06 
1.017197949837201e-06 
1.892400826548668e-06 
6.392603561254197e-06 
6.695846854492031e-06 
7.243213756801163e-06 
5.05020430713915e-06 
8.804102723289106e-06 
5.488519779212428e-06 
4.957235112066411e-06 
8.953565542711927e-06 
1.145882932775856e-05 
1.060725960736699e-05 
1.083693662297975e-05 
8.207336658241506e-06 
7.888814382958867e-06 
6.987884015556474e-06 
4.032434171274494e-06 
4.732094022698549e-06 
6.769755084075605e-06 
7.560223109126072e-06 
8.152917306008299e-06 
1.072448000222815e-06 
4.22729925146396e-06 
2.880084966859859e-06 
8.927692846260266e-06 
6.990104645524526e-06 
-1.022844670496604e-07 
5.404311365033051e-07 
6.416729495264948e-06 
5.892899056530443e-06 
5.920505957750014e-06 
3.443860972114486e-06 
6.385835292043301e-06 
6.186658795478827e-06 
5.730085055181909e-06 
7.487590978499943e-06 
9.542350094085848e-06 
1.045395145789141e-05 
9.926575335148082e-06 
6.189058119931175e-06 
6.713035742114954e-06 
7.403846097181248e-06 
3.099805287848602e-06 
3.758696565934547e-06 
6.307592124971741e-06 
5.664033960228232e-06 
6.235778261990757e-06 
7.504124857411248e-07 
3.136870106996569e-06 
7.790862414178931e-06 
7.840156721956196e-06 
6.649856230949439e-06 
-2.484167542416988e-07 
1.44063708564189e-06 
3.601441348857218e-06 
6.158372093782965e-06 
4.70661565618507e-06 
1.070386585368552e-06 
4.745298113540027e-06 
2.524968066316254e-06 
3.969179708150643e-06 
5.653850569042152e-06 
6.833319163278039e-06 
8.844452504287404e-06 
7.620596626280507e-06 
4.530135840637947e-06 
4.192077790731263e-06 
4.467130389166208e-06 
2.637897157554615e-06 
3.94459556349571e-06 
3.775515020721305e-06 
3.741143022974192e-06 
5.361527265145919e-06 
-1.250303467366359e-06 
8.138461537282919e-06 
5.365974339577527e-06 
8.220860710704931e-06 
6.852637981645661e-06 
-5.218753658517572e-07 
-1.895863035051256e-06 
3.734378670761285e-06 
6.761020534716586e-06 
6.214458301548696e-06 
4.088896158096565e-06 
5.87433029582615e-06 
4.064916945604815e-06 
4.777676523319229e-06 
7.092302668216888e-06 
7.668991006657787e-06 
9.374887662366617e-06 
8.4785498718878e-06 
5.689512261013497e-06 
3.806065053239981e-06 
2.865446549092163e-06 
2.500402586509624e-06 
3.2557353024596e-06 
2.998849172906877e-06 
3.265309508531462e-06 
5.48047239982723e-06 
8.2833849487038e-07 
2.702437510504478e-06 
5.19958598320787e-06 
1.040774379940093e-05 
7.082348167691027e-06 
-1.214240137290148e-07 
-5.831950206407007e-07 
2.292905056727098e-06 
6.317580666722818e-06 
6.040700160136743e-06 
3.366539560276851e-06 
6.605859943149518e-06 
3.047565292185773e-06 
3.815245814019921e-06 
7.761333131020496e-06 
9.194668230793633e-06 
1.025892833569336e-05 
8.550814591423696e-06 
5.405680235495788e-06 
5.812682255751482e-06 
6.914247481293008e-06 
6.397825424131005e-06 
7.329411551894267e-06 
6.477818222774166e-06 
3.828440036373806e-06 
5.387195062241501e-06 
1.522950235394116e-07 
5.426051691894096e-06 
1.046922757040266e-05 
1.01735569620498e-05 
5.876539388986215e-06 
1.043494726887534e-06 
2.804787119563575e-06 
3.839845821044656e-06 
9.170874476567105e-06 
7.402464587216097e-06 
4.535863858506265e-06 
7.619757553714125e-06 
4.530038794940192e-06 
3.02614306390145e-06 
6.191992649681816e-06 
7.411276509794185e-06 
8.207139810579444e-06 
7.586194862475415e-06 
5.060015977541096e-06 
5.893979696806231e-06 
6.507570003503153e-06 
4.679534952409528e-06 
6.181125482500691e-06 
6.70241621280029e-06 
3.568225619114759e-06 
3.948708585007534e-06 
5.63100202528714e-07 
4.095656041180387e-06 
9.897420097179889e-06 
9.803461559438203e-06 
6.485090504107454e-06 
2.413131043762109e-06 
1.800493306005354e-06 
5.920343398565034e-06 
1.01392569591798e-05 
6.860138844935954e-06 
3.24137778220373e-06 
6.282373375941638e-06 
4.816500777980728e-06 
2.83259312601913e-06 
4.654046489498053e-06 
5.206578184861667e-06 
7.06498299580931e-06 
6.961300571372153e-06 
4.534040865089412e-06 
4.802687279317063e-06 
5.479906956344412e-06 
2.083572184226714e-06 
2.358547357056504e-06 
3.963966337399666e-06 
1.700844768692778e-06 
2.782364523398429e-06 
5.480881296214767e-07 
9.753109727018346e-06 
1.207471423537914e-05 
1.075475254363675e-05 
9.66737920776372e-06 
7.860724670229829e-07 
1.599168090244531e-06 
4.480745186340704e-06 
7.423057661273939e-06 
7.334408391167598e-06 
4.158154496994265e-06 
8.526231921844462e-06 
8.10919927464681e-06 
4.131086814369146e-06 
4.864385904910928e-06 
3.738870449556867e-06 
6.348480926827793e-06 
5.124414865452193e-06 
4.013359052502559e-06 
3.046018618639363e-06 
1.115483828629549e-06 
-1.358425585607953e-06 
-1.583835311861945e-07 
9.705885834054277e-07 
2.604754561896628e-07 
1.418129649048288e-06 
1.349973081527297e-06 
6.229888541906535e-06 
9.140678437577341e-06 
1.258957296932829e-05 
8.030457000581652e-06 
1.214499479521476e-06 
4.889494763920001e-07 
5.783811432392787e-06 
8.622134317653894e-06 
8.89042046837358e-06 
4.366808151126832e-06 
9.2012698686373e-06 
5.956966334472719e-06 
2.025841345286378e-06 
4.794359931480705e-06 
5.061795965251358e-06 
6.318831299915665e-06 
5.953023219411113e-06 
4.518472424602821e-06 
4.329006112734494e-06 
3.862411868844932e-06 
4.19339009690452e-06 
4.160611543296827e-06 
3.601844664348249e-06 
1.350878087987238e-06 
1.624376212552025e-06 
-3.567727005435751e-07 
8.930333396121085e-06 
1.041075564838562e-05 
1.035297689203094e-05 
4.847270352857937e-06 
-3.50867459083377e-06 
-1.833751044732766e-06 
4.202184691691972e-06 
6.186914411640103e-06 
7.165630316876413e-06 
4.465938340342646e-06 
6.668793047192062e-06 
2.88755020613328e-06 
2.48602540334845e-06 
5.252331473916162e-06 
5.971870366339403e-06 
6.355018750659756e-06 
6.091905904254523e-06 
4.573740342147317e-06 
3.483778511557891e-06 
2.660416262630706e-06 
1.875690319235908e-06 
2.421560606554361e-06 
2.687232010004328e-06 
1.40807762807822e-06 
2.575040720321496e-06 
8.468573934073917e-07 
7.458897443593569e-06 
1.073723154614215e-05 
8.441225006163984e-06 
4.218780501450996e-06 
-1.491240441110154e-06 
-2.097651734987271e-06 
3.307869574132545e-06 
6.449081380449094e-06 
5.971991498016617e-06 
4.00845965763999e-06 
7.441124026246793e-06 
5.566969726929762e-06 
3.823728361983232e-06 
4.4624046753841e-06 
5.55918538979322e-06 
7.440197293431543e-06 
6.632015456596429e-06 
5.097496893540567e-06 
5.269295800157548e-06 
6.641574611269226e-06 
3.43160198981262e-06 
4.415815579485282e-06 
6.016043054492693e-06 
3.087238320025722e-06 
3.210457967331279e-06 
-1.046275140884718e-06 
6.182583355439577e-06 
7.442285385204856e-06 
8.977978821975896e-06 
4.521959674913761e-06 
-2.907844956907203e-06 
-1.354762969793907e-06 
6.243466617362656e-06 
6.911889277674667e-06 
6.421498792286832e-06 
2.111649427738752e-06 
4.350550944271343e-06 
1.817057443082708e-06 
9.481068233579155e-07 
2.895089980555635e-06 
4.286451957690984e-06 
5.797422087502967e-06 
5.001911980057436e-06 
3.108097064002214e-06 
2.962901201213068e-06 
3.648835370581091e-06 
4.284130266337978e-06 
5.127490122099747e-06 
3.922491939760372e-06 
1.092025483988016e-06 
1.838927472909553e-06 
-8.32603711607848e-07 
3.751674059315045e-06 
3.739755979678118e-06 
9.692996687246171e-06 
6.238326835615763e-06 
-3.365545092913386e-06 
-1.619189014604154e-06 
3.419239873545266e-06 
4.268996864268647e-06 
4.248957332446111e-06 
1.130299446204302e-06 
4.753047295112559e-06 
2.141161326499904e-06 
8.739096008973895e-07 
2.633795031417686e-06 
3.129089270080734e-06 
4.594591215525852e-06 
3.861535165396999e-06 
1.450200373255648e-06 
1.411091460826748e-06 
8.117986806681115e-07 
3.17935430897362e-06 
3.917453817738957e-06 
1.304295938256819e-07 
-4.899390926036281e-07 
2.71719864749219e-07 
-2.195465363835363e-06 
5.332004258970567e-06 
4.52860152006077e-06 
8.541537600086777e-06 
3.022560391854758e-06 
-5.428210061431155e-06 
-1.097277142382769e-06 
4.154607311826131e-06 
3.348190026076222e-06 
3.181614781537036e-06 
-1.058816280672743e-07 
3.401983341283151e-06 
3.208587036980826e-07 
-2.173397368279534e-06 
9.850787609559367e-07 
2.788396385536363e-06 
3.751594653848332e-06 
3.689092606956685e-06 
2.595283539359459e-06 
2.00315485342005e-06 
2.051023079187298e-06 
2.920858225079517e-06 
3.74317975246381e-06 
2.146331971698913e-06 
-1.380862504781827e-07 
-1.82900442621567e-07 
-2.53813612227858e-06 
8.913966702282801e-06 
5.937810138187705e-06 
9.530926845138057e-06 
6.395715908678386e-06 
-4.301950053749775e-06 
-1.504541017221486e-06 
2.467190263087789e-06 
3.985605983777493e-06 
3.440190456677547e-06 
1.583637096405574e-07 
8.359737572288443e-07 
-3.273354050655946e-06 
-1.723848866736691e-06 
-6.747195755960456e-07 
1.895251752916491e-06 
2.943989965922758e-06 
3.415878236230681e-06 
1.086803138263514e-06 
-4.467115811314747e-07 
-3.202543615278599e-06 
-1.101495624654229e-06 
1.288974378779913e-07 
-2.150049764030676e-06 
-7.667187597686927e-07 
-4.906446697220614e-07 
-3.513588886908662e-06 
3.416392756011422e-06 
4.331352445398925e-06 
6.751602095057215e-06 
1.999748148212753e-06 
-6.984525294634525e-06 
-5.800418555415126e-06 
8.586019655941419e-07 
1.972240663392179e-06 
3.935674402139129e-07 
-2.925764915040814e-06 
1.226856419134488e-06 
-1.288174756130279e-06 
-2.673246421529771e-06 
-4.152998844854925e-07 
2.568797046341483e-06 
2.112250132236073e-06 
1.553100688917769e-06 
2.083795513765092e-07 
-4.263922763509947e-07 
-1.765270304275314e-06 
-1.784195253539861e-06 
-7.381217105963001e-07 
-2.224423620275098e-06 
-2.181566935075247e-06 
-1.526072297426015e-06 
-3.991669626476066e-06 
1.385941436757582e-06 
2.663377376189194e-06 
3.348140260357847e-06 
1.076673248298427e-06 
-5.256086179783405e-06 
-3.138260032853401e-06 
2.228316429605421e-06 
2.168239897512145e-06 
-1.041810032069863e-06 
-3.107484625156988e-06 
-1.175610820177249e-06 
-3.921954526341612e-06 
-4.27702302572201e-06 
-2.586020970052806e-06 
2.262310361790385e-06 
2.169840440455274e-06 
3.950471568481171e-07 
-1.161023346646966e-06 
2.630497340391555e-08 
-1.029171605880037e-06 
-2.294650755307218e-06 
-2.069050698668272e-06 
-1.079892232848539e-06 
-2.514528836944418e-06 
-2.425862070047717e-06 
-3.813334053041216e-06 
4.965888940595658e-06 
3.841317117773151e-06 
4.524874315567992e-06 
1.727367878190811e-06 
-3.955714184118667e-06 
-1.522511305911511e-06 
2.309896720718174e-06 
2.605158981914562e-06 
-1.349365391006814e-06 
-1.785340365371882e-06 
1.004992991222637e-06 
-3.197711816292444e-06 
-3.741064609515981e-06 
-3.758014854784902e-07 
7.982087340583723e-07 
1.715688406645655e-06 
-7.15500191572696e-08 
-1.799083204006027e-06 
-1.010362035493684e-06 
-2.004908073322553e-06 
-3.216807482206871e-06 
-2.691871284827961e-06 
-1.298424758331781e-06 
-2.303475399177747e-06 
-1.859282477663631e-06 
-3.521510431602972e-06 
1.381448237517574e-06 
5.079987050865862e-07 
4.869680075726275e-06 
2.382684916354769e-06 
-1.700852417180442e-06 
-1.618481919482797e-06 
1.587855511279865e-06 
3.154968134839793e-06 
2.647456028075521e-06 
4.172407312530236e-07 
3.255229519535607e-06 
-2.582083276776845e-06 
-2.743856169909198e-06 
-7.967284491673385e-07 
2.905786799771473e-06 
1.772758745916423e-06 
1.058361582295834e-06 
7.509778215140283e-08 
1.450160504045795e-06 
1.741512742870028e-06 
6.048618758090886e-07 
5.990347707310485e-07 
5.43584197537589e-07 
-1.371006033944136e-06 
-1.470590627176189e-06 
-2.81381827492797e-06 
-1.194586935817288e-06 
1.431184139144344e-06 
4.440464167154528e-06 
1.805837612899076e-06 
-3.004913054777272e-06 
9.245537587854805e-08 
3.231175182551226e-06 
3.663062976229842e-06 
1.910595759928429e-06 
-9.369736315251738e-07 
2.75185851960646e-06 
-1.692570093183951e-06 
-2.012720993177702e-06 
2.303935183436089e-06 
3.769487157446069e-06 
2.779212553421686e-06 
1.526604925139833e-06 
1.59112777368358e-06 
2.248691993553827e-06 
1.329805909135422e-06 
1.576042150423238e-06 
1.753315639830109e-06 
1.078007216351481e-06 
-1.705407421995461e-06 
-1.547452448734139e-06 
-2.48465276807927e-06 
-9.874675228413189e-07 
4.836298637241951e-06 
5.265181784227002e-06 
5.83971785501542e-07 
-5.499694935265696e-06 
-1.938851176272753e-06 
2.41714871444789e-06 
8.259859682836063e-07 
1.126992587159462e-06 
-2.237235987593583e-06 
-1.014577137141197e-06 
-3.622436058674992e-06 
-2.353437078148898e-06 
6.751956992114011e-07 
3.812940295227336e-06 
2.309218214579328e-06 
9.617581707313083e-07 
1.907989535044238e-06 
9.603883162149241e-07 
1.009070343127135e-06 
1.759021919313771e-06 
2.222639216328196e-06 
1.05809570113555e-07 
-1.692345639952861e-06 
-1.284770107305983e-06 
-3.946761610820008e-06 
-1.061523414044465e-07 
3.933017807607089e-06 
6.420187860855012e-06 
4.225051772316772e-06 
-4.593296984412875e-06 
-1.894934185546799e-06 
1.759849433534322e-06 
1.965600673998083e-06 
2.659073329038484e-06 
9.883157428976767e-07 
1.737080730674534e-06 
-8.494155845539996e-07 
-1.271491137778477e-06 
1.915595525873916e-06 
3.707291564073277e-06 
2.69921442462263e-06 
-4.828273839098552e-07 
-1.768962277734741e-07 
-6.81609548857066e-07 
1.663647155962609e-07 
-8.539762462514196e-07 
-3.08929834082382e-07 
-5.151297919679366e-07 
-2.71586202648777e-06 
-1.690140577238428e-06 
-2.227311007415632e-06 
4.074492754866423e-07 
4.242977801580049e-06 
3.283440371234864e-06 
1.029923210012123e-06 
-6.061443692632293e-06 
-4.620115571265671e-06 
1.899192410375084e-06 
2.347003492427123e-06 
2.453787472730808e-06 
8.139171946454491e-07 
2.838662790755442e-06 
1.525452281273025e-06 
2.813329090003329e-07 
3.464490921351905e-06 
3.808791114671064e-06 
2.63940635039243e-06 
7.978905513041588e-07 
1.966374026765777e-06 
1.801336887089883e-06 
1.891422834023367e-06 
7.989761610428868e-07 
1.630760157973608e-06 
1.618617891144349e-06 
-6.316341953181141e-07 
-4.930131693791414e-07 
-2.399060544714142e-06 
-3.63431403568573e-06 
1.724218689952955e-06 
3.831621220092454e-06 
2.243056094354927e-08 
-5.795317214988197e-06 
-8.970843310658484e-07 
2.533391125324786e-06 
3.071561694810847e-06 
3.920571614379747e-06 
-2.021541002539251e-07 
1.266761142510086e-06 
2.200016049638935e-07 
2.387211841716691e-06 
5.731762021556701e-06 
7.263499959008993e-06 
4.749230585262604e-06 
2.474402884949548e-06 
2.608293337747708e-06 
2.688331872226937e-06 
1.71705512765633e-06 
-5.902195038139093e-07 
3.412407659302595e-07 
1.548735760623604e-06 
6.843897130890614e-07 
1.879211421736386e-06 
-5.457753585589817e-07 
6.872378815339916e-07 
2.602779917341041e-06 
2.732395580390931e-06 
2.814130480270205e-06 
-4.873431014685199e-06 
-3.727956296221889e-07 
3.272839437326904e-06 
4.241850501263952e-06 
2.746072547459142e-06 
1.263675108418163e-08 
3.804265748526681e-06 
6.605066748598157e-07 
2.073513519839154e-06 
4.769458444953459e-06 
6.357583663381185e-06 
5.146617298690259e-06 
2.029841450812568e-06 
2.233969009714977e-06 
2.778229153518181e-06 
1.213933754447281e-06 
-5.59704289422385e-07 
1.273350199508469e-07 
3.277002434636028e-07 
3.06188396100959e-07 
7.200839279172472e-07 
-1.169377953349568e-06 
2.764754708086192e-06 
2.46679274449764e-06 
3.230284015257154e-06 
2.272193515701964e-06 
-4.662517950191403e-06 
-2.435764667059535e-07 
2.180843963437513e-06 
4.056092590166946e-06 
2.296635741123e-06 
2.066195750220248e-08 
3.586154441811722e-06 
-5.293845283975386e-08 
2.427022532690483e-06 
5.18162114913599e-06 
6.693132472656936e-06 
5.569532125335927e-06 
4.05696955518149e-06 
2.836059755167121e-06 
2.684590075744282e-06 
2.926482674498038e-07 
-1.629282730156952e-06 
-4.039369780012754e-07 
2.189683531495193e-07 
1.111691001140402e-07 
6.89724676523829e-07 
-1.916016754127796e-06 
-1.213253783738354e-06 
-1.51856017693289e-06 
3.357830810717682e-06 
1.253284484909262e-06 
-3.849659610215987e-06 
-4.092697521767677e-06 
1.321927882148811e-06 
2.461013016525064e-06 
1.818962603697542e-06 
6.988923193472619e-07 
3.727735103913621e-06 
-3.647638978406409e-07 
1.336705926625833e-06 
1.996920951693699e-06 
4.531188931247316e-06 
2.012071567099683e-06 
2.498262323347475e-06 
2.57691820174905e-06 
1.647713328092888e-06 
1.8439474645188e-06 
-9.712347247661837e-07 
-4.60675369879646e-07 
9.401843637283685e-07 
4.208594982331867e-07 
-2.711953706791166e-07 
-1.111340124523002e-06 
-1.412796577972253e-06 
2.316438975346785e-06 
3.003419538866644e-06 
4.088273106930051e-06 
-2.343658820375456e-06 
-1.82983292916387e-06 
9.747155171764823e-07 
2.853037436833793e-06 
1.114490246539608e-06 
-1.066682126347889e-06 
2.821261308059669e-06 
-1.093332904147303e-06 
-1.479601473125949e-07 
2.156183595764091e-06 
4.136054697296232e-06 
2.444609740605984e-06 
2.245749588922598e-06 
-3.536685320341946e-08 
-2.059296891317762e-07 
-5.770121864024322e-07 
-3.211281649694078e-06 
-1.612843253218425e-06 
2.401898942197738e-07 
-1.113393566924695e-06 
-9.328904757639452e-07 
-2.359099458394116e-06 
-2.51507453063843e-06 
-3.16276287708878e-06 
4.113436080468598e-06 
2.34650225250637e-06 
7.80886059686421e-08 
-8.66381639568491e-07 
7.859703970792387e-07 
1.725179314801189e-06 
2.582526553528671e-06 
-4.593052586334928e-07 
2.867868151735179e-06 
-1.116461128236183e-06 
-7.630502544157401e-07 
2.718260279527682e-06 
3.800694496511889e-06 
2.381701879676207e-06 
1.962351937205079e-06 
1.318911880130084e-06 
-6.145177713730442e-07 
1.426744978508522e-06 
2.055119471046674e-06 
2.179513536177201e-06 
1.398875817590974e-06 
-7.440462291153663e-07 
-3.302594510423009e-07 
-1.874458804365333e-06 
-4.759789880631457e-06 
-4.101530250978574e-06 
3.138517685181153e-06 
3.082948703723458e-06 
-1.235969304276518e-06 
-1.118344322242677e-06 
-2.474127615901155e-07 
1.955322038250463e-06 
1.585291369461781e-06 
-2.261475035197717e-06 
8.330862392089934e-07 
-6.046479406079753e-07 
6.910013183728251e-07 
2.995427550289612e-06 
3.914323393353284e-06 
2.109334948525003e-06 
1.961243274345723e-06 
1.567836109573377e-06 
1.636708343759681e-06 
-4.319654988528165e-07 
-2.724889400742205e-06 
-2.395032657681244e-06 
-2.109480258821389e-08 
-2.834295444614777e-07 
-5.103066471289901e-07 
-2.020295126327767e-06 
-3.532177963206953e-06 
-4.114059387358402e-06 
-3.986592233515435e-07 
-1.058035302665743e-06 
-5.774916771287073e-06 
-7.684276380196066e-06 
-1.819416476677139e-06 
-9.047767554004321e-07 
-3.853852992673452e-06 
-5.192620279599564e-06 
8.918749296846923e-07 
-1.465621877100322e-06 
-3.229462291427858e-06 
-5.306945025718622e-07 
2.067495966534064e-06 
1.475231005831613e-06 
1.175292725758088e-06 
3.989984342286042e-07 
-5.972684950325445e-07 
-9.424543367533624e-07 
-2.623469627470626e-06 
-2.109034359524651e-06 
-4.975552737242477e-07 
-1.189025597293683e-06 
-2.011549034958546e-06 
-4.514019944936225e-06 
-1.84773119519458e-06 
-5.594455998518331e-06 
-2.297750785242616e-06 
-2.006286296778785e-06 
-5.291926247898939e-06 
-7.191290811968325e-06 
-1.160673927472506e-06 
-1.439896488503394e-06 
-4.206347771233095e-06 
-6.982575669109381e-06 
-9.580128460691234e-07 
-4.145824143719267e-06 
-3.785375255559601e-06 
-3.939692401135127e-07 
2.622106649610685e-06 
-6.395616211258752e-07 
-2.468006869552307e-08 
-2.009288201567346e-06 
-2.864453867349895e-06 
-2.708872032916575e-06 
-2.348708148428735e-06 
-2.290916174138737e-06 
-3.781309449525075e-06 
-4.193349778007397e-06 
-2.852395164728735e-06 
-5.644361299629088e-06 
-3.937773684930294e-06 
-5.682224269151943e-06 
-1.09018679938732e-06 
-3.816077561408296e-06 
-8.08552000437007e-06 
-1.173894765435328e-05 
-4.754614843170606e-06 
-4.531093801778757e-06 
-5.791510489134683e-06 
-7.987419918158371e-06 
-3.752606190209707e-06 
-5.349081473594219e-06 
-6.080515795865967e-06 
-2.078191185159269e-06 
-5.659676340175938e-07 
-2.135084512899513e-06 
-1.451073164698142e-06 
-3.241088502357103e-06 
-2.980670284378744e-06 
-3.605368456076341e-06 
-4.769359009545661e-06 
-3.57918035211893e-06 
-3.52410821702451e-06 
-4.752357237444157e-06 
-4.914007279163951e-06 
-7.84109125391328e-06 
-4.994835440646533e-06 
-2.493329327437495e-06 
-9.430531621204353e-07 
-3.641151127048425e-06 
-7.4300521089363e-06 
-5.519162273902019e-06 
-3.720940913539815e-06 
-2.52285897645112e-06 
-2.365963878843246e-06 
-5.180833851778722e-06 
-1.862821923448145e-06 
-4.024814098052152e-06 
-4.730578639872062e-06 
-2.425921944248482e-06 
6.602064452740251e-07 
-2.971456233231271e-06 
-5.215859429437182e-07 
-2.053112613814431e-06 
-3.031887580901319e-06 
-3.139593970144813e-06 
-5.528536321630748e-06 
-5.262603665737841e-06 
-4.21806765470179e-06 
-4.671808107649484e-06 
-4.948321560754379e-06 
-6.604981034071372e-06 
-3.944126249017788e-06 
-3.138308467056824e-06 
1.270820546133838e-06 
-1.255677066622322e-06 
-5.14295005919797e-06 
-3.765361700760879e-06 
-1.769002179628561e-06 
-1.612842824996235e-06 
-1.070767367248722e-06 
-2.814251147723817e-06 
-5.124498549679111e-07 
-2.979202538309206e-06 
-3.860149500900254e-06 
-1.976494871673338e-06 
2.911494462258102e-07 
-2.902247602589995e-06 
-4.254508714503956e-07 
-1.213127013520977e-06 
-2.800844328891454e-06 
-2.437283771010557e-06 
-3.960262713585377e-06 
-3.646711749362025e-06 
-3.658786378246762e-06 
-3.592929316274951e-06 
-4.336215453717342e-06 
-6.821257516852104e-06 
1.217303065183127e-06 
2.483101018517242e-06 
3.664619810190688e-06 
2.053412914745312e-06 
7.329715162008608e-08 
-2.789279971881784e-07 
1.834515808141802e-07 
-1.216819248469836e-06 
-2.364535815164021e-06 
-1.776429618356948e-06 
1.335293098949588e-06 
-2.044520317959703e-06 
-3.750595428265774e-06 
-1.134395311283523e-06 
-6.606301517894551e-07 
-2.213552406844407e-06 
1.116819224201759e-06 
-9.997623584591787e-07 
-2.432589972547629e-06 
-2.932138995830771e-06 
-3.62164944763397e-06 
-3.22440582191469e-06 
-2.415244869153692e-06 
-3.351787462367059e-06 
-3.07995587505364e-06 
-6.173169600726604e-06 
-3.702535651513359e-06 
1.897851676794784e-06 
2.684550940747883e-06 
1.644099908551358e-06 
-2.126013787974685e-06 
-3.465215333706783e-06 
-3.25753723857782e-06 
-1.165970904322825e-06 
-2.44669153850696e-06 
-3.647246945131769e-06 
6.68530221444159e-07 
-1.439006738891919e-06 
-2.660771016222031e-06 
-1.96861954930041e-06 
-7.414048649247472e-07 
-2.141791580149824e-06 
-3.204307151727403e-06 
-3.979389916376581e-06 
-3.980072583624599e-06 
-4.311303005160704e-06 
-4.22037716729558e-06 
-3.824301927981087e-06 
-4.428409343005256e-06 
-5.53773572339543e-06 
-5.051209272116218e-06 
-6.341222582796223e-06 
5.88360379092509e-07 
7.137245972534617e-07 
6.264317981342971e-06 
6.126392771690953e-06 
2.061669197215052e-06 
1.145047151888593e-06 
2.730406364074517e-06 
3.34499523015303e-06 
2.915458545762931e-06 
2.998022220516807e-06 
5.670181977965145e-06 
1.663523312607846e-06 
-1.776763081240671e-06 
7.848051821666558e-07 
3.756713510664972e-06 
2.455103160073198e-06 
2.078262583583169e-06 
-1.599561629043019e-06 
-1.783931995946822e-06 
-2.023686857597196e-06 
-2.988682546019109e-06 
-1.92855538863109e-06 
-1.637988714634519e-06 
-3.697190312180188e-06 
-1.499417551172652e-06 
-2.600579158607299e-06 
-2.32538320539961e-06 
2.615406265666572e-06 
8.014564884327477e-06 
7.874866673382569e-06 
4.430198139410328e-06 
2.581848917213092e-06 
3.979693108676755e-06 
4.135030396936459e-06 
3.193644660908783e-06 
4.073305818900122e-06 
6.222180974098951e-06 
4.814442532345392e-06 
2.467510911450757e-06 
4.466279674877566e-06 
5.481397426781242e-06 
2.416019703578913e-06 
3.144767391305179e-06 
1.005058988047504e-06 
-1.420502433256654e-06 
-2.662423114573279e-07 
-1.997349527203497e-06 
-1.650563360287689e-06 
-3.731067021362164e-07 
-1.830597376774573e-06 
3.735178057144225e-07 
-2.777100468184531e-07 
2.146487919878832e-07 
5.045472102464072e-06 
1.076436350791615e-05 
8.20555215672016e-06 
2.515859861811676e-06 
4.300761300417137e-06 
5.294064080582503e-06 
3.981602151336155e-06 
3.481988537776925e-06 
4.521163925005913e-06 
7.427652513762934e-06 
4.878434345372176e-06 
4.182054023375668e-06 
4.288162870005738e-06 
6.235628075105617e-06 
2.957538033541031e-06 
3.695626045287683e-06 
1.797833006064949e-06 
1.660345151307182e-06 
3.030915096319733e-06 
2.47836889850012e-06 
3.259409494388282e-06 
1.223222577574587e-06 
-6.312907318040018e-07 
-6.476174541654479e-08 
-1.402133975488583e-06 
-1.793966847426267e-06 
4.134934370113192e-06 
1.084261151092218e-05 
8.023352569348697e-06 
2.426911606770264e-06 
6.606352908815337e-06 
5.720441457193468e-06 
6.286772277532039e-06 
6.796917180074327e-06 
4.64511017714484e-06 
8.085899501731115e-06 
4.294562665358138e-06 
3.396459973027594e-06 
2.48290691590699e-06 
3.638901083130492e-06 
2.66272708792766e-06 
3.253224085748712e-06 
1.364466120134143e-06 
-3.072361685775484e-08 
1.176950890410284e-06 
-1.76271490324207e-06 
-4.681922105851032e-07 
3.183278363708872e-07 
-7.640493583124778e-07 
4.195153324834314e-07 
4.571995912817993e-08 
-3.920026783291718e-07 
9.358259303824119e-07 
1.180721581394575e-05 
6.612183043309368e-06 
2.637357202972857e-06 
2.49591117999222e-06 
6.344530204532117e-06 
5.304981359710891e-06 
2.090713681289691e-06 
2.471794891062692e-06 
5.473054092728196e-06 
3.877406599173844e-06 
1.73757511355667e-06 
1.966311398042416e-06 
4.001632488281749e-06 
3.160097962312918e-06 
3.138351122840755e-06 
2.366444769727995e-06 
1.562703630820872e-06 
1.150955163271084e-07 
-2.556141221396278e-06 
-1.831750705159712e-06 
2.108214858781641e-07 
2.353104857044338e-07 
9.054242443045881e-07 
-1.442200595152592e-06 
2.754635426548175e-07 
7.739581282666236e-06 
1.27977606320016e-05 
7.546725993156351e-06 
1.666599381639702e-06 
3.726507818758599e-06 
5.800496230399215e-06 
5.115797999678813e-06 
2.348245293366601e-06 
1.326946434116371e-06 
5.563215924114322e-06 
1.61991938072124e-06 
-9.660494902724718e-07 
9.924774691032372e-07 
3.323171748472147e-06 
2.110584176773667e-06 
4.108860302474398e-06 
1.71735693695921e-06 
5.3318225008817e-08 
-1.423194447573787e-06 
-7.988812132342394e-06 
-7.147430672913629e-06 
-2.438880777332524e-06 
-5.033998601577407e-07 
1.177826742911224e-06 
-1.482609317244245e-06 
1.549662760000184e-06 
1.455464632932667e-06 
8.761313418882144e-06 
5.655720453144687e-06 
3.847144990473314e-07 
8.724368351399661e-07 
4.914648339870939e-06 
2.512990140179987e-06 
2.186517013458849e-06 
8.070590458455175e-07 
5.045023470796963e-06 
1.336504457914206e-06 
-1.965943932310125e-06 
-4.474193915215721e-07 
2.504964253798477e-06 
1.352798396576895e-06 
3.10564361938713e-06 
1.67285816814039e-06 
1.572493655304313e-06 
1.476494960380939e-06 
-8.107119444730804e-07 
-5.091845638393563e-07 
4.240033307175785e-07 
-9.050352132554756e-07 
-1.844036330908934e-07 
-2.633370668979644e-06 
-2.50213528356796e-06 
5.903815604007444e-06 
9.889642922359222e-06 
5.151541073426002e-06 
-4.714511600600647e-07 
6.020716516623442e-07 
2.595401202683934e-06 
2.179538244233307e-06 
1.547445183937959e-06 
4.645273450535968e-07 
3.127863765548466e-06 
8.554323006809787e-07 
-1.655782847684942e-06 
-3.680751883656343e-06 
-5.551757850730793e-07 
-6.323398665935081e-07 
1.242304872715857e-06 
-1.881638196702166e-06 
-1.546502523504016e-06 
-1.160470101737513e-06 
-1.286647160354271e-06 
-4.934713843969764e-07 
-1.312440288516279e-06 
-3.2711269697425e-06 
-2.177276243963097e-06 
-4.25361711435247e-06 
1.323848434972171e-06 
5.328667915953021e-06 
9.213147057306665e-06 
4.916249021008635e-06 
-2.341810319031113e-06 
3.812320898531548e-07 
2.989816809086778e-06 
3.359115694679457e-06 
3.083080649060484e-06 
9.512328059867959e-07 
5.948043191457097e-06 
1.243708062181267e-06 
-2.329295058566178e-06 
-3.447811223870363e-06 
-8.360372883467559e-08 
-1.390177711514407e-06 
7.628994057859942e-07 
-1.551376313025106e-06 
-1.589416480790564e-06 
-2.087531361023125e-06 
-2.290473996810373e-06 
-4.683588451245868e-07 
-4.311578696887578e-07 
-2.758270454657653e-06 
-1.710172670040082e-06 
-3.30958191006071e-06 
5.202409263330351e-06 
1.030687586311475e-05 
8.894915162143498e-06 
4.288252034634291e-06 
1.955563187265654e-06 
7.688664221894275e-07 
4.88527987865528e-06 
5.580903182734622e-06 
5.801068078275282e-06 
3.222694735704217e-06 
7.045798576233415e-06 
2.105262275463003e-06 
7.312598913936905e-07 
-1.789697162298823e-06 
2.687620043622031e-06 
2.159236007035399e-06 
1.242336853296269e-06 
-8.772390553550388e-07 
-1.517660534770311e-06 
-1.837357490473163e-06 
-3.000255098259653e-06 
-2.319859587619435e-06 
-2.561842934450351e-06 
-2.256408572315483e-06 
7.878951609850245e-07 
-5.18435254128948e-07 
2.447481894814431e-06 
8.191795355217097e-06 
1.055342741410256e-05 
4.486650391369353e-06 
-1.039227617712451e-06 
2.301636251459765e-06 
5.208743486037701e-06 
5.235478070059541e-06 
5.193715169938895e-06 
4.106422413060427e-06 
7.117859815076905e-06 
1.329968979345981e-06 
2.721810865349436e-07 
7.960317141302e-08 
1.544124438877069e-06 
8.246704480025474e-07 
3.780724158405218e-07 
-6.808650281002238e-07 
-2.932134588284148e-07 
-1.236715593790165e-06 
-2.636157061736575e-06 
-2.44030600313436e-06 
-1.220968398859035e-06 
-2.036737161303057e-06 
-8.147456421365388e-07 
-3.244070609149999e-07 
7.387970283848264e-07 
9.611939991631617e-06 
8.077302980911062e-06 
5.928700953997909e-06 
-6.441641966175042e-07 
3.406637909619809e-06 
5.746787119760804e-06 
4.339781668455579e-06 
5.599927628703754e-06 
6.218717696326987e-06 
8.114729678749686e-06 
1.132952302888963e-06 
-7.478948969785518e-07 
5.964479825168109e-07 
4.934314859451525e-06 
3.788687436869863e-06 
1.543301080665824e-06 
-3.520626430014873e-09 
-5.556909873901377e-08 
5.182406335167676e-07 
1.483249519269578e-06 
2.398755973763584e-06 
4.358142856509296e-07 
-1.477020067517913e-06 
9.418293583300243e-07 
1.243380630370959e-07 
-2.89866817511114e-06 
5.2035125249374e-06 
4.285485895177758e-06 
3.367000598708344e-06 
-9.74091002075248e-07 
9.196427238411244e-07 
5.092319946307785e-06 
5.561116772997452e-06 
5.873082849808402e-06 
5.222594466933652e-06 
6.432878081748755e-06 
5.126017306973102e-07 
-9.662830486735626e-07 
1.990135433003542e-07 
3.280384188642581e-06 
2.173675387311788e-06 
1.887616807654315e-06 
-5.282044808637581e-07 
-3.008023458026419e-06 
-5.839118239404404e-06 
-7.966432528650013e-06 
-7.040328274849753e-06 
-6.368209206595597e-06 
-4.321899530125855e-06 
-1.159176444881061e-06 
-9.223731130560672e-07 
-3.676672117986479e-06 
5.984774148868408e-06 
6.105580831523833e-06 
2.618656518290819e-06 
-2.153718323572531e-06 
2.714851902842278e-08 
4.626554301834666e-06 
6.186159287415147e-06 
4.680646574903513e-06 
1.747897659716757e-06 
5.64284224421009e-06 
1.253220733382711e-06 
-1.53892353805017e-06 
2.670102721233516e-07 
2.533626955742134e-06 
3.407116113874035e-06 
3.379443897767003e-06 
1.137823958999174e-06 
-1.621795004293557e-06 
-1.408046966292678e-06 
-1.087905014526294e-06 
-7.300410536983843e-07 
-6.368774677969855e-07 
-1.673490516273506e-06 
-2.280505110547553e-08 
-1.132973550545128e-06 
1.112019915311493e-06 
7.406493143690832e-06 
8.797249563768852e-06 
3.92138736183361e-06 
-3.327663812932561e-06 
-6.021921419466654e-07 
3.91072909069448e-06 
5.114098561313181e-06 
6.009900195703429e-06 
4.807080017270209e-06 
7.391585247836753e-06 
2.878006483997993e-06 
-1.015193768972531e-06 
-4.614618905263284e-07 
4.435978955270943e-06 
2.965392313111556e-06 
3.299987930175979e-06 
2.704923859370355e-06 
-5.478541177164504e-07 
-1.988879813975073e-06 
-1.691168021333734e-06 
-1.333912038008801e-06 
-1.808337023935472e-06 
-1.790594994901507e-06 
6.981856998453475e-07 
-1.113145077136211e-06 
-1.348259954051764e-06 
6.431011736081456e-06 
1.066408353425954e-05 
5.373528992893472e-06 
-2.743509466100378e-06 
-1.544335730190053e-06 
3.383169993299368e-06 
6.2001273554681e-06 
8.234133886187735e-06 
5.851252795934561e-06 
7.047434729249529e-06 
2.034743162367507e-07 
-2.234559775972321e-06 
-2.236696416263039e-06 
2.473817302005668e-06 
2.164402321497641e-06 
4.114269293689202e-06 
1.075786575664849e-06 
-1.197554314047427e-06 
-4.370735966423328e-06 
-5.911311471406492e-06 
-4.769645356596059e-06 
-3.631983681062154e-06 
-2.292150829411065e-06 
-1.003435358718195e-07 
-8.74507785771942e-07 
-4.030221774891402e-06 
5.950082866159348e-06 
1.088244555921468e-05 
2.809222894498542e-06 
-2.461358808417203e-06 
-2.331461359384202e-06 
8.471112359560027e-07 
5.516234880146015e-06 
5.647776027106295e-06 
3.453770060174322e-06 
5.677328312964869e-06 
-6.929522477933161e-07 
-4.742325999871416e-06 
-3.267799487378666e-06 
7.833190547041823e-07 
-1.181691844763723e-06 
1.651859562227738e-06 
-1.603295906561739e-06 
-4.417589461560785e-06 
-5.628623338679963e-06 
-6.428394787158316e-06 
-5.043138458779204e-06 
-3.926570127671053e-06 
-4.361826941168374e-06 
-3.009371115339624e-06 
-3.310842315982227e-06 
8.054455576056704e-07 
7.005509767174107e-06 
8.055192903565698e-06 
1.22932197184845e-06 
-4.770148347415404e-06 
-4.533768014351991e-06 
2.37933155575431e-06 
5.406844448119923e-06 
6.724693481222049e-06 
3.858847990322173e-06 
6.807933642387138e-06 
6.689247434062975e-07 
-4.165916551054364e-06 
-1.242184460755248e-06 
3.543231266563578e-06 
1.39398632694157e-06 
2.175675768383683e-06 
3.280139819772126e-07 
-2.104187456646859e-06 
-2.374796504536374e-06 
-1.813210401167383e-06 
-7.807794994016879e-08 
-1.489055343643129e-06 
-3.2431176523962e-06 
-1.848469265927357e-06 
-3.601124116176985e-06 
6.415386982360507e-06 
8.023291464565302e-06 
1.104833630772917e-05 
3.875752253883641e-06 
-3.823088515205148e-06 
-2.176343801859115e-06 
2.709059138215193e-06 
6.911023632831678e-06 
8.115317261304612e-06 
4.132511107387207e-06 
4.843999572871191e-06 
-3.403188239009158e-07 
-3.469794036665954e-06 
-3.272496959765548e-06 
8.308010569547173e-07 
1.170699463304698e-06 
2.80632905397834e-06 
-1.110782607921111e-06 
-4.027037975511405e-06 
-2.949666157927213e-06 
-3.839454535405721e-06 
-2.610680588146499e-06 
-2.373341723767617e-06 
-4.197194810892198e-06 
-3.389306891869582e-06 
-3.722023134931247e-06 
-1.682735014766663e-06 
7.865982030680663e-06 
1.114902490626724e-05 
3.287035071498952e-06 
-1.966729396104207e-06 
-1.33900122743616e-06 
1.322315062712791e-06 
5.869317932883821e-06 
6.015368467528406e-06 
2.515222215338868e-06 
4.48328899794646e-06 
-2.101245426646198e-07 
-4.533456266935879e-06 
-3.786535267843364e-06 
-8.276928892605912e-07 
6.041249536840692e-07 
7.763483904139739e-07 
-3.168618164585342e-09 
-2.678558513215923e-06 
-2.335241645319496e-06 
-3.67896014541206e-07 
1.322837029893152e-06 
-2.313998767012948e-06 
-3.797908023257182e-06 
-4.74169925013039e-06 
-4.198366082549148e-06 
4.462608582116438e-06 
1.202228211473312e-05 
1.16843908871819e-05 
3.510167731383321e-06 
-3.702379429417814e-06 
-1.960450382799825e-06 
2.406269744513256e-06 
6.202628045630455e-06 
7.481676309484395e-06 
4.280564129349078e-06 
5.053258210486494e-06 
-1.361444218227482e-06 
-5.530701165122719e-06 
-4.016232639887031e-06 
8.984763690159926e-08 
1.191355302231726e-06 
9.347870806396182e-07 
-9.117258740900623e-07 
-3.54906417597719e-06 
-3.607861084499954e-06 
-3.144687466925495e-06 
-2.332960907303382e-06 
-2.921395870524365e-06 
-5.353402256375846e-06 
-4.234263101543821e-06 
-4.824617553274613e-06 
9.884705053109877e-07 
1.131538466930732e-05 
1.352347490832999e-05 
6.048174883726055e-06 
-5.876405855422328e-07 
-3.025639644700148e-08 
3.427900288324985e-06 
8.512414087025414e-06 
8.926765074220774e-06 
4.021464431337309e-06 
3.677552686175644e-06 
-1.483361977337753e-06 
-7.725273714000441e-06 
-4.804887028372439e-06 
-1.599848407399286e-06 
-1.400901761822989e-06 
4.975493942368844e-07 
-2.578699830284085e-06 
-5.905047620830121e-06 
-5.543675972768974e-06 
-5.484166048467357e-06 
-4.294231412599479e-06 
-5.703284534046232e-06 
-6.805065764648085e-06 
-4.945869895950097e-06 
-4.128705878481742e-06 
1.908086228769963e-06 
8.854014062692459e-06 
1.286036385287753e-05 
8.145169121109982e-06 
2.586535946868393e-06 
1.47177583844461e-06 
3.29694995572704e-06 
7.600356792151867e-06 
8.395809539590416e-06 
3.553521486569646e-06 
5.920694713272844e-06 
1.257249707992732e-08 
-7.197716991314792e-06 
-3.533233540787226e-06 
1.348599608578328e-06 
1.664500529488805e-06 
2.736211866987819e-06 
1.576276764524999e-07 
-3.079357635523368e-06 
-2.923869568393963e-06 
-1.692867936091711e-06 
-4.795208579319757e-07 
-2.586296967675302e-06 
-4.347927175554271e-06 
-3.869379317090038e-06 
-4.230301331825981e-06 
3.534697980088814e-06 
9.609311152731109e-06 
1.037563568295013e-05 
8.019727532785241e-06 
1.005649057755932e-06 
2.309017046767779e-06 
5.152121496936932e-06 
9.580216280747687e-06 
8.82756566897263e-06 
5.249063348052713e-06 
4.609608626535255e-06 
-7.317007313262025e-07 
-4.691881320080816e-06 
-1.552924339546868e-06 
1.518497095051417e-06 
1.686754354645184e-06 
1.235446035978672e-06 
6.04823391069867e-09 
-1.375626470799517e-06 
-1.279470994861338e-06 
-1.569120727190243e-06 
-1.012048037648242e-06 
-1.367597642687224e-06 
-3.54350958395581e-06 
-3.446044873749814e-06 
-2.447089109701628e-06 
5.777375612755213e-06 
9.197977089934629e-06 
1.061225879792952e-05 
6.854478320747752e-06 
4.149573780200211e-07 
-1.374831089295194e-06 
2.580614741330997e-06 
6.993936517410828e-06 
5.638008808610605e-06 
5.084448238683416e-06 
6.754383901265073e-06 
-1.778524172072319e-07 
-5.166982088853487e-06 
-3.229123558138704e-06 
1.443287354208791e-07 
1.253465954416397e-07 
6.474154112910852e-07 
-6.350466931491744e-07 
-1.470052140298949e-06 
-3.462707212086388e-06 
-3.775175697440099e-06 
-2.821796554317223e-06 
-3.448111897789687e-06 
-4.104964475691076e-06 
-2.792435730275272e-06 
-1.942122117874429e-06 
-2.55639720653021e-06 
7.014612536628994e-06 
9.29475444134996e-06 
3.231599086037368e-06 
-2.448625646346367e-06 
1.938353089117823e-06 
2.50182999815274e-06 
4.164525432254684e-06 
5.89788458593727e-06 
2.395621262722438e-06 
4.404370186220428e-06 
-6.315263767919688e-07 
-4.241651252146647e-06 
-2.285034134556494e-06 
-8.312875862835273e-08 
-2.398518095595667e-07 
8.820512526907581e-07 
-9.772497809822989e-07 
-1.817650748262121e-06 
6.61017392525911e-08 
1.400515684321153e-06 
3.277389023754624e-06 
-1.541896718060794e-08 
-3.440846309731841e-06 
-4.366969364053535e-06 
-3.129206967524415e-06 
3.49471785113365e-06 
9.950508152137325e-06 
8.333859512498194e-06 
6.04261251237627e-06 
2.377776822432982e-07 
1.546625029427226e-06 
2.070337637908025e-06 
5.470165104972237e-06 
5.035362216773025e-06 
2.076339134965744e-06 
3.483240912536737e-06 
-3.412979107849194e-06 
-8.137434419570626e-06 
-6.606375735061012e-06 
-2.091966810613205e-06 
-2.350610696927939e-06 
-1.626299713169688e-06 
-2.878534064127045e-06 
-4.864023155462566e-06 
-5.771619150747761e-06 
-6.874157237758777e-06 
-5.917164653370763e-06 
-5.94422927043002e-06 
-4.941653827772585e-06 
-4.637635261344394e-06 
-4.749443728378166e-06 
-1.059858901935033e-06 
7.657235795373725e-06 
9.51395705962455e-06 
4.502408443938318e-06 
-3.390101252432169e-06 
-5.983508971907869e-07 
2.600857381233295e-06 
5.535064739366172e-06 
5.381456579981185e-06 
-2.900191258589086e-07 
2.300810445263928e-06 
-4.75196461802312e-06 
-9.346020412142988e-06 
-7.848585202093114e-06 
-4.219771276593769e-06 
-1.321196178579283e-06 
-1.983380669313005e-06 
-1.253719635661554e-06 
-4.231792366410735e-06 
-3.671157326683346e-06 
-2.668510790494735e-06 
-1.824853095892035e-06 
-4.125737368704516e-06 
-4.903267100025467e-06 
-6.07103536826021e-06 
-7.432117340774259e-06 
-3.939635935936299e-06 
5.88857175626025e-06 
9.49082277845412e-06 
6.715246155332889e-06 
-5.084549708416614e-06 
-2.123494037588194e-06 
2.234309674307368e-06 
4.162217653905937e-06 
3.881685561547008e-06 
-1.748246960628235e-06 
1.167885171200274e-06 
-4.236031117253241e-06 
-7.579562288147919e-06 
-5.419594551821813e-06 
-3.567429956282686e-06 
-1.7016452208851e-06 
-4.534982721782247e-07 
5.618588364368703e-07 
-3.520279764463187e-06 
-7.351014748334853e-06 
-9.590511462770182e-06 
-7.67647588558357e-06 
-7.464548714290188e-06 
-3.914373888804606e-06 
-4.591563556246242e-06 
-6.482518781599833e-06 
-2.272588890326087e-06 
7.773150415147404e-06 
8.215707206290674e-06 
5.719706851272789e-06 
-4.639165173466186e-06 
-1.541213375347688e-06 
1.395648535484791e-06 
2.343706203138528e-06 
2.313419059171414e-06 
-1.47786217171191e-06 
1.904772878069277e-06 
-4.047687085857719e-06 
-7.481878938705916e-06 
-5.792296682480849e-06 
-2.118006997793035e-06 
-8.537257153932863e-07 
-3.4999150001712e-07 
-1.157629879645203e-06 
-3.060013280691915e-06 
-2.404154601771552e-06 
-1.543971266291198e-06 
-1.128830336905471e-07 
-2.030630155095843e-06 
-3.773669412038933e-06 
-5.060383594226286e-06 
-6.880364030477661e-06 
-2.161050846020594e-06 
4.750012683618967e-06 
8.948237792686305e-06 
6.238460407623365e-06 
-3.045777640472007e-06 
-3.054434570099275e-06 
2.237040839823071e-06 
4.932023012938923e-06 
2.515006020715241e-06 
-1.208352217951189e-06 
2.851652776729497e-06 
-1.971376585112573e-06 
-5.507913547912032e-06 
-3.664231149106035e-06 
-7.061892561081901e-08 
-5.07290277638407e-09 
2.64338141268031e-07 
-1.547936149473253e-07 
-7.059974484320886e-07 
-8.738645994092965e-07 
-6.691375599089766e-07 
-3.58298397041399e-07 
-1.253609214203554e-06 
-1.743228578685088e-06 
-2.939768210037574e-06 
-6.073461863442087e-06 
-1.521967935082363e-06 
6.800846246388267e-06 
6.875699166440311e-06 
5.708179952211573e-06 
-3.881310475610472e-06 
-1.864925452496818e-06 
9.123397591364596e-07 
5.006412877560815e-06 
3.164205681973002e-06 
-1.721745935550734e-06 
1.24686906855306e-06 
-2.292159200196426e-06 
-6.503437013293561e-06 
-4.17267083732674e-06 
-1.153163252935682e-06 
-7.232628614843951e-07 
-1.104299090598336e-07 
-9.840734469829818e-07 
-2.935765867179001e-06 
-2.713243586506264e-06 
-3.323710896999361e-06 
-2.700083499526133e-06 
-2.861280057383341e-06 
-3.351602906469798e-06 
-3.151568640475385e-06 
-6.169962609835094e-06 
-4.968620686079083e-06 
3.969654623886399e-06 
3.096416379283195e-06 
4.923611923207205e-06 
-5.369632557994156e-06 
-4.380992293588193e-06 
2.012491621120334e-06 
4.621133371425935e-06 
2.759843839988269e-06 
-6.104331119882285e-07 
2.751939968373283e-06 
-1.021329192532792e-06 
-3.968931903891968e-06 
-2.340581127806977e-06 
-2.368703361767374e-07 
-6.571833135130254e-08 
2.500311466250654e-07 
4.17029036203086e-07 
-3.782576919894098e-07 
-1.631788401583e-06 
-3.061909740304895e-06 
-1.97812781594578e-06 
-1.994734658676951e-06 
-1.741912003767993e-06 
-2.380180185542443e-06 
-4.536908004546546e-06 
-2.636570516825512e-06 
1.899449495101272e-06 
4.662329895226051e-06 
3.825187947382461e-06 
-3.61180176038081e-06 
-3.204506761915676e-06 
2.739213750878504e-06 
5.288311067678707e-06 
5.244266700192074e-06 
2.196436793771131e-06 
5.79937635816242e-06 
-8.399077772850848e-07 
-2.466113414328351e-06 
-2.152341159087079e-07 
1.284131835620423e-06 
8.321643702915851e-07 
2.269097232516059e-06 
1.957677667438166e-06 
6.965108070517616e-07 
-1.340987544407375e-06 
-3.29758556888112e-06 
-2.546184340436642e-06 
-2.184810687820762e-06 
-1.690812537615056e-06 
-1.590650150253926e-06 
-2.585995320773748e-06 
-1.112089727833575e-08 
8.218569406731663e-06 
5.589505548319382e-06 
5.869881946006758e-06 
-1.945469309341512e-06 
-2.961314155889102e-06 
4.596279487823357e-06 
6.682889005029766e-06 
4.647815797992147e-06 
3.14854725259877e-06 
7.233075020444809e-06 
1.495848171646696e-06 
-1.045183101479989e-06 
1.237405272374994e-06 
2.391932258889249e-06 
2.365332213206287e-06 
3.222960142167729e-06 
3.819831256128924e-06 
2.786359347704673e-06 
2.263160349798032e-06 
-1.210275312329614e-06 
-2.794098798537453e-07 
1.283352443184848e-06 
1.528709265235937e-06 
7.086455519401787e-07 
-1.914059655134884e-06 
3.478616758650232e-06 
5.466285314200829e-06 
8.338676746838826e-06 
6.150130413954429e-06 
-3.231977535557396e-06 
-2.769592962941486e-06 
4.385394748099857e-06 
7.339419113034031e-06 
5.918177119173111e-06 
3.925684221497788e-06 
6.322243402856325e-06 
2.393183549854254e-06 
-1.966281245039145e-07 
2.868166856418817e-06 
4.544960015989535e-06 
4.531265240091356e-06 
5.339862473171329e-06 
5.54789117802091e-06 
3.894713298827601e-06 
3.902226930376901e-06 
1.412658670391914e-06 
2.081861580992343e-06 
2.967861191935335e-06 
2.245895130387904e-06 
2.114928938047693e-06 
-5.003395405299741e-07 
3.672462641711694e-06 
3.77745808927111e-06 
8.912697706511801e-06 
5.745993950701907e-06 
-1.11871300512814e-06 
-3.118124307112174e-06 
2.377980197832752e-06 
8.130292113585492e-06 
6.644360349223931e-06 
5.230363405892806e-06 
9.099633646048557e-06 
3.166043268503303e-06 
2.606872415615121e-06 
4.753535325922554e-06 
7.294324441880774e-06 
5.359498883986477e-06 
5.405150276719911e-06 
5.898788678345384e-06 
4.338448381466948e-06 
2.962134182279737e-06 
1.616924834641035e-06 
1.898957017186831e-06 
2.080165080293727e-06 
2.981977943354078e-06 
2.635118216173187e-06 
3.276912184024463e-07 
3.21255505146816e-06 
5.691328944428627e-06 
1.147986109682664e-05 
9.149232592379095e-06 
-1.947744056842583e-06 
-2.083037335049882e-06 
5.171628961321216e-06 
9.870874354057091e-06 
8.847490280871767e-06 
7.193955383566477e-06 
1.023506398205354e-05 
5.700327978959029e-06 
4.612753789504682e-06 
5.849470362354234e-06 
7.805429688565259e-06 
6.567491508927317e-06 
5.763688122344653e-06 
5.213136594300284e-06 
5.044197184189068e-06 
2.706031572737712e-06 
1.017233108903123e-06 
1.644670605288283e-06 
2.773062098440237e-06 
3.273432282887928e-06 
3.24582982115399e-06 
5.238723447717065e-07 
2.292565064444309e-06 
8.478769765970294e-06 
1.252716990473604e-05 
9.957055245515514e-06 
-8.856244523770497e-07 
-1.909017828982281e-07 
7.245128626475336e-06 
9.283196462243076e-06 
9.209770978530642e-06 
8.501478110972037e-06 
1.135171006926972e-05 
8.401623771547477e-06 
3.558419717483625e-06 
5.398975859914796e-06 
7.434299557300471e-06 
7.633353108109677e-06 
6.898255866909675e-06 
4.810765612572539e-06 
5.260279419116139e-06 
3.109359556488938e-06 
1.762793723330252e-06 
1.80337327270112e-06 
3.574899246510872e-06 
3.475684974361911e-06 
3.314034630088544e-06 
9.874126908390227e-07 
-1.496089025391041e-06 
6.360440197046761e-06 
1.310626149416558e-05 
1.225457999252235e-05 
3.883772883543688e-06 
4.628480542594317e-06 
8.580962723196723e-06 
1.059617033680847e-05 
9.26679371998809e-06 
8.483946930616909e-06 
1.182865636737654e-05 
8.975186899557105e-06 
4.647443983752798e-06 
6.412599640732209e-06 
9.192368020672845e-06 
9.141136556384072e-06 
8.57462082408506e-06 
7.587945036411857e-06 
7.49611453513149e-06 
6.639654771523278e-06 
6.208679443511458e-06 
6.934578912786667e-06 
7.105116273208465e-06 
5.32372021519152e-06 
4.570867818031979e-06 
1.250416096161705e-06 
-1.791152435407721e-06 
1.483080081333448e-06 
1.086884628193429e-05 
8.778925868898034e-06 
-7.85403140017252e-07 
9.412019421402852e-07 
7.494133847501622e-06 
1.077691805424992e-05 
9.755128271970511e-06 
9.250819744670928e-06 
1.214970166781744e-05 
7.331624638277662e-06 
4.815628412140982e-06 
7.299725816552575e-06 
1.009272992079116e-05 
9.018853130343552e-06 
8.487843671842823e-06 
6.867339706339829e-06 
7.31567821665669e-06 
7.603946664477035e-06 
4.34298494722766e-06 
5.000312027697309e-06 
6.883365741924749e-06 
5.703070183938194e-06 
5.525243218559017e-06 
2.46219701408524e-06 
2.61768401370761e-06 
4.829550944824871e-06 
1.200611179333687e-05 
1.055111858123743e-05 
2.771437142715699e-06 
3.657320757537761e-06 
1.042177831284191e-05 
1.256780781342169e-05 
1.084482645101921e-05 
9.106866798983556e-06 
1.182441595976205e-05 
7.844531429373016e-06 
4.873008177606778e-06 
6.278166438285732e-06 
9.180914595159496e-06 
1.027429945685665e-05 
8.805818128062277e-06 
6.63458999513439e-06 
6.843603250359425e-06 
3.624429186416867e-06 
-1.094757671963332e-06 
-3.437943511546162e-08 
3.760023679472443e-06 
5.302914907920917e-06 
5.780046307518271e-06 
2.743046780402339e-06 
-9.317151704885937e-07 
4.451913376408044e-06 
1.304029793029977e-05 
9.067536409959304e-06 
2.000081973900291e-06 
2.918672962266759e-06 
9.119350659711908e-06 
1.055977203385163e-05 
8.649499178327733e-06 
6.738214167997164e-06 
1.087327620305433e-05 
6.968255091618457e-06 
2.253835496444858e-06 
5.124461569326082e-06 
7.986396892176897e-06 
6.26267878881471e-06 
6.339398602808073e-06 
5.282107128717336e-06 
4.563997062202069e-06 
4.714385938158814e-08 
-1.535944989547362e-06 
-6.919745036542515e-07 
-9.386048926199893e-08 
2.735078725994753e-06 
3.357284901518658e-06 
1.893994521365772e-07 
-6.301012027394062e-07 
6.258815094858045e-06 
1.14506999954219e-05 
8.282886052950001e-06 
1.124263847957241e-06 
1.076317136565777e-06 
9.182942858948215e-06 
9.668134428288536e-06 
7.951877210729361e-06 
5.945184177292611e-06 
8.363769545254557e-06 
4.530299463620779e-06 
4.396411805901912e-07 
3.733711364962304e-06 
7.044293035829309e-06 
5.932050221116002e-06 
4.32939226014739e-06 
1.735847804291265e-06 
2.073592362989812e-06 
-1.774143664578278e-06 
-3.796564901730827e-06 
-2.823975132428076e-06 
-1.953110998266367e-06 
-1.69670988287884e-07 
2.223476389713763e-06 
-6.032196469683913e-07 
-2.316954327209702e-06 
7.582412762396917e-06 
1.057574403966393e-05 
9.402506042986551e-06 
3.30838787881035e-06 
3.020310496069444e-06 
6.939374999414541e-06 
9.2596582991324e-06 
7.800913824227406e-06 
5.207348466203252e-06 
9.724620310066917e-06 
5.77949459975687e-06 
1.756372435051493e-06 
4.742572019291611e-06 
7.742906703578033e-06 
6.220441753653268e-06 
4.888036176851073e-06 
2.313080501527336e-06 
2.701169893933155e-06 
2.633411035710431e-06 
1.05304009120593e-06 
1.406781824395825e-06 
2.841249879171006e-06 
8.01663397476896e-09 
2.086317091640068e-06 
-1.572323201422695e-06 
6.57451237324999e-07 
4.362630182272453e-06 
9.639975686073947e-06 
8.2628062404133e-06 
2.980335832124978e-06 
2.596755623010987e-06 
6.440852866759545e-06 
1.128123830922886e-05 
9.752348587067754e-06 
6.319036387483252e-06 
9.295890855412732e-06 
2.787432269409178e-06 
-8.627797854547556e-07 
9.671905216060163e-07 
4.012637860998178e-06 
3.264460783295618e-06 
2.99303544747979e-06 
1.034716673823226e-06 
6.067857943261916e-07 
1.290652298209352e-06 
-2.551557390279206e-06 
-1.536244915283356e-06 
2.29001067663658e-07 
-1.201020786987207e-06 
7.741066109428101e-07 
-1.965037276096377e-06 
4.73721203144403e-06 
1.152145786613336e-05 
1.041041849482206e-05 
8.249781695462959e-06 
3.472239591949249e-06 
4.258697852614062e-06 
7.776929942553194e-06 
1.065166840390773e-05 
9.598603384325958e-06 
5.943674198008503e-06 
7.923108542151824e-06 
2.314731517197644e-06 
-1.380472035242657e-06 
2.005540011936349e-06 
1.722606787500229e-06 
1.940122298380746e-06 
1.032119222766804e-06 
-1.255382127766016e-06 
-1.847632841011722e-06 
-4.61776105643872e-07 
-1.162361530402285e-06 
-9.272759328962891e-07 
-1.316657087813874e-06 
-2.730815957183036e-06 
-7.215178772895205e-07 
-2.298803977710891e-06 
4.256318920627386e-06 
8.979974616846366e-06 
1.064350206772055e-05 
9.493269453388738e-06 
4.069444205283007e-06 
3.837884053570046e-06 
8.571040496689496e-06 
1.028259564222816e-05 
8.266740320912177e-06 
6.221902888675555e-06 
7.740847714246408e-06 
1.82193218683672e-06 
-4.608940371896916e-06 
-1.235737392598277e-06 
1.119339987084158e-06 
-5.104866236569394e-07 
-1.302968742409504e-06 
-3.195529397573384e-06 
-4.644596105245193e-06 
-4.94907751244397e-06 
-5.394321985922896e-06 
-4.753571462918174e-06 
-4.366792615197105e-06 
-4.136382728350334e-06 
-1.665772447806957e-06 
-2.312074522233709e-06 
2.474005746345953e-06 
1.190459792071005e-05 
1.327373737519184e-05 
7.693878334312318e-06 
1.311462382284533e-06 
3.266406546972806e-06 
7.729614496851471e-06 
1.033493104643411e-05 
8.870376054325954e-06 
6.620461615980264e-06 
9.460254815266251e-06 
4.078628177000567e-06 
-1.911132287896685e-06 
1.046981927238269e-06 
1.292627033867424e-06 
-1.003292779749534e-06 
-1.46133491021231e-06 
-2.471099228671985e-06 
-1.922152071833119e-06 
-1.420960389019043e-06 
-4.674198710813679e-08 
9.570835314482555e-07 
-3.974055225799291e-07 
-2.881226646355108e-06 
-2.042773712826741e-06 
-2.247015597202215e-06 
-6.8188286336072e-07 
8.272497838274414e-06 
1.167919400942041e-05 
9.33980579476143e-06 
2.15201902005579e-07 
1.600112575132136e-06 
6.950477492577665e-06 
9.948578769125736e-06 
9.414338753668903e-06 
8.696832258532398e-06 
8.600044608611661e-06 
3.337123573549257e-06 
1.271660671081868e-06 
2.315438595773302e-06 
3.158442384149035e-06 
1.878873431066145e-06 
7.305917395136939e-07 
-2.105184507467954e-06 
-3.240532087768707e-06 
-5.003096144935186e-06 
-4.501434833713934e-06 
-3.379183985161844e-06 
-3.900801826891115e-06 
-3.421621922801752e-06 
-6.421587140641768e-07 
-6.03095867203993e-07 
1.915966308406866e-06 
8.875542318041668e-06 
1.05452841101131e-05 
8.053792828650044e-06 
2.77911305554238e-07 
4.396454796961368e-06 
7.142917558130386e-06 
1.085208613068671e-05 
1.020997535948413e-05 
9.61242636139128e-06 
1.007103487228497e-05 
4.268826235215047e-06 
1.81442273947558e-08 
3.281317998081554e-06 
3.34410121913084e-06 
1.145312134429784e-06 
9.864357376630397e-07 
1.810175746546335e-08 
-1.035208880742696e-06 
-6.978667423071506e-07 
-5.867933550363327e-07 
2.984600888294319e-07 
-6.29287638549183e-09 
-8.7455840513908e-07 
4.013899601277754e-07 
-2.209648909497658e-07 
5.407706999345425e-06 
1.070136706962837e-05 
1.114095689011546e-05 
8.194310819924291e-06 
1.350716905050277e-06 
4.672293610474624e-06 
6.839444003716636e-06 
1.038776681803627e-05 
1.046127315821998e-05 
9.762448823269915e-06 
8.361204429840908e-06 
5.301668070649425e-06 
1.932287941742093e-06 
3.757527591254158e-06 
3.967288624974882e-06 
1.879542954048767e-06 
2.147129462697819e-06 
6.187795139865128e-07 
-9.61051913496346e-07 
-8.342825287336719e-07 
-1.312998965996317e-07 
1.729836994078737e-07 
-7.988515774017083e-07 
-9.85023125779675e-07 
-1.825807363153716e-07 
-3.485688478744338e-07 
1.364282689477801e-06 
8.139157589230862e-06 
9.904178719658173e-06 
9.434151236917483e-06 
2.214224278553842e-06 
3.480392673850334e-06 
6.271905335994105e-06 
1.041332532691998e-05 
1.19582187548582e-05 
9.472780982707411e-06 
1.072746431457696e-05 
7.615944795604102e-06 
4.183635754241501e-06 
4.947403412655184e-06 
5.45938876678938e-06 
3.342436803061147e-06 
2.290495283324136e-06 
7.921814523986161e-08 
-1.240657785899192e-06 
-1.766703361693885e-06 
1.093750460372484e-06 
1.616822972391271e-06 
-8.023639003727486e-07 
-2.627568833325813e-07 
1.543261488315852e-06 
9.706963173444908e-07 
2.979008107538065e-06 
6.015342075229826e-06 
1.120631698596952e-05 
6.627419984602962e-06 
-8.434363654246214e-07 
1.321161871640867e-06 
6.512945150590005e-06 
1.009918502368809e-05 
9.326849082781891e-06 
8.296679204058511e-06 
9.752165575320904e-06 
5.965838798846959e-06 
3.494849691264003e-06 
3.775172441675199e-06 
5.120905703261676e-06 
3.54487943352445e-06 
3.109791794780687e-06 
1.495008938189143e-06 
-1.329298936517302e-06 
-1.068065427832032e-07 
-2.25056342055846e-07 
1.039560205934183e-06 
1.529679555117989e-06 
2.022655594015149e-07 
1.256411379756778e-06 
1.172548090514492e-06 
1.606332724789715e-07 
3.141406391552335e-06 
8.184535115878166e-06 
3.752897437739153e-06 
-3.972851365780202e-06 
-9.2691947056957e-07 
2.350339211051335e-06 
4.265081856411685e-06 
7.113216854009588e-06 
8.411100146990645e-06 
1.013504301369451e-05 
6.097174839128468e-06 
1.945404482344057e-06 
4.523091482812043e-06 
5.671258921105763e-06 
4.233447733030413e-06 
3.774329327032801e-06 
8.067392822292506e-07 
-1.564612171002473e-06 
-1.934253703861356e-06 
-2.857887109944561e-06 
-1.174989935549906e-06 
-4.811319935104835e-07 
2.440364049131855e-07 
2.01953772676297e-06 
1.011570760223156e-06 
4.822814769733627e-06 
7.42433634137843e-06 
7.319691520800302e-06 
3.727108632085444e-06 
-2.481264702670836e-06 
-1.231795902846149e-06 
6.334644703890624e-06 
7.189699205385775e-06 
9.423219964007771e-06 
9.680892617427796e-06 
9.990310209908731e-06 
5.355527326812742e-06 
8.929126095680033e-07 
3.577844912366074e-06 
4.080101721780194e-06 
4.526765033743875e-06 
3.159913644993661e-06 
1.002121060358018e-06 
1.595262187347814e-07 
1.143795246742179e-06 
1.064379445348918e-07 
4.551740702478309e-07 
1.001906843970992e-06 
7.272122514318906e-07 
3.016193968305165e-06 
1.413080781145365e-06 
9.185566305275497e-07 
5.272782446068991e-06 
1.075192385335048e-05 
4.920662135717963e-06 
6.93052255242494e-07 
6.767739850920776e-07 
8.396231411456006e-06 
9.831022594333276e-06 
9.511863451089839e-06 
7.912995416609726e-06 
1.072199713075504e-05 
7.132254220422413e-06 
2.277056980536619e-06 
3.887246290297054e-06 
5.758215764547201e-06 
4.945663776267777e-06 
5.160515204483707e-06 
2.428038639984289e-06 
2.546188676094112e-06 
1.737768961705304e-06 
4.165449920679728e-06 
5.254049925504385e-06 
2.272474997049364e-06 
1.254424228752768e-06 
2.76364138752522e-06 
2.029499723659513e-06 
4.34214855451964e-06 
7.708087869590317e-06 
1.220394633570968e-05 
7.991335443204921e-06 
3.326651698584124e-07 
3.689152033251465e-06 
8.982580310420178e-06 
1.077266286617477e-05 
8.819271753523106e-06 
8.745729602574174e-06 
1.036633253732893e-05 
8.285254656865703e-06 
4.105891850697448e-06 
4.600191343525509e-06 
7.470280344665029e-06 
6.084575617984205e-06 
4.910564330241722e-06 
3.000357983411105e-06 
2.391246502578981e-06 
1.761553445404231e-06 
7.696737825062572e-07 
1.309471482808306e-06 
1.677609108814131e-06 
1.365011318398731e-06 
2.903780959781298e-06 
3.284806247160297e-06 
5.338730845416062e-06 
6.748954743348898e-06 
9.169445836046285e-06 
4.904256959043454e-06 
-2.082042263573717e-07 
2.302270898532907e-06 
7.444982660982804e-06 
9.170685229919734e-06 
8.168258391838315e-06 
1.035942716327676e-05 
1.156146209159112e-05 
7.78085283979188e-06 
3.882376328441496e-06 
5.950269883779628e-06 
7.217679754709645e-06 
7.439084063853036e-06 
7.29137891087557e-06 
4.794285782589852e-06 
4.291556845400657e-06 
2.504248539857024e-06 
1.286229749002815e-06 
1.666521567284543e-06 
1.974073453214041e-06 
3.868913039805883e-06 
4.731584404371329e-06 
3.062040139202626e-06 
1.59531850749332e-06 
6.355025486387142e-06 
7.826152534312205e-06 
7.193572581421587e-06 
1.27753682616139e-06 
3.733043306461686e-06 
8.724848488556215e-06 
8.991576852835638e-06 
7.1227360402276e-06 
1.002181940947209e-05 
1.309592519593752e-05 
8.190358676591738e-06 
4.370503945384836e-06 
6.30489227783964e-06 
8.468479377703e-06 
8.538139605177084e-06 
7.544370067340928e-06 
5.378116215818165e-06 
4.111740216673496e-06 
8.039018157217345e-07 
1.62936816860384e-06 
2.560622080692735e-06 
4.272339929793687e-07 
3.857346862029233e-06 
5.643439489893573e-06 
3.73831006437095e-06 
5.650002998225568e-06 
3.529667721358914e-06 
1.212986366981048e-05 
9.078848736708364e-06 
2.199928665072633e-06 
2.147396825188183e-06 
8.640417563127745e-06 
9.056382265028245e-06 
7.665122014683546e-06 
8.854789867140092e-06 
1.201167616972702e-05 
8.179352205067717e-06 
3.303796159054591e-06 
6.109254392791154e-06 
9.166273530220243e-06 
9.052465684140139e-06 
7.1101763513522e-06 
3.398661884479246e-06 
3.547874284132211e-06 
1.783426835462229e-06 
1.100271731841844e-06 
1.584240090748664e-06 
1.740291602060932e-06 
2.433524757110407e-06 
4.748257776812034e-06 
4.66332179624895e-06 
-1.503680691151844e-06 
3.734410105411965e-06 
1.090292375108589e-05 
7.855169951165972e-06 
2.023859799912082e-06 
5.290292649477888e-06 
1.022299526084829e-05 
8.069485955777439e-06 
7.507022800090102e-06 
6.222754164545125e-06 
8.499578365009361e-06 
6.488960147590611e-06 
4.703506914955203e-06 
6.487985180319881e-06 
7.366216602854256e-06 
7.378289339871653e-06 
6.514316437479009e-06 
5.215076254886494e-06 
4.582626015502485e-06 
6.094734530909308e-06 
4.51411905080892e-06 
4.265273360874791e-06 
5.839529777471674e-06 
2.979617391043545e-06 
4.776479783775788e-06 
3.53829734559753e-06 
6.429848241316993e-06 
4.813733756531384e-06 
1.248188390803716e-05 
9.552106863648042e-06 
5.168153849191439e-06 
8.742317750217648e-06 
1.089451871487183e-05 
8.93336363163126e-06 
7.175294231139591e-06 
8.858710194767519e-06 
1.021548465943497e-05 
7.018397884239873e-06 
3.237129038733458e-06 
5.676897149242652e-06 
8.254446599995803e-06 
8.995301864178593e-06 
6.730403275097157e-06 
4.386517261750322e-06 
4.31576566000545e-06 
3.588689165858897e-06 
7.167396899296886e-07 
9.807326909597127e-07 
3.042133442159116e-06 
3.237805466167094e-06 
5.195271009982249e-06 
4.407128754378444e-06 
5.964785550001095e-06 
3.12421541123199e-06 
8.895412855206572e-06 
7.133444280547491e-06 
5.2730037240476e-06 
6.224628328777223e-06 
1.026509310866581e-05 
9.599285340718448e-06 
7.423737194243228e-06 
9.276959573192878e-06 
1.114383241241689e-05 
7.439689972398248e-06 
4.039300509909024e-06 
7.656482255773309e-06 
8.952868032209271e-06 
8.028257992174562e-06 
6.655884952334219e-06 
4.548166229515409e-06 
4.667773795907613e-06 
3.761411729195436e-06 
1.808682690353133e-06 
1.913925871489593e-06 
3.258713103492403e-06 
3.493054741085213e-06 
5.843500429258934e-06 
5.502142646256782e-06 
2.558500766951518e-07 
6.441040772386343e-06 
8.11431151625737e-06 
8.848803050030359e-06 
4.02113264457877e-06 
6.512586118259265e-06 
1.169227402630707e-05 
1.033320176268374e-05 
9.177865518861211e-06 
7.289290003386178e-06 
1.018854882557903e-05 
7.865960360458651e-06 
5.561923972705347e-06 
5.854891377190156e-06 
8.04430513351314e-06 
8.142646104563285e-06 
6.544719428630043e-06 
5.194000425958263e-06 
5.159567958111925e-06 
3.078313622483557e-06 
1.823509549695108e-07 
1.114274244775337e-06 
2.925215540933515e-06 
3.960125329513436e-06 
5.70268906165023e-06 
4.872074250954063e-06 
-4.646950803182336e-07 
7.990661912380734e-06 
8.37808210212221e-06 
8.910343779167932e-06 
3.125454481739298e-06 
4.396965807341063e-06 
9.383692503240737e-06 
1.073004489067377e-05 
1.062046234172114e-05 
7.777788355007271e-06 
9.888176639723008e-06 
7.794052088594546e-06 
5.516495377123154e-06 
8.726074436812722e-06 
1.011955020350403e-05 
7.685044820303566e-06 
6.252005440803133e-06 
4.198288166121695e-06 
3.173112396396327e-06 
4.132607009051733e-07 
-2.372435727040787e-06 
-1.385303014351874e-06 
2.534880008235184e-07 
1.494011244325494e-06 
4.643922409695967e-06 
4.618075367799203e-06 
-1.360855914737434e-06 
4.824449821875018e-06 
1.010423365373662e-05 
7.965252298614295e-06 
3.153493428001658e-06 
3.370582004253246e-06 
9.623579331712451e-06 
8.185761348290785e-06 
7.895017477186576e-06 
6.991349736859647e-06 
1.017697141261128e-05 
7.158008309196698e-06 
5.973730560893244e-06 
7.678394691113878e-06 
8.416975425717146e-06 
6.879651825022571e-06 
6.018956108125933e-06 
3.161647418177677e-06 
4.69720915823345e-06 
2.583627250293424e-06 
9.749686085369876e-07 
1.075472820945376e-06 
2.380196003486838e-06 
1.377018331432027e-06 
4.849087436049865e-06 
4.953239803589083e-06 
-1.382174255558533e-06 
3.185398926205187e-06 
1.260315111169504e-05 
1.004493194361781e-05 
1.379562883114339e-06 
3.568654436685806e-06 
9.159809609550335e-06 
9.212992542072534e-06 
9.043307126463391e-06 
6.888563691404119e-06 
7.863604920462982e-06 
6.400231975667555e-06 
5.431299586676458e-06 
6.690474774399979e-06 
6.722021524350148e-06 
6.232648921101184e-06 
4.924922710090793e-06 
1.938152858520374e-06 
3.220454648651637e-06 
3.059946706403465e-06 
2.88845469711805e-06 
2.834200399574683e-06 
3.549600293662376e-06 
1.92027084339343e-07 
3.04835383284977e-06 
4.364756567430675e-06 
3.49220958511001e-07 
1.084939828567054e-06 
1.029204249910939e-05 
8.977492519369874e-06 
1.233812808734539e-06 
9.464743300420247e-07 
4.303430129696467e-06 
5.553717411183342e-06 
7.222438856311108e-06 
2.336521302114506e-06 
4.242326080736814e-06 
4.299668831648316e-06 
2.928075479851475e-06 
4.872597558749042e-06 
5.747327463573216e-06 
5.284481634922512e-06 
3.310275542373015e-06 
-2.079065938406504e-08 
1.011055679313562e-06 
-3.806016091354352e-07 
-3.865858588909396e-06 
-2.893912080571973e-06 
-1.934153751299335e-07 
-3.597263311799109e-07 
1.967798248164573e-06 
2.185908425861589e-06 
2.013874482323507e-06 
5.709802788004341e-06 
9.553649267129818e-06 
1.054735164759e-05 
3.470673557211054e-06 
7.496167173738884e-07 
7.789261729079617e-06 
5.645711922766064e-06 
6.718299671284927e-06 
3.623796248460456e-06 
6.745610445567206e-06 
4.244471495616275e-06 
3.732623982032297e-06 
4.256411161833904e-06 
5.695313950475682e-06 
5.549071761955249e-06 
2.364115161954078e-06 
7.840538968298852e-07 
7.050694226590439e-07 
-3.054206507597559e-06 
-3.350075500607615e-06 
-2.223485648791125e-06 
-2.21328729323121e-06 
-4.706042530144845e-07 
1.480634181570318e-06 
1.573991458185792e-06 
-1.085536844167317e-06 
2.253988452820592e-06 
7.626461484074797e-06 
9.645378097647509e-06 
1.503814914598808e-06 
3.656823989251877e-06 
8.152409621930257e-06 
6.487040998982436e-06 
6.521476714252587e-06 
5.149771567606387e-06 
8.410563061341603e-06 
4.819932347335417e-06 
3.160906831848079e-06 
3.285417710244714e-06 
4.596612472655508e-06 
4.176379674552354e-06 
3.540641570356655e-06 
1.956717629945945e-06 
3.210744300607205e-06 
1.651743373398617e-06 
-9.515987139993148e-07 
-3.699196191421964e-08 
1.808964036411511e-06 
-2.568384916694417e-07 
9.143053095388171e-07 
1.129180933229453e-06 
-1.046797265718033e-06 
4.739220693815488e-06 
8.556554860023054e-06 
7.853890577983927e-06 
6.427564327134918e-07 
5.242176119609792e-07 
4.980812584045568e-06 
6.895709453922677e-06 
7.013422532141506e-06 
4.209491820044248e-06 
6.13901158420905e-06 
3.617036191842273e-06 
1.778089816613566e-06 
3.92485611210208e-06 
3.214558938079417e-06 
3.945870155221997e-06 
1.693341063311536e-06 
-7.531231558720459e-07 
7.598412493275098e-07 
1.127510298758474e-07 
-8.298587475391433e-07 
-2.140467019976658e-07 
1.436026198360021e-06 
-5.828845486761756e-07 
7.89427502268731e-07 
1.132606569567632e-06 
-3.388701802251461e-06 
7.482947420701473e-07 
8.309412078616141e-06 
6.843555437171224e-06 
9.205530475642673e-07 
1.780843927132072e-06 
5.293471975346266e-06 
6.119307467955702e-06 
6.70637391994422e-06 
3.947991889901825e-06 
5.948030740550702e-06 
2.772639086680345e-06 
2.016648605844603e-06 
4.063130567531865e-06 
3.730172833558311e-06 
3.299564570599644e-06 
9.47198472411384e-07 
6.656498329630866e-07 
7.876127089694156e-07 
-9.448169866431428e-07 
-9.077155756678419e-07 
1.154983313940854e-06 
7.196506246845558e-07 
-8.171043148607451e-07 
3.188107338922519e-07 
1.281938214111603e-06 
-1.613065793754325e-06 
4.219107392987156e-06 
6.075271076071599e-06 
6.021943062192702e-06 
9.318162636284634e-07 
-1.336607248085623e-07 
4.927981568100613e-06 
7.794472392050473e-06 
7.428022518583692e-06 
3.694232782366564e-06 
6.967819182159061e-06 
3.574733472509941e-06 
6.288183144874093e-07 
4.169183882023086e-06 
3.656650971246547e-06 
3.713776978107424e-06 
1.667142420730832e-06 
-2.582871190000641e-07 
1.139953959147687e-06 
6.776802544238706e-08 
-3.521349780074332e-06 
-2.434659551733382e-06 
1.031102286137825e-07 
-1.398488869469519e-06 
-2.277179100213028e-07 
5.847534659118876e-07 
-4.189453425780297e-06 
-3.724506188245362e-06 
6.742656329258115e-06 
7.111158665665667e-06 
1.714174090585149e-06 
-2.748707691269664e-06 
6.061693421734586e-06 
6.809241194084591e-06 
6.210478416133372e-06 
3.786663311879529e-06 
6.300220581585351e-06 
2.212081279231119e-06 
1.59798219024023e-06 
3.12733331203355e-06 
1.432174334019579e-06 
2.703047030654221e-06 
2.318956142334858e-06 
4.216428544593594e-07 
1.52341181406207e-06 
1.487557641966647e-06 
-9.179634187358237e-07 
1.272201739002869e-09 
1.080869929231233e-06 
-2.273518210515978e-06 
-1.212300417773873e-06 
-2.1818932489667e-08 
-3.219619771130299e-06 
9.972031303920891e-07 
7.172689016129635e-06 
5.762910931215422e-06 
6.625233360924417e-07 
-1.484724193016697e-06 
2.67717018224292e-06 
4.754971929856178e-06 
4.247619033817968e-06 
1.128372113581342e-06 
2.55966954227127e-06 
3.499229483023559e-07 
1.97274026448073e-06 
2.305997950380292e-06 
8.774436725487881e-07 
7.52274169450998e-07 
-6.729166502029894e-07 
-1.631050942663597e-06 
1.404865153850671e-07 
-4.873868687264498e-07 
-1.744942637285513e-06 
-9.548062876684439e-07 
-5.146631458762122e-07 
-4.193120002953536e-06 
-1.923859680730062e-06 
-1.397331882074703e-06 
-2.837754148992976e-06 
9.686050598910119e-08 
5.198131893307016e-06 
3.840367151108463e-06 
1.630264861700585e-06 
-1.005306184852163e-06 
3.20564523714416e-06 
5.023851959150902e-06 
4.93539684963419e-06 
9.376799874011892e-07 
2.259976602499816e-06 
1.222676771404968e-06 
5.479563771316979e-07 
5.802286985616198e-07 
1.048169835843712e-06 
3.813911777551383e-07 
-1.173278558463521e-06 
-3.709007196480001e-07 
1.445182754834895e-06 
4.153629106970508e-07 
-3.407363417680794e-06 
-2.775311510034843e-06 
-1.410828430647978e-07 
-2.753872675293937e-06 
-2.498977607436922e-06 
-1.573162848159497e-06 
-2.833262601518917e-06 
4.913314462662887e-07 
2.985650125439944e-06 
3.451124449326939e-06 
-8.21092798431789e-07 
-1.770595333899477e-06 
1.643514077387964e-06 
3.574876316304683e-06 
4.857985976339559e-06 
5.265497664518754e-07 
2.439997999134444e-06 
-1.359617416205019e-06 
-7.501602688848156e-07 
-3.882699707992611e-07 
-7.499012903248613e-07 
-1.364297590724704e-06 
-1.579538595641635e-06 
-2.237417033441938e-06 
8.562141775916201e-08 
-2.317064768388247e-06 
-4.566166902962869e-06 
-4.445502329196406e-06 
-3.89334026553936e-06 
-3.82794299283968e-06 
-3.430980529569753e-06 
-2.031946423498622e-06 
-1.664709304192573e-06 
1.97082864154006e-06 
2.234542751900983e-06 
3.013181848064189e-06 
-1.438879614357463e-06 
-2.416794193344333e-06 
1.176785877664623e-06 
3.802617269271283e-06 
2.382819727324504e-06 
-1.553645953470293e-06 
1.310845735566142e-06 
-2.085204919898205e-06 
-1.953633253675813e-06 
-1.022240963406933e-06 
-1.507808201860921e-06 
-1.339495312680712e-06 
-2.788299532054609e-06 
-4.530739317997743e-06 
-1.893074826964034e-06 
-2.414447932528046e-06 
-4.061856749526864e-06 
-2.88602311665186e-06 
-2.983648128382464e-06 
-4.917787945294193e-06 
-3.59481027424293e-06 
-3.193027668508384e-06 
3.604611866082584e-08 
-5.290093460540565e-07 
1.863343532087266e-06 
8.081946214290499e-07 
-1.095164408034659e-06 
-3.464686186029837e-06 
1.189196794552361e-06 
5.428604395460615e-06 
1.348587509349272e-06 
-2.612761136447619e-06 
-5.791571197642982e-07 
-2.939707549896412e-06 
-2.510145368857346e-06 
-1.571210988677209e-06 
-2.320695589081316e-06 
-3.021643723471668e-06 
-3.264219381743135e-06 
-2.960695649469087e-06 
-3.123918967238896e-07 
-1.595108482722099e-07 
-1.164004009734638e-06 
-6.790580914902122e-07 
3.263751068589799e-07 
-3.986586804375274e-06 
-4.15280608104289e-06 
-4.646500089475225e-06 
-4.378462468104412e-07 
-1.103005807820103e-06 
3.742345313805186e-06 
4.055641439729353e-06 
-2.110155817772764e-06 
1.098453997668357e-07 
4.114390833441408e-06 
3.693566158092534e-06 
2.414832850225986e-06 
-3.227966902324868e-06 
-1.996921054369412e-06 
-3.904829350804244e-06 
-4.269444729462656e-06 
-3.436276430054484e-06 
-2.546750615801182e-06 
-3.991502068583085e-06 
-3.897189153953838e-06 
-3.449010951061554e-06 
-2.870431253031094e-06 
-3.969441208897253e-06 
-4.880789642791729e-06 
-3.898803505288954e-06 
-3.862865367434886e-06 
-5.329827393127843e-06 
-5.535353350170142e-06 
-5.451467858690724e-06 
1.120905290382559e-06 
-1.861199814621945e-06 
4.335001884816587e-06 
1.598336513886451e-06 
-3.191952020410638e-06 
-3.514489725640233e-06 
2.263920801206502e-06 
2.758636748554791e-06 
1.499723684381242e-06 
-3.383214862044581e-06 
-1.6369295074169e-06 
-4.645245890004734e-06 
-5.538153974651793e-06 
-5.854371955933279e-06 
-5.71267156103288e-06 
-5.522577388191328e-06 
-4.813572468457772e-06 
-5.647829428914635e-06 
-2.112799584669253e-06 
-4.461164123967939e-06 
-7.109737393276954e-06 
-6.927139864538972e-06 
-4.20782022513297e-06 
-5.6834333349119e-06 
-7.267224209073473e-06 
-7.643074021571766e-06 
-1.48518950005107e-06 
-2.523659037563852e-06 
3.179486426105718e-06 
2.031855157238003e-06 
-6.127597726804516e-06 
-3.496650656149117e-06 
5.820203312916803e-07 
3.06844067332413e-06 
3.309896016159494e-07 
-4.660283029264947e-06 
-4.042490223251384e-06 
-6.454992744158932e-06 
-6.475518999900952e-06 
-5.64212159044257e-06 
-6.229268361354175e-06 
-6.406316582463789e-06 
-6.500006391372655e-06 
-5.518811621132124e-06 
-4.254080505329502e-06 
-5.716467399021738e-06 
-9.286977700009495e-06 
-9.170646804139996e-06 
-6.541521849886937e-06 
-6.645370470444759e-06 
-7.846539357558886e-06 
-8.824337340227203e-06 
-1.038959742037622e-06 
6.198817116759598e-07 
4.364865921996776e-06 
3.396318487904373e-06 
-3.880557521917882e-06 
-1.679530114629146e-06 
-2.649458281530788e-08 
3.899189948962995e-06 
7.58791632127823e-07 
-4.942051890447493e-06 
-2.673948225572236e-06 
-5.065589066531991e-06 
-6.717041644774802e-06 
-6.563087059174684e-06 
-7.996593387687339e-06 
-7.347092770546977e-06 
-5.340324765167525e-06 
-4.413472999948081e-06 
-2.249975481762369e-06 
-2.199997826802799e-06 
-2.905094413686852e-06 
-1.725534628347553e-06 
-3.158366797117602e-06 
-5.486689546724563e-06 
-7.618626635058122e-06 
-9.040085309867153e-06 
-6.756814301022121e-06 
1.580022281365728e-06 
7.270564417696623e-06 
3.903572633534811e-06 
-2.951545381293369e-06 
-4.162432030923411e-06 
1.027855003451905e-06 
1.87968524651546e-06 
1.987716591282986e-07 
-4.371532577639902e-06 
-3.166463405745109e-06 
-4.859859195805558e-06 
-6.257500537564076e-06 
-6.697338522959995e-06 
-6.394859384126641e-06 
-6.434566140644244e-06 
-6.131506574742357e-06 
-4.358292462117413e-06 
-2.70526136592526e-06 
-2.478998769489235e-06 
-5.501584753577043e-06 
-4.797366469863578e-06 
-2.362933806239619e-06 
-5.951384443386249e-06 
-7.293793774627621e-06 
-8.42189116964383e-06 
-4.68195659403974e-06 
-1.600254214035677e-06 
5.956180188620866e-06 
2.757746843396901e-06 
-3.96810055141875e-06 
-5.611652703034571e-06 
1.118590318538651e-06 
2.315580599710701e-06 
4.324028649541274e-07 
-4.008123182420194e-06 
-2.744990040206811e-06 
-5.284361230724016e-06 
-6.016116370734543e-06 
-5.961132803505197e-06 
-5.141046006130895e-06 
-6.145500050399016e-06 
-5.894600398122871e-06 
-5.214860777142895e-06 
-3.154077686093871e-06 
-2.32307892031208e-06 
-2.303878844957848e-06 
-1.370449648559138e-06 
-2.056244374633026e-06 
-6.683011122626852e-06 
-7.451600424368307e-06 
-8.245262989157964e-06 
-7.965554386080856e-06 
7.502913310540566e-07 
3.899676158183647e-06 
3.110473112732596e-06 
-1.853441058349321e-06 
-3.212107137147773e-06 
2.11540118556835e-06 
3.191641018014931e-06 
-2.76986337152987e-07 
-2.528878493533169e-06 
-1.559726808838089e-06 
-4.774330650850766e-06 
-6.471204357962741e-06 
-7.247485575897296e-06 
-5.837746592993122e-06 
-5.374212514975554e-06 
-5.489080814838285e-06 
-4.479547578842298e-06 
-2.592791387797611e-06 
-8.807507825715239e-08 
-4.420061865255033e-07 
6.574832292923229e-07 
-2.358656721554889e-07 
-6.374434811237505e-06 
-7.566229133321623e-06 
-9.048182880145867e-06 
-5.725982982745438e-06 
8.211218850285704e-07 
5.096859763665464e-06 
5.119300843699353e-06 
1.160674782936613e-06 
-1.783827893452366e-06 
4.028175477667478e-06 
5.787632790231486e-06 
4.6096668460299e-06 
-6.082531951695694e-07 
-1.192510237642439e-07 
-3.363726319555372e-06 
-5.67383131538589e-06 
-4.429145419441226e-06 
-4.420280924503411e-06 
-4.61982860451189e-06 
-4.361268417291387e-06 
-3.852504229704876e-06 
-2.308683659397056e-06 
-5.609190404528428e-07 
-5.79749695546528e-06 
-5.29507423388965e-06 
-2.694564434405485e-06 
-5.306238461302773e-06 
-5.620774338297503e-06 
-6.836713312035441e-06 
-2.796144587589733e-07 
1.477361856162914e-06 
7.212903963315529e-06 
4.152772054514025e-06 
-1.67993291293681e-07 
1.650596219923815e-07 
3.337275955890627e-06 
4.244297234472799e-06 
3.605603649771205e-06 
2.193193059513639e-07 
1.41421219232614e-06 
-2.934215845451562e-06 
-2.706345208227415e-06 
-3.065860355356481e-06 
-1.809938250943202e-06 
-2.210442262525725e-06 
-4.677629092822453e-06 
-4.936214225427496e-06 
-1.012908025104321e-06 
4.332587546793625e-07 
-2.616447813111263e-06 
-1.961793296811138e-06 
-4.50497243052517e-07 
-5.131209885669155e-06 
-5.740996976925596e-06 
-6.874680987197915e-06 
-2.67402490024959e-06 
-2.361347210207822e-07 
5.61323444004972e-06 
3.877891918726536e-06 
-2.66203265360779e-06 
-1.05111682862569e-06 
1.794154234768131e-06 
3.607611182178291e-06 
2.234836510582155e-06 
1.243757792546152e-06 
1.440945615927192e-06 
-2.628238880166125e-06 
-5.587863530987579e-06 
-3.798004619290185e-06 
-3.759995258871767e-06 
-3.352381495852589e-06 
-3.264480039693827e-06 
-3.954951569303047e-06 
-2.518757138451284e-06 
-2.968186277090819e-06 
-5.531560191842604e-06 
-5.287745270115613e-06 
-4.660672065649387e-06 
-5.459513733165303e-06 
-4.973651005308519e-06 
-6.430568496944484e-06 
-3.157782573948986e-06 
-3.90746575565227e-06 
6.990377860341047e-06 
5.346052110341192e-06 
-1.439900529061123e-06 
-1.058234507581662e-06 
1.696637974997559e-06 
4.1766412479087e-06 
4.61987071915322e-06 
2.853030000046236e-06 
2.093011530265478e-06 
-1.809869914035273e-06 
-5.047489690436745e-06 
-2.620513926613465e-06 
-1.735872260592933e-06 
-1.170671057278e-06 
-2.625655375939171e-06 
-5.194113885825751e-06 
-3.922953481520322e-06 
-7.477221369590517e-07 
-1.794195488133811e-06 
-5.213998138836915e-07 
-7.742740981856065e-07 
-6.057921987405973e-06 
-4.670519154062792e-06 
-6.751376193256518e-06 
-3.159214499531635e-06 
9.509097935125311e-07 
5.202937928161628e-06 
5.296918237974892e-06 
-1.192819948590134e-06 
1.162961764476058e-06 
3.587626955049969e-06 
6.39379193031119e-06 
7.607496094885259e-06 
4.384677875191341e-06 
5.172768798492383e-06 
2.573993434404543e-07 
-2.490001816886101e-06 
-6.054986982727626e-07 
2.770360406857367e-06 
1.778081064627612e-06 
5.574827005713918e-08 
4.354524884605985e-07 
5.025119474775334e-07 
1.188415108570298e-06 
-1.633876644578353e-07 
1.27021011241243e-06 
1.100223636609144e-06 
-1.017421249584005e-06 
-1.217688310445715e-06 
-3.182589041555219e-06 
-1.648492250441652e-07 
1.357661879890347e-07 
7.427939388970585e-06 
5.181203617024774e-06 
-2.242764819121817e-06 
-1.430348133740828e-06 
4.556149023555136e-06 
7.965718638279348e-06 
5.837283247135806e-06 
5.081816017251933e-06 
4.712991603723397e-06 
3.3364682427356e-07 
-2.193812112590534e-06 
-6.039069072043103e-07 
1.382278684445206e-06 
-8.429320000187966e-08 
-2.429326989194344e-07 
-1.479749270050764e-06 
-1.341332928818409e-06 
1.087547232721017e-07 
-1.79091821267014e-06 
-4.234447738109628e-07 
5.461863788376496e-07 
-2.114985201794432e-06 
-1.57675125796361e-06 
-2.360787771703916e-06 
-3.214145188505614e-07 
1.326085838988113e-06 
5.36239222728621e-06 
6.388600369915641e-06 
-2.592065089966654e-06 
-2.722125945077665e-06 
3.962323236993548e-06 
6.08536482633561e-06 
5.722073424904565e-06 
2.111940156210797e-06 
1.396712094950178e-06 
1.678012119551034e-07 
-3.413526103931652e-06 
-2.286491691483912e-06 
3.730776606120336e-07 
1.358203904412711e-06 
-1.381066371446133e-07 
-2.404623129986351e-06 
-3.167666529757798e-07 
2.370399557354581e-07 
-1.915201957801175e-06 
-2.428421756097701e-07 
1.822209088863135e-07 
-2.607508104502913e-06 
-2.396237619018521e-06 
-4.196429123623707e-06 
-1.705218406435578e-06 
-7.821716723166129e-07 
7.488971428382279e-06 
4.630702437188268e-06 
2.199728464422676e-07 
1.581146214421301e-06 
3.517266405397131e-06 
4.708040834042668e-06 
6.357487849718202e-06 
2.93942469903002e-06 
1.957480234512211e-06 
-5.913211343725904e-07 
-2.37621494922521e-06 
-2.616864765846441e-06 
2.296336530901364e-07 
1.064392563780445e-07 
-9.961923188506078e-07 
-7.492775710897853e-07 
-4.937459646512217e-08 
-1.314493253089465e-06 
-4.258472635661894e-06 
-3.758476315643751e-06 
-1.916026023651792e-06 
-2.994078765187201e-06 
-2.284572782809197e-06 
-3.118943935660842e-06 
-8.580524259489801e-07 
4.832096962932209e-06 
6.440850048680093e-06 
5.507934683299814e-06 
6.630861143113804e-07 
4.769346474460235e-07 
4.738609307983168e-06 
7.522716878417605e-06 
6.243664764069677e-06 
3.100292563837057e-06 
4.284103860690143e-06 
3.352882546103309e-06 
-1.058188071413565e-07 
-8.519283500651287e-07 
2.551153501251805e-06 
9.780042283366754e-07 
7.723283241790487e-07 
5.459181496506699e-07 
1.993649021546176e-06 
2.982166556801624e-06 
2.010182782975035e-06 
3.43656220639736e-06 
3.561498691098429e-06 
-9.142492340176824e-07 
-1.306777919759856e-06 
-2.843610230330751e-06 
1.030415127536464e-06 
4.553417704345927e-06 
1.039440463572904e-05 
7.34457185556969e-06 
-6.199122691922114e-07 
5.128358284007113e-07 
6.553181831780783e-06 
8.904204358439467e-06 
8.510402760537247e-06 
5.242934473113321e-06 
4.23049171472072e-06 
4.361656766709027e-06 
2.495605817944406e-06 
1.191927301763844e-06 
2.124565639765293e-06 
2.399647113060771e-06 
4.793270855192355e-07 
-6.524520131878429e-07 
2.509259973693101e-06 
2.720255504141763e-06 
-4.181994654973312e-07 
1.101832331585917e-06 
2.354817910093365e-06 
-1.231448485006801e-06 
-1.33726510260779e-06 
-1.172190593867269e-06 
2.681559949983793e-06 
7.391029200836647e-06 
1.085336995453644e-05 
6.668419298001415e-06 
1.147374771394572e-06 
1.672194471587991e-06 
6.968923600830888e-06 
1.052916003268181e-05 
8.685747687862797e-06 
6.4410005419479e-06 
6.520009509917077e-06 
4.880283905161835e-06 
2.902893069263279e-06 
1.124160845014256e-06 
3.584202161215367e-06 
2.500913665468759e-06 
1.723756410841175e-06 
8.833511021143907e-07 
3.24610608883813e-06 
2.997389343839722e-06 
4.359573322962285e-06 
5.45533277541434e-06 
3.821976448019274e-06 
-6.836338958210418e-07 
3.974325517518289e-08 
6.678454913977569e-08 
3.448630471848628e-06 
8.650941979673463e-06 
9.656941432736008e-06 
7.253469121889071e-06 
1.490269616041717e-06 
-9.353754075355317e-07 
3.225679294358923e-06 
6.228357665598059e-06 
6.920894868301211e-06 
5.440833911948745e-06 
5.835950358992522e-06 
5.386821509436548e-06 
4.47684500952803e-06 
2.219001831661722e-06 
4.296181159018401e-06 
2.596499514986063e-06 
1.341230701519092e-08 
-4.48832263520073e-07 
2.567080927963215e-06 
1.395155855723758e-06 
2.158805633149356e-06 
3.960830451625868e-06 
4.175766517861599e-06 
-1.194057945343959e-06 
-1.568321798034672e-06 
-9.495855915209097e-07 
3.704086712283554e-06 
7.577235644101493e-06 
1.514376425797216e-05 
8.360432569331947e-06 
7.237376696243019e-07 
2.689925205364071e-06 
5.171579076747909e-06 
8.990475456043872e-06 
8.163632161833359e-06 
6.77314489350803e-06 
8.383917874983584e-06 
5.437579079682668e-06 
3.051247129829423e-06 
2.016047970184985e-06 
4.026291783252569e-06 
1.106208170713173e-06 
5.253293889407092e-07 
1.15735835209149e-06 
3.859272713173298e-06 
2.619766407865292e-06 
-8.092385477989337e-08 
5.791456638560994e-07 
3.474374749847131e-06 
7.82124092870716e-07 
-5.023619231941201e-07 
1.577446744366375e-06 
1.194233831820898e-06 
9.754541347643528e-06 
1.469131539117915e-05 
6.848967718546653e-06 
5.652435786283714e-07 
2.77306081981479e-06 
3.654371820281549e-06 
7.294180433144491e-06 
7.867635175221194e-06 
7.594180674816839e-06 
7.741177201084885e-06 
4.433477910021796e-06 
2.706924117900288e-06 
1.82068725343152e-06 
3.691267333922857e-06 
9.706786718375656e-07 
-4.957146016360162e-07 
8.839952172842595e-07 
3.06570265224054e-06 
1.199296519698659e-06 
-2.039435168510926e-06 
-1.383406446573663e-06 
2.18540054208052e-06 
1.197921285821758e-06 
9.038101863743455e-07 
2.126103622736809e-06 
-7.836453405451446e-07 
2.705124615758379e-06 
1.265694680160726e-05 
6.127560311460852e-06 
-1.095573470678402e-06 
-7.584809833868566e-09 
3.274381839468401e-06 
9.063178042730833e-06 
8.491438722014595e-06 
6.498939870445975e-06 
7.045539501166768e-06 
4.76806150990922e-06 
1.580878520156769e-06 
2.918810375270785e-06 
4.402371914160065e-06 
2.375295207136997e-06 
2.162218802323879e-06 
4.537860565271273e-06 
5.577726287823534e-06 
4.929266244240141e-06 
3.281948518751834e-06 
4.173405722362844e-06 
4.802201996284679e-06 
2.316257220301686e-06 
1.184186499062408e-06 
1.146861489523475e-06 
2.804885689166562e-06 
2.66526956191465e-06 
1.117388534279084e-05 
6.875065576181805e-06 
4.280795926281595e-07 
-2.696492908011456e-08 
2.013254792577829e-06 
6.067009917254004e-06 
9.051391204324237e-06 
8.596805741177699e-06 
9.587568369400208e-06 
6.490553680546082e-06 
3.131132170359644e-06 
5.118631320932392e-06 
6.563941163909475e-06 
2.503880598372894e-06 
1.664609589646596e-06 
4.220641245601544e-06 
5.779191218638289e-06 
4.522894681130388e-06 
1.337657586295494e-06 
2.239530982199637e-06 
5.76311194353459e-06 
3.08326357184017e-06 
1.583116435604045e-06 
1.307626161799126e-06 
2.796081682134746e-06 
2.944883646624514e-06 
1.252477270210282e-05 
7.965790865945797e-06 
-9.94512983361402e-07 
2.650953153187273e-06 
3.412247366351278e-06 
6.502399621390309e-06 
7.294723589444798e-06 
7.090210716027789e-06 
8.611863856824323e-06 
8.506955003904959e-06 
5.685062919677597e-06 
6.561388857662626e-06 
6.676830932923379e-06 
3.530642040308544e-06 
2.775393207311534e-06 
1.497414412137111e-06 
3.429561583614396e-06 
4.270798296823698e-06 
1.295180904063743e-07 
5.88314028068018e-07 
3.472504512273745e-06 
1.635123605514712e-06 
1.916330530147264e-06 
2.236231841529476e-06 
3.67503364553202e-06 
4.496811664110118e-06 
1.159963367102156e-05 
6.638504780217867e-06 
7.459094832868533e-07 
-4.698304466111369e-07 
1.199332845372863e-06 
7.845342509701377e-06 
9.948661951921879e-06 
9.629640766980696e-06 
1.017667453045915e-05 
8.298617744158142e-06 
7.345130071305024e-06 
9.363984057857197e-06 
9.894412302685363e-06 
7.225988702438874e-06 
6.196273392102706e-06 
3.928353614261294e-06 
5.279604605872756e-06 
6.922256839111904e-06 
3.307823760332441e-06 
3.41451475145576e-06 
6.574990253931158e-06 
3.822471965255255e-06 
5.417937329833841e-06 
4.570594902796222e-06 
2.432313781689948e-06 
2.762707240482973e-07 
1.246273378664981e-05 
7.230227183747717e-06 
2.165116429263017e-06 
9.551910464340268e-07 
1.527029426619736e-06 
6.340952107458561e-06 
8.567364288418075e-06 
7.662188690334213e-06 
8.556854184113153e-06 
7.940241012607355e-06 
6.881733737760339e-06 
8.105891934293651e-06 
8.639128612379269e-06 
7.885898791567456e-06 
7.485205696588706e-06 
6.115709738041511e-06 
6.30239578826093e-06 
5.920825229889579e-06 
2.942175146637522e-06 
3.506019499717871e-06 
6.244352394698034e-06 
4.706784762849134e-06 
4.980975162792922e-06 
3.434375819958364e-06 
4.311078945592894e-06 
3.842747850067776e-06 
1.286179445651083e-05 
6.309985126757261e-06 
-6.631311993174871e-07 
-1.307498850664043e-06 
2.737820093704494e-06 
6.886902039536226e-06 
7.778091327218736e-06 
7.828202195106654e-06 
1.056380979122452e-05 
9.873770749504671e-06 
6.281781670735072e-06 
6.218142177878686e-06 
7.057237496121648e-06 
5.142103605420871e-06 
4.267402823755348e-06 
2.995807603522618e-06 
4.645123082505042e-06 
3.533524183998353e-06 
1.614321495512253e-06 
2.091210850860429e-06 
3.328463410534114e-06 
2.322926263156118e-06 
3.276903644757043e-06 
2.405349011143516e-06 
3.597016617067332e-06 
5.26737684776312e-06 
1.511926688117235e-05 
8.112910792159287e-06 
1.579858905293268e-06 
-9.31772251048889e-07 
3.157393561728688e-06 
6.548452650765786e-06 
7.317901625621398e-06 
5.730466791379544e-06 
8.857724798243093e-06 
8.48089540190452e-06 
7.778500799106659e-06 
7.947169329418665e-06 
1.048531417147357e-05 
7.48720340085471e-06 
6.845108452361585e-06 
4.511317908922114e-06 
6.303090664976436e-06 
8.457265461164707e-06 
3.807486337343282e-06 
4.475090256579006e-06 
6.497323737911809e-06 
3.219246761302463e-06 
4.050319563189785e-06 
2.663075493007208e-06 
5.133140678932143e-06 
4.388792179921267e-06 
1.232622742408525e-05 
8.968816579329941e-06 
1.16684712889486e-06 
-6.845573901305015e-07 
3.037968252682371e-06 
7.027390114643063e-06 
8.77158765814242e-06 
8.074397508226013e-06 
9.035025097195473e-06 
7.517903106817212e-06 
6.630190853712158e-06 
6.836012804042578e-06 
1.026982623183798e-05 
9.67013019791483e-06 
8.590992490895596e-06 
5.864288882483386e-06 
7.008934861285696e-06 
6.860718434958342e-06 
5.114076919378066e-06 
6.167637258496425e-06 
6.540067709692231e-06 
3.969698959465355e-06 
4.227135472529939e-06 
3.018588186936593e-06 
5.123173971130444e-06 
4.002285880694893e-06 
1.132698549701624e-05 
8.426946970250672e-06 
1.43299103411371e-06 
2.696678906425634e-07 
3.543680228896774e-06 
6.557694560344464e-06 
9.494179546611107e-06 
8.839380155852117e-06 
8.114497595028955e-06 
7.747030173583957e-06 
5.287188097969687e-06 
6.006618686523192e-06 
9.508904139275277e-06 
7.561747544266889e-06 
6.479197952282374e-06 
5.409154780730721e-06 
7.135518974043548e-06 
6.99384892521667e-06 
5.621979568868522e-06 
6.48412380196673e-06 
6.64673381518994e-06 
5.166192787833135e-06 
4.399617803694814e-06 
2.519027736554438e-06 
3.34336661985874e-06 
2.704839970164694e-06 
1.064622766956079e-05 
3.793498825566868e-06 
-1.69375205349086e-06 
-4.187289580902366e-06 
1.087326267881353e-06 
5.879926821674148e-06 
7.867018139650351e-06 
5.783598921266003e-06 
7.528447308448887e-06 
6.052378399588043e-06 
4.350788956943099e-06 
5.840174559443143e-06 
9.59541205059334e-06 
8.701701069661649e-06 
8.29172292258767e-06 
7.376401044991912e-06 
8.630329823308385e-06 
6.477676342453722e-06 
3.668426318764582e-06 
4.324819951061663e-06 
6.366723737766658e-06 
6.264957035185415e-06 
5.768480656042125e-06 
2.283438251392479e-06 
1.482507993099483e-06 
3.515569856208014e-06 
1.059987436212024e-05 
4.513155066579752e-06 
1.174322388173561e-07 
-4.107395596806283e-06 
3.259734536849463e-07 
3.681374174438986e-06 
6.147282913894994e-06 
5.617255865649277e-06 
6.698739750265351e-06 
5.642558872828244e-06 
2.909753670154978e-06 
6.116780177425589e-06 
8.710252742003656e-06 
7.08040447832829e-06 
6.129897514182317e-06 
5.484363297797801e-06 
5.286559635179713e-06 
2.502684609040871e-06 
6.642423731814849e-07 
8.253480505164123e-07 
2.589960311488797e-06 
3.776767447297291e-06 
3.70221918306085e-06 
1.044817144042634e-06 
1.492021165643573e-06 
1.549965489402808e-06 
6.694786319968561e-06 
6.189651667988987e-06 
-6.605781282704885e-07 
-2.150672379223072e-06 
8.523301882338985e-07 
2.05601619785969e-06 
6.742926195901635e-06 
6.120962426590817e-06 
7.198086847323625e-06 
4.108145794317612e-06 
4.750669608422962e-06 
6.215390130401538e-06 
8.557018134507733e-06 
7.616951298522254e-06 
6.674587333022169e-06 
6.031598271113558e-06 
5.343612161882222e-06 
3.460633718075038e-06 
1.213553674577474e-06 
2.260801224888437e-06 
3.655370769610775e-06 
4.345713220187364e-06 
4.595829239768277e-06 
1.886526444430881e-06 
-8.930515249569404e-08 
-3.858655256273889e-06 
6.281458144623963e-06 
3.878975368857866e-06 
-1.528036280031872e-06 
-1.697287290820228e-06 
2.008558092660795e-06 
3.486421075084416e-06 
6.5278866663008e-06 
3.629433135061722e-06 
3.332877072566818e-06 
3.447593401927904e-06 
4.700490248216897e-06 
7.087539289392523e-06 
8.407867641336454e-06 
6.052216118209877e-06 
4.402464828773072e-06 
4.221928916200464e-06 
4.80976871093907e-06 
3.468256139770225e-06 
-5.902767522204609e-07 
-2.590961206585515e-07 
3.824135223312235e-06 
3.396448506351456e-06 
2.87854666211869e-06 
7.390602616086074e-07 
7.842110093615336e-07 
3.735376879890444e-06 
6.702614039613623e-06 
3.905490238107854e-06 
-4.05213550711361e-06 
-3.979372810566767e-06 
3.507151151775069e-07 
4.712126183280056e-06 
7.711581274156959e-06 
5.583628625103541e-06 
5.90966596464594e-06 
