solver_type L2R_L2LOSS_SVR
nr_class 2
nr_feature 79534
bias -1
w
-3.258191345893196e-06 
-1.732471579170223e-06 
9.705198503967912e-07 
1.331674081219823e-06 
-4.655138392902917e-07 
-9.072564935948439e-08 
1.842236537972716e-06 
1.45492601330224e-06 
2.166989547472336e-06 
1.619053152138031e-06 
1.789887840614752e-06 
4.870816712344631e-07 
-9.848851058414901e-07 
-5.574009205914664e-07 
1.93883756984249e-07 
7.591883650444516e-07 
1.559585116064823e-06 
2.102597808444417e-06 
1.397301373289048e-06 
-4.006882548123031e-07 
-1.322632449579134e-06 
-1.389538816343409e-06 
-8.32151280872375e-07 
6.48326998866541e-07 
-4.002479175888444e-07 
-9.28294382369388e-07 
-2.385452750777558e-06 
-1.813734134297218e-06 
1.260505753250579e-06 
1.325952285953421e-06 
-8.099786268137345e-07 
1.430216886685051e-07 
2.167907577289603e-06 
1.319061725036489e-06 
2.355275594156016e-06 
1.349005628369388e-06 
2.081045469765244e-06 
-3.100593505859365e-07 
-2.297248684981892e-06 
-1.36714395356921e-06 
-4.532665205610418e-07 
-2.433569454863779e-07 
6.723817343701716e-07 
1.616598782379909e-06 
1.113694194442149e-06 
7.616939375758589e-08 
-1.314819977945478e-06 
-1.295189819217474e-06 
-9.297491340501671e-07 
5.93256191889941e-07 
-1.328399143292013e-06 
-1.529868684160891e-06 
-2.204426545928382e-06 
-8.33419812456116e-07 
1.249160277236655e-06 
1.871669788760734e-06 
-1.058142994441953e-06 
-2.695129757654593e-07 
1.299467761163449e-06 
1.259785012874128e-06 
2.097944096661106e-06 
1.299676002492397e-06 
1.927991022895741e-06 
-3.802364370848017e-07 
-2.661001126785703e-06 
-1.870232222005625e-06 
-1.177684220797592e-06 
-1.193338507987096e-06 
6.717041551253782e-07 
1.613392095447335e-06 
1.144924465733443e-06 
5.829676999133436e-07 
-1.406468038579441e-06 
-1.326984445236592e-06 
-3.052039277055431e-07 
3.700435633914918e-07 
-1.785771665990087e-06 
-1.749655355636862e-06 
-2.170919769694225e-06 
-2.011176464729689e-06 
7.482141848491002e-07 
6.493021587581335e-07 
-5.24171961530952e-07 
-5.85866592133958e-07 
1.372957361013928e-06 
1.269667129292754e-06 
2.214208325750399e-06 
1.439398155927941e-06 
1.587389853153395e-06 
-9.144433972347896e-07 
-2.803659864555082e-06 
-1.877434810127105e-06 
-1.416334589522122e-06 
-9.790453327523787e-07 
3.284277620561991e-07 
1.195559074330032e-06 
1.210618388959804e-06 
6.731657205767898e-09 
-7.043425209141515e-07 
-3.990883770452556e-07 
-2.76923130009278e-07 
3.890915650370873e-07 
-1.660380435051871e-06 
-1.843299393811858e-06 
-3.120760277899863e-06 
-1.055368477669556e-06 
1.109443599917048e-06 
8.545824373603011e-07 
-2.778787265513439e-07 
3.482499343885232e-07 
1.737140149048151e-06 
1.011272161123652e-06 
2.178598926410169e-06 
1.423046456269397e-06 
1.634727086823537e-06 
-1.140758538476158e-06 
-3.206337001765261e-06 
-2.637870363132592e-06 
-1.791592715676768e-06 
-1.338020344779168e-06 
-2.502833566791423e-08 
1.198340866797736e-06 
1.216065119038966e-06 
-7.239340290764823e-07 
-1.414583007476835e-06 
-1.493479381892532e-06 
-1.631335891267589e-06 
-1.857551391505102e-07 
-2.211016084854131e-06 
-2.108273664010147e-06 
-2.330580470644478e-06 
-1.105624603610073e-06 
2.080267106818764e-06 
1.225601913886805e-06 
1.343628015423941e-07 
7.052636726201747e-07 
1.852253926919486e-06 
9.82753219215212e-07 
1.414238228048108e-06 
8.615867979438763e-07 
1.448881295307192e-06 
-1.162664450127075e-06 
-3.164146760421989e-06 
-2.554974201831305e-06 
-1.895098618097811e-06 
-1.225119274559154e-06 
-4.283645661318502e-07 
1.162354430280034e-06 
7.061937603780718e-07 
-1.146823953140504e-06 
-2.135354353246952e-06 
-1.877345800627328e-06 
-1.460106539614824e-06 
-1.508383667612139e-07 
-2.339686676341187e-06 
-2.59238084526327e-06 
-1.647579765960733e-06 
-2.314895454443277e-07 
1.48540958810496e-06 
1.844816095785467e-06 
4.667903548873833e-07 
8.972580348068943e-07 
1.326643801657373e-06 
9.489634552647529e-07 
1.924745758406903e-06 
1.372524428414664e-06 
1.576277929047069e-06 
-1.345229795623655e-06 
-3.239588929938088e-06 
-2.775740194142464e-06 
-2.075799000686038e-06 
-1.071940563848766e-06 
-2.875242321524395e-07 
9.468504848322644e-07 
8.410881082604884e-07 
-2.192503021698813e-07 
-8.005794726150792e-07 
-7.379762033924519e-07 
-5.521666836239776e-07 
-1.059837996742338e-07 
-2.177438812709165e-06 
-2.27964785936324e-06 
-1.592197813481491e-06 
-1.168074514174115e-06 
2.599631107509619e-06 
2.181151310657951e-06 
4.093653818721464e-07 
6.504481896192328e-07 
2.183674942624155e-06 
1.643052259731923e-06 
2.158645308867668e-06 
1.628607423672195e-06 
1.431910097557546e-06 
-1.195152666105716e-06 
-3.510196532122488e-06 
-3.178528001822956e-06 
-2.301586571645493e-06 
-1.418820871272971e-06 
-1.071504149997181e-06 
-2.337431067205818e-07 
5.665177394057037e-09 
-1.653661738997141e-06 
-2.501678633212972e-06 
-2.403695973455697e-06 
-1.598676412173099e-06 
-1.06525849035874e-06 
-2.48391989101747e-06 
-2.441586711531708e-06 
-2.302801383347096e-06 
-2.703792821511214e-06 
1.555600678951634e-06 
1.235875995696585e-06 
-3.070238878606165e-07 
-1.461695713013616e-07 
1.640455374546025e-06 
5.104314066287491e-07 
1.374753376338075e-06 
9.27956461839683e-07 
1.198970057958937e-06 
-1.493972199858535e-06 
-4.314072548201481e-06 
-3.344741200075683e-06 
-2.817711154904116e-06 
-1.842602173528898e-06 
-9.971034876210139e-07 
1.822538472369363e-07 
3.671161668057859e-08 
-9.305240313848035e-07 
-2.422661648885241e-06 
-2.46840261731048e-06 
-1.489461216993707e-06 
-8.804335423774579e-07 
-2.609579263362073e-06 
-2.797952819195806e-06 
-1.399797589818864e-06 
-2.442027820135592e-06 
1.829871731084651e-06 
1.589713925325382e-06 
-1.997588774563849e-07 
1.60017569160791e-07 
7.270734663466642e-07 
4.675846852813634e-07 
4.506863012756236e-07 
3.464985550660613e-08 
2.492442940218608e-07 
-2.626158767558634e-06 
-4.4488968560744e-06 
-4.134483254809874e-06 
-3.259348535360915e-06 
-1.970865727706156e-06 
-1.136408614387027e-06 
3.310676175824647e-07 
-4.830556890084262e-08 
-1.602732941335781e-06 
-2.856443643463469e-06 
-2.919317727278854e-06 
-1.902646574532589e-06 
-7.349050299042424e-07 
-2.677712855363734e-06 
-3.129001912857181e-06 
-1.060384462756232e-06 
-1.743369047574211e-06 
8.293797252158453e-07 
1.152248896322004e-06 
7.098395826142452e-07 
-1.822261042236912e-08 
1.353074545672334e-06 
5.168312651476755e-07 
2.42050240266721e-07 
-1.368558229460057e-07 
7.425990691392001e-07 
-1.71809495054956e-06 
-4.027089920585657e-06 
-3.110010605909767e-06 
-2.181674408591942e-06 
-1.716527822310496e-06 
-1.223646314811171e-06 
5.264718292276862e-07 
2.332477521234595e-07 
-1.046333935849967e-06 
-2.482005889117675e-06 
-2.456900434956526e-06 
-1.509930827807767e-06 
-5.953806462007014e-07 
-2.481384087498547e-06 
-2.472385957430925e-06 
1.947972972801168e-07 
-8.61399316386653e-07 
1.580467079373907e-06 
1.646804402938884e-06 
8.30816422983138e-07 
4.723716794268953e-07 
2.237182114126892e-06 
1.762412858511265e-06 
2.111885101496854e-06 
1.025590965781129e-06 
1.129235179099312e-06 
-9.026224766629946e-07 
-3.412811906006681e-06 
-3.080304905552286e-06 
-1.919202186368442e-06 
-1.141206245246527e-06 
-2.848646780630423e-07 
7.951779112272951e-08 
-2.120653312626094e-08 
-7.467331734563891e-07 
-2.784577848061354e-06 
-2.696319678746749e-06 
-1.320503223033125e-06 
-4.611086879030381e-07 
-1.936964918187584e-06 
-2.212590100698154e-06 
-1.27719412910976e-06 
5.021296915276123e-07 
2.498236448886418e-06 
2.123314578228003e-06 
5.058294825332336e-07 
2.681788326885329e-07 
2.553262093966195e-06 
2.376118873284127e-06 
2.026025323185327e-06 
1.280755640601782e-06 
1.88622104247381e-06 
-8.762521779632787e-07 
-3.176973747797555e-06 
-2.459902649786533e-06 
-1.557037624975296e-06 
-1.180789318782028e-06 
-3.501817794596398e-07 
4.928740344354443e-07 
1.159641452421443e-07 
-3.568199681534706e-07 
-1.067663399852937e-06 
-7.465719014746658e-07 
-6.888619309415155e-07 
-3.195992723661615e-07 
-1.632477534795939e-06 
-1.957199786095608e-06 
2.056494084923723e-07 
-2.396769942845784e-07 
3.449322950294135e-06 
3.137276497927748e-06 
1.831105775175364e-06 
1.12971657379719e-06 
2.629232657755709e-06 
2.782144088052956e-06 
2.854052111665557e-06 
1.753730122719398e-06 
2.381663690294066e-06 
-9.199411231110806e-08 
-2.487232894036448e-06 
-1.523679688423894e-06 
-6.064447074905857e-07 
-3.161059219558182e-07 
8.203080681353094e-07 
1.246623544196126e-06 
1.259388310059965e-06 
1.180149200837632e-06 
4.509687530748424e-07 
1.578865883651364e-07 
5.084106190716257e-07 
5.287064036666656e-07 
-1.015068687718619e-06 
-1.013116123818554e-06 
-1.80434429743994e-07 
8.489115406299231e-07 
3.390475732715934e-06 
3.126221173380687e-06 
1.753656801720704e-06 
1.65548794200963e-06 
3.373782158451621e-06 
3.266495114991883e-06 
3.438272815718416e-06 
2.15429211728685e-06 
2.918880818273523e-06 
3.685662728503988e-07 
-1.506546271031247e-06 
-5.828744713884917e-07 
5.890467115124866e-07 
8.480565340548465e-07 
1.794293318464865e-06 
2.68845140293483e-06 
2.459492897461549e-06 
1.340477984898482e-06 
5.796517688806937e-07 
5.181002156701578e-07 
1.231112277374013e-06 
2.004066729409906e-06 
3.627000893740159e-07 
-1.056555848374476e-07 
3.705636653009893e-07 
9.494227577015683e-07 
4.482951236954459e-06 
3.441837017851071e-06 
1.547043351616684e-06 
1.848744985504663e-06 
3.702743049879708e-06 
3.688080220631381e-06 
3.940555276933044e-06 
2.925468646210306e-06 
3.32144004082046e-06 
9.927045130176924e-07 
-1.324118792950974e-06 
-1.279813784629694e-07 
4.885427794418001e-07 
9.104017945345256e-07 
2.017915338779925e-06 
2.248229829907484e-06 
1.988091397969581e-06 
1.282080338666747e-06 
4.556796051748622e-07 
5.026474832072078e-07 
1.172282772088289e-06 
1.642305166274944e-06 
2.159706542797713e-07 
2.922048465203688e-07 
7.590813330746121e-07 
2.393116580885191e-06 
4.253228423499276e-06 
3.65383597496746e-06 
1.995334329837083e-06 
1.991803031243001e-06 
3.177732433287608e-06 
3.537433717940535e-06 
3.771898567634524e-06 
2.752107275475696e-06 
2.803684685497014e-06 
6.153401537117475e-07 
-1.456377495669931e-06 
-5.528296964512116e-07 
3.906017806303385e-07 
7.226669990981397e-07 
1.684964569960305e-06 
2.309821727114662e-06 
1.919476084608685e-06 
1.026686834106487e-06 
-1.600302932739392e-08 
2.420407802346949e-07 
6.996484567153996e-07 
1.333935578766995e-06 
1.401490048902758e-07 
1.665385628899843e-07 
1.357905770269719e-06 
1.742514394439921e-06 
4.678699332527909e-06 
3.422628747988725e-06 
1.99071335218121e-06 
1.71166091823305e-06 
3.2934513796015e-06 
3.543007461313658e-06 
4.192662274226078e-06 
2.414708349328904e-06 
2.908806302804758e-06 
7.802260747627387e-07 
-8.909809025213395e-07 
-1.887171583482908e-07 
3.401912518418794e-07 
5.504179707952282e-07 
1.513398443988304e-06 
2.111848818255284e-06 
1.653840744923636e-06 
1.000609220021101e-06 
6.827252508580936e-07 
8.054518869462267e-07 
8.115915715606639e-07 
8.48760817373617e-07 
-1.678356868218699e-07 
2.458023469229723e-07 
6.212948781447835e-07 
1.356845438812082e-06 
4.760062791573791e-06 
3.785984893141737e-06 
1.96624588900977e-06 
1.761294811654551e-06 
2.709150059591539e-06 
3.365208966524241e-06 
3.330368200932898e-06 
2.467658649062204e-06 
3.025329548985358e-06 
2.033421575943406e-07 
-1.149962367160659e-06 
-4.964534448845649e-07 
-2.784604042246039e-07 
1.906424154993129e-07 
1.351415951617231e-06 
1.750356939253705e-06 
1.718800619596247e-06 
7.45943266089206e-07 
2.092818525901341e-07 
3.063994654899791e-07 
5.317141188004746e-07 
6.387596998449028e-07 
-2.807890475921738e-07 
2.499879783202803e-07 
1.641397454938829e-06 
1.939822941452527e-06 
4.679544060851172e-06 
4.398072981144093e-06 
2.483892514810465e-06 
2.197215132126841e-06 
3.293560013493504e-06 
3.770047878243731e-06 
3.61971891344886e-06 
2.488977161858525e-06 
3.089823958979554e-06 
9.350527788733521e-07 
-1.376120238971279e-06 
-9.167290916569774e-07 
-3.296553507268537e-07 
-1.142358027649802e-07 
9.855205395276488e-07 
1.815350907186869e-06 
2.020172266492562e-06 
1.197406851869326e-06 
4.402902605534051e-07 
7.786736985206394e-07 
1.193374288179479e-06 
1.06611136749182e-06 
-6.152687546650265e-07 
-6.958693657722276e-08 
1.652825315071784e-06 
1.614265916745058e-06 
4.679165964383342e-06 
3.705054869641187e-06 
1.990966268923244e-06 
2.110545667185974e-06 
3.235791151489992e-06 
3.303353986659235e-06 
3.412841558985966e-06 
2.123078249413617e-06 
2.660017422306824e-06 
8.670305539867094e-07 
-1.535053703970641e-06 
-1.229098229694174e-06 
-8.575134202671812e-07 
-5.077477347506052e-07 
8.064162016416458e-07 
1.848372699662482e-06 
2.099282437545708e-06 
1.055286308513525e-06 
9.216112469822901e-07 
1.135201720766851e-06 
9.651503539235934e-07 
9.778900559439276e-07 
-6.008596872690298e-07 
1.817225332229489e-07 
1.298090713599168e-06 
2.441463514637959e-06 
4.955710019992108e-06 
4.462940515004367e-06 
2.197879803383343e-06 
1.369003570762382e-06 
2.944142740041525e-06 
3.204671862169839e-06 
3.224796275031551e-06 
2.373603237951265e-06 
3.402334074196105e-06 
6.129213044913275e-07 
-1.712420547896914e-06 
-1.376708930480057e-06 
-1.464489461088417e-06 
-4.15754167962923e-07 
9.560522939825278e-07 
1.716614243357007e-06 
1.267009179487091e-06 
-1.79926504610651e-07 
-9.000541744503984e-07 
-5.833409977395088e-07 
9.440621696906646e-08 
8.788380328249926e-07 
-8.558319683012067e-07 
-4.354635206558776e-08 
7.35358763190549e-07 
2.53360816303653e-06 
4.318141584032897e-06 
4.24549536076189e-06 
2.762756711935615e-06 
9.393094133275647e-07 
2.255709550300996e-06 
3.624877162142691e-06 
3.983049499734934e-06 
2.706218259378731e-06 
3.638713590901462e-06 
8.35050195545534e-07 
-1.670261246897603e-06 
-1.180422204843362e-06 
-5.447232248212478e-07 
-7.955162851252839e-07 
6.902319824257294e-07 
2.007038212070288e-06 
1.54014710657562e-06 
6.077341609908066e-07 
3.06490350862067e-07 
4.383637759168215e-07 
7.330211070675903e-07 
9.3204690485167e-07 
-8.3326952308043e-07 
1.279992287769374e-07 
6.938847282163353e-08 
1.016982250875276e-06 
3.908437529588471e-06 
3.329004427113304e-06 
1.6715396623246e-06 
8.413633937981583e-07 
2.607724135083793e-06 
3.187050063818375e-06 
4.022908494106659e-06 
2.886633428928421e-06 
3.215736200336888e-06 
3.64652360376243e-07 
-1.560775468438167e-06 
-9.238185714376965e-07 
-4.99627466237186e-07 
-3.465192575495417e-07 
9.794429922834282e-07 
2.269345711836323e-06 
1.928733947255539e-06 
9.636570359637377e-07 
6.34579617271133e-07 
1.033423269453538e-06 
1.040843939766994e-06 
1.295441105535698e-06 
-3.850723488989798e-07 
4.241933846690086e-07 
-1.519834312290702e-08 
1.294132548265066e-06 
2.78570058492082e-06 
2.782836795148837e-06 
1.805577271170305e-06 
3.644860030837466e-07 
2.760413883522659e-06 
3.676300240108519e-06 
3.53633498912685e-06 
2.655985307767267e-06 
3.03377903210798e-06 
8.58368016892693e-07 
-1.734857631094147e-06 
-1.142643387238748e-06 
-5.798269139046242e-07 
-5.729205380993125e-07 
8.255750264530212e-07 
2.314736192793481e-06 
2.160914919956144e-06 
1.162948095302042e-06 
2.896112098462654e-07 
8.461587909703176e-07 
1.123504663134164e-06 
1.47602145738137e-06 
-6.683415209089065e-07 
-1.537223541774075e-07 
-6.868028026977179e-07 
6.186247470342655e-07 
4.675549565173497e-06 
3.342630700163428e-06 
1.146422539378842e-06 
4.389965365297713e-07 
3.237723588154633e-06 
3.41900854285008e-06 
3.739547338553134e-06 
2.51166079770639e-06 
2.913709378183226e-06 
1.838197551174425e-07 
-1.899662481552153e-06 
-1.352039419565225e-06 
-5.477252484095543e-07 
-4.43976339272325e-07 
6.355952610525183e-07 
1.910003305764074e-06 
1.350575530526516e-06 
6.793946428046513e-08 
-2.679505161968167e-07 
4.599675580567799e-08 
4.140852608555722e-07 
7.616612642360761e-07 
-7.282310748149197e-07 
-1.43514143053808e-07 
-7.979279160052663e-07 
5.055588340210372e-07 
3.569636194659662e-06 
3.426589355645855e-06 
1.397605876538123e-06 
6.983171653676717e-07 
2.54019120418545e-06 
3.258058622499206e-06 
3.743228973320945e-06 
2.45940955787053e-06 
3.133923657677858e-06 
8.942001762374135e-07 
-1.372861296908391e-06 
-7.575362229965174e-07 
-2.010882380859784e-07 
-5.793873738085441e-08 
9.672843924398661e-07 
1.965069593272121e-06 
1.495198306860879e-06 
3.290388880963311e-07 
-5.804909693745151e-08 
3.776497710964481e-07 
-6.749432544090844e-08 
1.117581207955899e-06 
-3.491508622377882e-07 
-2.929612363242269e-08 
-1.146558689403012e-06 
5.954957915681098e-08 
3.434625793414775e-06 
3.046499966118634e-06 
1.31590313896285e-06 
1.545558277478055e-06 
3.381075528107862e-06 
3.648133882344843e-06 
3.438294286558509e-06 
1.939004546004085e-06 
2.656355511483246e-06 
1.491121936112296e-07 
-2.068346682296582e-06 
-1.125389967649971e-06 
-4.127810689031032e-08 
-2.48400776593439e-07 
7.665502054403341e-07 
1.72765157454263e-06 
1.110656470928413e-06 
-5.989203090554762e-08 
-1.92382071762834e-08 
2.885080965021228e-07 
-7.291937938076393e-08 
7.300570212100714e-07 
-7.823228010174758e-07 
-3.563833462905806e-07 
1.518610227879563e-06 
-3.038872658708185e-07 
3.498647109649785e-06 
3.790157074827093e-06 
1.128135835697784e-06 
1.353911275660744e-06 
2.974193038160546e-06 
3.396520502787258e-06 
3.413878407120126e-06 
1.874716218311458e-06 
1.930070516033218e-06 
-2.276745174179349e-07 
-1.906081836356777e-06 
-1.875069661428904e-06 
-7.47819996312496e-07 
-7.925382909935097e-07 
7.609077427856079e-07 
1.556385579908677e-06 
1.15647841521071e-06 
-1.067850346625276e-06 
-1.168978895105517e-06 
-6.511212850891968e-07 
-9.176388914805985e-07 
5.882706482163417e-07 
-1.145583122718759e-06 
-5.668728541536135e-07 
3.007908384226869e-07 
-2.415004440325661e-07 
2.876884092993161e-06 
2.818152716947248e-06 
8.861929933080841e-07 
8.849894219194357e-07 
2.248336785996107e-06 
2.812433812246115e-06 
2.101732814698493e-06 
6.747211341125353e-07 
1.424932967198556e-06 
-1.774070488723881e-07 
-2.581760549264798e-06 
-1.871806973621671e-06 
-7.59375611390756e-07 
-9.435248049687035e-07 
3.100131915190696e-07 
1.119803881306509e-06 
8.922933177986035e-07 
-5.887627847593503e-07 
-1.205587307025246e-06 
-1.020995389987079e-06 
-7.688587601804149e-07 
3.699666928889153e-07 
-1.334468820590092e-06 
-8.601267858701676e-07 
-4.354456758168948e-07 
-1.50660088723229e-06 
2.344896612268136e-06 
2.737907033287101e-06 
8.964838624383599e-07 
1.101703067325886e-06 
2.676795476770349e-06 
2.86840453889335e-06 
1.718642229780017e-06 
7.892309129803943e-07 
1.456687921761403e-06 
-2.345860638630911e-07 
-2.223724668496749e-06 
-1.785625867291643e-06 
-6.934095640934497e-07 
-8.70034550878396e-07 
2.205901390495553e-07 
1.271166215468913e-06 
1.481304251494981e-06 
-6.194194415777011e-07 
-1.25480390424015e-06 
-1.043202310544036e-06 
-6.685541097376058e-07 
5.900368202406558e-07 
-1.331035081254078e-06 
-8.247453020502993e-07 
-1.490390478161239e-07 
-1.036651978189213e-06 
2.714458849692173e-06 
2.734128434849241e-06 
1.539854771154632e-06 
1.566019251876973e-06 
2.746478074646932e-06 
2.668735268831417e-06 
2.37218855175789e-06 
1.847286077789839e-06 
2.817285993182968e-06 
-2.217822126734739e-07 
-2.504791436996136e-06 
-1.411335144688105e-06 
-6.836507602728382e-07 
-5.468934446442227e-07 
3.673417604955002e-07 
1.371565193551873e-06 
1.028368897947152e-06 
-1.347671074149634e-06 
-1.509087005330632e-06 
-1.374615322016897e-06 
-1.120399828659545e-06 
4.789835946844601e-07 
-1.078332302023876e-06 
-5.100085122626445e-07 
-1.428995331672283e-07 
-1.047506870269324e-06 
1.856693482204753e-06 
2.915313774051835e-06 
1.759596332333948e-06 
1.261169605101469e-06 
2.334979075166582e-06 
2.438154746899191e-06 
2.289259217597291e-06 
1.602769256312554e-06 
2.054785969396213e-06 
-6.766727362479663e-07 
-2.094342513061968e-06 
-1.44835374068095e-06 
-7.972174039341947e-08 
-4.785726523830516e-07 
1.411433929436484e-07 
1.288559763182321e-06 
1.147966960828042e-06 
-7.902405411168625e-07 
-8.062180169737703e-07 
-5.51501061760887e-07 
-7.172326375150931e-07 
5.695893631749785e-07 
-8.351016846329342e-07 
-3.612492539670518e-07 
-9.504003902310261e-07 
-5.925559768120713e-07 
2.006935973529195e-06 
2.722399190955678e-06 
1.89594857825131e-06 
1.493834661166608e-06 
3.108296757367688e-06 
2.552062843066509e-06 
2.559170044939395e-06 
1.886423328215907e-06 
2.586525237114153e-06 
-1.60119095591134e-07 
-1.709532091063316e-06 
-3.982614871771816e-07 
2.561305329314802e-07 
1.876284916983796e-07 
7.80574136538409e-07 
2.160918438756989e-06 
2.267220731190552e-06 
-2.837057382363257e-07 
-5.48311317887113e-07 
-6.810610545476571e-07 
-4.165644534956156e-07 
1.262933865921203e-06 
-5.829981727802817e-07 
-1.374177547879187e-07 
-1.471215646235472e-06 
-5.238332241857385e-07 
2.120898491739942e-06 
2.212757892025486e-06 
1.160885973668074e-06 
1.587212953834164e-06 
3.232967935959823e-06 
2.519201350799839e-06 
2.70235122950217e-06 
2.688193606656872e-06 
2.400318759458692e-06 
4.712433567095154e-09 
-1.555349776067804e-06 
-5.910500522110565e-07 
7.269454355443954e-07 
8.432291327898161e-07 
1.168406847798155e-06 
2.648426934673948e-06 
2.368536970190667e-06 
7.317402707843273e-07 
8.955265446125168e-07 
1.036058067355992e-06 
5.408459711530758e-07 
1.498960526901245e-06 
-2.116504184675798e-07 
1.765138043360008e-07 
-1.594756024852036e-06 
-1.573568282034481e-06 
2.479485013741527e-06 
2.605275505651978e-06 
6.835769993719972e-07 
1.092783032809732e-06 
2.544900305161442e-06 
2.796411282224207e-06 
2.901345719778369e-06 
2.432576301062529e-06 
2.702129265943375e-06 
6.491947966237297e-07 
-1.455221527130605e-06 
-5.604959886968979e-07 
7.813839897894633e-07 
6.185495785872138e-07 
1.018625335338892e-06 
2.155378796738092e-06 
1.790431217972153e-06 
1.605231705926333e-07 
-2.399943689352452e-07 
-1.069243704818262e-07 
-3.791423611825743e-07 
1.061249336284197e-06 
-2.087535107958234e-07 
4.21622238565341e-07 
-1.382926942034938e-06 
-1.017005058798226e-06 
1.901590330829052e-06 
2.251944851394027e-06 
7.251912800852607e-07 
2.221910547015503e-07 
2.455127414882633e-06 
2.645076916199208e-06 
2.524378401843352e-06 
2.075296269072285e-06 
2.477296992313274e-06 
1.442419224638009e-06 
-8.629456542089399e-07 
1.730468728427901e-07 
1.288711684593475e-06 
8.948873626507587e-07 
1.624438447156488e-06 
3.06876029280685e-06 
2.72495989126829e-06 
1.246932818026214e-06 
8.432940695747097e-07 
9.26614298282546e-07 
8.480683595229219e-07 
1.467515961866414e-06 
2.294290989121482e-07 
3.701244220763206e-07 
-1.882958509770375e-06 
-1.156868740619712e-06 
1.906665107020124e-06 
1.710537951240805e-06 
1.063402074370066e-06 
7.281319852832358e-07 
3.14740287387395e-06 
2.641480890850825e-06 
2.985007533762132e-06 
1.882582145788791e-06 
2.649112631315132e-06 
1.465609965012576e-06 
-3.893018041114874e-07 
8.677861976029265e-07 
2.191485564395449e-06 
1.641535656609544e-06 
2.634817314184568e-06 
3.601594509812432e-06 
2.810083759136452e-06 
9.46853878935986e-07 
1.752722171388486e-07 
3.131704199320535e-07 
6.665243108059834e-07 
2.070356093972927e-06 
8.365869740961483e-07 
1.150691942719838e-06 
-1.160551931518582e-06 
-6.604538888221743e-07 
2.32734867506573e-06 
3.340033953235551e-06 
1.428205367447523e-06 
1.549897872136053e-06 
3.352401572425224e-06 
3.042673815119548e-06 
3.084341999328347e-06 
1.797633608359513e-06 
2.959141744921619e-06 
1.173559298611116e-06 
-3.470463815751814e-07 
6.258717519119563e-07 
1.922240229352377e-06 
1.62630079864987e-06 
2.68710803052737e-06 
3.297756557912313e-06 
2.464375283014379e-06 
-4.933480175613512e-08 
-4.460653216062041e-07 
-1.560613175077191e-07 
2.098050668708719e-08 
1.982600124326929e-06 
8.225447094200051e-07 
9.825301446523246e-07 
-6.496106904005654e-07 
-1.249183622226629e-06 
1.349991368096249e-06 
1.565449897388586e-06 
5.751190838899755e-07 
1.471775540285674e-06 
3.27037914911723e-06 
2.688366849027131e-06 
2.530567894101739e-06 
1.815889162059447e-06 
3.015401061471311e-06 
8.345715940443652e-07 
-4.609060231001204e-07 
6.188472255199453e-07 
1.563477553273599e-06 
1.313064567059914e-06 
2.379525255347288e-06 
3.254318485379721e-06 
2.266114086707524e-06 
2.603028868350556e-07 
-3.022170539273138e-08 
-6.752615759483503e-08 
1.973926872600013e-09 
1.992235612650194e-06 
7.329321651067455e-07 
7.222659799096962e-07 
-1.519078831119855e-06 
-1.179146965810429e-06 
2.322761432176126e-06 
2.369923724211322e-06 
1.244959389310515e-06 
1.119513693104057e-06 
3.256665120891959e-06 
2.132574246841591e-06 
1.958389733142048e-06 
2.242592417378955e-06 
3.045634718366113e-06 
7.181751182410213e-07 
-6.183724590101818e-07 
-2.952913958597789e-07 
1.072194232521037e-06 
7.864641880195477e-07 
2.011128796983812e-06 
3.475204327412114e-06 
2.433753188302004e-06 
4.802643282390924e-07 
-4.394305929579707e-08 
3.775084980084338e-08 
6.015315907845972e-07 
2.086294268661051e-06 
4.525238977090139e-07 
6.922380124873213e-07 
-1.843508176733131e-06 
-5.883092622632518e-07 
1.32034068615249e-06 
2.549893500467783e-06 
1.593347611714833e-06 
1.656462613276739e-06 
3.057356843908358e-06 
2.760493701378637e-06 
1.987751316215421e-06 
1.350784630636909e-06 
2.833586303268096e-06 
4.153679224746064e-07 
-8.190482078896874e-07 
2.268852833639366e-07 
1.140053947590529e-06 
9.510011868944298e-07 
2.158299110679954e-06 
2.854030412840764e-06 
2.058199299475609e-06 
6.9694070866587e-07 
6.501023106357137e-07 
7.555448494542297e-07 
7.646279593961851e-07 
2.158314611087906e-06 
4.202087047824569e-07 
5.871467925625727e-07 
-1.393365577614071e-06 
-5.467448491470546e-07 
2.128944303559296e-06 
2.560645865281314e-06 
1.852098796782822e-06 
1.613959714707282e-06 
3.439320788418731e-06 
3.068614113437282e-06 
2.955229016775184e-06 
1.74360782144714e-06 
2.815891382723791e-06 
9.026166635453034e-07 
-1.528122823589522e-06 
2.310883767649003e-07 
1.102429720504589e-06 
7.219734502602785e-07 
1.866900983530811e-06 
2.544029085530827e-06 
1.542982357060803e-06 
3.060443768433451e-07 
3.692426871650753e-07 
5.158342471162916e-07 
4.54036248108739e-07 
1.896116177351369e-06 
3.35711435371785e-07 
4.183861847109052e-07 
-1.309688420310346e-06 
-1.388088701866071e-06 
1.451731768288004e-06 
2.867571022935993e-06 
1.654642631332025e-06 
2.023175122018998e-06 
3.469245738615199e-06 
3.380214093907789e-06 
2.611016431696271e-06 
1.375250702781707e-06 
2.49020978929054e-06 
5.73124775090903e-07 
-1.473528667347102e-06 
-2.884935465157515e-07 
6.133873282551246e-07 
4.197177955790865e-07 
1.509666601984032e-06 
2.229689814985949e-06 
1.718850632596736e-06 
1.048726842004732e-07 
-5.669006066269116e-07 
-4.258574325873427e-07 
-3.000957104674544e-08 
1.323513423547635e-06 
-8.790593651913675e-09 
4.515323443479153e-07 
-1.036762655184388e-06 
-1.500745123893518e-06 
9.965114950665325e-07 
1.311300081127648e-06 
3.300152666784822e-07 
1.90941635382752e-07 
2.405589691217495e-06 
1.74741181888023e-06 
8.702166862143198e-07 
-2.621087614512482e-07 
1.510930970793208e-06 
1.518264669118124e-08 
-2.495874987870251e-06 
-1.328269774185848e-06 
-4.923609273169221e-07 
-2.104234130958284e-07 
4.83471239580346e-07 
1.333334597684521e-06 
5.491780525404821e-07 
-7.470457761255997e-07 
-8.952353527074377e-07 
-9.171447117612615e-07 
-8.27047546128872e-07 
3.478071774384435e-07 
-8.737262323273199e-07 
-6.380268861313811e-07 
-4.368403633319693e-08 
-2.243118065781106e-06 
6.440537371419299e-07 
1.491742971840327e-06 
4.561606890344498e-07 
-2.239530207912596e-07 
2.825824316093036e-06 
2.09735616730125e-06 
1.643744218800351e-06 
-7.294319643874122e-08 
1.185819848993401e-06 
-7.938528911005779e-07 
-2.631017345057568e-06 
-1.609118262249098e-06 
-6.064568760094021e-07 
-1.092448596420337e-06 
8.462026865295233e-08 
9.01639477423294e-07 
2.369850773805929e-07 
-1.211074669424362e-06 
-1.471233407835243e-06 
-1.677598161740296e-06 
-1.530036523820892e-06 
-5.106834079127698e-08 
-1.187870600822902e-06 
-7.3829236825903e-07 
-8.081740287639326e-07 
-1.238856242266331e-06 
6.945024151842527e-07 
1.24647401260381e-06 
4.449803810308685e-07 
3.209639683580834e-07 
2.504006394207456e-06 
1.774138231902655e-06 
1.401491696473309e-06 
-2.626216834385959e-07 
1.094818750633204e-06 
-9.105150368896287e-07 
-2.676723471684409e-06 
-1.755119886737657e-06 
-5.776214552496761e-07 
-6.143444938433409e-07 
3.696361693313406e-07 
1.522575475030821e-06 
7.939944718010572e-07 
-1.00431893767761e-07 
-4.029019579282724e-07 
-2.372699809642541e-07 
-4.555922307522346e-07 
3.93515871247607e-07 
-9.583234790528861e-07 
-8.788663905287254e-07 
-1.558282435928883e-06 
-4.65114251349476e-07 
1.625170189515329e-06 
1.356556810980363e-06 
7.670198989408801e-07 
1.359726209848527e-06 
2.326680113385229e-06 
2.245273045368626e-06 
2.094715253493046e-06 
-3.615291840217449e-08 
1.174288716293954e-06 
-1.489162382947276e-06 
-3.319404580382749e-06 
-1.891627972411478e-06 
-5.055620972364042e-07 
-1.007178896234518e-06 
5.991472347289645e-07 
1.682918830831739e-06 
8.542522864274464e-07 
-7.524953862250707e-07 
-1.293383456401683e-06 
-1.159525420771776e-06 
-1.066782987717166e-06 
3.010466404805493e-07 
-1.04313780109102e-06 
-7.373049524471683e-07 
-1.035444784520669e-06 
-9.656913971235674e-07 
2.136107590143195e-06 
2.122978205817874e-06 
1.56895270913744e-06 
1.840430376323241e-06 
3.631807349673043e-06 
2.543136380909004e-06 
2.727843280437405e-06 
9.756832977332621e-07 
1.349633749292032e-06 
-8.576567943199864e-07 
-2.413736375577679e-06 
-1.342569231641448e-06 
-5.885225452417408e-09 
-2.733924169360255e-07 
1.049468095515128e-06 
2.559572676822282e-06 
1.948326503851171e-06 
3.252331964580447e-07 
-4.915283721205293e-07 
-5.506112592604926e-07 
-1.325218993712809e-07 
1.218241848671864e-06 
-3.874207513366055e-07 
-4.779094741662279e-07 
-8.369743044419671e-07 
-8.813912237350772e-07 
1.61545471582666e-06 
2.548322403125993e-06 
2.523348287303939e-06 
1.709711907978082e-06 
4.128807210424962e-06 
3.156673199939295e-06 
2.874207241931999e-06 
1.30475914875924e-06 
2.070425324838683e-06 
-5.237601904455685e-08 
-2.219297417508841e-06 
-9.012197256533754e-07 
1.696440948575749e-07 
1.184795003661229e-07 
1.676711602616476e-06 
2.255583174936119e-06 
1.574317997145942e-06 
1.857814282496706e-07 
-4.736409041467366e-07 
-4.047387283951832e-07 
-1.139258817745206e-07 
9.279469622740371e-07 
-4.41545492179877e-07 
-4.44223665819876e-07 
-1.172370686385454e-06 
-4.67715493622433e-07 
1.540088381525794e-06 
1.646845156938747e-06 
1.300037696996363e-06 
1.333495160175979e-06 
3.6454681024596e-06 
2.870061486621579e-06 
2.276089696855742e-06 
7.31216399202265e-07 
1.969951453010073e-06 
-7.792608473239794e-08 
-2.170482579097896e-06 
-1.431015755109927e-06 
-3.58686062285486e-07 
-3.783186730368883e-07 
4.091005368068614e-07 
1.895650809929391e-06 
1.947630693515968e-06 
9.314206809903656e-08 
4.16061210352076e-07 
4.726379482982267e-07 
-2.490353834772011e-07 
6.424753354499439e-07 
-1.633178811225156e-06 
-7.821758826616302e-07 
4.338567672369513e-07 
-7.200268829079763e-07 
2.856207675483131e-06 
2.852504166052239e-06 
2.343588264181983e-06 
1.943733056036271e-06 
4.189393356328974e-06 
3.832184410506601e-06 
3.560731889571504e-06 
2.03783518266297e-06 
2.888734967484745e-06 
6.291033730657273e-07 
-1.542504161367954e-06 
-5.048257465771473e-07 
9.803738548232254e-07 
7.402388175576228e-07 
1.709968539218783e-06 
2.450663802303527e-06 
2.377623262474425e-06 
7.522938781544315e-07 
3.816913412951516e-07 
3.583085674627988e-07 
4.789856384146682e-07 
1.396758104335384e-06 
-3.962692499848738e-07 
9.97402729322082e-08 
-6.367261773473452e-07 
-1.803062732368907e-07 
2.994396042015819e-06 
3.798995054448415e-06 
3.630986922414437e-06 
3.452896167919534e-06 
5.134636145051114e-06 
3.749294974966896e-06 
4.183302835676876e-06 
2.611086521610216e-06 
2.877892507920977e-06 
1.231555302448342e-06 
-1.151216252204782e-06 
-8.494172363468239e-08 
1.49200062758394e-06 
1.077035634972835e-06 
2.535619723221872e-06 
3.264571806220051e-06 
2.583303375392376e-06 
1.021733868882449e-06 
5.645987887749192e-07 
6.243887601000643e-07 
8.227770145372484e-07 
1.922184317970063e-06 
2.805569194682579e-07 
4.793761797523731e-07 
-2.020046547209531e-07 
-3.055621258239241e-07 
3.156320034494593e-06 
3.689168098401225e-06 
2.770204380304521e-06 
3.023889480384608e-06 
5.176067408442281e-06 
4.045627638478582e-06 
3.985508800624152e-06 
2.832368382093158e-06 
2.928974339922859e-06 
1.07625294402632e-06 
-9.015277470489862e-07 
-1.017025128792362e-07 
1.222650467832602e-06 
9.24869053255893e-07 
2.240563613465945e-06 
2.822514454818806e-06 
2.357406183719952e-06 
1.307176906566131e-06 
1.366162004058501e-06 
1.551773223595009e-06 
7.295482636710152e-07 
1.667929164005725e-06 
-5.36713848383161e-08 
1.832865400960139e-07 
-4.89520124725768e-07 
-6.272984620829625e-07 
3.421351050355983e-06 
3.506399423912128e-06 
2.745908362597317e-06 
3.462462969955171e-06 
5.454929029630261e-06 
5.055633852554258e-06 
5.208239959342934e-06 
2.974222383902733e-06 
3.325702068506381e-06 
1.358557453156368e-06 
-6.564520033309996e-07 
2.216730976878431e-07 
1.692721228896738e-06 
1.600646758777387e-06 
2.54187770263352e-06 
3.392869941710863e-06 
2.516366772873204e-06 
4.768609920557432e-07 
-1.923639843642137e-07 
-5.614350987548049e-09 
9.287583587192862e-08 
1.561103638079456e-06 
4.447995343332058e-07 
1.075107043507995e-06 
-8.229696047471778e-07 
3.356347536327949e-07 
3.065640981252724e-06 
2.760913830636136e-06 
2.405392854212441e-06 
2.752806931650914e-06 
4.532636839102969e-06 
4.271926860529968e-06 
3.715978808553653e-06 
2.40121992935182e-06 
2.932578074734512e-06 
1.169283768968471e-06 
-1.249868768901387e-06 
-2.241776356594951e-07 
1.191677100661694e-06 
1.441725688006121e-06 
2.101936014939109e-06 
3.167828837251461e-06 
2.463333479954016e-06 
5.536756372683086e-07 
3.055824646753514e-07 
4.490816352065067e-07 
3.435100747876675e-07 
1.485917528767201e-06 
3.812501271381998e-07 
3.787389495623731e-07 
-4.88922443935179e-07 
5.224190358075085e-08 
3.905018000226044e-06 
2.981358658581512e-06 
2.22209388299522e-06 
2.606768718663326e-06 
4.87768320741182e-06 
3.923001599975363e-06 
3.924109483177122e-06 
2.114637344432463e-06 
2.780513585346637e-06 
6.75191034150328e-07 
-2.005035756596638e-06 
-9.595617228269724e-07 
7.86924099909211e-07 
6.793587880621025e-07 
1.971700284918076e-06 
2.693957828850317e-06 
1.89726140164422e-06 
4.311618723609904e-07 
-8.551016171199631e-07 
-6.786980932918792e-07 
-1.408891170601893e-07 
1.023528050094633e-06 
1.317889658680443e-07 
2.667759782638961e-07 
7.178468322259276e-08 
1.409062696258064e-07 
3.496419300652031e-06 
3.455122232717559e-06 
2.98704907974536e-06 
2.407520567854712e-06 
4.398462639345893e-06 
3.837184998699664e-06 
3.787929030782615e-06 
1.900571432291368e-06 
2.497098817491205e-06 
4.920590218814646e-07 
-2.1643826495556e-06 
-1.139768198548674e-06 
6.484878372078342e-07 
5.357650496475033e-07 
1.229969052523574e-06 
1.952793629984612e-06 
1.734331756595696e-06 
6.086170130584207e-07 
3.984359580616732e-07 
2.588603989189991e-07 
2.036207905445671e-07 
9.542256407711464e-07 
-4.777816992136748e-08 
1.203260199953106e-08 
-2.458361160658644e-07 
1.412586276933587e-06 
3.784513003005614e-06 
3.801671022603949e-06 
2.905684836085624e-06 
2.394596374750133e-06 
4.234707020301235e-06 
4.644999222411552e-06 
3.855806247868501e-06 
1.403284623001411e-06 
2.02243472177032e-06 
1.74236498052588e-07 
-2.466435032964751e-06 
-2.017267972215206e-06 
-1.84698474346424e-07 
3.069859106730955e-07 
9.269758484990047e-07 
1.116950200097701e-06 
9.081439192193801e-07 
-2.339344940831607e-07 
-5.40270707125072e-07 
-1.866424299545954e-07 
-4.031644210437587e-07 
-7.374509326516448e-08 
-3.337985969306532e-07 
-1.776414829081588e-10 
-9.183240446831791e-07 
4.611477586197467e-07 
3.99231522123351e-06 
3.709057958984568e-06 
2.732561918537222e-06 
2.412882003562794e-06 
4.387664993179174e-06 
4.245405845316878e-06 
3.821409332819349e-06 
1.72119557958184e-06 
2.804460929292863e-06 
3.475769119542036e-07 
-2.333840675224306e-06 
-2.026834520708791e-06 
-2.129246363644525e-07 
1.510935451185224e-07 
1.322492835231515e-06 
1.655249268951815e-06 
1.341305704579767e-06 
1.03939072487823e-07 
-2.778258131208617e-07 
-4.363617957592729e-09 
5.951833702013789e-08 
4.363204521135572e-07 
-6.422735938121847e-07 
4.245153707180656e-08 
-4.382111125105123e-07 
1.26199902769952e-06 
2.991890063693384e-06 
3.369466203939026e-06 
3.211980112614591e-06 
2.206056742290967e-06 
4.471209305107561e-06 
4.040982280409813e-06 
4.29346381619715e-06 
1.905872782129982e-06 
2.594064540289151e-06 
2.304691722201217e-07 
-2.071825541699437e-06 
-1.7126399392225e-06 
3.787961649798565e-07 
6.432160687950342e-07 
7.092494901094806e-07 
9.527823690226983e-07 
4.94294746772661e-07 
-5.804508502065104e-07 
-6.765388265145617e-07 
-4.755355365333897e-07 
-9.156199879107011e-07 
-1.426919640693276e-07 
-5.107446268755571e-07 
7.889058902775751e-08 
-7.093417537682264e-07 
1.07682163841607e-06 
3.055558410836704e-06 
3.205463368064954e-06 
2.731408963148063e-06 
2.907427593699207e-06 
4.422760519601705e-06 
4.226822890704322e-06 
4.278040242832287e-06 
2.252903989491704e-06 
2.637981256605906e-06 
4.953776922551404e-07 
-1.604535934673189e-06 
-1.072738550685538e-06 
6.161848870547655e-08 
5.793275297826252e-07 
8.808395489176871e-07 
1.13415645580266e-06 
5.769128139146564e-07 
-6.332395973580261e-07 
-5.964533707131527e-07 
-6.374123150872107e-07 
-6.907763343350641e-07 
8.28612673790085e-08 
-3.255333316624296e-07 
6.269355626491941e-07 
-2.099621819605887e-07 
1.113993413665998e-06 
2.360044940933271e-06 
3.505955675209656e-06 
2.713186381693751e-06 
3.13399661691178e-06 
4.52829290091682e-06 
3.761441810630441e-06 
3.841563656664888e-06 
2.325120894623324e-06 
2.863554430015955e-06 
4.702624017369399e-07 
-1.876293787659382e-06 
-1.217069726615983e-06 
5.985273950565657e-07 
7.094051971918972e-07 
8.558905886699792e-07 
9.14961705819202e-07 
6.642668729005736e-07 
6.624616933578281e-07 
9.563900151305419e-07 
9.996695138944039e-07 
4.211471403116065e-07 
1.480133140312737e-08 
-2.975736818202949e-07 
3.792535465252144e-07 
-1.200021799914021e-06 
5.747572531609682e-07 
2.157037152108832e-06 
2.413617200712727e-06 
2.136715205554343e-06 
2.402967896383627e-06 
4.261339696947691e-06 
4.001289516336107e-06 
3.697842703633061e-06 
2.177882441931426e-06 
2.556853652016387e-06 
-6.566087667481529e-09 
-2.204188765131316e-06 
-1.314007741675148e-06 
1.853594867753893e-07 
7.460680752329022e-07 
1.093800611186265e-06 
1.295761494847259e-06 
2.751816194023746e-07 
-1.04017563420313e-06 
-1.632734479190171e-06 
-1.331354600644726e-06 
-1.558288033090737e-06 
-3.393021161570581e-07 
-9.024412534998982e-07 
4.203685654668894e-08 
-1.584266414325343e-06 
1.191297805874763e-06 
1.939937473345767e-06 
2.235453208295086e-06 
2.054306575531842e-06 
2.13572894265005e-06 
4.230235963816471e-06 
4.053607973104761e-06 
3.203072178724837e-06 
1.478682587584992e-06 
2.613469411700889e-06 
6.556136984306792e-07 
-1.988176171441155e-06 
-1.199384497563596e-06 
3.730191547367819e-07 
8.731023702973565e-07 
1.546510824149369e-06 
1.452133627940139e-06 
8.079033295489755e-08 
-8.273235895653391e-07 
-2.329313677745788e-07 
-1.895401056107307e-07 
-8.010521502523379e-07 
-2.861358464558269e-07 
-6.510596280774067e-07 
4.810949677214808e-08 
-1.088953521188119e-06 
2.618590355379125e-07 
2.906814778914313e-06 
2.69148175941167e-06 
1.956099890634074e-06 
2.007824859409397e-06 
3.651276954380671e-06 
3.371740872866783e-06 
3.461458755069635e-06 
2.107519185659439e-06 
2.768866483698274e-06 
9.683735829291615e-07 
-1.752720051302333e-06 
-1.853973206103379e-06 
3.513546106736001e-07 
4.391763038244961e-07 
1.097909200955517e-06 
1.487018322737221e-06 
4.197768673257903e-08 
-1.343775494373232e-06 
-8.588754618572279e-07 
-8.539929251698315e-07 
-1.550846818134953e-06 
-3.001413979355257e-07 
-7.383688679496355e-07 
-6.81304087829257e-08 
-1.522651841656249e-06 
2.114780579212434e-07 
3.702153470773094e-06 
3.392971508584384e-06 
1.957479650850346e-06 
1.483637159859545e-06 
3.188817794514967e-06 
3.867498007522064e-06 
3.760479648767885e-06 
2.086956042477395e-06 
2.969100001802596e-06 
7.256911317989501e-07 
-2.034996875779249e-06 
-2.069212239889258e-06 
3.510070338641445e-07 
7.855961817343396e-07 
1.422058069231847e-06 
1.445475000278439e-06 
5.467093117259819e-07 
-1.174346244190329e-06 
-1.208518323763914e-06 
-1.233268237921939e-06 
-1.392764362934919e-06 
-2.685304167961369e-07 
-5.739144158751845e-07 
3.21186931007847e-07 
-1.084285846015662e-06 
4.287328218215883e-07 
3.369835710074495e-06 
2.592124876738602e-06 
1.592912558150089e-06 
1.360669726888998e-06 
2.421324314221523e-06 
3.162533739282433e-06 
3.244092225406156e-06 
1.746941122242261e-06 
2.385827610133761e-06 
4.160956694790837e-07 
-2.471060122551264e-06 
-2.111564151340836e-06 
-1.284232157938207e-07 
3.543250662045342e-07 
1.378781448864767e-06 
1.219881555422579e-06 
8.296883901185113e-08 
-8.564305763043219e-07 
-8.970363934271437e-07 
-7.411573042751878e-07 
-7.271451009829869e-07 
-3.057053248998271e-07 
-8.302604700903304e-07 
-1.362758317927206e-07 
-1.875548021903288e-07 
1.994128791923182e-06 
3.310687165993491e-06 
2.559247618392541e-06 
1.115327136153923e-06 
1.06345724314518e-06 
3.716066702614538e-06 
3.233913120637029e-06 
3.363813142040069e-06 
1.588252678940981e-06 
2.356435463412001e-06 
6.386903943982245e-07 
-2.232296445181317e-06 
-1.32485573576408e-06 
1.458441924703479e-07 
6.800609685997715e-07 
1.463242695137892e-06 
1.573012505586813e-06 
5.561274626589374e-07 
-2.423223612859653e-07 
3.110151018157827e-07 
4.49472002925003e-07 
-1.188704546442452e-07 
-2.004065217902601e-09 
-3.498141639760943e-07 
9.126716346288953e-08 
7.332759944916937e-07 
1.022787464413376e-06 
3.157368143567787e-06 
3.237059426364824e-06 
1.33743533192014e-06 
7.366017865413323e-07 
2.659316732462964e-06 
2.890131258803031e-06 
3.121680404006682e-06 
9.83656413853971e-07 
1.281368831571456e-06 
4.293789387737686e-07 
-2.579417414907062e-06 
-2.149729336232716e-06 
-3.946653694538477e-07 
1.519648694884927e-07 
8.029971875552283e-07 
7.716104282060565e-07 
-1.179174722268869e-07 
-7.783808260112015e-07 
-1.525944918272686e-06 
-1.247119498144659e-06 
-1.119410735556621e-06 
-4.707032099372403e-07 
-7.772353015845667e-07 
-2.203182733053046e-07 
6.523965918330682e-07 
1.125306310862457e-06 
3.282365201399927e-06 
2.915322000882567e-06 
1.205768117606172e-06 
1.066420579787808e-06 
2.670675661750211e-06 
2.717386853070427e-06 
2.963593787198203e-06 
9.527776828484942e-07 
1.778542516449188e-06 
3.889341774039686e-07 
-2.399236628577777e-06 
-1.720350913553615e-06 
-1.337808502372722e-07 
3.248943137401682e-08 
5.954082062098214e-07 
1.186280189748469e-06 
6.949896434395526e-07 
1.570551505591806e-07 
-4.556891360992516e-08 
1.176354226945011e-07 
-1.349090792264454e-07 
-1.783870490520143e-07 
-1.24612612517978e-06 
-5.348397388617268e-07 
5.340633625444112e-07 
9.727008153603673e-07 
3.586097360946451e-06 
2.572845256253412e-06 
9.31446385436883e-07 
9.0010362351749e-07 
2.687650731044013e-06 
3.517130737722203e-06 
3.392072661874691e-06 
1.334930644759468e-06 
1.775813291979652e-06 
-3.374146905145076e-08 
-2.895290119343444e-06 
-2.138453032306901e-06 
-5.210325302135507e-07 
-1.365627148897613e-07 
3.162189295617328e-07 
6.091714532513559e-07 
4.098378249139922e-08 
-1.096822445686795e-06 
-1.012478468605745e-06 
-1.043130414643355e-06 
-1.022147117219678e-06 
-9.007542722811802e-07 
-1.521249274767124e-06 
-6.497022702810436e-07 
-1.576202304887814e-07 
1.471786568034577e-06 
3.871268539913825e-06 
2.894053780933848e-06 
1.980049825046595e-06 
1.828316138973496e-06 
3.852706519732661e-06 
3.44474695977406e-06 
3.510754467356938e-06 
1.263531260132437e-06 
1.786192688152164e-06 
5.235416496955273e-07 
-2.867335969166468e-06 
-2.102969316185587e-06 
-4.088665003229072e-07 
-4.737985020936296e-09 
6.207517460553034e-07 
9.278709760860782e-07 
3.027570269077327e-07 
-5.726153739475081e-07 
-7.923755716025186e-07 
-7.400749858813183e-07 
-8.949961290445513e-07 
-5.070749938450731e-07 
-1.172826673360326e-06 
-4.887274382619052e-07 
-2.393016913307627e-07 
6.09004575701233e-07 
4.036020166143502e-06 
3.817173320609735e-06 
2.629513550260628e-06 
2.401548863266663e-06 
3.508513120178013e-06 
3.834310033224069e-06 
3.977130202298816e-06 
1.98364553177095e-06 
2.287721731158186e-06 
8.398974313340013e-07 
-2.534886015833346e-06 
-1.449295682552819e-06 
3.676381654452185e-07 
7.305765033614301e-07 
9.913707822208635e-07 
1.299397400433044e-06 
3.677391939072615e-07 
-7.276394619621025e-07 
-6.16204094873084e-07 
-1.640318305102556e-07 
-5.572308511548332e-07 
-4.049294576034352e-07 
-8.075838363445009e-07 
-2.662083494287828e-07 
1.011120791848449e-06 
1.540089017449609e-06 
3.616169708836739e-06 
3.962335086757078e-06 
2.673981939708965e-06 
1.906757323080683e-06 
3.780583169767136e-06 
4.262401937139382e-06 
3.964730205083356e-06 
2.061769677698925e-06 
2.444239235241042e-06 
9.194787974854101e-07 
-2.497667484317526e-06 
-1.467396533017613e-06 
3.843669590429625e-07 
1.095019182424824e-06 
1.504522900231656e-06 
1.483553743528616e-06 
8.083720212172123e-07 
-2.168571848848338e-07 
-4.007722831670229e-07 
-2.70542249842196e-07 
-3.854169872848497e-07 
-7.337986734736801e-08 
-4.117557274091856e-07 
2.322652277151336e-08 
3.404803981512519e-07 
1.472559091728981e-06 
3.361480594432312e-06 
3.972906188682557e-06 
2.156710237735686e-06 
1.897416222337611e-06 
3.736084390090675e-06 
3.181031345681864e-06 
3.352535411473178e-06 
2.157909966307246e-06 
2.518163143415732e-06 
6.424208946593484e-07 
-2.783982048367555e-06 
-2.297498804537589e-06 
-4.457676013665346e-07 
5.132603094932733e-07 
1.073166322106148e-06 
1.348398393370242e-06 
1.316028581679184e-06 
-4.676772854990169e-07 
-9.881932130109307e-07 
-8.871258274819307e-07 
-7.760074032058645e-07 
-1.203218510543391e-07 
-9.824106706136005e-07 
-3.607094006517065e-07 
-2.440390680885613e-08 
8.26496198405525e-07 
3.120707941706821e-06 
3.038034805318375e-06 
1.537093677666727e-06 
2.351887188355343e-06 
3.416356864483263e-06 
3.0976016424577e-06 
3.447419126766278e-06 
1.959133436648767e-06 
2.352311051232646e-06 
2.811376062433667e-07 
-2.531860343737479e-06 
-1.756570565829743e-06 
-2.028066100500128e-07 
7.792707711778231e-07 
1.550982100095396e-06 
1.842186830174066e-06 
1.727059125505611e-06 
8.418653317863294e-07 
8.570914182216402e-07 
1.024254022198536e-06 
7.177127317980499e-07 
5.740636444147887e-07 
-8.028971235746907e-07 
-4.803520333067375e-07 
3.994595929338653e-07 
8.413847882100286e-07 
3.437508452515772e-06 
4.138830811400488e-06 
2.541383775247153e-06 
2.34838920693366e-06 
2.843404682328665e-06 
2.891521452017184e-06 
3.135239869731451e-06 
1.487264401756669e-06 
2.410210467261935e-06 
1.244992594908778e-07 
-2.989219777177649e-06 
-2.249053638869264e-06 
-6.104406472203966e-07 
-1.58437078915189e-07 
5.924349780492496e-07 
1.545323276891328e-06 
1.066967437546583e-06 
-8.42603448955507e-07 
-1.441242111396891e-06 
-1.286769842384481e-06 
-9.045252100681176e-07 
2.376816810416721e-07 
-1.128991844004354e-06 
-8.048272265000783e-07 
-1.351021316620464e-07 
5.305413802397823e-07 
3.45463281088579e-06 
3.418625085338337e-06 
1.526355695769494e-06 
1.674158771294336e-06 
3.323545118287135e-06 
2.462350447678431e-06 
3.006598603142951e-06 
1.401073282835107e-06 
2.326706298068405e-06 
-3.347073288653527e-07 
-3.348350495889068e-06 
-2.428717507753923e-06 
-9.503419183958623e-07 
6.095231248223519e-07 
8.32100682406482e-07 
1.829039515873363e-06 
1.422125513413507e-06 
6.841119176828769e-07 
3.066770539809646e-07 
3.985286555784718e-07 
1.882475496221526e-07 
1.454925480352755e-07 
-1.326597877654137e-06 
-1.122336917747361e-06 
-1.988620355290661e-06 
-3.980699976876418e-07 
3.139497355815874e-06 
3.271813141073289e-06 
6.569061308155507e-07 
7.081285946088644e-07 
2.699319383230651e-06 
2.488067440276107e-06 
2.618697854344702e-06 
9.688045214781043e-07 
2.000605327564318e-06 
-3.474802510109956e-07 
-3.084320304626329e-06 
-1.861588927118619e-06 
-7.196455789805658e-07 
-4.080162468552617e-08 
9.130495769891824e-07 
1.971318031821524e-06 
1.694877101332139e-06 
-7.805455083181201e-07 
-1.942346543248556e-06 
-1.652874980842954e-06 
-1.026347131323121e-06 
4.470359054703978e-07 
-1.298514327774517e-06 
-1.026016004896552e-06 
-2.590140444003936e-06 
-9.611828654286582e-09 
2.534661846320668e-06 
2.978301586280669e-06 
4.203859040847159e-07 
4.185121392482518e-07 
2.120325431692617e-06 
1.296887048702728e-06 
2.14873856319971e-06 
7.707958298143513e-07 
1.995878729723433e-06 
-4.839234603247555e-07 
-3.106838292174513e-06 
-2.018477434503951e-06 
-6.524119875325772e-07 
3.748961641856493e-07 
9.049971086275579e-07 
1.566695117669658e-06 
1.627965439760838e-06 
-1.854150527745127e-08 
-9.036259589684779e-07 
-7.161607560889387e-07 
-1.970081092963536e-07 
3.551178138165914e-07 
-1.25741574096675e-06 
-1.194638107925878e-06 
-2.233535729355735e-06 
-9.111451898595685e-07 
2.061026999858299e-06 
2.800982502843512e-06 
9.519365835686073e-07 
2.477280104209795e-07 
2.675694711292362e-06 
1.441478787411563e-06 
1.934255165860063e-06 
4.912970389645163e-07 
1.702881947923277e-06 
-6.416180879282401e-07 
-3.177037657444756e-06 
-1.890214029657735e-06 
1.02221535523236e-07 
4.171478217067285e-07 
1.062657933758692e-06 
1.666974215930691e-06 
2.30107034611468e-06 
8.68673489033971e-07 
-2.448407527340107e-07 
-1.440481282090614e-07 
3.050331257563486e-07 
8.973893987405574e-07 
-8.017657480784425e-07 
-1.140477853756012e-06 
-1.798433074033786e-06 
-1.781056243580359e-07 
2.751203183327532e-06 
2.664553952761936e-06 
5.767835047812079e-07 
4.500670338204887e-07 
1.782493634772446e-06 
2.000910706343179e-06 
1.501917668233919e-06 
1.116417135112076e-07 
1.309959077286176e-06 
-7.817690069762195e-07 
-3.238830681642898e-06 
-1.907728180408614e-06 
-4.000365112673678e-07 
1.947327435372863e-07 
1.052205226558069e-06 
2.295268456603693e-06 
2.102238399149756e-06 
5.648602253924823e-07 
-2.251375442455758e-07 
2.746264340696192e-08 
3.282937926732169e-07 
8.595854991020547e-07 
-1.013640688250789e-06 
-1.217357960458259e-06 
-2.560429788517038e-06 
-8.96626443375671e-07 
1.628800293445507e-06 
1.828308131699273e-06 
-6.086656635086086e-07 
-8.454124102870854e-07 
1.599241187026724e-06 
1.419072024856572e-06 
1.247577040242626e-06 
-2.932011933204954e-07 
1.647503950558902e-06 
-6.832675572159123e-07 
-2.572911588685598e-06 
-1.392460534447012e-06 
-2.593680318564093e-07 
6.239522424265373e-08 
1.105582279101895e-06 
1.793111793755369e-06 
1.936684405405754e-06 
6.977519343200358e-07 
-2.351695408578438e-07 
-9.162256853699085e-08 
3.837012616751042e-07 
9.278753451034467e-07 
-9.769344245195487e-07 
-1.463326290385975e-06 
-2.994744723386709e-06 
-2.088827107741535e-06 
1.006285243331666e-06 
1.344865810697515e-06 
4.927703552152361e-07 
-7.090695083135818e-07 
1.611145450981528e-06 
1.275252747666333e-06 
1.514315924970699e-06 
4.423855759751823e-07 
1.744161189643408e-06 
-7.643204381289728e-07 
-2.751904173199436e-06 
-1.186835108781295e-06 
-2.868776610122506e-07 
1.386000646756372e-07 
1.121387693851735e-06 
2.366325071941106e-06 
2.506389072320128e-06 
1.305019206304659e-06 
2.51195072053118e-07 
2.109231755740106e-07 
7.044773447938488e-07 
7.7595876772248e-07 
-9.710908961627395e-07 
-1.021405567632226e-06 
-2.629273635455116e-06 
-8.52910649995553e-07 
1.289570488958755e-06 
1.815686213376116e-06 
3.720416719707612e-07 
-8.512981009502446e-07 
1.604318407261974e-06 
8.966101088934924e-07 
1.168404832608056e-06 
5.809411575560473e-07 
2.055861805457866e-06 
-3.39348382429118e-07 
-2.869715872734637e-06 
-1.391818398250911e-06 
-4.66030664630591e-07 
-2.235361699253491e-07 
1.132267192907563e-06 
2.20693444532126e-06 
2.13264608462644e-06 
1.29138858674403e-06 
-5.167891414905509e-07 
-4.750335965590502e-07 
6.187330924110995e-07 
1.4365684767721e-06 
-4.716207778616675e-07 
-9.085183757768513e-07 
-1.613418656525896e-06 
-1.750820777283848e-06 
4.216662267702132e-07 
1.715597690035999e-06 
-8.0111827744276e-07 
-8.284416916991808e-07 
1.422830000231169e-06 
1.183843978851524e-06 
1.223689380759561e-06 
-1.242078508942037e-07 
1.616108744550387e-06 
-5.237376586418799e-07 
-2.936702587135875e-06 
-1.549380903046958e-06 
-9.563780358827291e-07 
-4.368337346009165e-07 
7.757099067048903e-07 
2.052288992944168e-06 
2.062438766890658e-06 
1.49099441838512e-06 
4.107594676312437e-07 
4.814666153630653e-07 
1.01467384792677e-06 
8.561144112745026e-07 
-7.422806928643439e-07 
-1.027162272881762e-06 
-1.392347009729261e-06 
-1.238686504106273e-06 
1.643258969330282e-06 
1.95718726720744e-06 
4.057728602505352e-07 
1.119200657298648e-07 
1.160311694843204e-06 
1.854843149579994e-06 
1.214680404385787e-06 
4.959983409159746e-07 
2.205144340217458e-06 
-4.178342443572574e-07 
-2.74246539845335e-06 
-1.347979095106901e-06 
1.564019268105409e-07 
6.190375777188118e-08 
1.173081178889715e-06 
2.654946179198244e-06 
2.378999033882638e-06 
4.749164204925658e-07 
-4.313240236902486e-07 
-4.158595716820401e-07 
2.733870512415303e-07 
1.352645386302221e-06 
-2.64454981346989e-07 
-6.240015787879098e-07 
-3.993313794324505e-07 
-1.617410060297185e-06 
2.042900128439844e-06 
2.541738939385395e-06 
-8.905042150835801e-08 
-7.621548545575866e-07 
1.380351392343839e-06 
2.08636422606747e-06 
1.460260564775616e-06 
9.647451905206865e-08 
2.441293125618513e-06 
-1.815792446935845e-07 
-2.074570295081142e-06 
-1.124024487196531e-06 
5.090298459847132e-08 
3.358594482686219e-07 
1.496101338731112e-06 
2.411257317963516e-06 
2.207962965222959e-06 
7.469635434398791e-07 
-7.371620391991142e-07 
-6.395812866768893e-07 
4.949669509082517e-07 
1.483400193084451e-06 
-1.138628999039075e-07 
-1.138383618655198e-06 
-4.615181947078748e-07 
-9.870665823905677e-07 
1.763638723863405e-06 
2.893411996000749e-06 
7.925969013486012e-07 
-1.033997693577351e-08 
2.22937319507634e-06 
2.133084129372892e-06 
2.06704141266883e-06 
1.074487725331762e-06 
2.662689887443963e-06 
9.009257470124043e-07 
-1.564114558638235e-06 
-1.112010127155691e-06 
3.666350427986454e-07 
8.286332813186399e-07 
1.921397248246015e-06 
2.728791314296598e-06 
2.793113366794482e-06 
7.489231573975899e-07 
3.168279643214859e-08 
3.748286262241068e-07 
8.607328679727433e-07 
1.902817088373962e-06 
1.18166400347823e-07 
-4.757312129466234e-07 
-1.829158855663178e-06 
-1.19482764851297e-06 
1.804858515084985e-06 
2.370774661833232e-06 
9.59722993880866e-07 
-2.055092921903863e-07 
1.814603233439199e-06 
1.278656804881882e-06 
1.279126053665526e-06 
3.206011196001121e-07 
2.30857634130339e-06 
6.211474042916727e-07 
-1.926749604825433e-06 
-9.488267939214055e-07 
4.68305602536501e-07 
1.038211682436404e-06 
1.994167893883426e-06 
2.937378210994489e-06 
3.23260649751024e-06 
1.34779728167456e-06 
7.013955727646952e-07 
8.940847777348753e-07 
1.194073752686573e-06 
2.268408209744921e-06 
4.582083432532792e-07 
-5.735133399557504e-07 
-1.673671441377408e-06 
-2.026815761684955e-06 
1.133894833380236e-06 
1.68540047337825e-06 
6.605585798995257e-07 
-3.179599917539819e-07 
2.585677051916361e-06 
2.217201904401e-06 
1.253512080349326e-06 
6.031640037259992e-07 
2.53539383384361e-06 
4.98397051682623e-07 
-1.292296051445354e-06 
6.358572137263202e-08 
1.158910084094499e-06 
1.767725386814234e-06 
2.401510186558683e-06 
2.64646537322155e-06 
2.791627036026814e-06 
1.416472442731872e-06 
4.881196777130144e-07 
7.515727411992855e-07 
1.348014589051431e-06 
2.115436829532868e-06 
1.049392139518416e-06 
7.329993018206016e-08 
-1.194587733359198e-06 
-1.93305365694913e-06 
1.453823212462739e-06 
1.704371297741662e-06 
8.893819813349323e-07 
7.133875447121442e-08 
2.500751486528983e-06 
1.655385382952506e-06 
1.876427894763163e-06 
1.278232483265919e-06 
2.903959437048167e-06 
1.06784446601883e-06 
-1.106707558171407e-06 
1.483064828971054e-07 
1.599911592398493e-06 
2.13489416656868e-06 
2.798251126633648e-06 
3.061380345602707e-06 
3.234602073380162e-06 
1.026871401638293e-06 
-3.832584667591872e-07 
-1.255205076781616e-07 
1.13244421832785e-06 
2.833337342428772e-06 
1.340045171399559e-06 
1.276695250971877e-07 
-2.9772547251205e-06 
-2.181732499061811e-06 
1.800598348207895e-06 
1.737776927341372e-06 
7.144829876700095e-07 
-2.728250783425948e-07 
2.583756004931736e-06 
1.393826959418615e-06 
1.324116368390096e-06 
1.106405019261754e-06 
2.980679615814126e-06 
1.416526423694743e-06 
-1.306494471982648e-06 
6.284458547775147e-08 
9.547576797329474e-07 
1.275582973069382e-06 
2.627731276021219e-06 
3.07091671398643e-06 
2.741809164656113e-06 
3.786217373833499e-07 
-3.971498263298964e-07 
-9.018701761507501e-08 
3.368995671843137e-07 
2.199798215484081e-06 
9.160324588429965e-07 
-6.688414840124315e-09 
-1.864581511964346e-06 
-1.748111431704025e-06 
8.844329246505092e-07 
9.999054303575118e-07 
2.419137262640742e-07 
-5.550638857123028e-07 
2.068599250117857e-06 
8.830466509565606e-07 
1.05252180924423e-06 
3.04452177900276e-07 
2.184109529574557e-06 
8.580444824171168e-07 
-1.3199148191918e-06 
-6.730747848326644e-07 
5.616194427276907e-07 
7.743430747138185e-07 
1.902420163637112e-06 
2.235778549433101e-06 
2.162375451651123e-06 
-3.440901210163212e-07 
-4.462014770873094e-07 
-2.136343582908721e-07 
-2.637214811616062e-07 
1.266928081676358e-06 
1.794129959060623e-07 
-8.112070785669277e-07 
-3.756472306211565e-06 
-6.914761639929468e-07 
1.587334700805536e-06 
1.723420701376653e-06 
8.699342337769509e-07 
6.616118849834436e-07 
1.73635353159528e-06 
6.708188749256644e-07 
2.865127104932278e-07 
-2.462901270957843e-07 
2.118490801884449e-06 
5.064884877765897e-07 
-1.779616402394743e-06 
-7.95121499950502e-07 
1.077982645253068e-06 
7.129760621047345e-07 
1.544035047430622e-06 
2.379778989877614e-06 
2.310458555203106e-06 
6.841910724007225e-07 
-4.950705318698546e-09 
1.182682213380892e-07 
5.273864570266415e-07 
1.29168358898445e-06 
-2.438512516476696e-07 
-8.559777747932849e-07 
-2.714098246957653e-06 
-1.551941750761982e-06 
5.635743108588365e-07 
8.286870187023131e-07 
1.993647410757091e-07 
-4.759086309283627e-08 
1.41526102818025e-06 
5.626261716037086e-07 
9.737490166666378e-07 
2.4089300117651e-07 
2.337019849390602e-06 
1.171499886521276e-07 
-2.118880234440253e-06 
-1.329399941437158e-06 
5.529364875056459e-08 
2.847945257470615e-07 
1.059497648756997e-06 
1.53727370407774e-06 
1.402104145383087e-06 
-7.200350707190052e-08 
-1.457424030017812e-06 
-1.222483362530413e-06 
-4.585408727442868e-07 
3.704724321937979e-07 
-5.76496617186786e-07 
-1.02277886160648e-06 
-2.823040692204961e-06 
-4.345262766366607e-08 
1.027558398023412e-06 
1.348560745885844e-06 
6.889764889280444e-07 
5.469782842045574e-07 
2.436507259632773e-06 
8.359156066094801e-07 
1.563600697476436e-06 
4.228764239142553e-07 
2.419791243032102e-06 
6.287350778360846e-07 
-1.547524534136226e-06 
-1.045413157049895e-06 
3.350801108582209e-08 
4.162633013604892e-07 
1.166762761473475e-06 
1.921713667766202e-06 
1.430896667725704e-06 
5.680588901103155e-08 
-6.301499887512197e-07 
-5.365721045568834e-07 
-2.450719113530882e-07 
8.078566862683599e-07 
-3.457811056229105e-07 
-8.749683490603888e-07 
-2.105239675394817e-06 
-7.60670941214195e-07 
1.494869060899919e-06 
2.118247089723552e-06 
1.351565465614241e-06 
5.816199698609438e-07 
2.552351054886364e-06 
1.438541872199078e-06 
1.215333242274078e-06 
6.04851721176124e-07 
2.153319282498787e-06 
8.753038382800664e-07 
-2.283131328442878e-06 
-1.80919460019056e-06 
-4.818505285174422e-07 
-5.842787728264939e-08 
7.868018097064521e-07 
1.414357624625787e-06 
1.002753194890682e-06 
3.433297999932875e-08 
-6.844524553387361e-07 
-6.784799046249973e-07 
1.28844528594992e-08 
4.203614564408911e-07 
-7.392772230885926e-07 
-1.032475368155876e-06 
-1.704369329067611e-06 
-2.645651926939439e-08 
2.590376132435758e-06 
1.324337805200871e-06 
5.126840592178216e-07 
6.19473482884856e-07 
2.901307156602859e-06 
1.858407241995543e-06 
2.190208044080388e-06 
1.236993103227111e-06 
2.811439191491093e-06 
1.410775874616772e-06 
-2.009795591733765e-06 
-1.611042890425018e-06 
-4.372178060684293e-07 
-2.500694000637991e-07 
4.103249208136772e-07 
1.29477724146164e-06 
1.009041869806755e-06 
-3.532469200864309e-07 
-4.273466027565967e-07 
-9.220991177030605e-08 
-1.559500753452653e-07 
5.377325452325308e-07 
-8.222136443693605e-07 
-7.94603992718792e-07 
-1.246187979754347e-06 
-8.355401782250262e-07 
2.399074449705404e-06 
2.383839302379663e-06 
9.146072149231794e-07 
1.105733362830433e-06 
3.290179687469032e-06 
2.115862408119283e-06 
2.711169226057846e-06 
1.714790905275201e-06 
2.861551577886298e-06 
9.826818092137499e-07 
-1.35215845952722e-06 
-1.101389359344686e-06 
-9.195472119194285e-08 
3.257435975735473e-07 
5.139570520743452e-07 
1.724155053371677e-06 
1.31689414814716e-06 
-7.371008192883239e-07 
-7.159173395780208e-07 
-3.220633363233048e-07 
-4.865799569363323e-07 
5.222925198104405e-07 
-7.066598512430364e-07 
-2.462197795535299e-07 
-7.176808458347841e-07 
-1.091972093789546e-06 
1.353607722616453e-06 
1.432602409651564e-06 
4.793923682593444e-07 
1.193353291767067e-06 
2.755874511036431e-06 
2.289971506701543e-06 
2.594149875179873e-06 
2.011146570509536e-06 
2.74600167734562e-06 
9.699590284117275e-07 
-2.316218132658141e-06 
-1.718560012679044e-06 
-4.139700362786681e-07 
2.640543032417579e-08 
4.981570713296705e-07 
1.616194823557184e-06 
1.134152336332465e-06 
-6.535944922106716e-07 
-7.078951545171852e-07 
-4.30254659349857e-07 
-5.614555202375258e-07 
5.916539282882802e-07 
-8.652145368236793e-07 
-5.516897105203565e-07 
-4.13624204126024e-07 
-4.138274761655432e-07 
2.160459084809334e-06 
1.759850825407597e-06 
1.331722518504441e-06 
1.370662138800161e-06 
2.945426761804721e-06 
2.471283695064028e-06 
2.497352526507814e-06 
1.998057966882672e-06 
2.444970910752284e-06 
6.551498454193228e-07 
-1.834257844908114e-06 
-1.258207572265659e-06 
-3.289735426373075e-07 
-1.774536903201931e-07 
8.549332257151567e-07 
1.654403439208211e-06 
9.428406818923751e-07 
-9.728559620723093e-07 
-1.275806723569897e-06 
-1.157728670867489e-06 
-1.255836969322945e-06 
3.520242656631469e-07 
-8.857036286756601e-07 
-4.965891701074365e-07 
-2.137063111882045e-06 
-9.711266566699726e-07 
1.580090181882248e-06 
1.874018172518327e-06 
4.857232398965922e-07 
7.856882732347673e-07 
2.73818767400135e-06 
2.296874155913959e-06 
2.598914673745563e-06 
1.668869328625789e-06 
3.015880046705068e-06 
1.175322710885383e-06 
-1.697417283318554e-06 
-1.098609256980036e-06 
4.697958233199004e-07 
8.305032887278374e-07 
1.043520014674846e-06 
1.676861736606571e-06 
1.242402734136194e-06 
-1.461200517332954e-07 
-2.37245487705647e-08 
-9.700374185918956e-08 
-4.637718446067635e-07 
7.840757510370387e-07 
-2.707984238851495e-07 
-2.95061754965588e-07 
-1.559053174283369e-06 
-9.921738448653051e-07 
2.498149515669069e-06 
1.760108176920822e-06 
2.763160907487635e-07 
7.035474378738485e-07 
3.328387512239226e-06 
3.089576534379e-06 
2.807738568393286e-06 
1.473980054353445e-06 
2.80270214506576e-06 
7.904159365698087e-07 
-1.156873904029108e-06 
-8.943372555669666e-07 
3.862079496350792e-07 
5.036085251086333e-07 
1.120723117075111e-06 
2.023091317816103e-06 
1.247895102686764e-06 
1.370910454012038e-07 
-4.023003655023023e-07 
-1.784069911256482e-07 
3.093955352414627e-07 
7.770055463336892e-07 
-3.846970551810367e-07 
-3.508309925596479e-07 
-1.219056295904265e-06 
-6.177434120636418e-07 
1.849889673551955e-06 
1.666158847771988e-06 
6.905391702386846e-08 
8.316572299965908e-07 
3.350141464073823e-06 
2.806709313725527e-06 
2.830733845300851e-06 
1.881622404987766e-06 
2.981504470449944e-06 
1.310190151922961e-06 
-1.174102184351118e-06 
-6.688082550510215e-07 
6.164445295695157e-07 
6.686996964205701e-07 
1.810492621694259e-06 
2.507168606625077e-06 
1.780027151947865e-06 
2.728506710920257e-07 
-6.608951700373476e-07 
-3.049954340657471e-07 
1.339900768220443e-07 
1.259423684795028e-06 
1.666298574490684e-08 
-8.917507024415928e-08 
2.993561191749564e-07 
2.005588639517925e-07 
1.444622471518033e-06 
1.491145324574763e-06 
5.872083316256098e-07 
8.911410995606409e-07 
3.711224166263594e-06 
3.02070123427495e-06 
3.558188319863031e-06 
2.531158459732829e-06 
3.59182138605725e-06 
1.937769053933857e-06 
-8.740219306685082e-07 
-1.452411755388397e-07 
1.007996772440011e-06 
1.232075837080151e-06 
2.073741442746067e-06 
2.658663447023686e-06 
2.398616409461153e-06 
2.070168220681439e-06 
1.247589340955074e-06 
1.196517500401754e-06 
1.439375055845055e-06 
1.582153337888152e-06 
6.509707329133105e-07 
5.989223829103106e-07 
-1.054098052285363e-06 
-3.077337281075285e-07 
1.828997468895581e-06 
1.218002764747498e-06 
1.078623980350592e-06 
1.01703347620621e-06 
4.119922155388561e-06 
3.844279715354106e-06 
3.113822459138429e-06 
2.08489139080201e-06 
3.210088176638561e-06 
1.766054973160736e-06 
-7.511975016086773e-07 
-2.176212615883498e-07 
1.444026452402916e-06 
1.024699607627245e-06 
1.896553491309191e-06 
2.382289672974185e-06 
2.344550717555351e-06 
1.258568900360056e-06 
5.633167627126548e-07 
8.019073596100007e-07 
8.824645730656963e-07 
1.456494345935343e-06 
3.458034306833416e-07 
5.97436405235009e-07 
1.334006696516185e-07 
-6.457658727466251e-07 
2.331266101559265e-06 
2.457635431460408e-06 
8.202742348051268e-07 
1.63903663910997e-06 
4.349255570152499e-06 
4.074347435440082e-06 
3.104313840416533e-06 
2.392144595783274e-06 
3.731211996775019e-06 
2.15405185505406e-06 
-6.411900702178466e-07 
-3.76285825441582e-08 
1.632338388491627e-06 
1.182295884590632e-06 
1.911926657344666e-06 
2.649582938743807e-06 
2.484723189635326e-06 
1.536146742040186e-06 
1.274607569511148e-06 
1.267683202164727e-06 
1.264729266840514e-06 
1.60038968568572e-06 
6.780353974836817e-07 
9.083691411998223e-07 
-1.915913985582827e-07 
-1.051953892170759e-06 
1.92504343811029e-06 
1.480904383718139e-06 
8.523149895937084e-07 
1.10449123327321e-06 
3.788181695682856e-06 
2.740346211493727e-06 
2.563986422749177e-06 
1.821354168262865e-06 
3.138059534268331e-06 
1.531651583212525e-06 
-1.345649775033811e-06 
-3.424981614006409e-07 
1.439002039741271e-06 
1.148174416184319e-06 
1.826176968159258e-06 
2.701133999129739e-06 
2.680350266831346e-06 
1.519577750541787e-06 
6.187800103422132e-07 
6.032653555798309e-07 
7.876007256932682e-07 
1.829487802034311e-06 
5.578255915434587e-07 
5.734905363396296e-07 
-3.743533976051436e-07 
-6.895385783843506e-07 
1.929262114289029e-06 
1.656883922653404e-06 
1.313488480284492e-06 
1.721621682594605e-06 
3.591404614544967e-06 
2.790568298315973e-06 
2.187943862119502e-06 
1.113409062691218e-06 
2.990472515262639e-06 
1.167061400651182e-06 
-1.383162506985204e-06 
-5.611216106153811e-07 
9.872467006662664e-07 
6.636324904487396e-07 
1.199760059448749e-06 
2.162212373602451e-06 
2.029469928919875e-06 
4.67229038281398e-07 
-3.058118350585219e-07 
-2.797358451289673e-07 
-1.711862593782328e-07 
1.116664367294562e-06 
2.309530398011985e-07 
3.387086649461848e-07 
-2.13608881916841e-08 
-7.063096674042411e-07 
2.000014711169716e-06 
2.185001131434869e-06 
1.606053598501565e-06 
9.222380955021284e-07 
3.587905035815197e-06 
2.601262893315466e-06 
2.400831049470166e-06 
1.421081256334763e-06 
3.22942839441788e-06 
1.021782330269659e-06 
-1.766807408845245e-06 
-5.67331986657734e-07 
1.233728604959692e-06 
1.035333963284386e-06 
1.316291663179327e-06 
2.036603499892285e-06 
2.381020083028669e-06 
1.195859989592548e-06 
5.578766978355345e-07 
5.163219102730989e-07 
7.446926062079234e-07 
1.493469143596391e-06 
3.393602740918365e-07 
6.129011936006968e-07 
-1.459371800910406e-06 
4.812834059640702e-08 
2.524033490264977e-06 
2.079867946118213e-06 
1.246958115833965e-06 
1.613041101839344e-06 
3.611549639172211e-06 
2.573444050421287e-06 
2.308454951479677e-06 
9.163737687132209e-07 
2.322870636255707e-06 
7.467768455624862e-07 
-1.829065190754452e-06 
-4.815703927301793e-07 
4.563020877255785e-07 
2.494599264600909e-07 
1.152931066735062e-06 
2.068262208902693e-06 
2.141876174594676e-06 
1.477179854558406e-06 
3.925179002377753e-07 
2.525909840192764e-07 
8.039382733704344e-07 
1.253696567457259e-06 
3.763491086435548e-08 
2.559139061598191e-07 
-1.693559332894336e-07 
-3.223164741226581e-07 
1.996236734382856e-06 
2.025711563278916e-06 
1.74086688337322e-06 
1.420283065446644e-06 
2.984071144192521e-06 
2.074346297619005e-06 
1.766593387485012e-06 
9.12435681731251e-07 
2.003826282089943e-06 
1.148632015141739e-06 
-1.794223420170785e-06 
-7.754639761060447e-07 
5.751889064837215e-07 
7.684111480424953e-07 
1.614725290318112e-06 
2.114798300079357e-06 
2.008038001687199e-06 
6.188489376796617e-07 
-7.240385275986447e-07 
-9.108055331003491e-07 
-8.354876092427026e-08 
1.193217430124764e-06 
1.556815069631775e-07 
2.774566921830059e-07 
-4.856943089170351e-07 
-1.229611792184342e-06 
9.289837012810224e-07 
6.981050206622101e-07 
8.011099440612006e-07 
5.709963065985597e-07 
2.156209405691292e-06 
2.456986544519626e-06 
2.06780675150742e-06 
5.187756118346213e-07 
2.477868083876127e-06 
1.164239202319943e-06 
-1.572246137073051e-06 
-3.041574570265927e-07 
1.084112027142857e-06 
1.156550884395873e-06 
1.417439860058601e-06 
2.41928811014544e-06 
2.482370469244386e-06 
8.784681258759181e-07 
-1.7967465877383e-08 
7.921954224363015e-09 
5.257694030486131e-07 
1.624122236040889e-06 
6.858775557431853e-07 
7.559517492562411e-07 
-7.645294134832174e-07 
-1.028161760978759e-06 
1.522704117706914e-06 
1.625599777360093e-06 
7.363124528946926e-07 
1.450526416136161e-06 
2.645800262113217e-06 
2.351779199753675e-06 
1.466643465457114e-06 
-1.875136235323732e-07 
1.831925521499575e-06 
7.854878014810908e-07 
-1.5569331508116e-06 
-6.224753128765146e-07 
8.695288476379516e-07 
6.378015308784222e-07 
1.438707621257094e-06 
2.108079273215748e-06 
2.245385852836329e-06 
7.513558370740009e-07 
-3.777336154362887e-07 
-4.937907315656171e-07 
5.658831449904511e-07 
1.567387485517845e-06 
5.431508924827679e-07 
2.63229891249382e-07 
-1.262759083357733e-06 
-1.271405995352479e-06 
5.380941292084393e-07 
1.079980276857024e-06 
7.902240230686097e-07 
9.607403196875114e-07 
2.273692686936093e-06 
2.231671539709198e-06 
1.862277677059228e-06 
2.027568256556848e-08 
2.073142186660594e-06 
7.76165211656313e-07 
-1.356074156129193e-06 
1.872705914139027e-08 
1.557251243175311e-06 
8.852097614441049e-07 
1.570356411562511e-06 
2.016508385016381e-06 
1.946304166399614e-06 
-9.89995240949436e-08 
-1.462847713209489e-06 
-1.117219270051755e-06 
-2.716733657557614e-07 
1.057360742842273e-06 
2.091343254668483e-07 
2.013068364335981e-07 
-9.333981427704563e-07 
-8.699548915105966e-08 
1.351608754369958e-06 
1.288035540766347e-06 
4.651325079095131e-07 
-5.494896371825953e-08 
2.649783059657315e-06 
1.722544063049364e-06 
1.397510492866288e-06 
-3.879233376325566e-08 
2.27118405158339e-06 
8.346751808442119e-07 
-1.01032529242042e-06 
-2.127230884983812e-07 
1.17192307399689e-06 
1.292731633701328e-06 
2.15180277445172e-06 
2.355825032242321e-06 
2.207795283999948e-06 
3.954660855046061e-07 
-6.28972918839281e-08 
-3.520678088105837e-07 
2.205768885267206e-07 
1.166402427914518e-06 
3.566512754495048e-07 
2.020039792643544e-07 
-1.4764653067737e-06 
-1.348019294258381e-06 
1.507371316701482e-06 
1.554963616864048e-06 
1.276554604258414e-07 
4.207171319616183e-07 
2.443426010179778e-06 
1.529928280674049e-06 
1.364737212065966e-06 
4.51517765903919e-08 
2.245137400861939e-06 
1.461193474214082e-06 
-8.462438015348918e-07 
-4.256773431104011e-08 
1.383597403661765e-06 
1.274631921281982e-06 
1.922695607058455e-06 
2.255606101940235e-06 
2.462101748131593e-06 
1.264197094854259e-06 
6.306894239629206e-07 
7.356505830569893e-07 
1.393468096864771e-06 
1.657751012564877e-06 
4.519988962887791e-07 
4.814553438911033e-07 
-1.21066127999774e-06 
-2.333007780649591e-06 
2.066357178729476e-06 
1.153006555994456e-06 
-2.972204179069632e-07 
3.206187394617899e-07 
2.007676038893934e-06 
1.434238682273892e-06 
1.929089459452947e-06 
-6.135332140618642e-07 
1.549762167113191e-06 
4.775439706272033e-07 
-1.330993329399522e-06 
-1.166640278860358e-08 
1.22510609941409e-06 
1.059002967069342e-06 
2.038142361423484e-06 
2.351664106162274e-06 
1.882029679025454e-06 
-3.714250172285687e-07 
-1.833327221565633e-06 
-1.657904653541346e-06 
-5.018158728433878e-07 
1.476644791142432e-06 
3.444425744275912e-07 
1.086830843256299e-08 
-1.574974260812257e-06 
-4.558421691348003e-07 
1.282479837415054e-06 
1.598070304804182e-06 
4.097623657409061e-07 
-1.319558708084671e-07 
2.541911119537014e-06 
1.111051772865913e-06 
7.648910666233949e-07 
-1.116060627686846e-06 
2.077407811504006e-06 
1.305386834296956e-06 
-6.611737888757172e-07 
-1.882718719195522e-07 
1.242185661360787e-06 
1.486723150337917e-06 
2.153761087644554e-06 
2.556003730459983e-06 
1.996437128978164e-06 
1.355347169796984e-07 
-2.780294869525774e-07 
-1.386840050675705e-07 
2.382148011223871e-07 
1.616247653412489e-06 
2.489515860137345e-07 
-1.56128291521697e-07 
-2.200914193251092e-06 
-2.693578545196911e-06 
8.327315847198521e-07 
1.329189566046762e-06 
-5.307549223093007e-07 
-2.51513156493872e-07 
2.269182527239502e-06 
1.162011420763308e-06 
1.130347764413175e-06 
-1.058974638660496e-07 
2.236129644319912e-06 
1.184811738168663e-06 
-9.453465137759161e-07 
-4.126883510037769e-07 
8.518032605925254e-07 
1.270558910224664e-06 
2.10682127143872e-06 
2.547711912016689e-06 
2.483627703137897e-06 
9.949379869311519e-07 
-8.071915720880452e-07 
-5.289222478218901e-07 
7.270085584197529e-07 
1.765593280750631e-06 
1.588064169616168e-07 
-2.998615122087091e-08 
-2.108185987369e-06 
-1.265295279979593e-06 
1.583527161872343e-06 
9.700447631803006e-07 
-1.604902795741731e-07 
-3.576970184372953e-07 
2.368070655403582e-06 
1.499187227650387e-06 
1.519028336116572e-06 
2.322787568082398e-07 
2.459356352845425e-06 
1.241359625234795e-06 
-1.198815406238608e-06 
-1.951152391705409e-07 
1.058697440418774e-06 
1.610292589261276e-06 
1.952734971306135e-06 
2.895607371833948e-06 
2.428799354661788e-06 
6.313731846312256e-07 
-4.919705535642761e-07 
-2.08996086553101e-07 
7.565898170216261e-07 
2.130323986213992e-06 
4.609036093542571e-07 
2.495365485682347e-07 
-3.072333614898735e-06 
-1.677387828079077e-06 
8.004432659842971e-07 
7.598217403465542e-07 
-6.248759610674036e-07 
-1.781174549073386e-07 
2.885265455732708e-06 
1.946342222904654e-06 
1.912719228484367e-06 
7.983465201095404e-07 
2.439702999419428e-06 
1.299183137771975e-06 
-4.747184061020923e-07 
8.119104625392596e-08 
1.125090949028176e-06 
1.106541907246005e-06 
1.979444444642389e-06 
3.285047014558165e-06 
2.579312472009183e-06 
5.389545364363009e-07 
-4.301024663719518e-07 
-4.776796510113884e-08 
2.949221924439575e-07 
2.094233365049615e-06 
6.459240948222676e-07 
3.608409014488261e-07 
-2.234088911251589e-06 
-1.1329014706149e-06 
5.247975679220602e-07 
5.615450827450456e-07 
-7.392751893584154e-07 
-1.113401166422429e-06 
1.344269984320234e-06 
7.526239415235715e-07 
1.542181759893004e-06 
1.447563614966909e-07 
2.102373289168675e-06 
1.230703947299159e-06 
-6.721280273304374e-07 
4.094662980133721e-07 
1.606814229419479e-06 
1.802240733701723e-06 
2.327491760532125e-06 
3.010328827534588e-06 
2.709518099869519e-06 
6.328751827696479e-07 
-3.487957861758153e-07 
-1.746834846366747e-07 
3.480366355467138e-07 
1.63542743900559e-06 
5.388744936140897e-07 
2.018116187628035e-08 
-2.882409691408825e-06 
-2.956033899179073e-06 
7.823172318073364e-07 
1.312268001923347e-06 
-1.469472523359846e-07 
-1.888922773346208e-07 
2.136138745898645e-06 
1.832283539860198e-06 
1.478236823712649e-06 
3.56997163105958e-07 
2.149625757306722e-06 
1.132479925181263e-06 
-1.574305977151106e-07 
4.22925277842882e-07 
7.866383600715779e-07 
1.558015785139761e-06 
2.679486990245705e-06 
3.401384709407874e-06 
3.013248541007215e-06 
1.330694585805785e-06 
6.069004931360028e-07 
5.436279423076664e-07 
1.053112347154668e-06 
2.147778860801393e-06 
5.365477277421788e-07 
1.878315738166841e-07 
-2.309292542042442e-06 
-1.741288404136463e-06 
5.278319666113492e-07 
1.300382455128416e-06 
2.976925643437415e-08 
-4.656497178717785e-07 
1.344454258897156e-06 
1.050697754046396e-06 
1.145350603230474e-06 
-3.718874900896361e-07 
1.198509820834597e-06 
7.81472617867537e-07 
-3.765793140589016e-07 
3.012781417962249e-07 
7.715647970479487e-07 
9.863332719089365e-07 
1.774283997651161e-06 
2.6762468930578e-06 
2.37688813508535e-06 
2.769577758474093e-08 
-1.218021460036532e-06 
-1.490845001264234e-06 
-7.151554839843456e-07 
1.178781277629201e-06 
1.314571824785481e-07 
-1.19874778019112e-07 
-3.507413964380893e-06 
-2.023839204845568e-06 
5.591226823850881e-07 
6.678801662987577e-07 
3.536652041615178e-07 
-1.924516106617189e-08 
1.309850353601083e-06 
1.322464175137509e-06 
1.812650861389526e-06 
1.109209538289229e-07 
1.431757458086084e-06 
9.682976934174986e-07 
-5.220536416950907e-07 
1.816750388672005e-07 
1.010976557478619e-06 
8.383065763311137e-07 
1.607910433039098e-06 
3.126540273710442e-06 
3.047611708619162e-06 
1.052072313028151e-06 
-3.17464351574515e-08 
1.783792807229416e-08 
8.90888149316582e-07 
1.883751827111191e-06 
3.699935875393073e-07 
1.756576046431868e-07 
-3.301386240812332e-06 
-2.893156872715229e-06 
-2.706893291200417e-07 
1.469488876623194e-07 
2.963545446937986e-07 
-5.539067254513917e-07 
5.934194380507135e-07 
6.578868025659129e-07 
9.920941272184529e-07 
-1.910596213191952e-07 
1.25296566935783e-06 
1.749975045629411e-07 
-2.900725759718618e-07 
5.745604158322821e-08 
9.343081658913248e-07 
5.908640060117333e-07 
1.148840940235417e-06 
2.193573403895635e-06 
2.318405269870106e-06 
9.32126501790015e-07 
-2.109926517937972e-07 
-3.312082902366465e-07 
3.70539332464122e-07 
1.439588995407414e-06 
2.773804728230228e-07 
2.770540378205092e-07 
-3.472314982105403e-06 
-3.411435183861342e-06 
-2.027235568153068e-07 
1.986674980986039e-07 
-3.506117931306224e-07 
-1.101824273755426e-06 
8.829908897708124e-08 
-2.355965826424298e-07 
2.867964134148964e-07 
-9.96271466524164e-07 
1.149234933114891e-06 
-5.136631493501112e-08 
-1.414468957446884e-06 
-9.872588986942003e-07 
2.424154743849425e-07 
3.427982700995395e-07 
1.008458733794914e-06 
1.656452059811807e-06 
1.989776353289543e-06 
3.541840688024146e-07 
-8.81019596707625e-07 
-6.236135716900202e-07 
6.609777381852781e-08 
1.194474304263981e-06 
-1.111562327193259e-07 
-8.023146769801772e-08 
-2.884296031880412e-06 
-2.993384421551408e-06 
-8.957049758684681e-07 
-2.656832970414821e-07 
-5.789571989684202e-07 
-1.706191041142464e-06 
1.854863316469136e-07 
2.350182911497404e-07 
1.110860780766061e-07 
-1.086777594560581e-06 
4.96358961790071e-07 
-1.92911220798745e-07 
-1.223944238804943e-06 
-6.155943334749899e-07 
4.368298540594429e-07 
5.563939244868426e-07 
1.202993255925493e-06 
2.232947183960499e-06 
2.420816357202592e-06 
7.613383575015177e-07 
1.440617124849687e-07 
2.409202140494979e-07 
9.083774317882284e-07 
1.633625066336026e-06 
1.974051251656265e-07 
-3.680386315063009e-07 
-3.455191283416976e-06 
-3.180298275158751e-06 
-1.10804225397415e-06 
-1.809343953283021e-08 
-8.297872644493324e-07 
-2.096388380804275e-06 
-7.777931346861626e-08 
-7.465016094410289e-07 
-3.798661713337182e-07 
-9.765881126697155e-07 
-2.288697527495691e-07 
-9.361591884079574e-07 
-2.032976463543592e-06 
-1.197547337284457e-06 
3.725008899454482e-07 
9.455376307230813e-08 
6.194634202860113e-07 
1.951083464150795e-06 
1.565150191336531e-06 
-5.725543746698035e-07 
-1.293365945139707e-06 
-1.039961911783509e-06 
-6.177272049583708e-07 
8.73203778210411e-07 
-4.391702880069484e-07 
-9.170658518365845e-07 
-2.610883141207384e-06 
-3.306614391559234e-06 
-9.045232720367565e-07 
-3.982286245854397e-07 
-9.380010127413192e-07 
-2.261219809187254e-06 
6.011566685596256e-07 
8.189367742545305e-08 
9.586670629979496e-08 
-8.177837162034406e-07 
2.768709778141404e-07 
-1.927727784047467e-07 
-1.459239696566912e-06 
-1.050052864198013e-06 
2.088018494524806e-07 
1.190478604637711e-07 
9.707049347595992e-07 
2.107871416406406e-06 
2.374408148578475e-06 
3.302450817436913e-07 
-1.147625557268329e-06 
-9.033803943963879e-07 
1.576946733227987e-07 
1.50536479922148e-06 
6.349423253150454e-08 
-3.471706554928877e-07 
-2.200201726834608e-06 
-4.172815466202736e-06 
-6.787566470124918e-07 
3.270521895729368e-07 
-6.132617460884352e-07 
-1.564099443870158e-06 
-7.192020736076111e-08 
-5.656507337396468e-08 
-8.849711086958031e-08 
-1.267996725954305e-06 
1.524464246547155e-07 
-9.020626510638449e-07 
-1.711514344864279e-06 
-7.174187592181267e-07 
-1.703312353767293e-07 
-3.621163136927758e-08 
9.074935921795505e-07 
2.021528552453413e-06 
2.035413969863862e-06 
4.560890849300841e-07 
-1.093588326680341e-06 
-1.17891704971513e-06 
-1.011782748559361e-08 
1.618115510236436e-06 
1.25889697301288e-07 
-8.397671199673727e-07 
-3.183216304760042e-06 
-4.237866404414569e-06 
-5.900234073215659e-07 
3.805033476552687e-07 
-1.101740902597369e-06 
-1.40231796963053e-06 
-3.309533932241568e-07 
3.942418156917664e-07 
3.546389155828218e-07 
-1.163187247229726e-06 
1.540232328245935e-07 
-4.489646407206888e-07 
-1.64063499227925e-06 
-5.918313266025077e-07 
1.401781147842356e-07 
2.481103365000022e-07 
1.144783154553172e-06 
2.18104876627487e-06 
2.152642564690308e-06 
1.128614571062798e-06 
6.875421695876986e-07 
7.464876773448548e-07 
5.736694140649951e-07 
1.533548207836104e-06 
1.082370998491092e-07 
-9.30865099805245e-07 
-4.061939643620737e-06 
-3.292291050646815e-06 
-8.179598886250036e-07 
-1.540688227017578e-07 
-9.735907580866337e-07 
-1.744851903721018e-06 
7.135234311872764e-08 
1.942119453645363e-07 
9.273036780527862e-07 
-1.826782938442118e-07 
4.507716070494735e-08 
-3.73854513171683e-07 
-1.618854226119066e-06 
-9.909816053998254e-07 
1.949726426024104e-08 
2.057063667264216e-08 
9.072762450719915e-07 
1.722024484547626e-06 
2.085481485538721e-06 
1.054210746359024e-06 
1.602906262535799e-07 
1.07838669973181e-07 
6.560160474332336e-07 
1.266700165961835e-06 
-1.976219471071456e-07 
-6.868472705227446e-07 
-3.002273449078088e-06 
-3.213953660749008e-06 
-5.709399922123729e-07 
8.952822731569295e-08 
-3.344341603226424e-07 
-1.294182785750875e-06 
5.089854326133662e-07 
7.755919231283757e-07 
1.193990869384528e-06 
-4.763910228920208e-07 
1.183141422277839e-06 
1.558533591447278e-07 
-1.316583092187334e-06 
-8.983646700464786e-07 
5.100315827188942e-07 
3.050396380896963e-07 
8.579790475511824e-07 
2.237722816222636e-06 
2.13324414113833e-06 
8.70741841875517e-07 
1.006272129688479e-07 
2.15629172927171e-07 
3.929193443842575e-07 
1.328392915181069e-06 
-9.536536174257006e-08 
-3.654693663981591e-07 
-3.472756277266273e-06 
-2.522684405959628e-06 
-1.213175022283214e-06 
2.331247293920625e-07 
-3.006628454582778e-07 
-4.008053605426095e-07 
9.370862130067531e-07 
1.187045213388635e-06 
1.424155590579419e-06 
8.688498824392128e-08 
1.551688096763773e-06 
6.430296912801316e-07 
-7.83591230720261e-07 
-8.608879230115065e-07 
4.635178854524825e-07 
9.968475075989503e-07 
1.51742315312462e-06 
2.847337892254378e-06 
2.297349016861459e-06 
1.414090481380761e-06 
9.212298545219065e-07 
9.864524896004607e-07 
8.890674369235262e-07 
1.947222011628247e-06 
5.182939107799039e-07 
-3.63210473957091e-07 
-3.079834051903527e-06 
-3.1713234359553e-06 
-2.773498658564547e-07 
8.242723891853344e-07 
4.06588967285612e-07 
9.81120951659436e-08 
1.425654094164632e-06 
1.423199791642933e-06 
2.192768138224353e-06 
1.111357047893343e-06 
2.097070184017123e-06 
9.956480972476289e-07 
-4.749271964478721e-07 
-6.047883457559656e-09 
1.392397715855211e-06 
1.127099645548569e-06 
1.853197564908676e-06 
3.371519861521403e-06 
3.052891204754553e-06 
1.365293507813282e-06 
-1.865568244954713e-07 
-1.762463064350287e-07 
9.591662885438813e-07 
2.239176221020646e-06 
6.297052601290086e-07 
-4.436136533827985e-08 
-2.997944445874938e-06 
-2.766262306087011e-06 
4.494363296775455e-07 
7.669251854510342e-07 
3.181126669813209e-07 
-6.062122396209853e-07 
1.719408856629175e-06 
1.500146948626695e-06 
2.275389427183494e-06 
8.725650368334623e-07 
2.303070221001534e-06 
1.093792578655191e-06 
1.447161557653317e-07 
3.825403820911779e-07 
1.112780327623032e-06 
1.668741221771574e-06 
2.113970292004302e-06 
3.00181419485937e-06 
3.316975383767492e-06 
2.266126662526526e-06 
1.191463401640532e-06 
1.068868814777299e-06 
1.779460031298998e-06 
2.320411924726726e-06 
8.093643895927311e-07 
2.348041479030591e-07 
-3.320888329169887e-06 
-3.351646363762358e-06 
2.276891342612043e-07 
5.702141047126473e-07 
-1.591614666274762e-07 
-7.45626998950771e-07 
1.507125578680469e-06 
1.772364827897248e-06 
2.106034693385259e-06 
9.722402244332781e-07 
1.952832977073458e-06 
8.315066718306102e-07 
-8.040106397288548e-07 
2.641956272158483e-07 
1.153424140013465e-06 
1.165540796326028e-06 
2.152694154399913e-06 
3.319491486641696e-06 
3.066624402020351e-06 
1.523003272273317e-06 
-3.341832691199093e-07 
-5.0533896013491e-07 
5.397121278041884e-07 
2.010952676833315e-06 
7.239009887898485e-07 
-1.502058531469558e-07 
-3.580163194859199e-06 
-3.700293083798316e-06 
3.877599778358562e-07 
1.301428134575198e-06 
1.570380761648546e-07 
-1.666196274819223e-07 
1.810894946708001e-06 
2.020904433760618e-06 
2.662612705553734e-06 
1.444562491259804e-06 
1.938593512702469e-06 
1.275155478733028e-06 
-8.510058630740239e-07 
-1.752824504847776e-07 
8.974480836721197e-07 
1.034243043095604e-06 
2.141999460245297e-06 
2.973730179142827e-06 
2.416915220288316e-06 
1.599397761407192e-06 
1.877712333002299e-07 
4.084671279238331e-07 
1.184408482038632e-06 
2.12233154137868e-06 
7.056804579965704e-07 
-2.330429655647224e-08 
-2.898327374713515e-06 
-3.149461576662539e-06 
-9.7411051249122e-08 
1.313598701444595e-06 
1.460304939902073e-07 
4.650102346646577e-07 
1.582728006286901e-06 
2.459677425177538e-06 
3.55832124416387e-06 
1.871108082306332e-06 
2.992769479314095e-06 
1.61992570976921e-06 
-2.982312200642884e-07 
3.604931999680305e-07 
1.458290258609655e-06 
1.880082692161345e-06 
2.801835317686342e-06 
4.095611517212326e-06 
3.423536310385759e-06 
2.387977021846638e-06 
7.922146374520174e-07 
8.861132477428558e-07 
1.592683201639377e-06 
2.780465558265317e-06 
1.245605091475725e-06 
4.899491009788925e-07 
-2.159890233695053e-06 
-1.186027384612166e-06 
2.28701498647502e-07 
1.984275360340711e-06 
7.987000400587498e-07 
1.343359601395922e-06 
2.637564737556384e-06 
2.820134843431765e-06 
3.775173835485676e-06 
2.568498761750296e-06 
3.58536701348208e-06 
2.170589268055006e-06 
-1.499572918538549e-07 
2.398285618568778e-07 
1.953031953416645e-06 
2.42584469740585e-06 
3.266235618061821e-06 
3.808408883493933e-06 
2.911309981075608e-06 
1.120011094499674e-06 
3.501508578920011e-07 
5.305973639588362e-07 
8.19394536285344e-07 
2.669428806547762e-06 
1.651360609248672e-06 
1.073641998166701e-06 
-9.601267530523939e-07 
-1.952042489768965e-06 
8.706206216976857e-07 
2.462006657416124e-06 
7.218889223286027e-07 
1.301211377805172e-06 
3.474602284743995e-06 
3.262062082880528e-06 
3.84916226565051e-06 
2.377356891868874e-06 
3.092734719887545e-06 
2.404067797922639e-06 
2.228739543181233e-07 
8.28395628701873e-07 
2.26748502478549e-06 
2.690584335536192e-06 
3.582652492296028e-06 
4.012553596233143e-06 
3.459094289335348e-06 
2.58386046039622e-06 
2.325342951907095e-06 
2.6148757906521e-06 
2.377790745589986e-06 
2.954949670219004e-06 
1.837699938766215e-06 
1.083784689385202e-06 
-1.52200360524871e-06 
-1.091008665302635e-06 
1.212579350849156e-06 
2.264412135963264e-06 
1.196472674722351e-06 
1.256560659483266e-06 
2.449256585464847e-06 
3.337120863481973e-06 
4.661625942158207e-06 
2.72510731494634e-06 
3.119420659805003e-06 
1.847275726428008e-06 
2.394270241227952e-08 
3.008953145933482e-07 
1.722859475074881e-06 
2.11997132251636e-06 
3.185363589345015e-06 
4.032822321719962e-06 
3.304413909668396e-06 
1.710166440590992e-06 
7.97570601751735e-07 
9.958864874052147e-07 
1.594668140455241e-06 
2.546037900183544e-06 
1.61707914424273e-06 
1.372535374408828e-06 
-1.34821327114336e-06 
-7.655017807247181e-07 
1.51375033485516e-06 
2.77281868339267e-06 
2.033701167497082e-06 
1.896429207321421e-06 
3.658365632153687e-06 
3.995378138988582e-06 
4.962027812237495e-06 
2.804314991714624e-06 
3.482454987926753e-06 
2.970654003249089e-06 
2.182624276908303e-07 
3.988159917930414e-07 
1.909374084454006e-06 
2.252553007382403e-06 
3.538682326818724e-06 
4.308209434474041e-06 
3.951825746559685e-06 
2.648296173112711e-06 
1.701685328288255e-06 
1.865158398021507e-06 
2.417478158961669e-06 
2.951806737495622e-06 
1.76125063070558e-06 
1.286618506505457e-06 
-5.884094460137499e-07 
-1.854349812395266e-06 
1.942762204841834e-06 
2.802911799946648e-06 
1.309164823361637e-06 
1.660760909766922e-06 
3.025237629811627e-06 
3.669793521811617e-06 
4.972226543361413e-06 
3.178023259253416e-06 
3.633247743922181e-06 
3.399679762380864e-06 
1.075677701979564e-06 
1.413438910116386e-06 
2.128445362254536e-06 
2.799615370014766e-06 
3.558698527549323e-06 
3.863960978673473e-06 
3.745046295026778e-06 
2.41327199209502e-06 
9.348594468373792e-07 
1.044383414471814e-06 
1.896072784981044e-06 
2.897394157487183e-06 
1.931841399720408e-06 
1.962639999809943e-06 
-1.837918193264667e-06 
-6.348610795485847e-07 
1.902423370971523e-06 
3.129121841877713e-06 
1.768365866123544e-06 
2.46598931479407e-06 
3.386141937262072e-06 
4.257441694620188e-06 
4.731373853949637e-06 
3.640692467215435e-06 
4.436488588367979e-06 
3.558126426189552e-06 
1.121168036514401e-06 
1.327235824875202e-06 
2.044744846932864e-06 
2.365124410911587e-06 
3.535513261278784e-06 
4.021397205954245e-06 
3.481577713394914e-06 
2.166858776361749e-06 
1.339122433751245e-06 
1.476439133616988e-06 
1.732961552679772e-06 
2.492425104290817e-06 
1.776632058423772e-06 
2.150686259681049e-06 
-8.578933199314226e-07 
-6.756660394053672e-07 
1.85501635902866e-06 
3.013157129589548e-06 
2.263205257761497e-06 
1.540772557396965e-06 
3.524767940981264e-06 
3.514705559005569e-06 
4.655347405776856e-06 
3.73051820231908e-06 
5.14804897236981e-06 
4.106655591887044e-06 
1.295590043966308e-06 
1.277002307397412e-06 
2.334298132880228e-06 
2.381583072016571e-06 
3.009471072397951e-06 
3.868918490078325e-06 
3.175296708944502e-06 
2.021197141139294e-06 
1.494015638227304e-06 
1.712309494846173e-06 
2.143087134284271e-06 
2.430642025589758e-06 
1.334243656665794e-06 
1.919535899414321e-06 
-1.127626577188189e-06 
-6.156615579155584e-07 
2.989795401792578e-06 
3.494110757677121e-06 
2.06266266914491e-06 
2.667811288475276e-06 
3.946282329399084e-06 
4.29431527522312e-06 
5.213240137259128e-06 
4.145320726270337e-06 
5.338347980764071e-06 
4.127986249391038e-06 
1.215808631022074e-06 
1.11173747950121e-06 
2.151398454359156e-06 
2.120546740728943e-06 
3.257117229654727e-06 
4.095826796718035e-06 
3.725879629762651e-06 
2.315069659950229e-06 
1.023206502881255e-06 
1.283180599884995e-06 
2.254686738664579e-06 
2.66222058847766e-06 
1.599001487905696e-06 
2.275741938085078e-06 
-2.365836307846342e-06 
-1.579789122764438e-06 
2.6802004457978e-06 
3.136645588964842e-06 
2.493492324643676e-06 
3.206265587848459e-06 
3.945086498206919e-06 
4.772191115537533e-06 
5.455526787537324e-06 
5.102478632599403e-06 
5.960457272512701e-06 
4.428941000507419e-06 
1.583385538449053e-06 
1.992282321464171e-06 
2.376040443920286e-06 
2.514644216174479e-06 
3.297837386677749e-06 
4.489389381653208e-06 
4.326763943158371e-06 
2.609578228977415e-06 
1.481265928961458e-06 
1.70295500275986e-06 
2.157219505359015e-06 
3.131740422996293e-06 
2.493678429598866e-06 
3.139094416631872e-06 
-2.24550779643459e-06 
-1.490308338236656e-06 
2.459543002616404e-06 
2.890376500184599e-06 
1.912444794421439e-06 
2.582486525283536e-06 
4.395892823949596e-06 
4.809968562759046e-06 
5.695989734319588e-06 
4.850912735893094e-06 
5.799134570799417e-06 
4.307239796394837e-06 
1.734944189608438e-06 
1.930918228470335e-06 
2.710945957323778e-06 
2.95329745320302e-06 
3.693393265328966e-06 
4.988032236878227e-06 
4.356040535854945e-06 
2.920751471232118e-06 
2.213885017832231e-06 
2.305076474768437e-06 
2.575179567939437e-06 
3.512812779351996e-06 
2.74791315580774e-06 
3.072553081698679e-06 
-8.64954591853128e-07 
-1.352378407832348e-06 
1.849366777547854e-06 
3.426131710141544e-06 
3.294837337909143e-06 
2.935622467623124e-06 
3.86892005351449e-06 
4.706419896539053e-06 
6.169868627222386e-06 
5.014237476469981e-06 
5.787163085069809e-06 
4.333024006639226e-06 
2.157568442506529e-06 
2.562694716841774e-06 
3.000427394657033e-06 
2.741345435181179e-06 
3.683746357735341e-06 
4.767099841215384e-06 
4.270332213260988e-06 
2.295345956164259e-06 
9.032221686845763e-07 
1.145123336092807e-06 
2.008636729055963e-06 
3.394080449528586e-06 
2.522547424388833e-06 
2.626309793779974e-06 
-1.539144202531789e-06 
-1.118636950357546e-07 
3.109941589958903e-06 
4.315542837618133e-06 
2.528223640144783e-06 
3.004794761650815e-06 
4.487094065451391e-06 
4.596985362209148e-06 
5.723520490355178e-06 
5.216628389335293e-06 
6.300139356608033e-06 
5.13561545166369e-06 
2.462832003935033e-06 
2.833443713992022e-06 
3.237207422392926e-06 
2.932868543345251e-06 
4.065819721723411e-06 
4.58704648411907e-06 
3.676166456530096e-06 
2.478098457898337e-06 
1.930453643663445e-06 
2.150179881478297e-06 
2.405501810347156e-06 
3.40713021212585e-06 
2.86510695979409e-06 
3.05498404956326e-06 
-5.501073835794656e-07 
-7.384726809459372e-07 
3.270938808526967e-06 
4.117119299872323e-06 
3.973258618782592e-06 
3.145840926896457e-06 
3.937046626097878e-06 
4.865692598801128e-06 
6.1585779579166e-06 
5.825254707833911e-06 
6.579491663656674e-06 
4.820734211437414e-06 
2.97126310015243e-06 
3.238929125710003e-06 
3.947142713073279e-06 
4.16638305196037e-06 
4.459310664280314e-06 
4.686474855968928e-06 
4.141724864863446e-06 
2.809989449851135e-06 
2.292224855599136e-06 
2.416101807005378e-06 
2.81857681281684e-06 
3.760521610399252e-06 
3.610085657193116e-06 
3.646451052167613e-06 
-6.790906829292746e-07 
-1.003233559347614e-06 
3.420416219912851e-06 
3.850978669997709e-06 
2.909104731394787e-06 
2.617259047246683e-06 
3.500917525140303e-06 
4.720183695231521e-06 
5.810675826662775e-06 
4.987167561305601e-06 
6.363486050460136e-06 
5.177957174680656e-06 
3.070986558683805e-06 
3.063698534828377e-06 
3.931018610460136e-06 
4.316078924404883e-06 
4.894430326592113e-06 
5.23604796471444e-06 
4.622548571642975e-06 
3.153681669307306e-06 
2.514668481316014e-06 
2.727075922835981e-06 
3.313679669474537e-06 
4.352601312875164e-06 
3.911523443506129e-06 
3.532874883323648e-06 
-1.538150735744987e-06 
-1.830981029803628e-07 
3.594974990574154e-06 
4.047070867285583e-06 
3.988381024864585e-06 
3.683503187723598e-06 
4.148555975678386e-06 
4.490991857614867e-06 
5.080133908508921e-06 
4.84307486850921e-06 
6.421578762689239e-06 
5.381137505310505e-06 
3.21868358231782e-06 
2.831260819874372e-06 
3.607679809877522e-06 
4.110768280699236e-06 
4.139411743369159e-06 
4.539553685127234e-06 
4.316912279032232e-06 
2.61755239870206e-06 
1.845682521283392e-06 
2.052493005289887e-06 
2.263181786156785e-06 
3.563743537803869e-06 
3.353425880079631e-06 
3.0881710385924e-06 
-9.581681063522479e-07 
2.513273728154759e-07 
4.113638736181836e-06 
4.931753841902395e-06 
4.09044303442261e-06 
3.155223616028931e-06 
4.109302745498617e-06 
4.961431827919333e-06 
5.876805745394396e-06 
4.480529082301e-06 
6.225750493629464e-06 
5.076324263393228e-06 
2.975520209880971e-06 
3.114196825050066e-06 
4.17061443759445e-06 
4.484307803238459e-06 
4.669309318718375e-06 
5.075712215063409e-06 
4.501336538957956e-06 
3.335181271429506e-06 
1.676810709339103e-06 
1.951829628222133e-06 
2.770126780679234e-06 
3.431629006942401e-06 
3.323263205281668e-06 
3.39694138931733e-06 
-4.655686881303109e-07 
1.967385838068495e-07 
4.044802988024728e-06 
4.800461177608602e-06 
4.358501920588944e-06 
3.331478150880979e-06 
5.103660038714402e-06 
5.050793073182329e-06 
5.90842651950455e-06 
5.071933716339141e-06 
5.787304282522133e-06 
4.86676797243751e-06 
2.635733407357314e-06 
2.417067308954715e-06 
4.05369096154432e-06 
4.580377300107703e-06 
5.016188502964591e-06 
4.943479369452179e-06 
4.582978681604644e-06 
3.138675242655147e-06 
2.479400289427913e-06 
2.635713636281466e-06 
2.733613287102413e-06 
3.571414487354272e-06 
3.196229756397644e-06 
3.179198086881578e-06 
-1.488980055864738e-07 
2.541008636049356e-07 
3.270464472030655e-06 
4.64935798992526e-06 
3.643830926597801e-06 
3.268316205057751e-06 
4.72857567924609e-06 
4.295675806169378e-06 
5.579079973484319e-06 
4.342930534115828e-06 
5.344462299679465e-06 
4.484621959102327e-06 
1.981011682500137e-06 
2.348193849655069e-06 
3.66082139677824e-06 
4.190895648678864e-06 
4.4690014073691e-06 
4.798891635355034e-06 
4.69591666700451e-06 
3.300134595307977e-06 
2.444490573925387e-06 
2.710702131771272e-06 
3.020006011167841e-06 
3.773712245463013e-06 
2.705327343765026e-06 
2.886605661082009e-06 
1.44496001837017e-08 
1.236323753944128e-06 
3.63877888417894e-06 
4.139274115035385e-06 
3.050957922359461e-06 
2.841301737737568e-06 
3.917307999827523e-06 
4.240283057528334e-06 
4.502082351063896e-06 
3.738275646734702e-06 
5.262034918331216e-06 
3.916382686923348e-06 
1.495139037592809e-06 
1.545795541364634e-06 
2.688235915444163e-06 
3.630207272345999e-06 
4.368558835314262e-06 
4.496348366243068e-06 
3.954876440923806e-06 
2.429247778684555e-06 
2.170113424117721e-06 
2.236359072279487e-06 
2.228926384147927e-06 
3.293772536861521e-06 
2.578713975925389e-06 
2.470447428900269e-06 
1.271580646294591e-07 
-3.057176872166066e-07 
3.05406767850534e-06 
3.663290521660052e-06 
2.879259425162664e-06 
2.503892821058785e-06 
3.216848341665074e-06 
3.137833998530103e-06 
3.847506175871205e-06 
2.896711753063217e-06 
4.366189189593513e-06 
3.573136593257017e-06 
8.763631318621063e-07 
1.259292265986785e-06 
2.774044072527282e-06 
2.872520608412939e-06 
3.693516413439136e-06 
4.189755852646929e-06 
3.504214671136012e-06 
1.644214434275097e-06 
1.014437332211894e-06 
1.132329874795271e-06 
1.133913412838834e-06 
2.997769619487896e-06 
2.298234116637107e-06 
2.347910288360328e-06 
-3.543589644384092e-08 
7.210134950590442e-07 
3.087442572951802e-06 
4.373276610595629e-06 
3.329272636830757e-06 
3.015662972640888e-06 
3.497379285058568e-06 
3.07059908007442e-06 
4.221269943029562e-06 
3.330749878836502e-06 
4.505516549739158e-06 
3.347672505139681e-06 
1.324573751750504e-06 
1.234964154411835e-06 
2.362377821200532e-06 
2.847708921971207e-06 
3.477514974501713e-06 
4.412696599368238e-06 
3.505342020311588e-06 
2.00014459762143e-06 
1.691677941034225e-06 
1.878601430323551e-06 
1.796259843680763e-06 
3.1092179050433e-06 
1.901224908574023e-06 
2.007291367342642e-06 
2.657038105387503e-07 
-1.99251102848328e-06 
3.422991159863298e-06 
4.245319451123298e-06 
3.314676663218538e-06 
2.990163936325064e-06 
3.493499779452396e-06 
3.315428694940163e-06 
4.15595421418564e-06 
2.580555515711865e-06 
3.627187458638996e-06 
2.710331693403137e-06 
5.444217341941252e-07 
1.128224255006129e-06 
2.248707427142123e-06 
2.473272195232509e-06 
2.998056913163533e-06 
3.863038354550728e-06 
3.042551206237027e-06 
1.460032542192782e-06 
3.788028642090435e-07 
4.173867162283707e-07 
1.454373902887588e-06 
2.642994540883029e-06 
1.484979679019875e-06 
1.994562508070196e-06 
2.077423550597863e-08 
1.062230656751032e-06 
3.714464073907809e-06 
4.466333054830741e-06 
3.029890947123794e-06 
3.186399300819449e-06 
4.174326697610989e-06 
3.635733828435829e-06 
4.661614312850999e-06 
3.500778035183377e-06 
4.737155309395291e-06 
3.570148360988184e-06 
1.398600618117789e-06 
1.568420515824112e-06 
2.788906553830382e-06 
2.756648291084768e-06 
3.626132216433058e-06 
