solver_type L2R_L2LOSS_SVR
nr_class 2
nr_feature 79534
bias -1
w
-7.85146216094469e-07 
-2.696772927836992e-07 
1.941336369995206e-06 
1.602878313514421e-06 
9.305203319810376e-07 
1.108045074767976e-06 
2.159049304097817e-06 
1.929323607736254e-06 
1.991056354565561e-06 
1.767054602266803e-06 
1.369751054295861e-06 
1.067952223039772e-06 
8.402632396743311e-07 
1.262143611484606e-06 
1.868453616276117e-06 
2.218900847161364e-06 
2.248034243989053e-06 
2.544763270959185e-06 
2.145176978876134e-06 
9.227179782998187e-07 
-2.793191080098432e-08 
-3.066699557853921e-07 
1.737322738380074e-07 
1.448921674698968e-06 
7.499098104295021e-07 
-1.076552621122505e-07 
-1.193589617107643e-06 
-5.682919659781053e-07 
1.746260293848696e-06 
1.211401620901922e-06 
-5.884057251427497e-08 
4.200544591961631e-07 
1.45980597457231e-06 
1.327501422899919e-06 
1.559445173866222e-06 
9.309333872427362e-07 
1.2136217619812e-06 
-7.12475572716588e-08 
-1.822192487639667e-07 
6.18197323954557e-07 
1.301297013372681e-06 
1.35185985520268e-06 
1.801669441823287e-06 
2.021008162017528e-06 
1.793461052851855e-06 
1.268586435249935e-06 
2.855014949166964e-07 
3.668597929674587e-07 
5.009232773144203e-07 
1.266997703391567e-06 
1.178761895110367e-07 
-8.712324733917879e-07 
-1.953766705838517e-07 
-4.107984809986177e-08 
1.185953598503927e-06 
1.063609491166132e-06 
-4.166599653451046e-07 
-2.223497823738227e-07 
5.945345919454357e-07 
1.178214803444748e-06 
1.507050405960989e-06 
8.074618307753756e-07 
9.572640200866515e-07 
-2.44970564938246e-08 
-9.366570816505206e-07 
-5.234034673939607e-08 
8.297700615558313e-07 
6.972201847372065e-07 
1.455161194340271e-06 
1.628598864374865e-06 
1.551823690528383e-06 
1.499849732352486e-06 
4.801390262725652e-08 
2.269256127692636e-07 
1.067790226674815e-06 
8.952857069942197e-07 
-4.210980260933444e-07 
-1.488409467203476e-06 
-4.665820883320032e-07 
-1.110162811718705e-06 
5.554390600780169e-07 
4.209912043716339e-07 
-3.666763825266456e-07 
-2.604965250909992e-07 
9.269620630093738e-07 
1.195944701988111e-06 
9.739178217328235e-07 
5.092201242168226e-07 
2.268307058894331e-07 
-7.602707472726192e-07 
-1.086190065171017e-06 
-1.986142674493838e-07 
4.328950438780171e-07 
5.727874373401082e-07 
8.898463476156583e-07 
9.864283214720088e-07 
1.410447993816446e-06 
1.064853011088028e-06 
3.742843558540774e-07 
5.513816851730039e-07 
6.677479423643842e-07 
5.389158611270409e-07 
-6.093901489590985e-07 
-1.771138272306932e-06 
-1.424937187096076e-06 
-3.075500179213708e-07 
9.03695290157198e-07 
1.843971379944124e-07 
-2.383148948722079e-07 
3.359689239635672e-08 
6.307999493298269e-07 
3.33893150645101e-07 
6.29843677064654e-07 
2.530608947635705e-07 
1.639436432553684e-08 
-1.065896058174952e-06 
-1.404037654715634e-06 
-8.690654054343109e-07 
-1.75585344981646e-07 
2.267706400114864e-07 
7.551652198301264e-07 
1.206559041483133e-06 
1.677679348815447e-06 
6.229955014996928e-07 
-7.355223408560821e-08 
-2.092363629440797e-07 
-8.202151487446115e-08 
2.5522042007708e-07 
-1.064897556155495e-06 
-2.147755617293196e-06 
-7.400221327834569e-07 
-1.733653137212315e-07 
1.503247732508636e-06 
1.106765080722101e-06 
3.851837858728344e-07 
3.5890595514888e-07 
1.00268369121566e-06 
8.369321057893284e-07 
4.625946681026948e-07 
-3.719156649064843e-08 
2.647832991394076e-07 
-1.284331367836163e-06 
-1.444326097203165e-06 
-7.119167998437645e-07 
-5.864249129242297e-08 
6.259264394236592e-07 
5.91370413404579e-07 
1.041516443263119e-06 
1.034100726391736e-06 
-1.373827665347995e-07 
-1.110711096181266e-06 
-9.210192079966906e-07 
-4.181693008221581e-07 
7.487393975544664e-08 
-1.011412540734484e-06 
-2.41365888111871e-06 
-2.205893555925934e-07 
6.206412017029206e-07 
1.721889075751097e-06 
1.036765804409749e-06 
6.72833833270352e-07 
6.289318102625016e-07 
4.891519835509087e-07 
8.983425182498956e-07 
1.161796085410924e-06 
4.95579679197295e-07 
1.843165956672809e-07 
-1.274992003298014e-06 
-1.263794578515296e-06 
-5.979451071731558e-07 
8.605018369554122e-08 
6.274872570558711e-07 
4.807444971251318e-07 
7.321203291653932e-07 
8.211675654433966e-07 
5.958945894217094e-07 
3.402474182367561e-07 
3.438713727649371e-07 
2.17499620608801e-07 
-1.135819289931783e-07 
-8.954251647670476e-07 
-2.053889863061397e-06 
-1.064916221352842e-06 
-2.772631719651215e-07 
2.072446503055723e-06 
1.48971195918909e-06 
2.208544976065377e-07 
1.847989321579274e-07 
1.023144418070574e-06 
9.734767187495154e-07 
9.726822452323101e-07 
3.11465770314414e-07 
-7.722697288688139e-08 
-1.087401762318281e-06 
-1.366049185780595e-06 
-1.081830281329276e-06 
-1.293718979920133e-07 
4.493799899685858e-07 
1.634876041326162e-07 
2.302849328025761e-08 
5.144691639292403e-07 
-5.018973487572767e-07 
-1.349164047003057e-06 
-1.246621010680191e-06 
-5.241689371497231e-07 
-3.810135048342326e-07 
-1.056415585809141e-06 
-2.084453054256289e-06 
-1.671620593198864e-06 
-1.059766135006162e-06 
1.667368007463806e-06 
7.632992365882161e-07 
6.212626697268922e-08 
4.069730306757772e-08 
7.141906177787415e-07 
1.332754728867527e-07 
2.167856073656845e-07 
1.062540960901299e-08 
-2.842893632307896e-08 
-1.094462536088063e-06 
-1.760370500439187e-06 
-1.048685756773612e-06 
-2.728961128552082e-07 
8.92099844662769e-08 
5.072702428566374e-08 
6.315544589958384e-08 
3.311819571066071e-07 
1.066824603257618e-07 
-9.15556548619814e-07 
-9.512397026518123e-07 
-3.398830757390247e-07 
-5.064244950012439e-07 
-1.285196474029755e-06 
-2.610242725823461e-06 
-3.638644537120232e-07 
-1.613051418403433e-06 
1.7546678988124e-06 
7.273154987209123e-07 
-6.763083131023442e-08 
-1.184414548559172e-07 
-8.805601669438105e-08 
1.008589247666186e-07 
-1.245797267714806e-07 
-3.876922748100017e-07 
-3.754711060664053e-07 
-1.763666637610177e-06 
-2.322676387166438e-06 
-1.837624452610743e-06 
-7.212888685906758e-07 
2.168918365942166e-07 
1.434912299569282e-07 
4.581670298012424e-07 
3.139597201477042e-07 
-1.890257541094301e-07 
-1.181683532439115e-06 
-1.184686439594835e-06 
-4.479901651424593e-07 
-3.811284502483311e-07 
-1.246075115652443e-06 
-2.788240108047397e-06 
3.426293969767844e-08 
-5.613401271159683e-07 
1.251782729708315e-06 
8.486509032247924e-07 
3.804802357689589e-07 
-3.674035468674365e-07 
5.217115846036517e-07 
3.40309249945278e-07 
-3.603316740758197e-07 
-6.580594857824835e-07 
-2.379310133582648e-07 
-1.243535686644785e-06 
-1.874238455808109e-06 
-9.286164311965177e-07 
1.232864731331767e-07 
3.532005829597387e-07 
2.987484598428337e-08 
4.392580797357904e-07 
2.716157842248492e-07 
-2.504961184513021e-07 
-1.409403384156728e-06 
-1.419373261621651e-06 
-5.903294749697722e-07 
-2.342572230332964e-07 
-8.659944180996835e-07 
-2.037149464877995e-06 
1.566883135297716e-06 
4.042431433632941e-07 
2.084467011639606e-06 
1.99408747469421e-06 
1.690714663317077e-06 
6.650567561451227e-07 
1.834674467648924e-06 
1.42078657468229e-06 
1.040068394038503e-06 
5.567097716875981e-07 
5.605714847300742e-07 
-2.490188446645252e-07 
-1.06822097080882e-06 
-6.405216140721627e-07 
4.737940883708561e-07 
9.581422144011046e-07 
9.032680734963107e-07 
4.758241664116776e-07 
3.768052108873125e-07 
6.910005399135043e-07 
-2.753877869249314e-07 
-1.828428513123692e-07 
3.19160545789267e-07 
6.816453764815103e-08 
-3.950855617498329e-07 
-1.421600215035359e-06 
3.531671511245923e-07 
1.872318705406269e-06 
2.020017034641045e-06 
2.067130511084915e-06 
9.237259708795019e-07 
2.608294303265288e-07 
1.932709786448699e-06 
1.856650479093149e-06 
1.031943368721267e-06 
8.258279853285465e-07 
1.089482373858654e-06 
-1.263759037449157e-07 
-7.845083650216276e-07 
-1.537213359943859e-07 
9.026764141546166e-07 
8.672467960088824e-07 
6.628347620246106e-07 
5.245239946465328e-07 
6.121027957822569e-07 
7.226522585098361e-07 
7.823895773603127e-07 
1.018356415006104e-06 
5.316965146859599e-07 
2.433427793563148e-07 
-2.421874791079475e-07 
-1.428942400678749e-06 
2.215757849000081e-06 
1.188593072930692e-06 
3.005626527019924e-06 
3.155391261982996e-06 
1.906115510631879e-06 
8.289205471320498e-07 
1.772016674809907e-06 
2.277618502703452e-06 
2.12884713730633e-06 
1.761119264160569e-06 
1.958557922702045e-06 
6.136657029348953e-07 
-9.741039255040213e-08 
7.247154496650213e-07 
1.679191762188921e-06 
1.372404981283974e-06 
1.606833004294149e-06 
1.106357813690841e-06 
1.147595698676577e-06 
1.506853616690519e-06 
1.280216354026581e-06 
1.248539822729477e-06 
1.197061806183344e-06 
8.730673775191724e-07 
3.305105355439686e-07 
-4.540502790233004e-07 
1.425035988126601e-06 
2.29674384787232e-06 
3.396613727028717e-06 
2.935401656302521e-06 
1.596362159143084e-06 
1.58113132296545e-06 
2.500437213837279e-06 
2.48197363702668e-06 
2.542818297385435e-06 
1.627110228928529e-06 
1.804025670006944e-06 
1.046948891440987e-06 
7.255118798757358e-07 
1.457095153361168e-06 
2.526693281931864e-06 
2.423375669483135e-06 
2.548269920580159e-06 
2.461002629794551e-06 
2.268808918068759e-06 
1.728888996416926e-06 
1.326923073531815e-06 
1.310786428223055e-06 
1.619458680310678e-06 
2.037971842581035e-06 
1.59582723418775e-06 
1.579657514993809e-07 
2.397046334591385e-06 
1.729303501517277e-06 
4.084241917460988e-06 
3.609864088901945e-06 
2.321164717391712e-06 
1.992398600684765e-06 
2.71153428317768e-06 
2.860874329105151e-06 
2.880363485631004e-06 
2.137324859707338e-06 
2.381723838175478e-06 
1.814608708828664e-06 
9.931791720016292e-07 
1.789774609369431e-06 
2.282284937599915e-06 
2.493107581095918e-06 
2.594325088363129e-06 
2.085636629034904e-06 
2.124118925860139e-06 
1.869233440932643e-06 
9.798561563782897e-07 
1.069780204537908e-06 
1.589916185675472e-06 
1.703402480031041e-06 
1.318804466510966e-06 
4.155013834794884e-07 
1.858299960084174e-06 
2.978504737918968e-06 
3.708288441976664e-06 
3.379463253887688e-06 
2.674273602650014e-06 
2.41212550953747e-06 
2.616819097123889e-06 
3.240679576791148e-06 
2.584148281745826e-06 
1.557033657380877e-06 
1.735672279325502e-06 
1.0459296589336e-06 
6.32927852567631e-07 
1.00827147197832e-06 
1.866692253345083e-06 
2.188547998552601e-06 
2.374474791658215e-06 
1.984324845478498e-06 
1.986840929936652e-06 
1.479871943917179e-06 
1.049429952336433e-06 
1.328482806456993e-06 
1.356096163077715e-06 
1.56754933857477e-06 
1.06945667300146e-06 
-1.226850245186265e-08 
2.728704637139866e-06 
2.740850225554879e-06 
3.982510260067401e-06 
3.52148581774284e-06 
2.368793552595304e-06 
1.63627441674955e-06 
2.611662418801121e-06 
3.262972906568097e-06 
3.162475607059992e-06 
2.062243440263063e-06 
2.265242644233518e-06 
1.629490264775276e-06 
1.223663699416538e-06 
1.502801941041035e-06 
1.910036037388753e-06 
2.312735818629403e-06 
2.614114779629537e-06 
2.294278904125845e-06 
2.062501625529966e-06 
1.785425678570295e-06 
1.923217001693472e-06 
2.131324524406889e-06 
1.675416651753787e-06 
1.405911104072426e-06 
1.139980478902527e-06 
3.43170594744957e-07 
1.885365437575557e-06 
1.964032373800545e-06 
3.705448406704184e-06 
3.553371341931391e-06 
2.281895579484185e-06 
1.520023932661036e-06 
2.119095329916373e-06 
2.760617699820079e-06 
2.494892668616314e-06 
1.862423244444711e-06 
2.373788946750608e-06 
9.702642366108892e-07 
7.477158464849071e-07 
1.280338869932426e-06 
1.755661881850134e-06 
2.527381665581293e-06 
2.752084876783204e-06 
2.068039753488594e-06 
2.187961168969081e-06 
2.187555820417601e-06 
2.119807486482105e-06 
2.274746848538151e-06 
2.079267851836386e-06 
1.560362865301835e-06 
1.05022468034404e-06 
2.158951494877199e-07 
2.091882061353705e-06 
2.872137384539842e-06 
4.176602671278232e-06 
3.813314335727054e-06 
2.313047326546617e-06 
2.000324101161494e-06 
2.487586080116141e-06 
3.485962667962147e-06 
3.13610112272065e-06 
2.378096052398243e-06 
2.636436796093696e-06 
1.732682156206489e-06 
9.586639855341804e-07 
1.287702972358636e-06 
1.451082720833765e-06 
2.12493180931457e-06 
2.418990288629531e-06 
2.031973953888678e-06 
2.264372195178515e-06 
1.692575070706936e-06 
1.28478955660451e-06 
1.574069780336009e-06 
1.667100445488967e-06 
1.538397687935006e-06 
7.405565964772385e-07 
4.028444322921586e-08 
2.195958829361608e-06 
2.198449691977442e-06 
3.357170453167027e-06 
2.84182360379313e-06 
1.526433542033328e-06 
1.308593659919189e-06 
2.049508271240175e-06 
3.226122599986559e-06 
2.556296237836945e-06 
1.656009988038457e-06 
1.912458573707404e-06 
1.250925915017644e-06 
4.936262712462447e-07 
6.40616570983476e-07 
7.99059775889583e-07 
1.583887049241673e-06 
2.123163956114878e-06 
1.715770951551566e-06 
1.65669759983212e-06 
1.082401469078315e-06 
1.154159402971308e-06 
1.238446834653221e-06 
8.646529648956178e-07 
7.502581315980287e-07 
3.404154459378634e-07 
9.875450910968389e-08 
1.933164481825568e-06 
2.334000189314491e-06 
3.113328571500168e-06 
3.433076671062726e-06 
1.773812030708328e-06 
7.673734742456988e-07 
1.814614955381751e-06 
2.681166187690456e-06 
2.422514830376604e-06 
1.811307013207331e-06 
2.49285240035452e-06 
1.590453663814945e-06 
6.20202484234968e-07 
2.791403429741512e-07 
9.529748724895363e-08 
1.383520962225795e-06 
1.707844414877845e-06 
1.560816648587192e-06 
1.022429862975698e-06 
4.320698030493841e-07 
9.57030154623159e-08 
3.145637755330781e-07 
3.711854214320245e-07 
6.302311374197331e-07 
-8.268929218315131e-08 
-3.409685811012587e-07 
2.451418694756426e-06 
2.391922683265498e-06 
4.196703585160287e-06 
3.637711012245798e-06 
2.618155573157707e-06 
9.876497762601173e-07 
1.713652349285608e-06 
3.220564125960991e-06 
3.312913552797165e-06 
2.033842997197225e-06 
2.890222827471383e-06 
1.320860378156813e-06 
1.91063639768449e-07 
5.6828270731996e-07 
9.130523030551195e-07 
1.051355797118818e-06 
1.479476091194259e-06 
1.659875051985064e-06 
1.347818298076943e-06 
5.100935668050697e-07 
5.107502792911132e-07 
7.064375418040365e-07 
5.98414030041001e-07 
6.76553826391146e-07 
-1.730719163885257e-07 
-4.703070375519337e-07 
1.018743503212744e-06 
1.557211648919767e-06 
3.057711478149857e-06 
2.367446004991564e-06 
1.050395748202251e-06 
7.815795337923247e-07 
1.833796235228466e-06 
2.78738334120875e-06 
3.051935199110669e-06 
2.166938798929077e-06 
2.401511312423606e-06 
1.025791175800072e-06 
7.588752209430986e-07 
9.89400210578515e-07 
1.047417310688254e-06 
1.464468888753854e-06 
1.718886817524204e-06 
1.982626671142662e-06 
1.579480810467831e-06 
6.261819669470425e-07 
5.198923784765079e-07 
8.578755714450167e-07 
9.200422683111845e-07 
9.498958697882304e-07 
2.067883346788885e-07 
-1.104448227126426e-07 
1.262047387844485e-06 
1.987367899088686e-06 
2.513826902253248e-06 
2.105809974152384e-06 
1.016225502924514e-06 
-2.193646676312585e-07 
1.822129384689158e-06 
3.16800211106963e-06 
2.64043843011137e-06 
2.093558371254783e-06 
2.595647289268366e-06 
1.639639738987821e-06 
5.009009152853542e-07 
7.380417589418442e-07 
1.276313275795411e-06 
1.642769733712211e-06 
1.938383656137166e-06 
1.875410616702801e-06 
1.582678311662116e-06 
1.380316246348084e-06 
9.39960955365253e-07 
1.401297791878909e-06 
1.343754676213415e-06 
1.196658150345056e-06 
2.647656697747609e-07 
-5.747887261659652e-07 
7.982908712842584e-07 
1.274505992456586e-06 
3.961699211359285e-06 
2.882588301099919e-06 
1.38844348616306e-06 
3.167850972719123e-07 
2.781655955788096e-06 
3.408446580960082e-06 
2.722774863863492e-06 
1.688632689991775e-06 
2.312150529528543e-06 
1.337008982348553e-06 
3.197805891054391e-07 
6.061609576716065e-07 
1.041854779571183e-06 
1.434425073962182e-06 
1.490019412653255e-06 
1.47067927928096e-06 
1.146119170613707e-06 
8.501005977128033e-07 
1.079408994827097e-06 
1.318377352813333e-06 
8.850950476406014e-07 
7.225588210201068e-07 
-7.593274124114267e-08 
-6.531839052683233e-07 
7.477044839733451e-07 
8.681559457559847e-07 
3.22297640311017e-06 
3.098557999257889e-06 
1.604483437802781e-06 
7.348331097141939e-07 
2.094831949355853e-06 
2.881450735888349e-06 
2.560695155477851e-06 
1.744614496112974e-06 
2.620305804774111e-06 
1.618462025007385e-06 
6.843511660169859e-07 
8.377914542739869e-07 
1.002898164563019e-06 
1.339764422495476e-06 
1.581201812090565e-06 
1.651456483159021e-06 
1.092008856965116e-06 
6.447503397494726e-07 
5.043477494888847e-07 
8.343328179228345e-07 
1.804351493047137e-07 
6.251694768309454e-07 
-5.413773395248356e-08 
-4.186100462437976e-07 
1.060334197409773e-06 
1.103854086821455e-06 
2.823096264996158e-06 
2.396770283103091e-06 
1.698055442938846e-06 
1.153942933679723e-06 
2.870499229851046e-06 
3.488387126709589e-06 
2.656782191210577e-06 
1.904200390063996e-06 
2.315721721631178e-06 
1.268553252554413e-06 
-1.309544397048653e-07 
5.7091247899728e-07 
1.251255063941486e-06 
1.43088810750382e-06 
1.620688813368723e-06 
1.6257199771008e-06 
8.831820842940628e-07 
3.128092887331293e-07 
5.397104495108945e-07 
6.554798322913592e-07 
1.811020839736845e-07 
4.499245916039348e-07 
-1.322854956050641e-07 
-5.728698620008309e-07 
2.753408193275991e-06 
7.918202540954762e-07 
3.176873545485572e-06 
3.214355839061197e-06 
1.577842864684533e-06 
1.513785104754416e-06 
2.544913709115975e-06 
3.348897885093172e-06 
3.111527607849849e-06 
1.921528672866434e-06 
2.041684789852538e-06 
5.385489177820803e-07 
7.123800749625433e-08 
1.878378527958727e-07 
9.0350241799298e-07 
9.378352819454216e-07 
1.5279928339249e-06 
1.603330525662127e-06 
1.222352266344758e-06 
6.716831516770012e-08 
1.568455254877168e-07 
4.845725679837615e-07 
2.791534814025055e-07 
5.436994995125309e-07 
-4.851091120042488e-07 
-6.814559308553695e-07 
2.017694981635545e-06 
9.139899667268226e-07 
2.566471918044417e-06 
2.437312553108347e-06 
1.455861465046013e-06 
7.886676733892212e-07 
1.97119096026779e-06 
2.765564985640571e-06 
1.903499809070749e-06 
1.140329320445289e-06 
1.808344839706683e-06 
6.983249076022296e-07 
-4.423155560586893e-07 
-8.407140384360129e-08 
8.969495241400632e-07 
7.091464464970669e-07 
1.056610287775501e-06 
1.126968186425653e-06 
7.002212767082066e-07 
-7.650888795349215e-08 
-5.394858207432887e-07 
-3.262110174884957e-07 
-3.943571483481799e-07 
2.598173462803562e-07 
-4.049258287589677e-07 
-7.398107629838659e-07 
9.581953418969716e-07 
-1.473898657553885e-07 
2.27588698897284e-06 
1.953717793531358e-06 
9.291988930439797e-07 
9.516814495329381e-07 
2.404222252301034e-06 
2.617300996067645e-06 
1.352872862140053e-06 
9.886745899114932e-07 
1.554007553640979e-06 
8.182387173949516e-07 
-2.190813630484398e-07 
-6.116997987930881e-08 
1.031660428593192e-06 
9.424733995732857e-07 
1.077154794922878e-06 
1.183256479858087e-06 
1.26864065811001e-06 
2.594226402892845e-07 
-3.892037913488005e-07 
-3.638868906677e-07 
5.692800635896106e-08 
5.265893693905289e-07 
-4.713214866662158e-07 
-7.92344923235771e-07 
1.779824664431071e-06 
-3.947608235349175e-07 
2.434258333332302e-06 
1.925354466469612e-06 
1.769492639179376e-06 
1.911487249613986e-06 
2.734794369454338e-06 
2.945662368244205e-06 
1.726021557437465e-06 
1.508721786562723e-06 
2.362422726597484e-06 
7.135434950349933e-07 
-3.287255329232271e-07 
4.863262075133096e-07 
9.202298880923007e-07 
1.069503161769568e-06 
1.064666001985142e-06 
1.491750845927772e-06 
1.274829990428768e-06 
1.605644342808539e-07 
-5.757399394724371e-07 
-4.677182109564854e-07 
1.502780845553323e-07 
6.759061256395408e-07 
-1.524517375545656e-07 
-6.248956133803616e-07 
1.243390811398923e-06 
-1.783664946390871e-07 
2.39755735337044e-06 
2.290680784326523e-06 
2.34201063521824e-06 
1.74432746016756e-06 
2.92728143515981e-06 
3.256263825296813e-06 
2.444167659012872e-06 
2.177043992255144e-06 
2.434307229762869e-06 
1.052721419533584e-06 
5.335943964105053e-07 
5.755583689483903e-07 
1.601944375711408e-06 
1.474792668497315e-06 
1.207605769840915e-06 
1.328078045189919e-06 
1.43215143258932e-06 
8.99833958527682e-07 
1.479457665587471e-07 
1.998986376355177e-07 
4.530542364594284e-07 
8.11249814643193e-07 
2.05936475921674e-07 
-1.478826174653597e-07 
7.203923376950942e-07 
6.503813010526208e-07 
2.492034166359468e-06 
1.944370497706325e-06 
2.029917075060674e-06 
1.806656956571851e-06 
2.992268748840364e-06 
2.956412387763429e-06 
2.749350786151362e-06 
2.178860955302082e-06 
2.614047979122286e-06 
1.130670040521161e-06 
6.959840740001372e-07 
1.177212554203434e-06 
1.85833118597179e-06 
1.755289927148457e-06 
1.429203816607247e-06 
1.766666192194899e-06 
1.68119280696284e-06 
8.891307424953906e-07 
7.785858128389625e-08 
9.895965072368746e-08 
5.916926049209513e-07 
9.348564664506387e-07 
1.581278331938366e-07 
-2.102680727897748e-07 
8.754211119551393e-08 
4.252601454959609e-07 
2.291087732028051e-06 
1.585000525137953e-06 
1.411877174916834e-06 
2.085925584955329e-06 
3.340435022721246e-06 
2.508051228943987e-06 
2.450589748404019e-06 
2.029927938734055e-06 
1.616064792498935e-06 
4.75802951891521e-07 
1.997823453429939e-07 
8.426541479450403e-07 
1.887148825402223e-06 
1.639249336435819e-06 
1.223044179692385e-06 
1.653922824219273e-06 
1.490713521520042e-06 
1.352557809747066e-06 
5.083435239024059e-07 
6.532028226844188e-07 
1.029052284402897e-06 
7.460622041661415e-07 
2.304345987467354e-07 
-1.803531911130755e-07 
1.48398679897625e-07 
1.688588475570992e-07 
2.404864091775672e-06 
2.299681730409968e-06 
1.064025474799054e-06 
1.565065377359771e-06 
2.210422988254809e-06 
2.320264344456009e-06 
2.248358258411959e-06 
1.74782818346094e-06 
2.195724999390924e-06 
1.11074730652347e-06 
1.774161716783329e-07 
7.472538605191652e-07 
1.308066776977e-06 
1.114174907707885e-06 
4.578263672940563e-07 
8.984198076632612e-07 
6.986037656773828e-07 
5.734814430924532e-07 
-4.20138591023884e-08 
1.548231148382034e-07 
-3.050064558581765e-09 
-1.405953343301157e-07 
-3.378360972875844e-07 
-3.18925502638126e-07 
1.953514318934799e-07 
3.662236758266704e-07 
1.637848087125266e-06 
1.612008712366472e-06 
9.106257323460356e-07 
2.363842445792483e-07 
1.936076951834011e-06 
2.288718012935769e-06 
1.907157463908479e-06 
1.614887279675647e-06 
2.06697684479447e-06 
1.783627875927563e-06 
5.680404972138144e-07 
9.675899909466249e-07 
1.181576689507218e-06 
9.243419098801038e-07 
6.639579523212875e-07 
1.408791724009112e-06 
1.175111300194407e-06 
8.815588729762523e-07 
-8.10277641516879e-09 
1.075666538451392e-07 
3.245324661645909e-07 
1.21950311755883e-07 
-2.587261806181388e-07 
-3.588039778486698e-07 
-1.072041436561049e-06 
5.28585064401542e-07 
1.88944123837206e-06 
1.175638069264071e-06 
8.708613594246549e-07 
9.250330016730936e-07 
2.458427673205926e-06 
2.287052975071006e-06 
2.076626547579137e-06 
1.24678586886473e-06 
1.472027272870373e-06 
9.93934515226766e-07 
6.73056878004315e-07 
1.440384828967979e-06 
1.973489408680301e-06 
1.427481782634694e-06 
1.347851735418835e-06 
1.810897065176933e-06 
1.503784167571713e-06 
8.003623533970821e-07 
-4.417726368151225e-07 
-2.147092099239016e-07 
4.053172959090988e-07 
5.822899743205875e-07 
1.518536022572563e-07 
-1.96983563945207e-07 
4.835071841924657e-07 
8.413779602619333e-07 
2.38648692459753e-06 
2.704291302484813e-06 
1.408437729514646e-06 
1.715159558771506e-06 
2.57478405937223e-06 
2.495001724222334e-06 
2.376748466769975e-06 
1.604530063887901e-06 
1.947904482258487e-06 
9.596547950683517e-07 
8.507249880873375e-07 
1.313303659211818e-06 
1.818772938905614e-06 
1.468972383040428e-06 
1.452593788143917e-06 
1.533729524760858e-06 
1.175400921832684e-06 
3.087280998915273e-07 
-1.353842271298845e-07 
2.814099463969777e-07 
3.297405025453497e-07 
7.478170555277473e-07 
3.500594846061812e-07 
-3.9966350029013e-08 
1.316191168123406e-06 
5.500025353852349e-07 
1.550283852028945e-06 
1.885581265580365e-06 
1.322157533503938e-06 
1.94632808258175e-06 
2.473691689675513e-06 
2.728465155055939e-06 
2.122840837277019e-06 
1.49139890442864e-06 
1.960814338694462e-06 
5.7812625869965e-07 
6.722755153119924e-07 
1.261481182399523e-06 
1.67486042256772e-06 
1.632810476520939e-06 
1.725847680273785e-06 
1.581049086362565e-06 
9.17790639612517e-07 
8.238110297453878e-08 
-6.3003379073589e-07 
-4.264275756295895e-07 
-1.244922884731365e-07 
5.736417062292442e-07 
2.298507386371346e-07 
-3.970744762498767e-07 
2.223742846111697e-07 
3.887859938063915e-07 
2.418869129805996e-06 
1.946807829990539e-06 
1.265961130273139e-06 
1.154181103186863e-06 
2.337182597475159e-06 
2.197265444343728e-06 
1.621658989347476e-06 
1.668880014987923e-06 
1.979022648639606e-06 
5.268671992349029e-07 
2.192321180361443e-07 
3.315447442369423e-07 
1.201420142857018e-06 
8.47316770206475e-07 
1.169790164602528e-06 
1.64381563986414e-06 
9.474688653529477e-07 
4.534624466503848e-07 
-3.351590409911698e-07 
-1.529422053508522e-07 
3.187166225858491e-07 
6.838602859418551e-07 
-4.614580846235417e-08 
-2.664524977939865e-07 
-4.353045287747811e-07 
1.104795431269882e-06 
2.41735114419707e-06 
2.699854353694636e-06 
1.678397475137282e-06 
1.830445697489551e-06 
2.391096107891871e-06 
2.50106449002414e-06 
1.705385947634194e-06 
1.05202633925976e-06 
1.71364283112006e-06 
3.171951944282324e-08 
1.776562957479345e-07 
6.525237205440475e-07 
1.160694824092779e-06 
8.742346326600628e-07 
1.263591075370194e-06 
1.367128994797658e-06 
8.845676880045529e-07 
4.938865067131467e-07 
2.867120144601978e-08 
1.060057994682608e-07 
4.56348460477251e-07 
9.181351147578496e-07 
-3.378798556063743e-08 
-4.217848919419849e-07 
4.682939419131069e-07 
4.565017271549103e-07 
2.482680223697428e-06 
2.95783376540584e-06 
2.241854852128713e-06 
1.831737465492993e-06 
2.324152506142329e-06 
2.732746884625701e-06 
2.236010776064735e-06 
1.235039727954149e-06 
1.257268959320492e-06 
8.150231687831696e-08 
-5.302141157551933e-07 
4.460350151087944e-07 
5.054553063967146e-07 
6.115831814930951e-07 
8.438012227337923e-07 
7.585562420423151e-07 
1.552396247954063e-07 
2.25886463366094e-07 
3.363080672023159e-07 
4.009864294482867e-07 
1.590696043692196e-07 
3.705776082499538e-07 
-3.454299279337215e-07 
-8.204287590436298e-07 
2.423163929637292e-07 
2.886653154609185e-07 
2.661084418233881e-06 
2.846729969146575e-06 
2.090990550616043e-06 
2.097956641117105e-06 
2.361696875190334e-06 
2.868579103126358e-06 
2.020042829698513e-06 
1.038622786591779e-06 
1.610558145989931e-06 
2.694828935685502e-07 
-5.303097379837742e-07 
9.777141487226453e-08 
5.398243991413304e-07 
1.489742183990175e-07 
7.336204672235867e-07 
9.528647712334059e-07 
8.177671577735905e-07 
1.194113667550947e-07 
-4.339140629625296e-07 
-3.934787628830288e-07 
-7.37848969864445e-09 
4.006440580439318e-07 
-5.034111032993451e-07 
-6.54455104238659e-07 
5.580008017241158e-07 
3.579193896087752e-07 
1.974027802536292e-06 
2.006300794112369e-06 
1.140115288950791e-06 
8.831819450501046e-07 
2.290869064190463e-06 
2.406762494538043e-06 
1.271933520949318e-06 
5.041125280744385e-07 
1.027193961780342e-06 
4.236956986212776e-08 
-1.136327075615033e-06 
-3.649175395116413e-07 
2.373196280920117e-07 
1.609013282116254e-07 
5.070622809468629e-07 
8.068499303503721e-07 
1.963789653273115e-07 
-4.163915530333964e-07 
-6.394894220608541e-07 
-5.363069500392585e-07 
-3.267591600128396e-07 
6.199341491258624e-08 
-8.876460050068244e-07 
-1.215858325051764e-06 
1.155935472739102e-06 
1.300054354503698e-07 
1.836165618279729e-06 
1.963269492887675e-06 
1.286937276610438e-06 
4.754737584019338e-07 
2.670529643255569e-06 
2.080368190700871e-06 
1.224473885469279e-06 
5.110738356396493e-08 
5.396976989007339e-07 
-1.037358475246715e-06 
-1.624798977137767e-06 
-9.600431386579897e-07 
-3.974238469885319e-07 
-9.220578903424746e-07 
-4.24100593924508e-07 
-3.656198817868385e-07 
-7.873043324876572e-07 
-1.176340955905656e-06 
-1.118626419962662e-06 
-1.18929247472271e-06 
-1.140073565053515e-06 
-8.284694079849957e-07 
-1.424256024441929e-06 
-1.543484159629043e-06 
5.965527892616827e-07 
3.875869120075503e-07 
1.599448032921474e-06 
1.029863059110253e-06 
3.850877290266594e-07 
2.934151709595414e-08 
1.540671440566049e-06 
1.332511358535985e-06 
4.069190937645744e-07 
-4.964360434486268e-07 
-2.739920777372296e-07 
-1.789402396019528e-06 
-2.257562974360013e-06 
-1.487087466994751e-06 
-8.776865643881467e-07 
-1.0866620252408e-06 
-7.036303202731202e-07 
-4.199904982362242e-07 
-7.633649732900993e-07 
-7.684690798217335e-07 
-7.003239935927041e-07 
-4.409763916441998e-07 
-8.556777099066497e-07 
-1.07889490548702e-06 
-1.916929976799664e-06 
-2.305823052280005e-06 
1.751474512662662e-08 
6.648483216380569e-07 
2.475465104796344e-06 
1.395785195893081e-06 
1.090305980211375e-06 
1.485177024184909e-06 
1.766359810111751e-06 
1.938466054287633e-06 
1.145952712941559e-06 
3.499505701461666e-08 
1.003948601151373e-07 
-1.732435949282753e-06 
-2.493292810689278e-06 
-1.729531282949012e-06 
-6.810325088694098e-07 
-1.322953232198982e-06 
-5.353457096271817e-07 
-2.533018275420111e-07 
-5.817389310303433e-07 
-7.635612510043573e-07 
-1.051917823470519e-06 
-8.871536235025135e-07 
-9.714707665557222e-07 
-1.222020251294381e-06 
-2.152245717025679e-06 
-2.293930708541309e-06 
4.075968279149259e-07 
9.116890091624581e-07 
2.525771962937107e-06 
2.161661403508374e-06 
1.840871868196699e-06 
1.730478431099412e-06 
2.841677845954214e-06 
2.65473131541465e-06 
2.209134895963849e-06 
8.546055938424965e-07 
3.93023827795279e-07 
-1.148151757266829e-06 
-1.804617411673411e-06 
-1.397749673324982e-06 
-5.333817400383656e-07 
-1.093967217513242e-06 
-5.83329396188744e-07 
1.421427474865543e-07 
-3.09680540885719e-07 
-1.090470986845684e-07 
4.941935537876065e-08 
1.127047620916361e-07 
-4.959745912474055e-07 
-8.452531237956533e-07 
-1.773057787545046e-06 
-2.112667452951427e-06 
1.286139789302644e-06 
1.321535859728828e-06 
2.642366801226114e-06 
2.60844709686917e-06 
2.796796179060557e-06 
2.561316332253497e-06 
3.115240737255179e-06 
2.68773032128867e-06 
1.667458047929665e-06 
9.826192513304036e-07 
8.728977130145342e-07 
-5.812798328155594e-07 
-1.835095173732878e-06 
-1.105281457736718e-06 
-3.112688993406439e-07 
-5.759076504149367e-07 
-2.513036381305436e-08 
2.451595000286248e-08 
-1.87757432116281e-07 
-3.663152960310031e-07 
-1.518538531925385e-07 
-1.56444999777249e-07 
-2.983796836983762e-07 
-8.819548593598121e-07 
-1.7156326492098e-06 
-2.128048670177515e-06 
-2.561399992052736e-07 
6.820777720136219e-07 
2.211983448127128e-06 
1.979015312735241e-06 
2.085385386826519e-06 
1.710249201144431e-06 
2.274647428009716e-06 
2.452946912768511e-06 
1.624140842000771e-06 
5.363514331344855e-07 
4.882766095920868e-07 
-7.74255114826084e-07 
-1.702360288468059e-06 
-1.391453254855145e-06 
-8.026608401236249e-07 
-1.037003806362783e-06 
-1.071081538624684e-06 
-5.774470063502707e-07 
-4.0052627547531e-07 
-1.243390075180733e-06 
-3.943979101765838e-07 
-3.382188054105934e-07 
-1.542261057068113e-06 
-1.515562900867446e-06 
-2.803778452550085e-06 
-2.499135190284559e-06 
1.783703480243409e-06 
1.327112819715431e-06 
3.545902568876033e-06 
3.152625761526666e-06 
2.64127142943587e-06 
2.501005905869154e-06 
3.508875959573775e-06 
3.556967453605748e-06 
2.661804490720357e-06 
1.839236782698401e-06 
1.862960439742216e-06 
3.569234435666493e-08 
-1.057037358647862e-06 
-3.521581737503524e-07 
7.326116911558419e-07 
2.933932440258677e-07 
3.870286423979103e-07 
2.314812403230928e-07 
4.046977201704373e-07 
7.306657946704574e-08 
5.715108106728378e-07 
5.186744881592291e-07 
4.551299915909673e-08 
-6.338260138351087e-07 
-1.38187657798982e-06 
-1.275941936580876e-06 
-9.479274082034077e-08 
1.031770263285972e-06 
2.864889261823708e-06 
3.156954103065999e-06 
3.146858460259949e-06 
2.903766236927249e-06 
3.89834883856385e-06 
3.374043298306006e-06 
2.925453345114542e-06 
2.17111162553027e-06 
1.713818728980631e-06 
4.116248752248524e-07 
-6.606409119565006e-07 
1.187242958973177e-07 
1.154154706116321e-06 
5.386559018706391e-07 
7.726608777273926e-07 
5.559100960529252e-07 
3.390152956515428e-07 
9.609177839509359e-08 
-4.14540232305137e-07 
-3.704007084208508e-07 
-8.481947123145705e-08 
-2.823029627695851e-07 
-8.879175445236882e-07 
-8.819093929374911e-07 
3.307317909286892e-07 
1.562121954684635e-06 
2.673960050174063e-06 
3.021214077038131e-06 
2.09516365107134e-06 
2.716814563560397e-06 
3.473776948684522e-06 
2.597119716219532e-06 
2.039635304040369e-06 
1.58192316412736e-06 
1.387575621416653e-06 
4.183135234741224e-08 
-6.82752220113366e-07 
-1.347264204178297e-07 
8.938045177723865e-07 
1.700661441756282e-07 
6.605727364519691e-07 
3.747607306672482e-07 
3.127059703332331e-07 
5.939392804437802e-07 
1.34573822639727e-06 
1.370081833193393e-06 
1.563470688820269e-08 
-5.853564301535716e-07 
-1.500983277709326e-06 
-1.629843162498762e-06 
-1.289660685346527e-07 
1.84973466837071e-07 
2.731149763208888e-06 
2.649324645127606e-06 
2.014708151566943e-06 
2.581663481556982e-06 
3.359608498893748e-06 
3.116685377536845e-06 
2.960728531573527e-06 
1.646987410847104e-06 
1.764900181317276e-06 
1.043347447898297e-08 
-2.476030084127553e-07 
2.12674051154617e-08 
9.403417611629255e-07 
3.752990596880723e-07 
5.731270097263078e-07 
7.926834631184435e-07 
5.698821824399502e-07 
-2.900463089496339e-08 
-3.339416099199365e-07 
-7.045802590776843e-08 
-3.75677002288857e-07 
-2.974866529816747e-07 
-1.094526151935281e-06 
-8.292168650700957e-07 
-3.125542369301808e-07 
3.299850581309056e-08 
2.201597069921018e-06 
1.872050259353549e-06 
1.515006330831131e-06 
1.414284657404828e-06 
2.596892060268218e-06 
2.846675569922103e-06 
1.732694897439419e-06 
9.996202708870499e-07 
9.725714139498299e-07 
-2.0279959013207e-07 
-8.082287101609022e-07 
-2.800066399331428e-07 
3.942592163936112e-07 
4.42575264013187e-07 
5.470973736245196e-07 
7.194502001636791e-07 
3.486697673029097e-07 
-2.965069880133994e-07 
-1.520418802381083e-07 
2.259566080884104e-07 
-4.834382373169082e-08 
-1.845843854585569e-07 
-1.118896341367257e-06 
-1.647858005233035e-06 
-6.379550758609851e-07 
1.690700402619065e-07 
2.51709253040777e-06 
1.896222106203147e-06 
1.332776541199229e-06 
1.253373537774769e-06 
2.328643233116848e-06 
2.516575162994289e-06 
1.552674828417219e-06 
6.16610323008282e-07 
8.833091795448902e-07 
-3.082844822740205e-07 
-1.357274320670875e-06 
-8.703986200244703e-07 
2.82927431251727e-07 
-1.053004129559238e-07 
5.543090591417885e-07 
5.272409808819576e-07 
6.194562444754987e-08 
-5.077924173961835e-07 
-1.101664203034802e-06 
-8.987994784222432e-07 
-7.08307269518085e-07 
-5.672317124984626e-07 
-1.278171959386033e-06 
-1.586244055527679e-06 
-1.986057301712162e-07 
-6.180665954590257e-07 
1.902579211252722e-06 
2.103420161995955e-06 
1.218489119585569e-06 
9.081979729520631e-07 
2.149958212201306e-06 
1.953385499556703e-06 
1.280733575353288e-06 
1.919741554313162e-07 
2.915541698878866e-07 
-7.054699086833466e-07 
-1.758238247711441e-06 
-1.209774406047616e-06 
2.785437442519393e-08 
-3.93989243542871e-07 
-1.091439612362327e-07 
-2.889247982865038e-07 
-1.39915254860268e-07 
-2.030718102106949e-07 
8.491192944625544e-08 
3.747068353513844e-08 
-3.505476217774367e-07 
-8.996680192106051e-07 
-1.611832760052944e-06 
-1.886212681643045e-06 
-5.382714034572689e-07 
5.163704082828357e-07 
1.859133653801131e-06 
1.881086662766413e-06 
1.056008104920281e-06 
5.377646903426998e-07 
1.789513128217413e-06 
2.350707485927946e-06 
1.626112701737568e-06 
3.823721705515576e-07 
4.560263649505021e-07 
-6.400122356248068e-07 
-1.593458537344882e-06 
-1.731653730607444e-06 
-4.394261911884857e-07 
-5.315826701286767e-07 
-3.613905684730506e-07 
-8.132190748665264e-07 
-7.892368374650663e-07 
-6.475285597072817e-07 
-3.860307028635402e-07 
-1.602614457193361e-07 
-6.857515551439615e-07 
-1.483610161102392e-06 
-1.846322540371145e-06 
-1.888855083868342e-06 
8.599327014347735e-07 
2.639310115520326e-09 
2.151891181773259e-06 
1.539647659848284e-06 
5.334460977940141e-07 
4.44868871971386e-07 
1.592744905885204e-06 
1.836152582016822e-06 
1.418011300538721e-06 
4.417235172951074e-07 
1.10749416334628e-06 
-7.133868186779845e-07 
-1.815419436042878e-06 
-1.860395526085205e-06 
-3.316907244070388e-07 
-5.052771077815439e-07 
-1.550416678468397e-07 
-5.919290066990441e-07 
-5.079284898468018e-07 
-6.857692625973932e-07 
-1.031924227501647e-06 
-5.890694030945868e-07 
-4.950708358951722e-07 
-1.076799168785208e-06 
-1.791515276266918e-06 
-1.828109661937516e-06 
-1.725826679312803e-08 
9.902899957751602e-07 
1.483902378558583e-06 
1.306769401906502e-06 
1.368524351438688e-06 
5.172997019963528e-07 
2.28872413596425e-06 
2.379276604196351e-06 
2.125405178398908e-06 
9.648093554645309e-07 
1.36793913737831e-06 
-2.922017273791316e-07 
-1.236508147824858e-06 
-9.114126793331741e-07 
3.760395362479635e-07 
1.557371655497171e-07 
-4.039161837718641e-07 
-8.304915143692622e-07 
-6.524395398135888e-07 
-8.348839345284125e-07 
-1.1624839241247e-06 
-9.737203890171633e-07 
-1.05505128553882e-06 
-1.308044726116366e-06 
-1.480142880851717e-06 
-1.209949879634403e-06 
1.038991144903167e-07 
7.392830361487778e-07 
1.910126747547268e-06 
1.731805716582329e-06 
1.114913120302048e-06 
1.03251343686302e-06 
1.9849028210822e-06 
1.886716407047718e-06 
1.505062523896722e-06 
8.398720025732552e-07 
1.261001819497118e-06 
-5.873549513930994e-07 
-1.150196113158704e-06 
-5.446648051221104e-07 
2.414818395616222e-07 
8.236277930185606e-08 
-2.194544878801426e-07 
-5.196584806475324e-07 
-6.533036141210528e-07 
-8.564684700173277e-07 
-8.899537500860852e-07 
-7.284039715632989e-07 
-8.48638679871494e-07 
-1.096009315270156e-06 
-1.531235659512507e-06 
-1.171134500465941e-06 
-3.208126173011707e-08 
7.827229765011889e-07 
1.318368344333027e-06 
2.016128359496414e-06 
1.045599763243841e-06 
1.202781439799842e-06 
2.348197684921054e-06 
1.645642487132559e-06 
1.519616340567799e-06 
1.230670964737196e-06 
1.705307307068256e-06 
-3.791306660629686e-07 
-1.48349683486278e-06 
-7.219080540386639e-07 
6.057479613203275e-07 
3.513043108244032e-07 
-1.728452898830781e-07 
-4.777470988904502e-07 
-4.873185751369309e-07 
-2.394319442099707e-08 
4.684560119396927e-07 
6.797193310490113e-07 
6.33114975889102e-09 
-1.046958164605334e-06 
-1.354881198879426e-06 
-1.145982383380639e-06 
-1.350984807213844e-06 
-1.049637410730166e-06 
4.538830390438859e-07 
8.105444153498458e-07 
5.064689596659376e-07 
7.180470641432858e-07 
1.992983838855188e-06 
1.850747316183471e-06 
1.296733833849994e-06 
1.190121140178952e-06 
1.365809997634295e-06 
-8.942314159721485e-07 
-1.714016860458864e-06 
-9.881799987206196e-07 
1.426365461534664e-07 
-1.021677710184445e-07 
-6.557263013328138e-08 
-3.783968855976723e-07 
-1.280829963497941e-06 
-1.82605314372186e-06 
-2.477924434921183e-06 
-2.132061513689967e-06 
-2.119325501195483e-06 
-1.795855526511682e-06 
-1.909934740456114e-06 
-1.63094188437745e-06 
-1.873836972136136e-06 
-8.261854429318351e-08 
4.816358276179997e-07 
5.370918802579899e-07 
5.38660484727138e-07 
3.311816185584293e-07 
1.77203495180899e-06 
1.798688059140407e-06 
1.165567558801337e-06 
3.309501295761439e-07 
1.301686779423228e-06 
-2.246992791805382e-07 
-1.857907806039712e-06 
-1.020768826037285e-06 
6.808179453621105e-08 
5.398349346561573e-09 
3.297857899619843e-07 
-7.053705120846046e-08 
-1.005940095671842e-06 
-7.875126409832941e-07 
-4.132551153478336e-07 
-3.836532062951853e-07 
-7.071305475050255e-07 
-1.464843533195514e-06 
-1.828957807365719e-06 
-1.574794876725234e-06 
-1.290120590153756e-06 
-1.027905925308455e-06 
1.348697250298372e-06 
9.541330795286925e-07 
-1.32194843612557e-07 
1.28572639818106e-07 
1.429751517440961e-06 
1.072125702564839e-06 
1.121720799481294e-06 
9.701131756385069e-07 
1.504458491720456e-06 
-7.243903785942438e-08 
-1.45811597574249e-06 
-1.40037886304986e-06 
-7.82340317684682e-08 
-3.843832376947767e-07 
-1.30359157814588e-09 
2.905102665182609e-07 
-5.774385628974525e-07 
-1.118968027374185e-06 
-1.083959294833646e-06 
-1.027730769706942e-06 
-1.180343887766714e-06 
-1.113399472827108e-06 
-1.706464997017601e-06 
-1.563093322596178e-06 
-2.203928152834528e-06 
-1.078908092526847e-06 
1.801807109529508e-06 
1.36854758877061e-06 
4.432650687373101e-07 
5.060808155739329e-07 
1.495956121746521e-06 
1.689133182771278e-06 
1.767693066912611e-06 
1.338325533144511e-06 
1.594515786537341e-06 
-7.874160613059441e-08 
-1.579436272176099e-06 
-1.328949765927723e-06 
4.986838603102799e-07 
1.554338819463144e-08 
3.917581023088215e-07 
5.655582451113384e-08 
-5.536588767938175e-07 
-1.458122640033465e-06 
-1.54380413608031e-06 
-1.281854198811847e-06 
-1.324192641263338e-06 
-1.099823805912304e-06 
-1.434368542451588e-06 
-1.251393085542747e-06 
-1.312640757013867e-06 
-2.045272369931822e-07 
1.473445237404942e-06 
1.209333064836959e-06 
3.801235933752291e-07 
4.336752926723296e-07 
8.131651142892875e-07 
1.291220421688638e-06 
1.036488839383943e-06 
3.015054082896411e-07 
9.161519537991653e-07 
-4.473969007724897e-07 
-2.083878534236045e-06 
-1.769324904136867e-06 
-2.990083365341275e-07 
-3.445354405516253e-07 
8.218085726792975e-08 
-5.221699888795833e-07 
-9.800142031146346e-07 
-1.340349884956893e-06 
-1.608089887428742e-06 
-1.388133647207481e-06 
-1.130369711489804e-06 
-1.411089789920025e-06 
-1.862656059995892e-06 
-1.930954569960878e-06 
2.041032565642552e-07 
1.004006816743735e-06 
1.733445144244887e-06 
1.194432683204128e-06 
1.206582681781287e-07 
2.177276344170368e-08 
1.092554367719055e-06 
1.006613961948832e-06 
9.767215935983159e-07 
2.636006140991108e-07 
8.053146150336028e-07 
-2.299042973349485e-07 
-1.883481470268807e-06 
-1.447135824049903e-06 
-6.98895336148825e-08 
-2.514717074265853e-07 
5.283869670141107e-08 
-2.978834475901299e-07 
-6.874197311382293e-07 
-5.16537839792607e-07 
-1.315883024177604e-07 
2.007872330924165e-08 
-5.637867129550035e-07 
-1.454674373397595e-06 
-1.824585492001408e-06 
-2.116373943238499e-06 
1.401602827851785e-06 
7.063316352977416e-07 
2.814752887232505e-06 
2.211082342061091e-06 
1.748233043709967e-07 
1.440014445867465e-07 
1.07574565107968e-06 
1.291658798121876e-06 
1.623425288261662e-06 
1.24946200988711e-07 
3.409236775742296e-07 
-2.740534513127696e-07 
-2.064476485332088e-06 
-2.102577147689281e-06 
-5.67876606243883e-07 
-5.116433760584047e-07 
-8.466000141357662e-08 
-7.298159710713366e-07 
-9.879244965040374e-07 
-1.115718495452471e-06 
-1.255961718151888e-06 
-1.067237410659827e-06 
-1.249050459617516e-06 
-1.728355476613077e-06 
-2.180967052565468e-06 
-2.256354391870038e-06 
2.671565347048624e-07 
1.122035194606102e-06 
2.463489287377667e-06 
1.906031904146173e-06 
6.552103517979002e-07 
8.731737789227026e-08 
9.89957779232063e-07 
1.207148352290327e-06 
9.331726147280348e-07 
-1.376186164584158e-07 
5.172965082005321e-07 
-6.094597366712088e-07 
-2.374813262585144e-06 
-1.952624137990937e-06 
-6.192827403016994e-07 
-8.408808624337536e-07 
-8.920636675623548e-07 
-7.260198718862763e-07 
-7.593218637654974e-07 
-6.31874932870217e-07 
-3.350981224377763e-07 
-7.247233745480224e-08 
-9.14595880912099e-07 
-1.7415280187191e-06 
-2.513544352415646e-06 
-2.187592312303032e-06 
9.686308517741086e-07 
1.950412320740575e-06 
2.858702752893144e-06 
1.560436962396556e-06 
1.560164855645274e-07 
-3.389619678194475e-07 
5.094216591596757e-07 
1.376821661722072e-06 
1.274867995009497e-06 
3.078838090209046e-07 
3.85837504331574e-07 
-9.618210019096491e-07 
-2.599160031220357e-06 
-1.990061389150883e-06 
-7.580757823435883e-07 
-8.66694865976324e-07 
-1.059294016624568e-06 
-1.355860424033569e-06 
-1.444223967152043e-06 
-1.539592716751643e-06 
-1.340660470755566e-06 
-1.299702198442401e-06 
-1.506495184481959e-06 
-2.319381500999184e-06 
-2.732622182267897e-06 
-2.340040620611596e-06 
7.062537035764114e-07 
2.111614296462726e-06 
3.123537182133881e-06 
2.251035305083982e-06 
9.588365335976613e-07 
4.23512096562314e-07 
1.409712555898734e-06 
1.765715673613067e-06 
1.741604778808432e-06 
2.323299398960154e-07 
2.064768080338092e-07 
-8.499359501078351e-07 
-3.001546586924924e-06 
-2.386049753826418e-06 
-1.240260821354251e-06 
-1.2064364197246e-06 
-1.333115357158391e-06 
-1.48771502491874e-06 
-1.692829942148396e-06 
-1.43455803068795e-06 
-1.242541834295477e-06 
-1.196370196192763e-06 
-1.487685909176832e-06 
-2.405422673811754e-06 
-2.680470895955307e-06 
-2.156742869760766e-06 
6.806308453776836e-08 
3.745375415488988e-07 
2.678379489642073e-06 
3.015024851364621e-06 
2.009461574459458e-06 
1.079929849412534e-06 
1.226559794381011e-06 
1.576996897278943e-06 
2.068426146295442e-06 
2.79293041270831e-07 
8.072262881740159e-07 
-5.103391591834707e-07 
-2.752201405095448e-06 
-1.608116382698013e-06 
-2.690117790530274e-07 
-5.017785424302206e-07 
-6.301362091774284e-07 
-8.586161582378916e-07 
-1.303459506573963e-06 
-1.238553821410749e-06 
-7.649085358624529e-07 
-4.317076881344063e-07 
-9.989376403619243e-07 
-1.829819060291675e-06 
-2.208360506682856e-06 
-2.146196047878399e-06 
6.966168183858177e-07 
1.783144237465361e-06 
2.384902176406738e-06 
2.80807336752228e-06 
2.188528762022825e-06 
8.939257376679996e-07 
1.573827068852923e-06 
2.129690145497058e-06 
1.757957862355041e-06 
3.208210240401182e-07 
3.923335773399483e-07 
-7.47709146629734e-07 
-2.391294214532505e-06 
-1.46296852390114e-06 
-2.446451624392955e-07 
-4.056220234220041e-07 
-8.024805531836756e-07 
-7.386922664821982e-07 
-9.108998020667861e-07 
-9.069990265093853e-07 
-3.588369053753057e-07 
-1.631554674570257e-07 
-9.121852126875992e-07 
-1.631217664814876e-06 
-2.006667215195426e-06 
-1.793956659021174e-06 
5.90118272694454e-07 
9.671465169557875e-07 
2.064451479357853e-06 
2.613924303348143e-06 
2.202327962966712e-06 
7.966461145870254e-07 
1.509855704794638e-06 
1.069065897431434e-06 
9.646964111658652e-07 
4.751592111939286e-07 
9.667513731219229e-07 
-6.662475345962832e-07 
-2.660381287666504e-06 
-2.131631599586486e-06 
-8.94526513551586e-07 
-8.383058896140691e-07 
-1.154449841526314e-06 
-9.462494527358992e-07 
-5.709552772691623e-07 
-1.243999176675267e-06 
-1.302587643233127e-06 
-1.228673810503547e-06 
-1.396780550445641e-06 
-1.842542774533882e-06 
-2.248510727327218e-06 
-1.930447691063415e-06 
1.768448893303236e-07 
9.240737491854096e-07 
2.025829455112647e-06 
2.14606734481096e-06 
1.312442180097715e-06 
1.423522408626429e-06 
1.540434752296673e-06 
1.015509173972819e-06 
1.230312830290012e-06 
9.282478607490789e-08 
5.966180383715528e-07 
-7.517139238713371e-07 
-2.481466438202279e-06 
-1.737689477243889e-06 
-6.77011362651062e-07 
-5.416025864724526e-07 
-9.187296643715277e-07 
-9.659374088695455e-07 
-5.044269708242069e-07 
-3.105434710242284e-07 
1.087135878352446e-07 
5.204998216145271e-07 
-2.36730422015944e-07 
-1.473027724287676e-06 
-2.207170381976446e-06 
-1.921255326841711e-06 
1.011175647865065e-06 
1.285872573985407e-06 
2.44390564230443e-06 
2.844252950109378e-06 
2.308278093266735e-06 
1.40289981156421e-06 
1.040549495928639e-06 
1.092422004115128e-06 
8.62389927615868e-07 
3.647321903231572e-08 
4.018873351660059e-07 
-1.247300951412889e-06 
-3.257471880455535e-06 
-2.665351204179532e-06 
-1.334644209528344e-06 
-1.254800049139167e-06 
-1.604875178226949e-06 
-1.351439152322868e-06 
-1.039945009092405e-06 
-1.291366782507624e-06 
-1.379873008110157e-06 
-1.131018461504566e-06 
-1.152571229528576e-06 
-1.702174458368911e-06 
-2.428840176999075e-06 
-2.337764717756414e-06 
2.966049880505515e-07 
1.514610171099718e-06 
2.102244682857613e-06 
2.443706853800661e-06 
1.397485306542564e-06 
5.956673975464263e-07 
1.212807060612229e-06 
8.293713173971635e-07 
1.083021315280012e-06 
-1.283011375217919e-07 
3.575713773727003e-07 
-1.753070676585017e-06 
-3.287897206238123e-06 
-2.721854862157332e-06 
-1.820582839293778e-06 
-1.01664192652901e-06 
-1.411287877457879e-06 
-1.166758882294234e-06 
-9.755212844071909e-07 
-4.401915597583214e-07 
-1.643979495513942e-07 
1.379301299247456e-07 
-6.377304304776835e-07 
-1.801264511014825e-06 
-2.619573571636822e-06 
-2.673046419438367e-06 
-1.235712250821724e-06 
5.371804016106791e-07 
2.402981978626359e-06 
2.51983461225292e-06 
1.136496383045531e-06 
1.855931500114467e-07 
1.040616656208039e-06 
8.832685195952796e-07 
5.627790551173142e-07 
-2.7609272534498e-07 
2.973382779785482e-07 
-1.263399260844718e-06 
-2.626586928887827e-06 
-1.973599206910598e-06 
-1.289324968061921e-06 
-1.115230843212782e-06 
-1.250003638876454e-06 
-7.787576228963351e-07 
-6.106408348175125e-07 
-2.052080758706892e-06 
-2.563714726012845e-06 
-1.942441405690584e-06 
-1.774704460254866e-06 
-1.682310987083837e-06 
-2.428386272529723e-06 
-2.43360575104757e-06 
-5.992234955210507e-07 
9.579756464437181e-07 
1.892126656757222e-06 
2.09511104724161e-06 
3.333246139702973e-07 
-3.105363552186168e-07 
8.003500815607727e-08 
-1.575937268152517e-07 
2.342602521301007e-07 
-3.220266889333796e-07 
7.103716653990392e-07 
-1.023475493315803e-06 
-2.325610479885129e-06 
-1.658725579925572e-06 
-8.945661652409399e-07 
-6.165018599521285e-07 
-1.046452546883184e-06 
-7.433222175749177e-07 
-3.516513436798073e-07 
-5.447558201305089e-07 
-4.232827593248271e-07 
-2.518593501465378e-08 
-4.162627240691243e-07 
-1.372966533664994e-06 
-2.305787521875672e-06 
-2.499447225482508e-06 
-4.758930706545727e-07 
3.953295663592869e-07 
2.092039599039733e-06 
2.636989023092067e-06 
9.834962622527167e-07 
-6.50884955642547e-07 
7.108292019929178e-07 
3.045728807535513e-07 
1.724738191970383e-07 
-4.899901971864334e-07 
4.444791553603484e-07 
-1.081281979099836e-06 
-2.572963894909632e-06 
-1.918038689163916e-06 
-3.096209299824157e-07 
-6.310880903780457e-07 
-9.714526067436621e-07 
-4.072112144078789e-07 
-1.912088629518728e-07 
-8.186597855657529e-08 
-1.876874484750406e-07 
-7.545615622626933e-09 
-5.235512567397848e-07 
-1.113669064902329e-06 
-1.937038562241361e-06 
-2.332092612703177e-06 
-6.993775937633403e-07 
1.667891918321229e-07 
2.199082706749707e-06 
2.252900468813038e-06 
8.842145191337312e-07 
-6.876454067867455e-08 
-2.474256568404628e-07 
3.651412268151421e-07 
-1.94465548173442e-07 
-5.954027192268322e-07 
3.497430764518222e-07 
-1.059950762082705e-06 
-2.418683351814592e-06 
-1.401106653386308e-06 
-6.025051842893352e-07 
-8.653216683125434e-07 
-9.361695332826486e-07 
-1.383284134430001e-07 
1.205756787476497e-08 
-3.134898235854415e-07 
-6.350918438401751e-07 
-3.927448899331175e-07 
-5.168407168711285e-07 
-1.057669124214105e-06 
-2.128290943481261e-06 
-2.248628109418737e-06 
-9.440305898378821e-07 
1.048710883083799e-07 
9.044470570331021e-07 
1.909847673823853e-06 
4.475373455017714e-07 
-8.634325412478326e-07 
2.355008059467105e-07 
5.943857662498791e-07 
1.34960284063054e-07 
-4.026912250269366e-07 
6.277405488563005e-07 
-9.212884606219412e-07 
-1.659360098856415e-06 
-9.528803104334338e-07 
-4.366418566628989e-07 
-6.69448572975691e-07 
-4.893631429612728e-07 
-3.279130508335972e-07 
-2.660796105891356e-07 
-8.799986899665194e-08 
-7.090965271903447e-07 
-3.269902204507406e-07 
-5.022090666948289e-08 
-7.698438554686013e-07 
-1.69827218784657e-06 
-2.178795960954052e-06 
-1.018527432888832e-06 
-6.867467468724885e-07 
1.101269960762648e-06 
1.686700151872142e-06 
1.143085932535475e-06 
-9.300792386844508e-07 
1.426777579298713e-07 
6.343948996141634e-07 
3.71186427157118e-07 
2.155319030925778e-07 
9.886920581294475e-07 
-1.080927830410208e-06 
-1.425001648994388e-06 
-6.81841194510278e-07 
-3.740198959670542e-07 
-5.355404812083046e-07 
-1.962134474536648e-07 
7.838612184753374e-08 
2.737472233914212e-07 
7.337611620754498e-08 
-3.234585746612555e-07 
-2.726173650876947e-07 
-1.758849283310326e-07 
-7.349084203262146e-07 
-1.69036410115805e-06 
-1.823461754424386e-06 
-4.994863149196351e-07 
4.184419401981569e-07 
1.717015904802234e-06 
2.244405076693387e-06 
1.04072153878436e-06 
-6.651559550938983e-07 
7.869621405011369e-07 
4.499344873922741e-07 
3.928036389371612e-07 
7.900329038694917e-07 
1.406507200938573e-06 
-7.710256389715983e-07 
-1.239238200994499e-06 
-3.213004388168959e-07 
1.252562977876943e-07 
1.124036291673535e-07 
5.994390326002323e-07 
1.005799666816559e-06 
8.532008180760963e-07 
1.029947655060302e-06 
-8.037512203371702e-08 
1.209582856834728e-07 
7.748536639043412e-07 
5.228850807858639e-07 
-4.493709676665439e-07 
-1.383734635855057e-06 
-3.136508850963497e-08 
-1.368782013786995e-07 
1.575477007847415e-06 
2.02168433702218e-06 
3.424381362156432e-07 
-4.340399090219347e-07 
6.689518987737709e-07 
1.108801805483026e-06 
9.376195265839361e-07 
8.509867585554618e-07 
1.434730532199679e-06 
-3.799804392388273e-07 
-1.073096519101418e-06 
6.243865021391075e-08 
5.140919825790989e-07 
3.154406155712007e-07 
7.990095790834391e-07 
1.099794203410658e-06 
1.116917949475337e-06 
1.286521709179459e-06 
7.116527878888645e-07 
8.027868463428456e-07 
1.157394918256702e-06 
3.872213953128173e-07 
-4.455172231287785e-07 
-1.186347923111306e-06 
5.562658993923488e-07 
2.936151748508639e-07 
2.502131732842157e-06 
2.363149896566535e-06 
1.160117462130918e-06 
2.39697319728042e-07 
7.068908040317643e-07 
1.639702096408231e-06 
8.099463214023621e-07 
1.434582743128921e-06 
2.114680464288369e-06 
-6.638156900672329e-08 
-3.749869563122793e-07 
3.539186106508045e-07 
1.629230621503038e-06 
7.604467187252406e-07 
1.197164072634574e-06 
2.025146676604134e-06 
1.698360556407191e-06 
1.057239538903944e-06 
9.321097070605249e-07 
1.039482935203481e-06 
1.196471793125815e-06 
1.160461581380802e-06 
1.616070423361013e-07 
-6.64557158986041e-07 
7.919716042451253e-07 
6.796076529292023e-07 
3.234747893504211e-06 
3.200524179854164e-06 
1.403158930885324e-06 
1.103583855426802e-07 
1.25199841979036e-06 
2.117554433795451e-06 
1.541155127938787e-06 
1.51726422273134e-06 
2.224713422164207e-06 
6.467856850956171e-07 
2.742136842192512e-07 
5.486879117735237e-07 
1.376240679490744e-06 
1.022309552647545e-06 
1.196105655915326e-06 
1.530317564170704e-06 
1.368796691771034e-06 
9.452161370648081e-07 
3.118459716735807e-07 
3.670508987107593e-07 
9.285814362682741e-07 
6.958137106747032e-07 
1.063845447795028e-07 
-6.494257208929053e-07 
1.420977353611532e-06 
1.481555248851797e-06 
2.845226325341677e-06 
3.404921021619639e-06 
1.788211160486326e-06 
1.027272452712972e-07 
1.637863693316905e-06 
2.126830392229347e-06 
1.991695713576665e-06 
1.76973084296045e-06 
2.501876366205343e-06 
1.164713477949415e-06 
4.950981446579891e-08 
3.64864435440472e-07 
1.315540890996055e-06 
1.429072784215156e-06 
1.742948591859104e-06 
1.711434776764833e-06 
1.984854733644318e-06 
1.215381247172122e-06 
1.078420529641908e-06 
1.309139581638814e-06 
1.418453213634046e-06 
9.835000191786508e-07 
-2.374272908700211e-08 
-4.324169406548342e-07 
3.443217382787468e-07 
9.172759565593366e-07 
3.49163575288247e-06 
3.718326859200709e-06 
2.833086974618715e-06 
9.849021050763505e-07 
2.252840639830352e-06 
2.550061558564785e-06 
2.17204706346586e-06 
1.946538335781683e-06 
2.384464870847011e-06 
1.175215053301552e-06 
2.482117821546493e-07 
7.646215507811588e-07 
1.812114172300209e-06 
1.839072866707958e-06 
1.942647322955576e-06 
2.401226719473582e-06 
2.691818685474408e-06 
2.091173753462744e-06 
2.152161966306934e-06 
2.381568323573042e-06 
2.144175303567818e-06 
1.847058567933133e-06 
6.642864071080038e-07 
-1.931435895325534e-07 
2.185315519534454e-07 
9.987407216714363e-07 
3.427020705965285e-06 
3.120688657392828e-06 
1.971522778807513e-06 
5.366650312693775e-07 
2.220887382819155e-06 
2.656701636928677e-06 
2.34029566426729e-06 
2.443036579817405e-06 
2.826911958534736e-06 
1.554406729395414e-06 
6.48816367439449e-07 
1.4182706855372e-06 
2.14513176721051e-06 
2.146325182290303e-06 
2.093628133599915e-06 
2.184252925307888e-06 
2.317756981271123e-06 
1.956182821707848e-06 
1.48896984361983e-06 
1.785896911546698e-06 
1.867296244733443e-06 
1.422981829115113e-06 
8.870889935668225e-07 
2.861306947253816e-07 
1.305283426671637e-06 
1.464642031745973e-06 
3.385062546351876e-06 
3.023166676120665e-06 
2.237298891698938e-06 
1.241475075921722e-06 
2.752163129441696e-06 
2.779911016857889e-06 
2.548971609137479e-06 
2.395897933151385e-06 
3.022342783966884e-06 
1.443723364950045e-06 
4.231446189585474e-07 
1.333590811963079e-06 
2.261115906219633e-06 
2.150757855402017e-06 
2.279594912867803e-06 
2.069121091371165e-06 
2.153354646703584e-06 
9.447393801685026e-07 
1.237094502571737e-07 
3.458126863661876e-07 
1.125219962197969e-06 
1.671112860125993e-06 
1.038637656920053e-06 
5.290369720784253e-08 
1.06627588598305e-06 
1.637233291420681e-06 
4.434901508186865e-06 
3.325085059433984e-06 
2.348572101577964e-06 
1.047391192639613e-06 
2.836017416670837e-06 
2.643718046826468e-06 
2.284133423890471e-06 
2.193616681204754e-06 
3.079555452839394e-06 
1.84744070437771e-06 
2.299548576951747e-07 
1.156944982696684e-06 
2.067702325671072e-06 
1.545637707428539e-06 
1.977698429910093e-06 
2.103664218856696e-06 
1.818140128614276e-06 
4.968811792782399e-07 
6.740247108983571e-07 
9.278389447790059e-07 
5.902351341818491e-07 
1.397539964165301e-06 
8.252499026585903e-07 
1.338465104140604e-07 
1.282914847024429e-06 
1.728648454018609e-06 
4.137728378491441e-06 
3.221481909420083e-06 
2.281777747097005e-06 
1.196171483624899e-06 
2.771727652892395e-06 
2.504718556472617e-06 
2.528381393277636e-06 
2.22741195614079e-06 
2.699794038826414e-06 
1.452521790751439e-06 
3.264224359747223e-07 
8.423289409278416e-07 
2.009489210124187e-06 
1.461976119396043e-06 
1.518262264333069e-06 
1.300889884112671e-06 
1.392354962653136e-06 
2.403650636024323e-07 
4.895805891176816e-07 
6.04254219297969e-07 
3.105259547739855e-07 
5.572909763749642e-07 
3.644187039640678e-07 
-3.527963467831381e-07 
2.41984669321958e-07 
2.554388227994674e-06 
4.485965747953085e-06 
4.011562168135794e-06 
2.833470098667399e-06 
2.031086269521767e-06 
2.74533981686492e-06 
2.67283594850672e-06 
2.147822255593842e-06 
1.733027845814198e-06 
3.222513679120956e-06 
1.614854287502231e-06 
2.434319626041071e-07 
1.01671983257887e-06 
2.359874682202015e-06 
1.754486857578354e-06 
1.501249075439994e-06 
1.62100413096762e-06 
1.71636022513423e-06 
1.244517261235178e-06 
1.54474227320697e-06 
1.51365997031051e-06 
1.233308904323403e-06 
7.774071545527958e-07 
3.791998473139643e-07 
-3.547847331345232e-07 
1.079895037677139e-06 
1.207170090385269e-06 
3.728145855526991e-06 
3.187609824997739e-06 
2.501821415820931e-06 
1.834476758264688e-06 
2.783563646684673e-06 
2.893549029885523e-06 
2.792895634048387e-06 
2.362107264599524e-06 
3.067282668745971e-06 
1.11346943790034e-06 
-3.478060541419478e-07 
2.70826695621046e-07 
1.325626494150868e-06 
1.028276436298084e-06 
1.051426599877877e-06 
1.046477337489467e-06 
1.113643224823709e-06 
8.133617715381871e-07 
9.142157613967976e-08 
2.13684360351258e-07 
5.588207965979444e-07 
2.488839931561168e-07 
-1.261984956471165e-08 
-4.357129701108007e-07 
1.510112513372156e-06 
3.121774305364001e-06 
3.719914354443842e-06 
3.807167569493387e-06 
2.510470804025308e-06 
2.304213312074061e-06 
3.29261623965955e-06 
3.160033576222842e-06 
3.226544155642007e-06 
2.436541976375396e-06 
3.253782416093584e-06 
1.182289465276233e-06 
1.368931497655802e-07 
5.400198242958439e-07 
8.61496761924566e-07 
8.357917185552427e-07 
7.522561150702384e-07 
9.051773380493132e-07 
7.109672021527176e-07 
3.892580322435205e-07 
2.081528145119516e-07 
2.077653059612353e-07 
3.283209315944547e-07 
2.55823599137587e-07 
-7.299952350036797e-08 
-4.676786556516367e-07 
2.114549579430016e-06 
2.483412169249916e-06 
4.28960557711925e-06 
4.340706707800262e-06 
3.567959646356288e-06 
2.471335101887836e-06 
3.742583847953013e-06 
3.658536018267198e-06 
2.904197971058751e-06 
2.273458778045854e-06 
2.674666608967057e-06 
1.140409813515593e-06 
-3.341593989442179e-07 
-2.214877455309717e-07 
5.057735133394016e-07 
1.824601033478302e-07 
3.384260462957361e-08 
3.558651285830992e-07 
3.806568540343238e-07 
8.915332668176334e-08 
-2.784440961510664e-07 
-1.038124363256444e-07 
1.386928407744581e-07 
-2.775734928767465e-07 
-6.977012747678971e-07 
-5.670918057885185e-07 
2.186817550476899e-06 
3.753375882313747e-06 
5.27777441837682e-06 
3.692513950235989e-06 
2.883067816441921e-06 
2.418371103694621e-06 
3.571413871335859e-06 
3.571875398463996e-06 
3.357285535487525e-06 
2.182353525280471e-06 
3.107839524136927e-06 
1.820851749462053e-06 
-2.055306720868873e-07 
2.478033518315265e-08 
5.625588070546557e-07 
-1.951367179745427e-07 
-6.770516759098548e-08 
3.812459739899298e-07 
7.144132060086557e-07 
6.622670554339356e-07 
1.066378827917024e-06 
1.259195911377057e-06 
8.127972730693604e-07 
7.093645049464338e-08 
-8.119146459854217e-07 
-6.140376828512898e-07 
1.3519372479968e-06 
2.532333891574057e-06 
4.752377095778841e-06 
3.865812238259127e-06 
2.719014576878889e-06 
2.333142516841672e-06 
3.768448145274278e-06 
3.909638125969226e-06 
3.449098007311703e-06 
2.678348170396736e-06 
2.896307820231363e-06 
1.228499693989304e-06 
4.784602859931353e-07 
5.269245492250098e-07 
9.418896096310313e-07 
4.839312334821691e-07 
3.207694775735991e-07 
6.747693985706713e-07 
4.273953659206272e-07 
-4.471278972016933e-07 
1.581980410605097e-07 
5.271964786637932e-07 
-1.200743012808897e-07 
-5.814878453971686e-09 
-5.009842686087568e-07 
-1.309743547411845e-07 
3.138805482693715e-06 
2.108502036049269e-06 
4.257497724889554e-06 
3.981437301391418e-06 
2.993435493010542e-06 
3.183397603088244e-06 
3.795921712536073e-06 
4.127344138686797e-06 
3.766664448595068e-06 
3.294024819692901e-06 
3.108338835809058e-06 
1.549764511384898e-06 
-1.82411690621549e-08 
2.605256014939143e-07 
8.442266960202455e-07 
6.656334455881648e-07 
6.159629213381058e-07 
1.012882567366748e-06 
8.925473318486515e-07 
7.319363568142768e-07 
9.969314808688951e-07 
1.00814564809352e-06 
5.624000759480719e-07 
3.244066465883489e-07 
-3.019644254961283e-07 
-1.676592232318365e-07 
2.30750738657051e-06 
3.264224511639149e-06 
4.994362398654497e-06 
3.76256788228968e-06 
3.209310921662827e-06 
2.96413083272471e-06 
3.430130064104783e-06 
3.978059056671151e-06 
3.647413212978227e-06 
3.234553892991819e-06 
3.057219204478016e-06 
1.816557401191024e-06 
4.133759370906562e-07 
7.409291046524973e-07 
9.703835367651698e-07 
4.255503006288427e-07 
6.948821047396183e-07 
8.268035164534527e-07 
6.096568466036793e-07 
4.631791973086145e-07 
3.405107113442756e-07 
3.099183662033327e-07 
2.011519894543664e-07 
8.458466385754604e-08 
-2.960144145719558e-07 
1.884323903666839e-07 
1.618972667442444e-06 
2.304046340921795e-06 
4.563039992274268e-06 
4.227892691379696e-06 
2.950848130029047e-06 
2.241334037450229e-06 
3.327783256094506e-06 
4.059102953473061e-06 
3.877691187034254e-06 
2.940888050020353e-06 
3.645683052141176e-06 
2.042226602082804e-06 
6.025925999380732e-07 
8.17047769739389e-07 
1.591475567449124e-06 
1.192199746045968e-06 
8.784094740335594e-07 
9.842970189224214e-07 
8.87709787716573e-07 
1.021997034317941e-06 
7.716820455673249e-07 
5.989328947464609e-07 
3.94111097960287e-07 
3.793844663707733e-07 
1.722764618496699e-07 
2.540695407187877e-07 
1.978850644592267e-06 
2.341039948951918e-06 
5.207186312686195e-06 
3.658917699234791e-06 
1.68876648033025e-06 
1.743526029644365e-06 
3.69480031820401e-06 
4.36938029411181e-06 
3.764270993299512e-06 
2.926776725223466e-06 
3.532439771121369e-06 
1.67656520315409e-06 
7.144254991434858e-07 
7.668816355190425e-07 
1.711355138613995e-06 
1.599038743443576e-06 
1.538984801225845e-06 
1.755143541907477e-06 
1.019094584952345e-06 
8.947304539842433e-07 
6.46942330060278e-07 
8.099324463221195e-07 
9.075077406821719e-07 
8.584871271483895e-07 
4.975244950048857e-07 
3.889969105867593e-07 
2.806493473261095e-06 
2.906944452809052e-06 
4.802947633510213e-06 
3.632086254125018e-06 
1.715876067747699e-06 
1.720900047049667e-06 
3.49992570129514e-06 
4.049818044741069e-06 
3.579298432266213e-06 
3.29645345576646e-06 
3.809332241094578e-06 
2.098491917891998e-06 
4.492156981083487e-07 
7.486234812454863e-07 
1.578294813088021e-06 
1.351882648826301e-06 
1.452512953616328e-06 
1.604305201550438e-06 
9.334281339743431e-07 
5.193441010673444e-07 
-2.794142495499904e-07 
4.989966061835065e-08 
4.448656554877344e-07 
8.001517951998343e-07 
4.648982375575617e-07 
5.653216288192706e-07 
3.436276561302457e-06 
2.530473818684836e-06 
4.479576266250697e-06 
3.149886484984207e-06 
1.854081347697424e-06 
1.476793335019873e-06 
4.084040977565002e-06 
4.395824106000411e-06 
4.522828186311603e-06 
3.609304656035568e-06 
4.122164002216824e-06 
2.31937260844718e-06 
8.317424088441976e-07 
1.097600650483147e-06 
1.75258715854947e-06 
1.842920443989603e-06 
1.585048453650026e-06 
1.699892432239666e-06 
1.533237163907216e-06 
2.036953618775333e-06 
1.334993953023606e-06 
1.259816545082279e-06 
1.568427154802469e-06 
9.791720534609338e-07 
8.747714704131417e-07 
9.556561443790404e-07 
2.782785901203336e-06 
3.377032846277721e-06 
4.753244189744901e-06 
3.454648677559752e-06 
2.648334645634342e-06 
2.158635746644266e-06 
4.385165352982474e-06 
4.498497688004856e-06 
3.467717065497868e-06 
3.375474523168226e-06 
4.110770630542371e-06 
2.442779384610077e-06 
1.126604839736392e-06 
1.177912673165825e-06 
2.326171173558022e-06 
1.843007256697053e-06 
1.936099162862625e-06 
1.838594961135616e-06 
1.791697344838382e-06 
1.619496659265552e-06 
1.397310301824669e-06 
1.536085389577993e-06 
1.347049434683932e-06 
1.080215682783e-06 
7.83582034787429e-07 
8.150144870302234e-07 
2.771558047260861e-06 
2.601546105179209e-06 
4.612076583630483e-06 
3.821175438735228e-06 
1.849428848039531e-06 
2.216269753920717e-06 
4.107243089734377e-06 
4.776949962464962e-06 
3.440725484504519e-06 
3.319961890626883e-06 
3.927535249936866e-06 
2.709205212299275e-06 
1.368651168413182e-06 
1.402077291517373e-06 
2.488442775126005e-06 
2.182968854414454e-06 
1.959782122617709e-06 
1.679838000191752e-06 
1.774049284498581e-06 
1.787134318731598e-06 
1.744687020150732e-06 
1.707170574544852e-06 
1.544386044219372e-06 
1.059551142290995e-06 
8.517341023790141e-07 
9.428814385400073e-07 
3.233395363223053e-06 
1.925491167492611e-06 
4.297672411067667e-06 
3.218080512189978e-06 
2.369446438279582e-06 
2.077476464042954e-06 
3.614515857678908e-06 
3.98108371224012e-06 
2.868804674925493e-06 
3.516556973344753e-06 
4.013335725426169e-06 
2.290200403328386e-06 
1.014867121891026e-06 
1.41276527681539e-06 
2.543527753033682e-06 
2.098271797202857e-06 
2.072128049610928e-06 
1.972170469457008e-06 
1.980415703124318e-06 
1.826774376396072e-06 
1.461575571536724e-06 
1.396250200951439e-06 
1.293984232476675e-06 
1.484796630245224e-06 
1.121435673945529e-06 
8.069855392137539e-07 
2.367328573459761e-06 
2.608003566189851e-06 
4.436867417550134e-06 
3.225256170059146e-06 
2.303575374255232e-06 
2.378657073762279e-06 
3.758976268116219e-06 
3.619772933162746e-06 
2.751638090112997e-06 
2.780157667150394e-06 
3.730668548685712e-06 
2.133781432867644e-06 
8.418707619226453e-07 
1.476981885032748e-06 
2.013000647808428e-06 
1.856981052506405e-06 
1.319019962793039e-06 
1.459473565010266e-06 
1.417943403633154e-06 
8.79100024947535e-07 
7.784128593764303e-07 
8.74981920744043e-07 
3.153672956825336e-07 
8.51634893456373e-07 
6.922249108544481e-07 
5.152709682296712e-07 
3.04974172269653e-06 
1.907947124360038e-06 
4.022331057778323e-06 
3.411611135721784e-06 
1.981868022953185e-06 
1.599541193910905e-06 
3.580481177235109e-06 
3.350961787167254e-06 
2.494011573306698e-06 
2.743504744209532e-06 
3.623331172273726e-06 
2.142944432728705e-06 
5.587400028036294e-07 
1.276613334708487e-06 
2.432773727103834e-06 
1.978523149202236e-06 
1.412315878956675e-06 
1.193237804441865e-06 
1.562455281457427e-06 
1.098719822042296e-06 
2.744537929364287e-07 
2.621975211618353e-07 
6.666028329077978e-07 
7.220146356913765e-07 
6.049429880666956e-07 
6.405869144524759e-07 
1.668961562699255e-06 
2.158303630122447e-06 
4.36824321534784e-06 
3.016096587543996e-06 
1.864682932890733e-06 
2.266702176570384e-06 
3.51861390307499e-06 
3.073230912445017e-06 
2.656415888669761e-06 
1.966430862587311e-06 
2.612287546012656e-06 
1.522907290576049e-06 
7.160329841905151e-07 
1.200795082906256e-06 
1.824818645064754e-06 
1.522666826883528e-06 
1.407147848865917e-06 
1.371474473894913e-06 
1.313457719385103e-06 
1.376264267596899e-06 
1.0773981490563e-06 
9.87465081899619e-07 
8.753397340072692e-07 
5.989075667072914e-07 
5.393981215679529e-07 
4.627733815437431e-07 
2.842310080870713e-06 
2.070648985744478e-06 
4.226218654002338e-06 
2.925260023351992e-06 
2.016691441164281e-06 
2.307620367870429e-06 
3.288808478366438e-06 
2.745154842400258e-06 
1.966734156324896e-06 
2.290830082502404e-06 
2.600757208247003e-06 
1.512480391894875e-06 
4.619099117339022e-07 
1.132924066377022e-06 
1.961089284532593e-06 
2.012423649152009e-06 
1.745942614092742e-06 
1.32524209831933e-06 
1.330608402741755e-06 
1.177398594170279e-06 
4.648083286962249e-07 
2.782940176280974e-07 
5.92328625339121e-07 
8.334675480634647e-07 
9.817767895934627e-07 
4.595904596285958e-07 
1.917283689082171e-06 
1.507882192940176e-06 
2.624126278419496e-06 
1.868732817187674e-06 
1.592687476181168e-06 
1.474262748659226e-06 
2.976057964466592e-06 
3.586671628835831e-06 
2.491754860322663e-06 
2.454860862784009e-06 
3.279258807797138e-06 
1.875175485509741e-06 
7.796374602969015e-07 
1.693309770791144e-06 
2.257387956613309e-06 
1.825913309444555e-06 
1.499341544051373e-06 
1.442144400164183e-06 
1.724652159323126e-06 
1.259056950192252e-06 
6.204589157808002e-07 
5.691975112089276e-07 
7.884851028278887e-07 
1.069546889093155e-06 
1.024519851953143e-06 
1.005247951408805e-06 
1.82666455404424e-06 
1.968243692117654e-06 
3.002462599433474e-06 
2.00724559165734e-06 
1.039384996120297e-06 
1.484702955707261e-06 
3.108683529509652e-06 
3.54703857241263e-06 
2.36654492466539e-06 
1.800018044229217e-06 
2.914392490910786e-06 
1.557936430976169e-06 
6.831522235099994e-07 
9.472346270520337e-07 
1.69628954529618e-06 
1.714758541710126e-06 
1.596650356755491e-06 
1.413954444131682e-06 
1.897152258438503e-06 
1.54687011489963e-06 
6.624474656502088e-07 
5.454487393629727e-07 
1.067401245757248e-06 
1.198552247128794e-06 
8.638993664208665e-07 
4.453335177040807e-07 
2.638680346469727e-07 
1.19040350234881e-06 
2.297589813244093e-06 
2.07310651594757e-06 
1.453150033385599e-06 
1.515882990721314e-06 
3.035091582852845e-06 
3.640881560566258e-06 
2.756520133808002e-06 
2.112637624159468e-06 
2.914329893107949e-06 
1.817956984928533e-06 
1.163199097843566e-06 
1.956697584343706e-06 
2.716631935684741e-06 
1.96802310463446e-06 
1.971901826850829e-06 
1.543906105965881e-06 
1.747277817597593e-06 
1.209049314417808e-06 
-1.875394124277916e-08 
1.798914449992576e-07 
9.486229250848052e-07 
1.001628701439512e-06 
1.029642180634479e-06 
8.307796104219201e-07 
1.09517566929831e-06 
1.342473261512865e-06 
2.821769962174735e-06 
2.090308082638471e-06 
1.39312547012192e-06 
1.357642987673742e-06 
3.148508008959001e-06 
3.264724134125953e-06 
2.440238281733923e-06 
2.065079206364121e-06 
3.085554190352148e-06 
1.469666949143686e-06 
1.064112707793043e-06 
1.463125262902866e-06 
2.03326035135254e-06 
1.757384652601389e-06 
1.86284669531946e-06 
1.559208290277305e-06 
1.668738761719242e-06 
1.365819827647528e-06 
7.86214285467865e-07 
6.256961095071616e-07 
1.059709029280848e-06 
9.033089526403986e-07 
9.317920489993738e-07 
6.673023659558954e-07 
7.378730325710615e-07 
8.586582207335712e-07 
3.544253574567219e-06 
2.423357943454735e-06 
8.237386896801911e-07 
1.118108083067215e-06 
2.635519511553825e-06 
3.226661008664104e-06 
2.72897383426822e-06 
1.986603537579746e-06 
2.93275438087579e-06 
1.661251846149472e-06 
9.972013705526963e-07 
1.301758785501088e-06 
1.99424188644474e-06 
1.639253817327731e-06 
1.494394625067626e-06 
1.364282090098852e-06 
1.754347723995615e-06 
1.724299413498872e-06 
1.496881160370482e-06 
1.517304704686025e-06 
1.826678751496272e-06 
9.842594973994624e-07 
6.431782970927325e-07 
4.871644171746727e-07 
1.397556049669042e-06 
3.863452231104464e-07 
3.138912286738319e-06 
2.18971825902284e-06 
1.228379498757825e-06 
1.127493190148383e-06 
2.105537540651034e-06 
2.622922241628417e-06 
2.575401369403043e-06 
1.313285738363743e-06 
1.90595130181815e-06 
9.12929877919106e-07 
5.607487578721368e-08 
9.2126649849481e-07 
1.745844483474825e-06 
1.383800911683812e-06 
1.317974032952449e-06 
7.980529354033683e-07 
9.365628554349331e-07 
5.071747922677385e-07 
-6.369077866401351e-07 
-5.033803653511095e-07 
4.228225273889438e-07 
4.829305806777796e-07 
2.891333022046814e-07 
-6.182031795557301e-08 
6.676400504684331e-07 
1.943462656468079e-06 
2.799479178192685e-06 
2.59124131252868e-06 
1.763833655318491e-06 
5.725052180483176e-07 
2.961607324777485e-06 
2.414090456685918e-06 
1.931226399089578e-06 
1.094376442946547e-06 
2.166542780787014e-06 
1.274925416015235e-06 
8.549342185289828e-07 
1.149857769829356e-06 
1.906501100057265e-06 
1.811600907011527e-06 
1.444085227149611e-06 
1.157786047702701e-06 
1.098785805218191e-06 
2.527855295172428e-07 
-1.87562978527921e-07 
4.719371950885031e-08 
4.524233877711793e-07 
8.906146830905622e-07 
4.792540406590489e-07 
9.521355414234541e-08 
-4.195666718488491e-07 
-4.036383629321325e-07 
2.320655197836285e-06 
2.690959881518628e-06 
6.131374845381841e-07 
4.636517155964736e-07 
2.410671123992583e-06 
2.448941533124905e-06 
2.064114414069889e-06 
1.529230112467786e-06 
2.352843482291596e-06 
1.345729317554162e-06 
7.134709549710305e-07 
9.055317907297635e-07 
1.313531178827179e-06 
1.244485303158842e-06 
1.22139506122388e-06 
1.240423464931912e-06 
1.565785164056716e-06 
1.195822736740231e-06 
-2.524999100256774e-08 
1.426543342746527e-07 
8.705051649402456e-07 
7.157318561238961e-07 
4.840488291498907e-08 
-1.581595087176011e-07 
-3.018388955027623e-07 
5.088926841067408e-07 
2.148960873605534e-06 
1.576482211724215e-06 
2.055792908129712e-07 
-4.942420152170955e-07 
1.475255249236317e-06 
1.906379433479383e-06 
1.71431736835333e-06 
9.564774638921884e-07 
1.775916863328392e-06 
9.535571874084072e-07 
7.883839061167724e-08 
6.670158169607184e-07 
1.282890442209441e-06 
1.383490738298432e-06 
9.994208697480596e-07 
8.711324501269661e-07 
1.157127665594403e-06 
6.683761180459262e-07 
2.492289359012989e-07 
4.97035414269694e-07 
8.155813226534006e-07 
8.550866299092765e-07 
8.588166512492816e-08 
-2.23826272653147e-07 
-9.151747710564492e-07 
-5.649952257518703e-07 
1.54140414221252e-06 
9.609663871602738e-07 
2.536807421154538e-07 
1.443520565295548e-07 
2.001179704627989e-06 
2.194880970553853e-06 
1.849838772247216e-06 
1.354816236012294e-06 
1.935317411573886e-06 
8.909834088934643e-07 
4.560980779048481e-07 
8.21182946019959e-07 
1.35484434019286e-06 
9.687019761062682e-07 
7.963951907867834e-07 
1.5875242789911e-06 
1.248519430229262e-06 
5.826061556659803e-07 
3.06063212779337e-07 
5.959263129014635e-07 
5.412356614373182e-07 
7.313320988890132e-07 
9.115349711399602e-08 
-1.560152632685684e-07 
-5.233703539210406e-07 
2.075813934135656e-08 
8.720874461760059e-07 
1.022844189619531e-06 
3.90191309173203e-07 
-3.98760754533083e-07 
1.034421168750712e-06 
1.874771591336241e-06 
1.353750857389025e-06 
6.825061821594827e-07 
1.697445261997779e-06 
1.153979846644524e-06 
4.11774267704968e-07 
1.10329166483448e-06 
1.678932907498407e-06 
1.539246938415137e-06 
1.135622719431025e-06 
1.331108160709949e-06 
1.115135401397982e-06 
2.212049980906001e-07 
-5.459274757476768e-07 
-5.119710280634843e-07 
4.141527012218636e-08 
5.060527241998209e-07 
1.895337524514736e-07 
-2.082379017185542e-07 
-9.38701375887691e-07 
-1.158218303067342e-06 
1.201311588738394e-06 
1.349379954120155e-06 
6.363714315949695e-07 
-3.124909725482004e-08 
1.995965026905145e-06 
2.319426865997667e-06 
1.095356076303968e-06 
1.041032747100364e-06 
2.063635347928385e-06 
1.163204634546295e-06 
8.451670177192149e-07 
1.335697582712483e-06 
1.482513235523755e-06 
1.721951135056977e-06 
1.676711161682773e-06 
1.961931092946006e-06 
1.850725020852349e-06 
9.417113246244085e-07 
3.466861053482202e-07 
5.026230694627097e-07 
8.660254484834953e-07 
9.1645285012985e-07 
1.671031651972329e-07 
-1.575456138022808e-07 
-4.31643820663527e-07 
1.87119550479991e-07 
1.445711970332069e-06 
1.510251168146557e-06 
8.863465560093121e-07 
-4.477351776068502e-07 
8.144583105496046e-07 
1.473245940012154e-06 
8.629842397169973e-07 
3.613237834495666e-07 
1.51671711433032e-06 
1.196405948903701e-06 
1.191333693997082e-06 
1.479048035790824e-06 
1.509637221962628e-06 
1.288725337261255e-06 
9.298949280645064e-07 
1.503808256212121e-06 
1.758328002633679e-06 
8.031643708574353e-07 
-4.751203104897141e-08 
-8.572886753061922e-08 
3.588649955998755e-07 
5.195951245532332e-07 
-1.722785009113094e-08 
-2.6692199477231e-07 
-1.949860872451895e-06 
-7.226137196958579e-07 
8.596623777699309e-07 
9.285875010748851e-07 
5.291270718339713e-07 
-3.541671972187408e-07 
9.784337064757063e-07 
1.27521163760904e-06 
1.113571696563775e-06 
4.151861729212715e-07 
1.067753058804434e-06 
1.207797578611735e-06 
6.593732477359198e-07 
9.901882241143019e-07 
1.391281814435999e-06 
1.290370420360781e-06 
9.873752515768489e-07 
1.7809850052719e-06 
2.069841990004371e-06 
1.42226953572845e-06 
1.070655143589844e-07 
9.171756971589181e-08 
8.887654194111653e-07 
7.501658132491329e-07 
1.680102183337494e-08 
-2.014845296835518e-07 
-1.073105785532827e-06 
-8.433507770436742e-07 
4.29796317203316e-07 
9.429720989049047e-07 
3.803820558747121e-07 
-3.469602975266555e-07 
7.1869108597439e-07 
1.38390649531796e-06 
1.096777496285674e-06 
3.739669312303895e-07 
1.162784115039089e-06 
6.584281816717993e-07 
7.134110036502326e-07 
7.69412302393458e-07 
9.133351385297989e-07 
8.965386045930577e-07 
9.367118604714866e-07 
1.147507769096755e-06 
1.593070014878097e-06 
7.995078409244873e-07 
-3.256568238943731e-08 
-1.414378860758847e-07 
2.387938356874522e-07 
4.980337063195565e-07 
-2.871313346511099e-08 
-3.236770652356108e-07 
-1.56111155913114e-06 
-1.004876436871687e-06 
-2.052376092158885e-08 
2.283355111340603e-07 
1.874799399480366e-07 
-4.610578402925498e-07 
1.541667968896821e-07 
6.124045278959204e-07 
4.986065224717736e-07 
-3.329884452017503e-07 
6.991099548638174e-07 
4.318842435917336e-07 
6.661790468832287e-08 
1.268947306659959e-08 
5.304271814626865e-07 
8.329492985312296e-07 
5.655177190562695e-07 
5.812038944859637e-07 
1.244282863694303e-06 
1.64735259398864e-07 
-6.795376478589634e-07 
-3.345896320147726e-07 
1.740149441418801e-07 
3.223711186386085e-07 
-4.960412997886008e-07 
-9.380637940529784e-07 
-1.178345351286682e-06 
-7.633260201932196e-07 
1.960235078146773e-07 
2.783400914396783e-07 
5.191351455832668e-07 
-7.229723488766827e-07 
4.556585789287119e-07 
1.384958542175798e-06 
3.363852719808518e-07 
-4.351140649920167e-07 
6.763228129929312e-07 
4.233862172943632e-07 
2.598910594338152e-07 
4.226669502052477e-07 
7.119903268379648e-07 
1.100797378359073e-06 
7.948358554231507e-07 
1.233170953211458e-06 
1.613623111590698e-06 
8.256100724934648e-07 
2.308589657838416e-07 
3.475429548152823e-07 
8.711245630015027e-07 
8.771477066323737e-07 
-6.428720200289369e-08 
-9.674112094952701e-07 
-5.230166557329011e-07 
-1.037434454557843e-06 
3.935564311432701e-07 
9.281221938009456e-07 
2.312306190160437e-07 
-8.028148601435986e-07 
8.530065893564493e-07 
1.162062835635816e-06 
4.036967168458259e-07 
-4.303713427163406e-07 
1.491603857461218e-07 
-4.583214694458106e-08 
-3.827479782318635e-07 
-6.634072268764879e-08 
6.862221040521334e-07 
5.590213038425268e-07 
3.711147848618275e-07 
9.364409363981758e-07 
8.809936583285025e-07 
-3.25811331148249e-07 
-8.063752315158486e-07 
-5.357210006622599e-07 
-4.398494483258155e-07 
2.320966618811411e-07 
-5.690487652110479e-07 
-1.322811538398557e-06 
-7.293791956989619e-07 
-4.639219593397697e-07 
3.686146213700453e-07 
5.387046621405717e-07 
7.165232170065256e-08 
-8.063703133068476e-07 
1.400160449158329e-06 
1.469312348026326e-06 
6.722367774091898e-07 
-2.194046204211278e-07 
1.236434282394615e-07 
9.482437801433524e-08 
-1.682901677345445e-07 
-2.428141366352757e-07 
2.672115140576252e-07 
3.374935241747658e-07 
5.006271525078631e-07 
6.433371358239271e-07 
1.142008347211388e-06 
-2.697409853277973e-08 
-9.199896538442201e-07 
-8.251063636460437e-07 
-2.999192408181985e-07 
1.076926506487076e-07 
-5.910331778061047e-07 
-1.322112916173774e-06 
2.269412329602674e-07 
-1.230358236399811e-06 
1.023368020441852e-06 
1.108351037737904e-06 
-7.881286220730481e-08 
-5.655510605647207e-07 
6.993066363148406e-07 
1.334496512564636e-06 
8.003445450755646e-08 
-9.281248746695488e-07 
7.822702400484517e-08 
-4.261471536591331e-07 
-6.86691806417679e-07 
-2.106903972257786e-07 
-9.231504401887919e-08 
3.329803705392535e-07 
4.317891390964342e-07 
8.98698241891787e-07 
9.399015729891658e-07 
-5.830840619955438e-08 
-1.259937086330195e-06 
-1.308276296560049e-06 
-5.675932509519033e-07 
1.122617835840084e-07 
-7.177251343298963e-07 
-1.838220098206691e-06 
3.86017042140866e-07 
-8.339829667894428e-07 
1.44064294849077e-06 
1.522314035106002e-06 
5.388647871360567e-08 
2.245256010981082e-07 
1.038551963072457e-06 
2.200358432725601e-06 
1.023240503078175e-06 
-3.183796342797011e-07 
7.728895291064335e-07 
2.786287359635253e-07 
-2.081733302789202e-07 
4.020095028944539e-07 
3.221828132767388e-07 
8.33053551606545e-07 
1.020403703017857e-06 
1.35512829032156e-06 
1.696123932685797e-06 
9.861190758719876e-07 
4.119906160592965e-07 
5.24408038364013e-07 
3.927023479729691e-07 
6.456162988129647e-07 
-1.427046377187414e-07 
-1.409192118949093e-06 
-1.217437912697366e-06 
4.578676388225069e-07 
1.499687703260773e-06 
1.321448102120813e-06 
6.826919259177454e-07 
-4.793629506868303e-07 
1.115076307942268e-06 
1.934628768449465e-06 
1.418727702036627e-06 
2.894939637033604e-07 
5.96320233657967e-07 
2.115939913774658e-07 
-1.126450175547307e-07 
1.280197760778603e-07 
4.315787440349703e-07 
4.63224648434901e-07 
7.763349879145544e-07 
1.146735520922579e-06 
1.582966963876496e-06 
1.132960558700358e-06 
1.740096931365727e-07 
1.068532229659704e-07 
6.689780067775287e-07 
5.008048080560583e-07 
-4.203924772814443e-07 
-1.228382988091693e-06 
-2.990629937478036e-07 
-3.986821353484634e-07 
1.63752708195592e-06 
1.416862407941188e-06 
1.083585358943871e-06 
-3.800014114169214e-07 
1.487830820431878e-06 
2.163884306816058e-06 
1.282941487076063e-06 
1.857947633538441e-07 
1.041192861102049e-06 
3.571553993804717e-07 
1.754434183413087e-07 
2.700693054859403e-07 
8.355948870821003e-07 
6.536707188537398e-07 
6.985873579027296e-07 
1.200700788842994e-06 
1.20731908365334e-06 
8.69069199642089e-07 
-4.541246892830876e-08 
7.56112422502673e-08 
6.506905322139649e-07 
5.804641263209706e-07 
-3.246630508555395e-07 
-1.182630217980106e-06 
-8.523918718456909e-07 
1.18514955705588e-06 
1.589432746271325e-06 
1.793126333308947e-06 
1.377789746778686e-06 
6.692556651434472e-07 
1.753065248941899e-06 
2.517292153420746e-06 
1.681372095178025e-06 
5.54422834219249e-07 
1.313169518240087e-06 
6.336662402480747e-07 
-1.493322351428818e-07 
-3.770966394520256e-07 
4.447726984910263e-07 
1.032863422998994e-06 
9.354012275010601e-07 
1.643201576232625e-06 
1.53580180709833e-06 
1.299036957499455e-06 
1.051586117819441e-06 
1.183675604663964e-06 
1.003146581320426e-06 
7.643728194137352e-07 
-3.287832951600136e-07 
-1.334697039834822e-06 
-6.206045141173536e-07 
5.920536147319636e-07 
2.027235089329251e-06 
2.163199118465454e-06 
2.100107774810501e-06 
7.340521873069896e-07 
1.921619266731185e-06 
2.757700976116635e-06 
2.509030641112966e-06 
1.230633300058643e-06 
1.814209115590058e-06 
9.607392988621328e-07 
2.637116627422268e-07 
4.817178453200652e-07 
1.180681104256233e-06 
1.145713013933699e-06 
1.255081733360433e-06 
2.038712603590601e-06 
2.177720256199684e-06 
1.26842581207915e-06 
-4.590518172529156e-08 
2.994914218160205e-09 
9.202107310602095e-07 
1.153140066725127e-06 
-2.757571297258543e-08 
-8.200049812524109e-07 
4.507305529418365e-07 
-1.401339893475161e-07 
2.221293444597782e-06 
2.141007576536501e-06 
1.829774726956865e-06 
8.310068642310375e-07 
2.440335310662889e-06 
2.932123786787491e-06 
2.493247259216467e-06 
1.346019838366432e-06 
1.9092065529224e-06 
9.618310399990433e-07 
9.418018858457248e-07 
7.852858936150098e-07 
1.092957871534978e-06 
1.605087399259596e-06 
1.19578323453734e-06 
1.560465634498283e-06 
2.41634316351815e-06 
2.244048514090021e-06 
9.337683406513323e-07 
9.726970781219289e-07 
1.71676575495826e-06 
1.186911485532718e-06 
1.772880016620876e-08 
-6.454389410090583e-07 
-8.051703888550972e-08 
-5.346784252070107e-07 
1.994020038575481e-06 
2.008691949373769e-06 
1.222630992040683e-06 
5.864296714245721e-07 
1.911381759588474e-06 
3.073077803050874e-06 
2.074532584958271e-06 
1.097375224121474e-06 
1.664663716060565e-06 
9.042679423844626e-07 
3.347540736030052e-08 
3.473703208528671e-07 
7.604303140060121e-07 
8.815360514528856e-07 
1.057746960816174e-06 
1.731986776331627e-06 
1.851171424360695e-06 
1.279939189036854e-06 
1.685663230049707e-07 
1.231573467459145e-07 
7.777320033814406e-07 
1.006430460050473e-06 
-1.014768059135788e-07 
-1.039940182460033e-06 
-9.172418633425107e-07 
-1.118997151355613e-06 
2.281499362080327e-06 
2.116863091035954e-06 
1.360697358002325e-06 
7.61778896357181e-07 
1.937259588764493e-06 
2.934930953739674e-06 
2.559837866244311e-06 
1.69693262829589e-06 
1.645548573369848e-06 
9.645389909846517e-07 
-2.15115963752094e-07 
1.054412285538079e-08 
7.286336435747177e-07 
1.020695173126675e-06 
1.117839903714386e-06 
8.932072881900519e-07 
8.922979735892877e-07 
8.514097559752561e-07 
-4.963234182311134e-07 
-2.496925130019064e-07 
6.020900297395063e-07 
5.476027749709146e-07 
-1.019293706349931e-07 
-8.725451463393297e-07 
-6.041437381761343e-07 
1.156307164471049e-07 
2.421205885028591e-06 
2.502475858271805e-06 
1.153286113396136e-06 
9.553598818908871e-07 
1.889314745434493e-06 
3.343601417133062e-06 
3.117459259378651e-06 
2.005928614156004e-06 
2.535247243439598e-06 
1.387780460065823e-06 
4.290060684651108e-07 
8.827226215801e-07 
1.870067505684876e-06 
2.013004546304794e-06 
1.948928856792308e-06 
2.310859820682642e-06 
2.181233988122311e-06 
2.131960421289962e-06 
1.186829415533551e-06 
1.43963976236578e-06 
1.825810569011782e-06 
1.674889083776122e-06 
6.63067553026409e-07 
-2.524318215330086e-07 
9.129361457045685e-07 
4.286880250895842e-07 
2.605712603295678e-06 
2.545529182883449e-06 
1.23174220750388e-06 
1.679367473199417e-06 
3.013684332943544e-06 
3.816717179019324e-06 
2.953060716116288e-06 
2.326092079698578e-06 
2.730424292329987e-06 
1.814058610165726e-06 
8.564745217669828e-07 
9.145641217063802e-07 
1.823495439763948e-06 
1.957432513207127e-06 
2.317072585455122e-06 
2.410582796051837e-06 
2.315610789815739e-06 
1.833902112053034e-06 
1.237224991352835e-06 
1.404947226397844e-06 
1.666426519274302e-06 
1.774372997147375e-06 
8.411899581119442e-07 
1.646905450784424e-07 
1.190978174987078e-06 
8.860456748722505e-07 
2.228257596856958e-06 
2.545331302057717e-06 
8.606120395270525e-07 
8.242841985851864e-07 
3.198183757233497e-06 
3.648601381895881e-06 
3.146772950511422e-06 
2.026139002585897e-06 
2.048988772446743e-06 
1.613222808733649e-06 
5.185332102800299e-07 
7.806358126767288e-07 
1.544109568251089e-06 
2.120931106987949e-06 
2.245818935469966e-06 
2.028000831809825e-06 
2.094240670428468e-06 
2.066483119536243e-06 
1.958098165138274e-06 
2.122599412752173e-06 
1.878633589919652e-06 
1.458513955462562e-06 
5.753701998200645e-07 
-4.754368347857143e-08 
5.375858294135161e-07 
5.51190675504329e-07 
1.794381764895249e-06 
1.866074310144798e-06 
9.237061429444599e-07 
1.205290501812608e-06 
2.254322912076612e-06 
3.415907194223102e-06 
3.4519551774577e-06 
2.152754992706613e-06 
1.822028276963153e-06 
1.161295547487109e-06 
5.110778993958651e-07 
5.827453820989984e-07 
1.269865003632886e-06 
1.542259200562151e-06 
1.902657047146907e-06 
1.963511520567455e-06 
1.973882794753295e-06 
1.42895926032388e-06 
6.855832234374981e-07 
7.597221176889965e-07 
1.427433450568784e-06 
1.176391320528827e-06 
4.974895637115981e-07 
9.247338436631758e-09 
7.94391945552686e-07 
1.282681041354425e-06 
2.128556105797795e-06 
1.957721365275491e-06 
1.518282714474464e-06 
1.238961599436345e-06 
3.265756906872033e-06 
4.233460005725936e-06 
3.513336087154323e-06 
2.07348227870586e-06 
2.44038094366577e-06 
2.353357797054418e-06 
8.236547907643466e-07 
6.593269540767453e-07 
1.59221145401313e-06 
1.587187453286533e-06 
1.831250866474003e-06 
2.148378003332902e-06 
2.284945028938685e-06 
1.701144562264558e-06 
1.480197133515779e-06 
1.80486879847087e-06 
1.808236860956293e-06 
1.514120376184405e-06 
6.389559875366815e-07 
-1.082980866640361e-07 
1.237506015553304e-06 
3.08789748537496e-07 
2.798362362850114e-06 
2.010684382890146e-06 
9.632739814177112e-07 
1.260203204048366e-06 
2.929669614230329e-06 
4.026040864228209e-06 
3.780315888610041e-06 
2.428027884935872e-06 
2.588377820747378e-06 
2.52044162382387e-06 
1.771685443878329e-06 
1.384412202046263e-06 
1.804294798829198e-06 
2.028439110927695e-06 
1.876066364844701e-06 
1.838741449225781e-06 
2.167863706489069e-06 
1.672769871023281e-06 
7.969137857859514e-07 
9.613618513434124e-07 
1.52986563775897e-06 
1.236375959223879e-06 
8.041195500806774e-07 
5.895611172529368e-07 
1.357282521394877e-06 
1.670716850098685e-06 
3.068163987402376e-06 
2.301708324825841e-06 
1.734941125367937e-06 
2.204241051755256e-06 
3.605840472752051e-06 
4.628707376408061e-06 
3.890991083150671e-06 
2.933847281707813e-06 
3.100924662749082e-06 
2.474160392456419e-06 
1.488123986715456e-06 
1.113650990603622e-06 
1.889405491227459e-06 
1.87374362553898e-06 
2.297656324009195e-06 
2.058638352704425e-06 
1.968250621352997e-06 
1.619011861004627e-06 
1.580796327454228e-06 
1.782581153897021e-06 
1.663809537055001e-06 
1.204180981159807e-06 
8.9456089550264e-07 
9.137954757429644e-07 
1.909606243226857e-06 
2.710995306352376e-06 
3.250656594020219e-06 
2.747201193766e-06 
1.925832427096042e-06 
1.374280708942156e-06 
3.242877502369719e-06 
3.819381743588243e-06 
3.852447283028478e-06 
2.910450308187596e-06 
3.117635552222642e-06 
2.68843507104658e-06 
1.697673202507052e-06 
1.356840366393216e-06 
2.010399251170007e-06 
1.647367751323596e-06 
1.614373270508434e-06 
1.760078097354548e-06 
1.514628026332303e-06 
1.201469080381638e-06 
1.407961092315038e-06 
1.66968252239411e-06 
1.687088604825163e-06 
9.388026476423549e-07 
3.078706711791229e-07 
7.394632080275536e-07 
1.862540757555441e-06 
1.880034929755449e-06 
3.939640468454661e-06 
2.740536129849214e-06 
1.675957452800779e-06 
1.995912914408849e-06 
3.363700059473561e-06 
4.551678313757656e-06 
4.271202524880637e-06 
3.222036946772011e-06 
3.832064116116911e-06 
3.243561851616759e-06 
1.772979278637005e-06 
1.455688903286589e-06 
2.117356594385008e-06 
1.898051920013286e-06 
2.017439288644147e-06 
2.314990993091466e-06 
2.072164995224363e-06 
1.387279411956692e-06 
1.190909277681463e-06 
1.352263763010079e-06 
1.632897505903243e-06 
1.44784368729422e-06 
8.597623755379699e-07 
1.285232331528669e-06 
2.915367998939464e-07 
1.216354032548727e-06 
3.078674041911024e-06 
2.382007423213029e-06 
1.730345431124016e-06 
2.110263879999741e-06 
3.098133934562762e-06 
4.468841353668991e-06 
4.652072292244139e-06 
3.819489200897912e-06 
4.174467198697031e-06 
3.243759487645981e-06 
1.7013938633355e-06 
1.584786528730049e-06 
2.256233976219548e-06 
2.209486059715042e-06 
2.121674869287905e-06 
2.479044066354374e-06 
2.423694890010184e-06 
1.841183178353354e-06 
1.223614575873885e-06 
1.469910802389757e-06 
1.733528434399954e-06 
1.610809142901063e-06 
1.364252871558279e-06 
1.796506339293514e-06 
4.081935242757546e-07 
8.140792707694534e-07 
3.242950999024097e-06 
1.802139731508465e-06 
9.969459598600189e-07 
1.46507115470936e-06 
3.057027419926604e-06 
4.704566192790845e-06 
4.353897239117939e-06 
3.560950127908591e-06 
3.913238734179421e-06 
3.127512282185121e-06 
2.021399915963939e-06 
1.843822205555522e-06 
2.651915927440033e-06 
2.726319826135919e-06 
2.546033210655006e-06 
2.965280031078651e-06 
2.620544320218557e-06 
1.949529583508271e-06 
1.325727288096364e-06 
1.409189603977203e-06 
1.78323752875474e-06 
1.844076474542565e-06 
1.578686969231134e-06 
1.685017190561499e-06 
5.890801522502605e-07 
1.165031518601843e-06 
2.64352850315938e-06 
2.399259829547834e-06 
1.85760286276939e-06 
1.926039570422418e-06 
3.08017666669941e-06 
4.542551346516384e-06 
4.948586567553986e-06 
4.11459287294699e-06 
4.490168757384549e-06 
3.703603845946375e-06 
2.425066751208504e-06 
2.4975079575177e-06 
2.985070172667777e-06 
2.542416854405361e-06 
2.574174769979681e-06 
2.976061804339694e-06 
2.779380856598176e-06 
2.233694768185832e-06 
1.925587813894421e-06 
2.155647575165311e-06 
2.317183656221727e-06 
1.936591479016158e-06 
1.572489904541671e-06 
1.733150012551768e-06 
7.370230083481054e-07 
1.513970950411632e-06 
3.543243186693423e-06 
3.062893266485417e-06 
7.499126222724861e-07 
1.876790501961865e-06 
3.505388883112222e-06 
4.257346760970865e-06 
4.309839306147928e-06 
3.864524380600066e-06 
4.599560601654938e-06 
3.95074191064138e-06 
2.934770327529538e-06 
3.04363802792502e-06 
3.206875684752911e-06 
2.846984230908961e-06 
2.664642757333041e-06 
2.504142910928076e-06 
2.165580463279331e-06 
1.789200799568126e-06 
1.825374302099218e-06 
2.180858199477604e-06 
1.999561375489275e-06 
1.792328478563349e-06 
1.746148291396422e-06 
2.036424443030841e-06 
6.648008905994351e-07 
1.609957129281697e-06 
3.266961190144122e-06 
2.836541938758704e-06 
2.125567331480763e-06 
2.065886712838278e-06 
3.330496558957074e-06 
5.060242528950935e-06 
5.19027693199003e-06 
4.890209698102596e-06 
5.234434519684337e-06 
4.115019991313379e-06 
3.432947149403763e-06 
3.744917970980784e-06 
3.975745861394081e-06 
3.873686556447638e-06 
3.438848470818268e-06 
2.796993562002311e-06 
2.375412508303847e-06 
2.375788086788575e-06 
2.503286168415489e-06 
2.568135103552718e-06 
2.482190282046986e-06 
2.116565408392805e-06 
2.533805517929922e-06 
2.819233362323116e-06 
6.136247123671618e-07 
2.937767084005816e-07 
4.311311456528204e-06 
2.643526239130399e-06 
1.719923675709957e-06 
2.187843374291393e-06 
3.664183679439886e-06 
5.163155287415111e-06 
4.842623717285572e-06 
4.183296808233921e-06 
5.075259984856587e-06 
4.559809740083788e-06 
3.799010803106141e-06 
3.945496693268248e-06 
4.231726910200267e-06 
4.132860278301799e-06 
3.722884220740729e-06 
3.392550859067336e-06 
2.809963133586069e-06 
2.467175170561057e-06 
2.544524874649718e-06 
2.756255011399794e-06 
2.784762179275495e-06 
2.478682099826857e-06 
2.837055059909977e-06 
2.71770934247801e-06 
1.010339819891544e-06 
1.392394950102766e-06 
4.104864632270923e-06 
2.932079121720092e-06 
2.174467629744666e-06 
2.528653995614911e-06 
3.926849248087176e-06 
4.977696718980768e-06 
4.230600065512337e-06 
4.32513792536726e-06 
5.526072453640124e-06 
5.250095745845984e-06 
4.189159004923492e-06 
3.939986660771866e-06 
4.378012525148284e-06 
4.349687984671391e-06 
3.479802195416142e-06 
3.239790060538656e-06 
2.958190850649061e-06 
2.324798131833244e-06 
2.578449281418201e-06 
2.724428394859836e-06 
2.399149856593285e-06 
2.433584651557993e-06 
2.623932505512402e-06 
2.49424601268013e-06 
8.859222949048984e-07 
2.23184780527864e-06 
4.446687057372224e-06 
3.117968172087339e-06 
1.808568403502727e-06 
1.976230027509188e-06 
3.48335770506755e-06 
4.810746799539753e-06 
4.556279054011967e-06 
3.775684131445636e-06 
4.848157198087263e-06 
4.834366812352342e-06 
3.997746794516815e-06 
4.165875324626898e-06 
4.931631379573657e-06 
4.625912308533702e-06 
3.767156989654179e-06 
3.477432254804352e-06 
3.136203074271204e-06 
3.051521129553439e-06 
2.238377858845454e-06 
2.494176334714756e-06 
2.770819604606051e-06 
2.350551654800418e-06 
2.700718026016223e-06 
2.592446667661513e-06 
1.110889221444205e-06 
1.521406194367206e-06 
4.363784569378098e-06 
3.290815119439814e-06 
2.150193859625197e-06 
2.226888948759325e-06 
4.114358193643018e-06 
5.095382203322135e-06 
4.849967437975025e-06 
4.070059970670309e-06 
4.685258962017494e-06 
4.577495792989124e-06 
3.546182391025507e-06 
3.535165502103633e-06 
4.797060426037978e-06 
4.698608589694171e-06 
3.992005051046636e-06 
3.369421437613434e-06 
3.028164195553526e-06 
2.687806116827897e-06 
2.830677041398689e-06 
3.047333699293138e-06 
2.489207970943438e-06 
2.121635433684865e-06 
2.363488020039918e-06 
2.370900167964742e-06 
1.762293233319654e-06 
1.980430582908077e-06 
3.42308727009837e-06 
3.133019628783815e-06 
2.32555846746043e-06 
2.196562538683002e-06 
3.921028560730472e-06 
4.413634459418384e-06 
4.596769342759956e-06 
3.922049691159773e-06 
4.467746449978021e-06 
4.375573062852631e-06 
3.174516368266323e-06 
3.191326204170186e-06 
4.265093493378487e-06 
3.998383835474318e-06 
3.285244872785249e-06 
3.04642152305079e-06 
2.820864481308696e-06 
2.524225180612653e-06 
2.630740645228757e-06 
2.773800232725081e-06 
2.464090377451365e-06 
2.29901484293764e-06 
2.127532380279116e-06 
2.244246647868772e-06 
1.123114594476148e-06 
1.639619939589463e-06 
3.584806778247707e-06 
2.430643953464234e-06 
1.782426926536051e-06 
1.896142553575552e-06 
3.459467400245572e-06 
4.723913211263331e-06 
4.103858361978139e-06 
3.360821440362033e-06 
4.373564426123598e-06 
3.715903073138023e-06 
2.671888138639354e-06 
2.766879639218513e-06 
3.719425351296902e-06 
3.846860196388041e-06 
3.642558938162444e-06 
3.406991299847881e-06 
3.281225238318358e-06 
2.758257006087125e-06 
2.816093586847937e-06 
2.804045110468437e-06 
2.665057774038874e-06 
2.386984579165478e-06 
2.084609312145029e-06 
1.917499619479177e-06 
7.229134500347258e-07 
1.151390575227735e-06 
2.80833514898345e-06 
2.439020413467252e-06 
1.7867138550651e-06 
1.48718747960504e-06 
3.327179031332623e-06 
3.372585595382339e-06 
3.341458520112754e-06 
3.077986781123613e-06 
3.922806481880766e-06 
3.832297201439076e-06 
2.406620336781006e-06 
2.771273823712551e-06 
3.63858469425748e-06 
3.538454824916148e-06 
3.135030798911546e-06 
2.722061677444675e-06 
2.356799011146649e-06 
1.609356096439512e-06 
1.282231786947407e-06 
1.366056803416885e-06 
1.368459658299225e-06 
1.749057000563932e-06 
1.969004824707249e-06 
1.809804831889444e-06 
5.842397757082539e-07 
6.324844200244669e-07 
2.777513298878484e-06 
2.681040974636631e-06 
1.814129183167699e-06 
2.014325084543123e-06 
3.111311454073977e-06 
3.618651383637416e-06 
3.765525981330942e-06 
3.234945594245033e-06 
4.060638190655141e-06 
3.341678618630903e-06 
2.940826600425237e-06 
2.816918665191264e-06 
3.636133184930244e-06 
3.727629850266321e-06 
3.208183058417286e-06 
3.325436696750831e-06 
2.709774115105064e-06 
2.171385332288755e-06 
2.074187022660336e-06 
2.218096699157117e-06 
2.013260394318608e-06 
2.208519349512429e-06 
2.05190525152559e-06 
1.887465955777879e-06 
5.072395492197417e-07 
-1.14253256796849e-06 
2.732870785000375e-06 
2.584599613405768e-06 
1.615343786290296e-06 
2.151055679658423e-06 
3.21194030866382e-06 
3.841035070009585e-06 
3.724036794945897e-06 
2.510667939090653e-06 
3.15309442292341e-06 
2.942062618193931e-06 
2.548570166088271e-06 
2.661948520205595e-06 
3.489447948631914e-06 
3.225752338816585e-06 
2.718877709281384e-06 
2.582179777526398e-06 
1.98814289781917e-06 
1.580609907170512e-06 
9.574024351408421e-07 
9.732801973276041e-07 
1.671888903663496e-06 
1.759986041083632e-06 
1.497441785159124e-06 
1.557290503360585e-06 
7.590806384132084e-07 
1.747101819485656e-06 
3.091240603333697e-06 
2.19989175587858e-06 
1.314890313267154e-06 
2.098532568675581e-06 
3.124834598746529e-06 
3.724935731619892e-06 
3.957970106231098e-06 
2.861604359830484e-06 
3.891033171516238e-06 
3.46371240677997e-06 
2.902024346736713e-06 
3.18347347006338e-06 
4.051304690425274e-06 
3.770618316604892e-06 
3.629927049348414e-06 
3.440708436075778e-06 
3.104119597964734e-06 
2.775141638120419e-06 
2.64579455820096e-06 
2.780201119444339e-06 
2.452090649174886e-06 
2.345273752147043e-06 
2.232401763158995e-06 
1.851370961512818e-06 
-5.0266581804877e-07 
9.409723891620491e-07 
2.273289855686261e-06 
2.646963969316168e-06 
1.111732695194102e-06 
1.613059442057714e-06 
