solver_type L2R_L2LOSS_SVR
nr_class 2
nr_feature 79534
bias -1
w
-2.746969892492863e-06 
-1.678273440915986e-06 
-1.145039032114664e-07 
7.119384314656533e-07 
-6.847204968690607e-07 
-3.14038029094923e-07 
8.339196327364488e-07 
-2.044109717883662e-07 
7.284618160004975e-07 
1.316237407925443e-06 
2.173895797694404e-06 
1.57399589373001e-06 
8.142133013408112e-07 
1.185105132324005e-06 
2.300625462861642e-06 
2.794393858158664e-06 
3.051691467887527e-06 
3.255482814445229e-06 
2.735318813766626e-06 
5.888494488811497e-07 
-7.350294094151941e-07 
-9.027017271924436e-07 
-3.243121930430663e-07 
1.523652504149318e-06 
3.485868176611918e-07 
-7.800606478207277e-07 
-3.00521615963109e-06 
-2.151928080253102e-06 
3.801561988070618e-07 
1.05967212021306e-06 
-1.046791182265514e-06 
-4.526600885606092e-07 
6.319135471130356e-07 
-7.299154874314912e-07 
5.126889589099651e-07 
3.258675491787261e-07 
2.29146548180513e-06 
1.084172695626081e-06 
-4.473474785156355e-07 
9.079369620979749e-07 
2.223600621963219e-06 
2.29223613907861e-06 
2.688449967136931e-06 
2.791783978142871e-06 
2.638114370733108e-06 
8.76867164373429e-07 
4.906924926622604e-07 
4.944909580035928e-07 
1.459229262088168e-07 
1.82314193517549e-06 
-3.360510153173294e-07 
-1.322145684064097e-06 
-3.189004306334604e-06 
-1.612018211716817e-06 
1.859123080071983e-07 
9.785626227129942e-07 
-1.828584372199253e-06 
-1.808279216537485e-06 
-2.225200340563783e-07 
-1.243930524820267e-06 
4.319417524814519e-07 
4.757867411015913e-07 
1.890640178386491e-06 
6.084524136141092e-07 
-7.528037462443379e-07 
2.312672784168441e-07 
1.249310975279932e-06 
1.078554265074964e-06 
2.388011483783476e-06 
2.964755249853941e-06 
2.476265340716504e-06 
1.127246456923674e-06 
-4.92894057620127e-07 
-3.003051616417034e-07 
3.095327571918647e-07 
1.333858391693818e-06 
-1.010836245259738e-06 
-2.029961762172683e-06 
-3.490970819433571e-06 
-2.910223144820695e-06 
-6.425135441528213e-07 
-3.361631446590259e-07 
-1.784053414252577e-06 
-2.183556494042238e-06 
-3.984700699626809e-07 
-1.313806150914232e-06 
-2.405078564973494e-07 
2.790477728032772e-08 
1.276909959570695e-06 
2.405347414863089e-08 
-6.338661296016129e-07 
2.954652565267328e-07 
1.140829986114968e-06 
1.196501700032312e-06 
1.98640392860736e-06 
2.330208509852026e-06 
2.163423931304258e-06 
7.262802919225589e-07 
3.365587471397872e-07 
4.212594813222568e-07 
9.33742043845492e-08 
8.93385125894544e-07 
-7.507817366525908e-07 
-1.98202497068161e-06 
-3.853580352817927e-06 
-2.33356103921653e-06 
-4.628331199670755e-07 
2.186993279183787e-07 
-1.797129930911048e-06 
-2.583873677107913e-06 
-3.677946864597027e-07 
-1.854920062495648e-06 
-1.354366492172149e-07 
-1.320229675590406e-09 
1.362708030957203e-06 
-1.748802424778457e-07 
-1.238610571404186e-06 
-4.514425545767329e-07 
8.162400344120095e-07 
6.571467703198325e-07 
1.363840119678226e-06 
2.334102537442343e-06 
2.41668108101778e-06 
-2.442447602620761e-07 
-7.783251075850167e-07 
-8.312285041316067e-07 
-1.172105402190425e-06 
4.316041040633944e-07 
-1.486456872668913e-06 
-2.357017799031904e-06 
-4.226639157475966e-06 
-1.935296504073425e-06 
-1.002567507997528e-07 
3.251256552096837e-07 
-1.170361541470972e-06 
-2.015949345800879e-06 
-7.925475403540999e-07 
-1.378726324967106e-06 
-3.131101180724235e-07 
-3.894817077651389e-07 
1.728643351631245e-06 
-6.532688061470592e-08 
-8.71011001720724e-07 
5.061300401741307e-07 
1.318191430392155e-06 
1.340910516202078e-06 
1.490725499853756e-06 
2.486765332282657e-06 
2.261546934987551e-06 
-2.99355975066768e-07 
-8.660094485344261e-07 
-8.291262170332708e-07 
-7.621028988734373e-07 
6.563132130801378e-07 
-9.585892345045442e-07 
-2.367096942338947e-06 
-2.433751645307909e-06 
-4.381042348178926e-07 
6.01741019040541e-07 
7.247721747448313e-07 
-8.657453091489149e-07 
-1.487422150140931e-06 
-6.823462612556822e-07 
-1.308644507150154e-06 
8.044654628209216e-07 
6.570966189145563e-07 
1.497693106448863e-06 
3.376183526256269e-07 
-3.69736000747382e-07 
4.532003970934171e-07 
1.168992297165961e-06 
1.254512133646789e-06 
1.538684915683797e-06 
2.230290621295796e-06 
1.902374130041557e-06 
5.583484917556714e-07 
8.32582067906383e-07 
8.500669045852877e-07 
1.322719875318939e-07 
6.432292618161071e-07 
-4.667658585943764e-07 
-1.72904667763297e-06 
-3.081236486084221e-06 
-1.032806128730783e-06 
4.031712140353983e-07 
1.147417521740473e-06 
-1.098320315331333e-06 
-1.682479588801074e-06 
-3.299269545372041e-08 
-1.053909753410579e-06 
7.669407093718233e-07 
8.846459511122322e-07 
2.06761050238456e-06 
6.249849894803207e-07 
-5.685019068562728e-07 
3.416124792820233e-07 
1.122430643228906e-06 
1.125994501466464e-06 
1.340634577606601e-06 
1.579450648736347e-06 
1.602289418244343e-06 
-8.371752801992178e-08 
-1.05723903187906e-06 
-1.114593904334154e-06 
-7.703062615677725e-07 
1.936380960618276e-08 
-7.536169312729915e-07 
-1.770747501737257e-06 
-2.777248445124886e-06 
-3.000163768565313e-06 
8.897313184162549e-07 
9.291334913590072e-07 
-9.798810846772953e-07 
-1.933793195166545e-06 
-6.255566730151746e-07 
-1.61131703849574e-06 
4.199929780361142e-07 
1.114732324052301e-06 
2.907135010099454e-06 
1.249490810158579e-06 
-4.644372986452364e-07 
5.623315314458475e-07 
1.415288591903366e-06 
1.392476874979081e-06 
1.792695341835087e-06 
2.446690116217993e-06 
1.771070958664966e-06 
4.881613121008042e-07 
-1.101076657906764e-06 
-1.305081161535327e-06 
-5.393745161247528e-07 
6.142721317278354e-07 
-3.447216233863444e-07 
-1.71727491217731e-06 
-2.472625491437903e-06 
-3.68043663582145e-06 
1.372212015570461e-06 
1.125182145220101e-06 
-1.229182483127006e-06 
-1.498708513349199e-06 
-9.206013012319575e-07 
-1.286751302195058e-06 
-6.112834044957463e-08 
7.452693255738143e-07 
2.057201709273222e-06 
5.704532212005623e-07 
-7.268116315095345e-07 
-1.410706800322158e-07 
1.223509167477675e-06 
1.55479635447355e-06 
1.985216422450803e-06 
3.03327703090145e-06 
2.178468802240821e-06 
3.231237810496838e-07 
-5.835716194869191e-07 
-6.636950082697737e-07 
-1.071523560419543e-07 
1.23407231338004e-06 
-1.011572679860871e-07 
-1.986738222007545e-06 
-1.060555124404689e-06 
-2.76776088419614e-06 
5.4607703056966e-07 
1.126722697904234e-06 
-3.208979632511839e-07 
-1.510153100104865e-06 
-1.97055574049944e-07 
-6.216220412708758e-07 
6.717750477775316e-08 
5.446174450791289e-07 
2.781099314335007e-06 
1.288122880090129e-06 
3.134344216759562e-07 
1.455999906027028e-06 
2.903567740942351e-06 
2.464696446024313e-06 
2.315236583931324e-06 
3.026364867502046e-06 
1.921202025861375e-06 
4.230774254154419e-07 
-5.967388246451447e-07 
-4.809662924458071e-07 
-1.01232649149454e-07 
1.499783518905139e-06 
7.715774267674582e-07 
-8.490876785626446e-07 
3.499840444806627e-07 
-2.498780101077593e-07 
2.417886005464374e-06 
2.532142867710199e-06 
1.304840158709065e-06 
4.481439900516092e-07 
2.161451911991605e-06 
1.243177628545971e-06 
2.533843453889865e-06 
2.529058158919941e-06 
3.879113434108763e-06 
2.831467854663502e-06 
1.503380245030897e-06 
2.363065967820605e-06 
3.740116982206912e-06 
3.760815463902849e-06 
4.170908705955175e-06 
3.942167600462848e-06 
3.255337118893046e-06 
2.46704084314408e-06 
9.913499232113615e-07 
1.005088216411995e-06 
1.560794045436035e-06 
2.451907160097509e-06 
1.921488281446452e-06 
3.862665696513193e-07 
-1.27397362749912e-07 
2.09769022382181e-06 
2.949606104514308e-06 
3.218367185412469e-06 
1.016686181731914e-06 
2.533208962128695e-07 
2.809675931840794e-06 
2.494949273392866e-06 
2.6678761480757e-06 
3.163097873027969e-06 
5.226154645758304e-06 
2.904429622280867e-06 
1.47588707275606e-06 
2.465554748183535e-06 
3.69831671301251e-06 
3.251442211913465e-06 
3.747365969806172e-06 
3.611591050074423e-06 
2.725140010305914e-06 
1.992334686623962e-06 
1.586705666803632e-06 
1.95982561341627e-06 
1.530734587391725e-06 
2.440665954436857e-06 
1.830646470512341e-06 
2.933462510127093e-07 
1.777781738667548e-06 
1.423451632268617e-06 
4.630486579658311e-06 
5.068747656152825e-06 
2.775446554429955e-06 
1.307025896530893e-06 
3.24188559209973e-06 
3.526735781765305e-06 
3.997939056818398e-06 
4.426296964633892e-06 
5.865200329786641e-06 
3.822247581132206e-06 
2.405367418135565e-06 
3.749350306807995e-06 
4.985284213093671e-06 
4.621144497843958e-06 
5.431571820654992e-06 
4.949084145507012e-06 
4.158115722096065e-06 
3.97121625805705e-06 
3.242074205323036e-06 
3.027506650143976e-06 
3.118397109407633e-06 
3.766472764311918e-06 
2.970736814064652e-06 
1.68230480735329e-06 
1.422052916592808e-06 
2.46651307220411e-06 
5.358675187772674e-06 
4.717947067121292e-06 
2.415929218628488e-06 
2.371177733195453e-06 
3.83315727957986e-06 
3.44720639367607e-06 
4.502832241621943e-06 
4.525618676446235e-06 
5.938245817331091e-06 
3.932646816754681e-06 
2.981462618633879e-06 
4.175917235760619e-06 
5.795335630814765e-06 
5.107096773615479e-06 
5.757743159883202e-06 
6.162355696224129e-06 
5.566460970107867e-06 
4.160137767492175e-06 
2.894116227193735e-06 
2.799097754331362e-06 
3.517974380435105e-06 
5.014973698072808e-06 
3.797977506897182e-06 
2.104141373823417e-06 
1.990765827075629e-06 
2.510877213806189e-06 
5.708558072874773e-06 
4.664148327252739e-06 
2.543583887897099e-06 
2.714139052883296e-06 
4.013213779550593e-06 
3.901718146952345e-06 
4.992011708490912e-06 
4.819589425037115e-06 
5.858750237431958e-06 
4.486639799347632e-06 
2.837427067232411e-06 
4.127214813621123e-06 
4.720189983125615e-06 
4.766422116959181e-06 
5.148847538875106e-06 
4.877844758715254e-06 
4.455594580720103e-06 
3.044887053374238e-06 
2.047390509048612e-06 
2.023907250250246e-06 
2.569437818340855e-06 
3.618552552875986e-06 
2.892269984396434e-06 
2.195692913577923e-06 
2.355533475408508e-06 
4.49926123676683e-06 
5.522251484946968e-06 
4.681250132347049e-06 
3.040093298480607e-06 
3.251559229537673e-06 
3.857186396871922e-06 
3.730676426229098e-06 
3.925772984720191e-06 
3.759825516732202e-06 
5.135971681824038e-06 
4.341568872778781e-06 
3.190664908506733e-06 
3.3173468731985e-06 
4.187990772125281e-06 
4.163296525928233e-06 
4.801201604789027e-06 
4.724039851322652e-06 
4.000545244865228e-06 
2.204972920441286e-06 
1.395555519543e-06 
1.903887235486103e-06 
1.856079855877614e-06 
3.251435653463717e-06 
2.612877631956394e-06 
1.605766912292444e-06 
2.952345376067856e-06 
3.550799243644867e-06 
5.936500069949626e-06 
5.329310185647364e-06 
3.337621573334577e-06 
2.509422950569484e-06 
3.830102990261576e-06 
3.680861424796029e-06 
5.128120650125682e-06 
4.349039933515679e-06 
6.038338443908238e-06 
4.591163387745153e-06 
3.041747105846789e-06 
3.732428942663551e-06 
4.233707255839153e-06 
4.2808742137357e-06 
5.048285038326638e-06 
5.200460076571231e-06 
4.476073549182827e-06 
3.581101155409193e-06 
3.909512240497003e-06 
3.96837179734543e-06 
2.960265263229542e-06 
3.319168905383759e-06 
2.544244685426323e-06 
2.275704062917152e-06 
1.734005474135232e-06 
2.990086599145582e-06 
6.003353239878133e-06 
5.676941598654542e-06 
3.6174480851979e-06 
2.238658243634991e-06 
2.822952330696404e-06 
3.565910529650276e-06 
3.859520813068672e-06 
3.733796051789242e-06 
5.496536950730396e-06 
3.83648496235737e-06 
2.790285644573822e-06 
3.257225452675466e-06 
3.722797780896392e-06 
4.092216962955821e-06 
4.634153303742508e-06 
4.71563074070203e-06 
4.496069209236027e-06 
3.321884734072848e-06 
3.162880248299157e-06 
3.260579031364709e-06 
2.912801668059718e-06 
3.092832902951098e-06 
2.30663660245781e-06 
1.943418002189235e-06 
3.000177392789528e-06 
2.722092320517378e-06 
5.751622944727905e-06 
5.145224685664651e-06 
3.107486491522808e-06 
2.219297659626346e-06 
3.139355877486456e-06 
4.386734702723047e-06 
4.468894714564516e-06 
3.857336900106438e-06 
5.838397126250888e-06 
4.419046007317091e-06 
2.271672286924034e-06 
2.481557114471129e-06 
3.161187099090086e-06 
3.181034406009039e-06 
4.069367494997396e-06 
4.013043952705837e-06 
3.839349989742448e-06 
2.173736756614213e-06 
1.986976937486512e-06 
2.369461849690987e-06 
2.04751782830851e-06 
2.753863014589838e-06 
1.771686789100458e-06 
1.73364022035547e-06 
1.168389520265012e-06 
2.839605510599838e-06 
5.501680959623076e-06 
4.763785544905567e-06 
2.283270070317589e-06 
2.385482320073955e-06 
3.337663040654606e-06 
4.024316411698995e-06 
4.057175795825577e-06 
3.18253161120443e-06 
4.752895437645184e-06 
3.847048758872144e-06 
1.757910467276808e-06 
2.475618426455967e-06 
3.0493262604034e-06 
3.458080565780851e-06 
3.9956318595502e-06 
4.521236407951906e-06 
4.498242270466935e-06 
3.212450111509584e-06 
3.56019237912437e-06 
3.585312273128956e-06 
2.711461965503604e-06 
2.589498932078619e-06 
1.573146634796769e-06 
1.695237357447581e-06 
2.269102241807345e-06 
3.88973949066118e-06 
4.996173839633682e-06 
5.667973258859611e-06 
2.268853960526353e-06 
1.356688109381624e-06 
2.499637001641629e-06 
3.437835460792148e-06 
3.625656176928682e-06 
2.90584872236986e-06 
5.287769857107854e-06 
3.659822757116061e-06 
1.230047184817692e-06 
1.33325214283973e-06 
1.607021476371833e-06 
2.539696177886439e-06 
3.043000529466502e-06 
3.574759403598709e-06 
2.619483148946712e-06 
5.089702527704525e-07 
3.911007963109863e-08 
2.038594460880865e-07 
2.679778079825143e-07 
1.488945749411976e-06 
7.412571896449455e-07 
9.523841370329975e-07 
2.65103201251811e-06 
4.357372743698992e-06 
6.024246824733025e-06 
5.748965742910911e-06 
3.522545238576904e-06 
1.705154606812593e-06 
2.496000665938029e-06 
3.947345472318265e-06 
4.411299185241334e-06 
3.367678867963661e-06 
5.604810104007e-06 
3.566011429137413e-06 
1.055082130476391e-06 
1.871135318777005e-06 
2.414280938756655e-06 
1.915936625240715e-06 
2.865623532263102e-06 
4.121650219514898e-06 
3.037848988019285e-06 
1.512641304212487e-06 
2.343174955829794e-06 
2.588063348529441e-06 
1.395665496301171e-06 
1.900891157576452e-06 
5.776422904216752e-07 
9.152193472378546e-07 
2.398821553099763e-06 
2.251084306374089e-06 
5.631431100182036e-06 
5.232637407997331e-06 
2.84250631096065e-06 
2.078015754080549e-06 
2.798527126193843e-06 
3.141704399163306e-06 
4.242792403646612e-06 
3.221843370061607e-06 
4.874388653493914e-06 
3.217482356729783e-06 
1.334756314467501e-06 
2.187126138781658e-06 
2.590556037962141e-06 
2.479238721343723e-06 
3.11865255365355e-06 
4.128814708043014e-06 
3.344650193931508e-06 
1.517958925422162e-06 
1.347974857512127e-06 
1.742585823695869e-06 
1.336222935175237e-06 
2.158811508098887e-06 
9.764422575462511e-07 
1.144900414938305e-06 
1.490308896524307e-06 
3.165185868895939e-06 
4.703662490989677e-06 
5.099172882016806e-06 
3.206021521880203e-06 
1.244907208115356e-06 
3.394184352204071e-06 
4.001311663900809e-06 
4.281931674411547e-06 
3.496873423657131e-06 
5.254203636619441e-06 
4.13094128268343e-06 
1.755995129381277e-06 
2.142081408415913e-06 
2.709854072441531e-06 
2.794411223875022e-06 
3.056847806329323e-06 
3.875215603964538e-06 
3.41843746879602e-06 
2.227862884138614e-06 
1.497111796469163e-06 
1.787587644893529e-06 
2.000499127862445e-06 
2.496456754403637e-06 
1.388436834091387e-06 
8.062544202353647e-07 
1.262870502922387e-06 
2.12942052125542e-06 
6.978344624806985e-06 
5.874869526426034e-06 
3.847383830774646e-06 
1.874162383840356e-06 
4.288116007275618e-06 
4.315806310416091e-06 
4.764005753917341e-06 
3.918544589213588e-06 
5.339697034499317e-06 
3.840464314424003e-06 
1.878466653772261e-06 
2.171178084138882e-06 
3.039010603616149e-06 
2.979898511168997e-06 
3.045967352433551e-06 
3.705657978452917e-06 
3.218045455508002e-06 
1.836804614561168e-06 
1.687154418125108e-06 
1.928845960163211e-06 
1.784927724448333e-06 
2.13474120588726e-06 
1.098781996119213e-06 
9.996569913731814e-07 
8.033111988738973e-07 
2.072604879890011e-06 
5.553305722007666e-06 
6.570278595968296e-06 
3.378383734939241e-06 
1.899950449127527e-06 
3.641891526081336e-06 
3.79332055658265e-06 
4.307507316327336e-06 
3.742228839396096e-06 
5.757794800643521e-06 
4.46121179981779e-06 
2.350744328237608e-06 
2.94276326528047e-06 
3.368274898855731e-06 
2.91597058376592e-06 
3.137087076132164e-06 
3.803795631708042e-06 
3.035234229848307e-06 
1.937846434951585e-06 
1.778261225105279e-06 
2.166639892767104e-06 
8.941054357072088e-07 
1.844132095264144e-06 
1.120835160727223e-06 
1.232288739114524e-06 
1.128701214020098e-06 
2.357903567301696e-06 
5.686931664165571e-06 
5.490988436055947e-06 
3.553485404373574e-06 
2.12296493516478e-06 
4.201216874114235e-06 
4.559612170178219e-06 
4.56362566131769e-06 
3.623791197943959e-06 
5.198894345383983e-06 
3.710124896417517e-06 
1.333125825924932e-06 
2.408572947816402e-06 
3.242869956798398e-06 
2.54517356411577e-06 
2.733349053512069e-06 
3.772130786065813e-06 
2.838992013409017e-06 
1.48711189872684e-06 
2.144559920920335e-06 
2.299995766060555e-06 
1.353729510409324e-06 
1.566195540135628e-06 
6.91290640542129e-07 
1.110795818923618e-06 
3.091047317572066e-06 
8.734498618118962e-07 
5.486092801460461e-06 
5.636230741949139e-06 
2.8371595463329e-06 
2.427845917104494e-06 
3.91880379989544e-06 
3.876086982843574e-06 
4.907403034676179e-06 
3.357594630293718e-06 
4.732089719159846e-06 
3.054338980062661e-06 
1.553955244724081e-06 
1.644974997589324e-06 
2.748079594273871e-06 
2.118156990034609e-06 
2.883630526840675e-06 
3.807331742320286e-06 
3.073299836104881e-06 
4.990000780511597e-07 
9.057481546616291e-07 
1.376506937525326e-06 
7.091032566855119e-07 
2.101117968280531e-06 
8.61603904845383e-07 
1.124480577660778e-06 
2.22946984192483e-06 
1.171155983252447e-06 
4.918802467582956e-06 
5.2073096578828e-06 
3.131259912441713e-06 
2.126624462902142e-06 
3.247390104187287e-06 
3.777952163868281e-06 
3.790038569362719e-06 
3.002270428826241e-06 
4.43844644778334e-06 
3.080720704040142e-06 
1.299812980251628e-06 
1.435067121180936e-06 
2.672476040156055e-06 
2.181735895552507e-06 
3.042417374195806e-06 
3.64792919364489e-06 
2.905101711988235e-06 
1.698752420385193e-06 
1.363801082738427e-06 
1.706710162039312e-06 
1.252259911045743e-06 
2.016649085358016e-06 
8.47564364070469e-07 
1.08554339183774e-06 
5.660977575823e-07 
5.307761597191719e-07 
4.840453817170803e-06 
5.277755611518773e-06 
3.651881970970857e-06 
2.621202107871956e-06 
4.284447607364757e-06 
3.979363126707632e-06 
3.672426613881913e-06 
3.135330737276624e-06 
4.897423116029599e-06 
3.397540865343e-06 
1.462505518177193e-06 
1.533579083333761e-06 
3.170818313899983e-06 
2.291755106114865e-06 
2.709801728162149e-06 
3.585551516542874e-06 
3.500723502132624e-06 
1.437090188145727e-06 
7.100214705614333e-07 
8.455926480181987e-07 
9.478973735642714e-07 
2.037666406617095e-06 
8.14633789383338e-07 
1.32017738968544e-06 
1.942202692939225e-06 
7.987154209332223e-07 
4.658327983615903e-06 
5.404209514044167e-06 
4.54809689791956e-06 
3.188270253889127e-06 
4.300518223956493e-06 
4.070303653240608e-06 
3.809209272422511e-06 
3.744085108802066e-06 
5.566008009901125e-06 
3.332376963884102e-06 
1.363122803288561e-06 
2.063247963583408e-06 
2.463501962255236e-06 
2.502687275548897e-06 
2.572797769254195e-06 
3.579451229903642e-06 
3.156217751096302e-06 
9.150451383535901e-07 
6.817070333928769e-08 
2.286468991427331e-07 
9.248892791792987e-07 
2.111620469609964e-06 
9.698991727369381e-07 
1.299066916938608e-06 
1.907053736879838e-06 
7.38833638848431e-07 
4.285354949244495e-06 
5.450099259353643e-06 
4.519838105258979e-06 
3.629108976431157e-06 
4.656587684253494e-06 
4.422535151791895e-06 
4.743518693699216e-06 
4.078246390093281e-06 
5.14301376667325e-06 
3.276326970456008e-06 
1.559784079277238e-06 
1.408666361189654e-06 
2.859212489508751e-06 
2.651176068130676e-06 
2.295516633399819e-06 
3.476782665164601e-06 
3.639723486853535e-06 
2.352770194677583e-06 
1.882933128819998e-06 
1.831277847147566e-06 
1.74594399364269e-06 
2.026566578523462e-06 
7.616864909804891e-07 
1.240820176415301e-06 
-2.063788146373786e-07 
6.459370568176616e-07 
4.684503014883443e-06 
4.92859163369563e-06 
4.401287536289186e-06 
3.71997547635997e-06 
5.064325383919924e-06 
4.234682148401201e-06 
4.784092845668994e-06 
4.628488154191213e-06 
6.108493338311473e-06 
3.556396915859357e-06 
1.96839870676228e-06 
2.818933670871019e-06 
3.297728222715534e-06 
2.84571396195725e-06 
2.493464862393828e-06 
3.327989809243457e-06 
3.48596942700152e-06 
1.493399453426227e-06 
9.53248305707774e-07 
1.077343977110063e-06 
1.250006921178317e-06 
1.964144514159076e-06 
8.867133952296997e-07 
1.79773328088121e-06 
4.247594407188264e-07 
1.577013872056254e-06 
4.956456543764293e-06 
5.406258612469874e-06 
4.613989381481738e-06 
4.229736193256819e-06 
5.353049994181332e-06 
3.353494912447301e-06 
4.840396056482106e-06 
4.705817308953807e-06 
5.041186685541412e-06 
3.028956349001431e-06 
1.53792277979921e-06 
2.302962492447792e-06 
3.453267709767847e-06 
2.927266901984076e-06 
2.609084488623188e-06 
3.691815165190791e-06 
3.306110212445822e-06 
2.15677500259627e-06 
2.100511015289929e-06 
2.324907252412447e-06 
1.496667749155684e-06 
1.753590637920144e-06 
1.16556416738095e-06 
1.739872669998694e-06 
-1.464626679408435e-06 
1.004542346051322e-06 
5.287115883945288e-06 
6.098690434762058e-06 
3.937325768898241e-06 
3.46746333388136e-06 
4.277300260205745e-06 
3.779100926130989e-06 
4.389949787113596e-06 
4.02836678688745e-06 
5.058899674900214e-06 
3.418312020358632e-06 
1.432326032014479e-06 
1.991693848798806e-06 
2.89929128497456e-06 
2.383468773968953e-06 
1.842084062142069e-06 
2.98070242597605e-06 
2.673368339209946e-06 
1.382647961454027e-06 
1.017324663794904e-06 
1.294415178753924e-06 
7.857663902139287e-07 
1.419176408401574e-06 
7.389953172340628e-07 
1.38235577078399e-06 
-8.952512563860983e-08 
1.104058207230156e-06 
4.267326936134702e-06 
5.043652772887753e-06 
3.752901165137681e-06 
2.20362153122417e-06 
3.923537470909e-06 
3.188723930457285e-06 
3.959064593651776e-06 
4.01367183105078e-06 
4.700953013822958e-06 
3.86232796416865e-06 
1.585958903868889e-06 
2.672721156607386e-06 
3.812285037905532e-06 
2.83218465066264e-06 
2.550562854706014e-06 
3.690974750415012e-06 
3.781570472851145e-06 
2.312219911066724e-06 
1.641119023405692e-06 
1.912928465012159e-06 
1.768858385607658e-06 
2.161758296024127e-06 
1.299491126790185e-06 
1.642678576172529e-06 
-1.03631860218823e-06 
8.055674426020251e-07 
4.217712066695422e-06 
4.320624757832444e-06 
3.72250878715749e-06 
2.839721188160452e-06 
4.853328658371099e-06 
4.075675710180476e-06 
4.832663653374741e-06 
3.597752012910564e-06 
4.353224181727444e-06 
3.378108273401686e-06 
2.442788326282125e-06 
3.414626466698098e-06 
4.483707558139325e-06 
3.303091635460091e-06 
3.323589025863679e-06 
4.036212045672938e-06 
4.086204886079925e-06 
2.541267624231413e-06 
1.880841060195522e-06 
2.198381470174785e-06 
2.14393188391525e-06 
2.796225053059829e-06 
2.025116959438294e-06 
2.160489055229978e-06 
1.15658770513215e-06 
1.977488233120415e-06 
4.751620681569171e-06 
6.131679914139725e-06 
3.988587752476045e-06 
3.884948773193348e-06 
5.48711850920955e-06 
4.192650505612441e-06 
4.780581060349095e-06 
4.323623805076486e-06 
5.454607790937671e-06 
3.553274819768245e-06 
2.587027366597583e-06 
3.481658503172935e-06 
4.284493171522726e-06 
3.263301480663156e-06 
3.641416559587546e-06 
4.325256601751648e-06 
3.68098464392131e-06 
1.154934131121703e-06 
6.875433836221734e-07 
9.997670658554702e-07 
9.89409633473432e-07 
2.605756699171846e-06 
2.000474796408587e-06 
2.242299578229113e-06 
1.48391498590476e-06 
1.328266902914674e-06 
3.971366714527311e-06 
5.198073089191141e-06 
3.7372155955146e-06 
4.432499825454314e-06 
5.461969527607227e-06 
4.182557133785612e-06 
4.789424831217452e-06 
3.903109640753546e-06 
5.36850681815025e-06 
3.451753210959742e-06 
2.779262419981245e-06 
3.615049324643669e-06 
4.299166751492775e-06 
3.499201902895658e-06 
3.370939281253241e-06 
3.749481798196288e-06 
3.825476546310875e-06 
1.780451356429697e-06 
1.565367447368133e-06 
1.568640538379384e-06 
1.445186918933179e-06 
2.281550702174429e-06 
1.604305779847601e-06 
1.890695030901275e-06 
4.833034374589539e-07 
-4.40256312841935e-07 
5.067205172994646e-06 
5.864881622929745e-06 
4.250430033082792e-06 
3.557907447341899e-06 
5.32405771058067e-06 
3.911597256093584e-06 
4.160621376053964e-06 
3.841234194404008e-06 
5.060171443622851e-06 
3.134572104338377e-06 
2.166135353205381e-06 
2.142950068542353e-06 
3.39843542853316e-06 
2.622566328365618e-06 
2.729595677293031e-06 
3.533771119000876e-06 
3.381220486866672e-06 
1.380808599605028e-06 
5.734678694420108e-07 
8.481031072258295e-07 
1.137416043572847e-06 
2.389638883715266e-06 
1.185214935252078e-06 
1.764437834325777e-06 
-5.456929152720248e-07 
1.654157743633999e-06 
4.599607181712473e-06 
5.818106665881967e-06 
4.360840922557242e-06 
3.967690544704347e-06 
5.015563253280284e-06 
4.373811938440528e-06 
3.582731437484919e-06 
3.159447068571466e-06 
4.637704325030851e-06 
2.791536734692397e-06 
2.103832242557245e-06 
2.570422381286281e-06 
3.285893237294262e-06 
2.601423513205292e-06 
2.742787938219312e-06 
3.29360427642133e-06 
2.975085023677464e-06 
1.989458592808341e-06 
1.791308771837636e-06 
2.095152715648668e-06 
1.69097546826577e-06 
2.419677041102514e-06 
1.045397347562419e-06 
1.602517731672635e-06 
-3.088716840244209e-07 
6.134920662284676e-07 
4.918768560177994e-06 
5.761120805372577e-06 
4.895237312069374e-06 
4.026247679256158e-06 
5.278009033364821e-06 
3.672702321247836e-06 
3.657879407256835e-06 
3.066634624216156e-06 
3.735521849559976e-06 
2.538997252649595e-06 
1.059483136468409e-06 
2.261426346989994e-06 
2.78132166903945e-06 
2.304265796998062e-06 
2.523908590962482e-06 
2.869989674612197e-06 
1.783951406127222e-06 
8.625196593499045e-07 
1.295925123988342e-06 
1.405939728441038e-06 
6.955878216383362e-07 
1.853370206751343e-06 
9.909358441441495e-07 
1.22853000497638e-06 
-5.024924290947447e-07 
5.420376252922798e-07 
4.165273747470319e-06 
5.643085425978419e-06 
4.737656118920627e-06 
4.188106120805233e-06 
4.964200517167339e-06 
4.177055262353023e-06 
3.825182992124895e-06 
2.9815560955183e-06 
4.050249124956241e-06 
2.697275137179965e-06 
7.170688882972195e-07 
1.54461082128261e-06 
2.402070469751855e-06 
1.805082739946693e-06 
2.096110365484746e-06 
2.338487741560017e-06 
1.865967203574589e-06 
-4.396911142529905e-08 
-2.505259258229879e-07 
-6.829764532653128e-08 
8.487176622717709e-08 
1.332775601180578e-06 
5.013929875957228e-07 
1.300926049040416e-06 
2.017676966301984e-07 
3.864142969380417e-07 
3.487953363383198e-06 
4.645732001030621e-06 
3.413843980052797e-06 
2.779906933574752e-06 
4.206616041020403e-06 
3.073486843025719e-06 
2.3965223696227e-06 
1.464467697585988e-06 
2.920504301583846e-06 
1.913307996586205e-06 
-1.18951028519913e-07 
4.343351403976746e-07 
1.621229958115483e-06 
1.397590572434464e-06 
1.89109264780842e-06 
2.011959229407175e-06 
1.141834300707258e-06 
5.038354436948689e-08 
1.130148171829261e-07 
2.003505325947858e-07 
-3.724028507567478e-08 
8.139240655357095e-07 
-2.579139274590195e-07 
-1.510142481538268e-07 
1.239759416046292e-06 
-5.987995829745774e-07 
3.326014533400364e-06 
4.485633657139253e-06 
3.233094929542137e-06 
1.589397810696671e-06 
4.085112411007271e-06 
2.48983059603039e-06 
2.4936067519621e-06 
1.175860458854595e-06 
2.178403636967136e-06 
7.075157342644257e-07 
-5.839015637441906e-07 
-1.18842052085483e-07 
6.100807906091927e-07 
-3.240452318388569e-07 
5.700524017492108e-07 
6.116962814895422e-07 
-7.113273296198965e-08 
-1.56976380972456e-06 
-1.004639962595533e-06 
-1.079047023548676e-06 
-1.895375150143085e-06 
-2.491523079990004e-07 
-9.697931989324784e-07 
-6.146280976212972e-07 
1.285949522782399e-06 
2.151814964025408e-07 
3.442768587507761e-06 
3.898044773765419e-06 
2.960265831474739e-06 
1.617315413353057e-06 
3.552820338159512e-06 
2.523489990757401e-06 
2.304678092659302e-06 
7.59158914763122e-07 
1.63593322270596e-06 
-1.042921560241644e-07 
-1.586659531633855e-06 
-9.146133060875984e-07 
1.991635908393566e-07 
-2.096609009490576e-07 
3.446943087242871e-07 
8.642301410998128e-07 
3.96358183441427e-07 
-6.684328813942023e-07 
-1.165873485676399e-06 
-8.805464264844919e-07 
-1.040060858808301e-06 
-2.272718501243213e-07 
-1.410593947866059e-06 
-1.398510581688086e-06 
-2.584611117822083e-08 
5.107724205558461e-07 
3.814918116848204e-06 
3.264911473252265e-06 
2.425728492490631e-06 
2.132760432605353e-06 
3.099465545343476e-06 
2.471580457621792e-06 
2.538345582127539e-06 
7.816056817144497e-07 
1.326359377677725e-06 
-8.103177444851915e-07 
-1.997422618320265e-06 
-1.19086241325025e-06 
1.786097512350816e-07 
-9.129329348865614e-07 
3.279910722885536e-07 
9.710656401666408e-07 
1.221819001232075e-07 
-1.364465750234713e-06 
-1.297127078265264e-06 
-9.889252358981047e-07 
-1.589605187759591e-06 
-5.391161664516295e-07 
-1.842123820159247e-06 
-1.664810473714983e-06 
3.666423816071061e-08 
6.790305301829035e-07 
3.977590260616115e-06 
4.223672431636671e-06 
3.577086107327129e-06 
2.526937972369565e-06 
3.779261563868152e-06 
2.270327570698502e-06 
3.062288655148965e-06 
1.082060094407554e-06 
1.146195320893282e-06 
-3.986768742124934e-07 
-1.601291250102184e-06 
-1.272868560502672e-06 
-1.982698321067074e-07 
-8.156704351433362e-07 
2.456656551030265e-07 
1.219312116098091e-06 
6.449855587122862e-07 
-1.082010795636744e-06 
-1.409089490984024e-06 
-1.008857508061258e-06 
-1.344075660549858e-06 
-1.381425392054206e-07 
-1.806910947726922e-06 
-1.945599106233962e-06 
6.600707150155875e-07 
5.543845466875088e-07 
4.346146269151122e-06 
4.418145570882297e-06 
4.381178274868808e-06 
3.155210900488574e-06 
4.457781363500476e-06 
3.290954769279304e-06 
2.862765619150296e-06 
1.66789520418732e-06 
2.072825408198537e-06 
2.99924342868474e-08 
-1.61753208311383e-06 
-4.971491813362344e-07 
7.136927067587763e-07 
-2.213602363783137e-07 
1.089626442661882e-06 
1.443703810734826e-06 
1.240138036883131e-06 
-8.547252467494183e-08 
-8.443664245586211e-07 
-6.605960360238641e-07 
-6.392250541581825e-07 
-1.312959581133742e-08 
-1.555279868997297e-06 
-1.862546611499748e-06 
-1.332691652969982e-06 
2.58799938405294e-07 
3.203975488628329e-06 
3.618351526382904e-06 
3.606754381100213e-06 
1.698582577654215e-06 
3.021874131701401e-06 
2.292136467232059e-06 
1.436738011390834e-06 
4.956589463456525e-07 
1.096695440309724e-06 
-7.642804445885122e-07 
-2.434100636274226e-06 
-1.789080277261431e-06 
-9.254624579165204e-07 
-1.365216063967348e-06 
-7.526575428348445e-07 
1.481717512550345e-07 
2.378784314961801e-07 
-1.439618415424268e-06 
-1.024144037960832e-06 
-7.976766354063076e-07 
-1.625048123610338e-06 
-1.202138234333317e-06 
-3.194767368366041e-06 
-2.67974058514005e-06 
1.956182113182256e-06 
8.215199715936053e-07 
4.516955016011128e-06 
5.162727056756106e-06 
4.267271197813664e-06 
3.310996454534041e-06 
4.534478564364096e-06 
3.623667605976564e-06 
2.979414028454495e-06 
2.170617006143989e-06 
2.874785729218286e-06 
6.578457623494508e-07 
-1.312169397614612e-06 
-2.32789337221453e-07 
1.437735672278589e-06 
8.217411027470423e-07 
1.497655501059542e-06 
1.704128856136221e-06 
1.532229532290615e-06 
2.078449848849897e-07 
-3.979674162827906e-07 
-1.908071678293061e-07 
-5.315690444897789e-09 
2.964155733081644e-07 
-1.091410593493835e-06 
-8.824829040272812e-07 
-2.789592216849919e-07 
1.045183984818587e-06 
4.593803487837239e-06 
5.455220786035815e-06 
5.245921366099137e-06 
4.054735214287286e-06 
5.236170736300393e-06 
3.712443580913117e-06 
4.034055051499839e-06 
3.135088017411407e-06 
3.243201640735224e-06 
1.844646955721e-06 
-1.781347684018956e-07 
7.998084893771767e-07 
2.192600314364745e-06 
1.229309448013675e-06 
2.261417501704403e-06 
2.624236722739627e-06 
1.892609479258933e-06 
8.443536043258122e-07 
2.521852835744308e-07 
3.835453021140873e-07 
6.000864879221673e-07 
1.053038124753997e-06 
-9.13156732820711e-08 
-5.610587497445238e-08 
-4.354677177884651e-07 
1.188548273814455e-06 
4.188649729534679e-06 
5.35839342688682e-06 
4.349357554083712e-06 
4.812812848644098e-06 
5.280466548841165e-06 
3.769819893188289e-06 
3.315361301757829e-06 
2.767969023865368e-06 
2.910140078215729e-06 
1.167850291735473e-06 
-9.199827928115346e-09 
2.487191528156619e-07 
1.786741965277463e-06 
1.020799606200802e-06 
2.318922037112125e-06 
2.647172232412493e-06 
2.435073515360314e-06 
1.281654136471684e-06 
2.254261682665097e-06 
2.353124267014052e-06 
6.091268660013494e-07 
1.130085909695961e-06 
-6.891897582587358e-07 
-7.968851249844536e-07 
-8.072105893205383e-07 
-3.664696557189689e-07 
4.280352770917612e-06 
5.115676339454498e-06 
4.080032363284571e-06 
4.72268084996255e-06 
5.324677583341535e-06 
4.594505678968606e-06 
4.68385644099657e-06 
2.780096461999467e-06 
3.162845024821397e-06 
2.04917017404238e-06 
6.306257936525642e-07 
1.311245402455753e-06 
1.952076782409692e-06 
1.762320418821649e-06 
2.261482615980253e-06 
2.613322088611788e-06 
1.809331575394814e-06 
5.067671574423028e-08 
-3.678953381436101e-07 
1.091220709982182e-07 
-1.165022440653408e-07 
8.805351580832766e-07 
-6.472516453042344e-08 
3.563107719333758e-07 
-1.055556784293551e-06 
7.795009511248504e-07 
4.01530256574912e-06 
4.351149204416965e-06 
4.00619052083971e-06 
3.463753703059742e-06 
4.401229757099675e-06 
3.921773993408252e-06 
2.895747250938744e-06 
2.025172965655997e-06 
2.471494024198458e-06 
1.235299272462026e-06 
-2.771532291631414e-07 
3.429131002282974e-07 
1.351049778880806e-06 
1.603160810442428e-06 
2.150461310749673e-06 
3.155130990513698e-06 
2.298378277931767e-06 
7.299313157565985e-07 
7.283941681931829e-07 
1.04187451539874e-06 
5.231540630128818e-07 
1.240915065302753e-06 
-2.678794265021142e-07 
-8.602470586902592e-07 
-3.165447525224048e-07 
1.163287099092017e-06 
5.005751922429636e-06 
4.61575257011781e-06 
3.579293813587312e-06 
3.448717642654584e-06 
4.337626606462517e-06 
3.926331165565359e-06 
3.053037728000907e-06 
1.798744283987518e-06 
2.496572228641918e-06 
6.051164659006227e-07 
-1.335956509975104e-06 
-7.884521301527953e-07 
9.64618980755304e-07 
7.860034607013181e-07 
1.985035575049706e-06 
2.438194897360979e-06 
1.250130575676923e-06 
-5.604728815285694e-07 
-1.13687425905361e-06 
-8.707217326792273e-07 
-1.167185660733581e-06 
4.603325958194449e-07 
-5.665946462967485e-07 
-8.144648709942769e-07 
-1.036554267560445e-06 
2.297308721589992e-07 
3.860478082836171e-06 
4.322668724515067e-06 
3.781922711593604e-06 
2.26696222400687e-06 
3.79052983277367e-06 
3.044049793767824e-06 
2.03622004226947e-06 
8.944252234927455e-07 
1.96005744969513e-06 
2.63735607208681e-07 
-2.251289609627859e-06 
-1.608116269913986e-06 
2.008622376399726e-07 
5.785443754825299e-08 
7.311764385173118e-07 
1.548646010547684e-06 
1.203888942001028e-06 
-2.620506401880061e-07 
2.033616761554891e-07 
4.458116504496577e-07 
-3.991048218871073e-07 
-4.269886174781434e-08 
-1.395226628391217e-06 
-1.592401753307465e-06 
-1.066719269835876e-06 
1.094016540011696e-06 
3.767229574901592e-06 
4.8632269623454e-06 
3.653851991639932e-06 
2.258545567284545e-06 
3.478974764226853e-06 
3.547291941252466e-06 
2.616282069374232e-06 
9.879167964549465e-07 
1.927938067377157e-06 
3.653984626751045e-07 
-2.285528954853416e-06 
-2.543895406159299e-06 
-4.662163054913517e-07 
-1.639852317657168e-07 
5.472271955111959e-07 
1.054932630327987e-06 
7.010793200836755e-07 
-7.368498668020573e-07 
-2.978492197191414e-07 
2.109826272858915e-07 
-8.113514220134457e-07 
-8.325578873842585e-07 
-1.727029725164458e-06 
-1.850215021354468e-06 
-9.19097575810921e-07 
7.503720851120448e-07 
4.334759475655859e-06 
4.374129692079676e-06 
2.930856722585894e-06 
1.784938594064487e-06 
3.365630101873342e-06 
3.372503599252785e-06 
2.556846544440962e-06 
1.455697013698413e-06 
2.241059409728765e-06 
2.446321059747533e-07 
-2.463824780250186e-06 
-2.51773675706887e-06 
-1.007614344145071e-07 
-4.737891666458531e-08 
8.194721378454968e-07 
1.219470129834717e-06 
7.376876963392717e-07 
-4.232404601295488e-07 
-4.570172828835959e-07 
-7.983965101478264e-08 
-4.390594646839508e-07 
-4.520813839862155e-07 
-1.900229185948963e-06 
-1.754584788552565e-06 
-3.864886724354778e-07 
1.704867857071819e-06 
4.159987339717856e-06 
3.926455659455894e-06 
4.1611310413361e-06 
2.460087073325578e-06 
4.175761572081075e-06 
3.437471547600231e-06 
3.128644167505215e-06 
1.104925569108873e-06 
2.11560952964432e-06 
2.445260356799615e-07 
-2.107893056851386e-06 
-1.690479437365232e-06 
3.703219232193658e-07 
3.222666544522078e-07 
1.949001354530216e-07 
5.402306415950188e-07 
-2.044072094900547e-07 
-1.162473247406632e-06 
-1.016416779526999e-06 
-7.168396879156788e-07 
-1.473456789846856e-06 
-1.199725567484473e-06 
-1.865186635843925e-06 
-1.343891256458245e-06 
1.389824726644557e-07 
1.288675591238833e-06 
4.501145653777002e-06 
4.762791097105402e-06 
3.54164134994548e-06 
2.923791299914223e-06 
3.72650686992847e-06 
3.243645142468923e-06 
2.875939738814498e-06 
1.571914002851826e-06 
2.086430029114098e-06 
2.440559884726419e-07 
-1.987265334748095e-06 
-1.388975926748637e-06 
-1.472134909730438e-08 
2.055755689065696e-07 
4.458829667525618e-07 
7.627238266165005e-07 
-1.304977636458599e-07 
-7.656536509111515e-07 
-3.717460589884217e-07 
-3.441889917650335e-07 
-8.824179095802015e-07 
-9.476767665063798e-07 
-1.862549428078173e-06 
-1.049536649682646e-06 
5.916673814675048e-07 
1.751325085284516e-06 
3.817539426511093e-06 
5.21775739743559e-06 
4.099441261560221e-06 
3.127762025599595e-06 
4.216116209489938e-06 
3.26635613771635e-06 
2.629356948207637e-06 
1.94819206794995e-06 
2.381082189423649e-06 
2.992723050663979e-07 
-2.269611145562725e-06 
-2.020172209037706e-06 
3.472349958037585e-07 
3.101066392174411e-07 
2.113376495241022e-07 
6.070937156050954e-07 
2.024504012186105e-07 
-2.843562382720588e-07 
3.486109252206019e-07 
5.236025168308202e-07 
-4.719256889308541e-07 
-9.649342407789048e-07 
-1.859827957465259e-06 
-1.21244052129803e-06 
-7.493683251727932e-07 
1.420034609197224e-06 
3.257348107917713e-06 
4.343422967867494e-06 
3.327677869474622e-06 
2.603773271947778e-06 
3.613891936161895e-06 
3.870481974585735e-06 
3.159210159332118e-06 
1.974417481356109e-06 
2.096339273850415e-06 
-5.603392422786039e-07 
-2.833049591423127e-06 
-2.165613213362549e-06 
-2.855770664130358e-07 
-5.007115762160969e-07 
2.594367121327476e-07 
6.44996904782438e-07 
-4.955552404586424e-07 
-2.171809687553493e-06 
-2.479307367706999e-06 
-1.869285580596032e-06 
-2.376967194413438e-06 
-1.552051613595871e-06 
-2.709225796962308e-06 
-1.733740917127731e-06 
4.427031095353381e-08 
1.748991866404169e-06 
3.142245140920115e-06 
3.862854755259612e-06 
3.362684765572038e-06 
2.241642845185289e-06 
4.084895687970583e-06 
3.968889511984185e-06 
3.195351727525348e-06 
1.962091439944388e-06 
2.486357387089096e-06 
-1.019971171107572e-08 
-2.950425051755963e-06 
-1.880385171858754e-06 
-4.039914784773192e-07 
-2.873041096859653e-07 
6.183071306446105e-07 
1.168391453253207e-06 
-2.941190956579221e-07 
-1.047539616570603e-06 
7.221691096224558e-09 
1.257077226891226e-07 
-9.956576341257267e-07 
-1.134424212343197e-06 
-2.43631178020716e-06 
-1.578630798894589e-06 
3.134674454089241e-07 
1.196444221461723e-06 
4.354583632978735e-06 
4.545194419759791e-06 
3.148532195113845e-06 
1.902280003700911e-06 
4.162379107895797e-06 
3.071675306885289e-06 
2.775721847858117e-06 
1.838421056674906e-06 
2.069930298066558e-06 
-7.255573896216453e-08 
-2.918852950578994e-06 
-2.49626451511394e-06 
-5.350251961221441e-07 
-6.344237408366358e-07 
1.081929806289281e-08 
8.056840282957482e-07 
-8.961466955179287e-07 
-2.310226168419164e-06 
-1.780151676430542e-06 
-1.52397240824226e-06 
-2.357408670775836e-06 
-1.538069789438751e-06 
-2.419332465068788e-06 
-1.69164521452312e-06 
-1.197961886394915e-06 
1.966617027168233e-06 
5.041040417405399e-06 
5.205626328128789e-06 
3.390171472825041e-06 
2.042068533630287e-06 
3.997022538902078e-06 
4.094681210682273e-06 
4.090500398289003e-06 
2.640026710817404e-06 
2.598840115806297e-06 
5.315215116879116e-08 
-2.846095083434174e-06 
-2.657944717593121e-06 
2.501748291922228e-07 
8.92773751127278e-08 
6.882824774429714e-07 
9.427034655256691e-07 
-2.803795337274936e-07 
-1.268916248152916e-06 
-5.324794927512123e-07 
-1.39427634478187e-07 
-1.127055734041056e-06 
-1.244282802661099e-06 
-2.255435010368634e-06 
-1.170784392936811e-06 
3.771406173617631e-07 
1.934514163713446e-06 
5.661872454171365e-06 
4.660127303060106e-06 
3.127793107850191e-06 
2.542798924821725e-06 
3.868381637584463e-06 
4.018719824850823e-06 
4.084512498887357e-06 
2.065770123881785e-06 
2.935049470226021e-06 
4.654897496468539e-07 
-2.591526342907884e-06 
-2.454513686399757e-06 
-8.84555327971367e-09 
7.893855285084563e-09 
7.642223749035504e-07 
1.044598602190689e-06 
-2.18021331108903e-07 
-1.301482033343291e-06 
-9.257846960906834e-07 
-6.673777226124106e-07 
-1.305758746721201e-06 
-1.361068800770409e-06 
-2.455673418253271e-06 
-1.454095669383475e-06 
-1.933551105438356e-07 
2.007545544141853e-06 
5.085809186501627e-06 
4.485962573028258e-06 
2.678755284339018e-06 
2.523394184911146e-06 
4.871170123985072e-06 
3.615648124704831e-06 
3.492219145294967e-06 
1.650304621222196e-06 
2.881387466349281e-06 
7.545191216634616e-07 
-2.199059444694115e-06 
-1.885409913811406e-06 
5.646838253655393e-07 
6.248997448468802e-07 
1.164073080697596e-06 
1.489918936815707e-06 
2.195581582652221e-07 
-2.403382194605289e-07 
9.180180686797609e-07 
1.07704968278144e-06 
-7.397369059958414e-08 
-6.400581885574e-07 
-1.783606234176919e-06 
-1.130015251854023e-06 
2.195779164969072e-06 
2.065857096950201e-06 
5.641827470055888e-06 
5.576886893343478e-06 
3.01713742659471e-06 
1.951934137745998e-06 
3.972757191158847e-06 
3.868064567062139e-06 
4.414742790847848e-06 
1.478855195495823e-06 
2.185724983736635e-06 
1.013872983978367e-06 
-2.283166104547655e-06 
-2.485893751565653e-06 
8.537559891794258e-08 
1.098896366121234e-07 
1.001971761572975e-06 
1.341787743492268e-06 
2.072544685658461e-07 
-5.131206008939392e-07 
-4.062949671358558e-07 
-2.400126977804571e-07 
-7.333619199230831e-07 
-7.160966251604853e-07 
-2.123535611553668e-06 
-1.325833666579256e-06 
4.320159127629903e-07 
2.550891022041674e-06 
5.374190585659555e-06 
4.83991153770045e-06 
2.729045348036515e-06 
2.08075148380779e-06 
3.434876944191507e-06 
3.260610908397371e-06 
3.502555220393635e-06 
1.174210299808974e-06 
2.195751793156152e-06 
6.998700046739485e-07 
-2.368456828314405e-06 
-1.856668052836216e-06 
1.056591573575347e-07 
-2.059754358587781e-07 
3.877374155890893e-07 
1.123477990539373e-06 
8.457696843312383e-07 
-1.637596504594362e-07 
4.872753906614216e-07 
9.588211163117865e-07 
-3.922014886288965e-07 
-8.503533992834231e-07 
-2.437195457330204e-06 
-1.376192923968555e-06 
1.325875481277869e-06 
2.472609397913566e-06 
4.9215332929279e-06 
3.59810633318039e-06 
1.519886294676912e-06 
1.569995220063352e-06 
2.806418074567687e-06 
3.614312170650155e-06 
3.389844390148613e-06 
1.076797007487043e-06 
1.79460848296689e-06 
-3.591834929321419e-07 
-2.964093483512981e-06 
-2.511257934549375e-06 
-4.66585904410304e-08 
-5.786105413223987e-07 
-2.983119933889642e-07 
2.965306400730348e-07 
-2.807309331235512e-07 
-1.736089081980551e-06 
-1.326052631937427e-06 
-1.061362774794726e-06 
-1.781213828540457e-06 
-1.838742646154696e-06 
-2.828222609143662e-06 
-1.789147601534468e-06 
1.019105928335549e-06 
2.673436425654339e-06 
4.598770972695871e-06 
4.245552738867141e-06 
2.598995008731933e-06 
1.902380791534234e-06 
3.17125342864932e-06 
3.108718732262858e-06 
3.445483594878434e-06 
2.289823059793113e-07 
1.67817480313575e-06 
2.355323868480828e-07 
-3.624976258951782e-06 
-2.695652041934315e-06 
-3.832679868178138e-07 
-6.340618114503776e-07 
-2.321817027238782e-07 
1.990524023213431e-07 
-5.317250325248715e-07 
-8.990585215047986e-07 
-1.085392401819224e-06 
-8.431438066394274e-07 
-1.367350146603676e-06 
-1.961652580396242e-06 
-2.697595343992819e-06 
-1.726932489697335e-06 
6.809839221063531e-08 
1.743837887471404e-06 
3.952708929997664e-06 
4.66324895421903e-06 
3.387459451113223e-06 
2.476031170075085e-06 
3.263318009000364e-06 
2.939344895479182e-06 
3.728241643351756e-06 
8.219385215162141e-07 
1.798527472744534e-06 
6.022822504647008e-07 
-3.219264957627275e-06 
-2.06731257400008e-06 
5.579390118930645e-07 
6.711417726849255e-07 
1.022355451552078e-06 
1.351990856201151e-06 
1.664001694202778e-07 
-9.120073093649695e-07 
-6.843250420206167e-07 
1.069818427858448e-07 
-7.282398506089971e-07 
-1.022856074709146e-06 
-1.877248751546384e-06 
-1.415469697631888e-06 
9.426631202997105e-07 
1.915175146275515e-06 
4.331100376146922e-06 
4.427191069906586e-06 
3.29862734099937e-06 
2.206221790674537e-06 
3.593953686725812e-06 
3.386460306029167e-06 
3.282401059758389e-06 
7.612830095217474e-07 
1.700651589649064e-06 
3.640113343596733e-07 
-3.029890746943987e-06 
-1.728194249693204e-06 
6.139688719954918e-07 
9.681864393031767e-07 
1.41388380030594e-06 
1.599324809344261e-06 
6.300814296357548e-07 
-3.851601976513092e-07 
-5.668606806173239e-08 
3.682880487263752e-07 
-4.618004540987509e-07 
-5.435030730268792e-07 
-1.517705811194565e-06 
-9.489284837037901e-07 
1.21161036642381e-06 
2.550010336501049e-06 
4.028676408847469e-06 
4.606116553353274e-06 
2.681612466686147e-06 
1.651961574648786e-06 
3.186243877253708e-06 
2.37704649716531e-06 
2.768360517844813e-06 
1.126436517735914e-06 
1.771560873464587e-06 
3.384524475013174e-07 
-3.206242067779389e-06 
-2.516464427521335e-06 
-1.505677263373566e-07 
4.032311902038441e-07 
7.556762332494092e-07 
1.592581107955751e-06 
1.248420152150349e-06 
-1.004615481999211e-06 
-1.458963129654906e-06 
-1.180382997656077e-06 
-1.287800537505027e-06 
-8.112518456098153e-07 
-2.028605820773892e-06 
-1.349434875984814e-06 
1.325759167659526e-06 
1.671187563438145e-06 
3.768844172086089e-06 
4.170402265353984e-06 
1.421327092980928e-06 
1.942388859333163e-06 
3.132239534762608e-06 
2.454264919025401e-06 
3.39013595783592e-06 
7.768387060880886e-07 
1.440398477620615e-06 
-7.659428006224532e-08 
-3.089698495488851e-06 
-2.192368456306537e-06 
-2.828151761820355e-07 
5.710024180070174e-07 
5.817578443657491e-07 
1.257457755922795e-06 
7.20147544541818e-07 
-9.948895659873598e-07 
-1.149951409227211e-06 
-6.915319740212898e-07 
-1.120213565040372e-06 
-5.259515189056931e-07 
-1.949155217395017e-06 
-1.118026718699067e-06 
8.930356845696752e-07 
2.721345636849631e-06 
4.820453330660882e-06 
5.143122965775898e-06 
3.170764476667597e-06 
1.940696571169507e-06 
2.9114849671421e-06 
2.990717037455393e-06 
3.382813591300506e-06 
8.791414356985788e-07 
1.919567342909949e-06 
-6.201104541441102e-08 
-3.047363441847141e-06 
-2.300559187051533e-06 
-1.988922454046359e-07 
2.41154851242133e-07 
5.22175868673599e-07 
1.821433386431597e-06 
9.602084396762613e-07 
-4.16858289126206e-07 
-4.162392714750635e-07 
9.49444037392396e-08 
-2.740797450659731e-07 
1.676173975226802e-07 
-1.529367209507367e-06 
-1.140483533801498e-06 
1.016976259485315e-06 
2.068652523064632e-06 
5.222086640308971e-06 
4.670498807764112e-06 
2.917722438000408e-06 
2.211349112472225e-06 
3.330332453306228e-06 
2.956742942254806e-06 
3.358574251853472e-06 
1.200829231045724e-06 
2.550838864296626e-06 
-1.007937737033015e-07 
-3.286810918947913e-06 
-1.983643716713347e-06 
-3.78426227726636e-07 
8.033315620796479e-07 
1.208285766903396e-06 
2.314458702138811e-06 
1.455526869933805e-06 
3.145409904964301e-07 
5.421832829387211e-07 
9.625313503058413e-07 
-1.743709655405963e-08 
1.343407351145375e-07 
-1.518117274378813e-06 
-1.240554985302386e-06 
-1.061082372819296e-06 
1.229340534901925e-06 
5.19387626177578e-06 
4.960733999170474e-06 
2.430246018463501e-06 
1.437396404144711e-06 
3.550205346155899e-06 
2.931602378396402e-06 
2.341044847394425e-06 
4.486536317095033e-07 
2.193432276107908e-06 
5.833380653760368e-07 
-2.563007568941614e-06 
-1.210720823943889e-06 
4.219369749745004e-07 
1.024959115010197e-06 
2.053492206680283e-06 
2.78007240061169e-06 
2.084451311589592e-06 
-4.512823688612404e-07 
-1.342208661397673e-06 
-8.214445062173202e-07 
-4.408517208110864e-07 
5.402577262472233e-07 
-1.150305146659386e-06 
-8.796515068746023e-07 
-2.299560382669741e-07 
1.403531253733089e-06 
3.648602103328049e-06 
4.316278941731493e-06 
1.490609338079513e-06 
9.943239670120041e-07 
2.161521232309641e-06 
1.414744587729758e-06 
2.092261837511116e-06 
2.859191265649155e-07 
2.15070800152823e-06 
3.956623677792985e-07 
-2.529315961345738e-06 
-1.403430681832982e-06 
5.593113754032433e-07 
7.298903747346144e-07 
1.630931823084743e-06 
2.483633998457107e-06 
2.207139669667992e-06 
3.153308494027099e-07 
-2.402348642601265e-08 
4.280402391635484e-07 
2.713428258996826e-07 
5.608069496998482e-07 
-1.360356429670204e-06 
-1.065232989954102e-06 
-4.080280124699001e-07 
5.972872774116776e-07 
3.216887192584446e-06 
4.318385268335838e-06 
1.472499208431338e-06 
1.476211251631933e-07 
3.235616453884223e-06 
1.971397749789461e-06 
2.138523392770596e-06 
1.37953410480781e-07 
1.986791761435469e-06 
1.673145555859482e-07 
-2.6896158128971e-06 
-1.441289403777395e-06 
6.469621886595758e-07 
4.098986673531139e-07 
1.000686235277218e-06 
1.732525111126682e-06 
1.877492462191836e-06 
8.437587255891406e-07 
4.156622803301715e-07 
6.474144069507267e-07 
3.438011688546795e-07 
3.453439027993411e-07 
-1.369851210802368e-06 
-1.041072717412624e-06 
-1.032386086516341e-06 
5.483145246726336e-07 
2.947180786145865e-06 
4.102538586391003e-06 
1.521330465895073e-06 
1.085679994471983e-06 
1.766908591777843e-06 
1.889393786432495e-06 
1.316904972136276e-06 
-4.669439345069349e-07 
1.638578731109117e-06 
2.52429780660926e-07 
-2.209645613137277e-06 
-8.988958697935235e-07 
1.769003698029414e-07 
1.654164985368943e-07 
5.995331656771977e-07 
1.582362974949107e-06 
1.320121359445375e-06 
2.82452706110933e-08 
8.107914803419061e-08 
2.156874378098597e-07 
2.159654002311699e-08 
2.613445434471625e-08 
-1.584596042957404e-06 
-1.131718941724163e-06 
-1.308981616370047e-06 
1.619879700368405e-07 
2.0090214523111e-06 
2.744501078160606e-06 
1.039167710004781e-07 
-1.603642395926687e-07 
1.758887835932398e-06 
1.321579797653471e-06 
1.090979243756421e-06 
-8.152470709555037e-07 
1.715170433038156e-06 
3.414643741055034e-07 
-1.496228375493232e-06 
-5.472621847512245e-07 
4.302195556936862e-07 
2.134981401770571e-07 
9.116037802485784e-07 
1.494458244563146e-06 
1.520815981585653e-06 
1.864577842487953e-07 
6.661871610482207e-08 
4.16677337962326e-07 
3.746870396424109e-07 
2.978695362941221e-07 
-1.451115621166283e-06 
-1.648750724362585e-06 
-1.874844543834492e-06 
-2.871474390819689e-07 
1.537499269127723e-06 
2.477277693996183e-06 
1.610994489775927e-06 
-2.175975273463832e-07 
1.643617314426417e-06 
9.901300243965852e-07 
1.51406722031318e-06 
-8.134996963636195e-08 
1.677694425854222e-06 
-8.696889844082836e-08 
-1.593686806507667e-06 
-4.05939359597441e-07 
3.337992454140224e-07 
4.578392610065502e-08 
6.890447223535057e-07 
1.677674813935826e-06 
1.360374503044121e-06 
-2.077330107690287e-07 
-3.388731319320252e-07 
-5.745744642707845e-08 
-5.332907877550119e-07 
-2.302730078831014e-07 
-1.669947956188833e-06 
-1.294445951659849e-06 
-1.337059363699323e-06 
6.343941714373349e-08 
1.238745390227959e-06 
2.434797519443527e-06 
8.971530455105236e-07 
-6.353075335168186e-07 
1.654541519363248e-06 
1.153124362659507e-06 
1.207481537178107e-06 
5.259270302273188e-07 
1.690658762910808e-06 
-1.59394780581763e-07 
-1.74714997933688e-06 
-6.861688217440714e-07 
1.561428399945867e-07 
-1.480269491623684e-07 
5.600278173086437e-07 
1.761675325727132e-06 
1.189259476465629e-06 
4.233792171327667e-07 
-4.366766302583797e-07 
-6.288027031264374e-08 
9.244456725825314e-08 
2.908447425442e-07 
-1.34638081234671e-06 
-1.044743003804347e-06 
-1.084638847998771e-06 
-6.459890500576259e-07 
1.528746133049193e-06 
2.294184654487597e-06 
-9.459866136816057e-08 
-7.620161450529026e-07 
1.269731284382454e-06 
9.395453359666919e-07 
7.586822456409491e-07 
-3.574871236391028e-07 
1.270175157622251e-06 
-3.568514753096678e-07 
-1.802363316500452e-06 
-9.879313368334445e-07 
-1.105901050595003e-07 
-5.194915330739547e-07 
3.403306246723613e-07 
1.687490162136864e-06 
1.459791233939448e-06 
2.79736469946377e-07 
-9.329929035485258e-08 
1.598559571671248e-07 
8.973624595281671e-08 
2.27836620962395e-07 
-1.494554649218927e-06 
-1.278380489050372e-06 
1.69712001273414e-07 
-1.631394909079307e-07 
1.713780123058804e-06 
2.424960011516312e-06 
2.09104167657673e-08 
-2.54233608404271e-07 
6.491371320229528e-07 
1.020445473553704e-06 
4.854870733789997e-07 
1.691322134790099e-07 
1.958448427900746e-06 
-4.017698084060762e-07 
-1.609696501407255e-06 
-9.986366327100279e-07 
6.190940678522139e-07 
-1.912582113648537e-07 
7.126318177033667e-07 
2.083690364681899e-06 
1.73213974446598e-06 
-3.423057811487598e-07 
-9.020381444336084e-07 
-5.68482718189932e-07 
-1.417725509815334e-07 
6.635927831113055e-07 
-1.025288711099352e-06 
-8.161400718696714e-07 
-5.982767527642244e-07 
-1.182844857368756e-06 
2.129226870687522e-06 
2.381109395173737e-06 
5.698792432634705e-08 
-8.754286615058161e-07 
4.666482989204766e-07 
1.632711476194836e-06 
1.522113968913153e-06 
5.327383248226076e-07 
1.783540419838208e-06 
3.062000040170338e-07 
-7.222742184063232e-07 
-4.742616909712126e-07 
7.779433402268534e-07 
5.61890707065056e-07 
1.346190751217006e-06 
2.293667998910347e-06 
1.974198630303714e-06 
3.009023686003093e-07 
-2.535476592439689e-07 
-3.110962778748295e-07 
1.568850388433395e-07 
7.45371412858214e-07 
-6.809377650005972e-07 
-1.103621807344145e-06 
1.059267545512551e-06 
1.019936320805203e-06 
2.958572352159941e-06 
3.40297701700353e-06 
1.001925706066419e-06 
2.438923635481996e-07 
2.344034507169629e-06 
2.160220202296535e-06 
2.481332587118366e-06 
1.405123972625821e-06 
2.875158432334891e-06 
1.162345037205174e-06 
-6.514843551429102e-07 
-5.118419979568434e-07 
1.220968325232662e-06 
1.190832989798689e-06 
1.962773476974694e-06 
2.715663999125871e-06 
2.785328074997874e-06 
5.137253422438743e-07 
7.1337856854819e-07 
9.53672836555623e-07 
7.513945970628427e-07 
1.497047975408791e-06 
-6.734945221278287e-07 
-3.796315104598554e-07 
-1.017349379505258e-06 
1.013507102824389e-06 
3.154183476150648e-06 
3.316566046950051e-06 
2.046018785531359e-06 
3.870686249167274e-07 
2.648680081627689e-06 
1.798323295247524e-06 
1.843621403927038e-06 
9.879675593942767e-07 
2.513375031432809e-06 
1.549206892774664e-06 
-5.276314832856391e-07 
-4.719796850595064e-07 
1.313704563826449e-06 
1.573457429904014e-06 
2.740261764058617e-06 
3.536939620044964e-06 
3.82703972081166e-06 
2.103263183582951e-06 
1.68563922163832e-06 
1.936331725737954e-06 
1.953491666404726e-06 
2.404188714196724e-06 
8.903551175424637e-08 
-2.62310771939986e-07 
-3.175451725891328e-07 
-7.781894337827581e-07 
2.734553591804116e-06 
2.01030903566809e-06 
1.264960626033608e-06 
-2.181226492109154e-08 
2.465637795911871e-06 
2.248699055215197e-06 
1.47442609861396e-06 
9.180460644188354e-07 
2.66858803231503e-06 
1.009090677541029e-06 
-4.345070539894148e-07 
8.103842115304636e-07 
1.877498951598921e-06 
2.081943437767612e-06 
2.7055851332946e-06 
3.375148000842618e-06 
3.16132755467012e-06 
1.366323591440683e-06 
4.509712867374591e-07 
7.94503666446378e-07 
1.311966143160798e-06 
2.090037279394306e-06 
6.368304598023212e-07 
7.00619215204394e-08 
-1.289252654422055e-06 
2.009472588971055e-07 
2.541055716115281e-06 
2.404921829184769e-06 
2.289729525507963e-06 
5.423728012139275e-07 
3.179185908019445e-06 
2.404037805995486e-06 
2.28217852372483e-06 
1.601670079254525e-06 
3.121012549257471e-06 
1.193461166057856e-06 
-5.731341505854407e-07 
3.888103514322919e-07 
2.038532626277582e-06 
2.521681647641558e-06 
3.38357480776269e-06 
3.962790837281158e-06 
3.842689323801059e-06 
1.249968779405645e-06 
2.91603932691755e-07 
4.546230547667587e-07 
1.156291777539358e-06 
2.960040629355177e-06 
9.720316660060218e-07 
1.634192685572318e-07 
-1.060594579656095e-06 
9.748137730307285e-08 
3.52957272993048e-06 
2.459471949033036e-06 
1.441669388053126e-06 
2.060969868258528e-07 
3.114199939068653e-06 
2.444944691955458e-06 
2.211058817361875e-06 
1.56304150103018e-06 
3.498339364108976e-06 
2.182637854638717e-06 
-9.474372353226705e-08 
8.124179228066526e-07 
2.035195887327257e-06 
1.734997615347606e-06 
2.92600914802493e-06 
4.009824639449578e-06 
3.859439045214099e-06 
1.311653183400438e-06 
7.775781339766632e-07 
1.045513846983005e-06 
1.185174354259122e-06 
2.60637781605041e-06 
8.468589957983676e-07 
1.588618817377989e-07 
-7.298773389144438e-07 
6.017761323872865e-07 
3.263435919175716e-06 
2.43239305915459e-06 
1.482395728526652e-06 
-1.356219250044472e-07 
2.969066549490131e-06 
1.992959603621659e-06 
2.097440790600467e-06 
9.830899793964035e-07 
2.497417018474539e-06 
1.517890714361933e-06 
-3.659488388710318e-07 
4.937679018195397e-07 
1.788044844181497e-06 
1.849915163334604e-06 
2.652571588583563e-06 
3.287297504182759e-06 
3.434155984221467e-06 
4.8929959094618e-07 
1.389917479234327e-07 
3.80694533622869e-07 
5.573372314918866e-07 
2.192600617002024e-06 
6.873536791662566e-07 
-3.381987365194916e-07 
-1.872096421328188e-06 
1.035517605345265e-06 
2.900663052996784e-06 
2.368827955258575e-06 
1.279623489650564e-06 
9.782846634304418e-07 
2.723831619096284e-06 
2.210798484694628e-06 
1.862125230772753e-06 
1.006768072782467e-06 
3.400264537885813e-06 
1.792764705774218e-06 
1.241791488454314e-07 
9.430627932279734e-07 
2.407895764430344e-06 
2.292113325153924e-06 
2.640908336869303e-06 
3.843063164994673e-06 
3.893490064604163e-06 
2.177992003531242e-06 
1.320748007917742e-06 
1.352814285233191e-06 
1.835506084799147e-06 
2.505054085239813e-06 
7.271921965643269e-07 
1.647388818180231e-07 
-9.639112760012951e-07 
-3.607090373654624e-07 
2.005131127031569e-06 
1.492756466002198e-06 
1.067595741645201e-06 
4.512071637932595e-07 
2.579111994830284e-06 
2.503428434111729e-06 
2.432064070192966e-06 
1.172794762512927e-06 
3.210778163218522e-06 
1.270486375038332e-06 
-5.466739562309601e-07 
5.78251653550756e-08 
1.411111230043801e-06 
1.237288739106026e-06 
2.07521890820356e-06 
3.276561093995073e-06 
2.874302744920186e-06 
6.475618136944622e-07 
-6.619828744123792e-07 
-2.882469165795495e-07 
5.529794023430822e-07 
1.669146847904216e-06 
2.473595410222934e-07 
-1.204442403337671e-07 
-1.303868323774022e-06 
1.429216469817767e-06 
2.059442893743587e-06 
1.900557336899757e-06 
1.194866259800105e-06 
1.443542217998352e-06 
3.77032192699116e-06 
2.769442813101385e-06 
3.376716015767807e-06 
1.708239766343127e-06 
3.344100695405327e-06 
1.863780883014907e-06 
4.49477833827979e-09 
5.341756019178264e-07 
1.473331862377176e-06 
1.83669396534219e-06 
2.08164084489329e-06 
3.155054937325549e-06 
2.650249319525373e-06 
5.52067452926268e-07 
2.313579746989543e-07 
4.441262508286449e-07 
4.537097862628087e-07 
1.74684490999845e-06 
4.212998907294011e-07 
-5.427106110614033e-08 
-4.660440467052775e-07 
3.123564698010756e-07 
2.675976845768374e-06 
2.970741365556521e-06 
2.627500420547188e-06 
1.304284998641412e-06 
3.941570835434075e-06 
3.95966918187762e-06 
3.097176295769656e-06 
2.056704531530993e-06 
3.624033735953089e-06 
2.342588384110764e-06 
-1.92323096420194e-07 
-2.686510329731207e-07 
1.155911502981476e-06 
1.28207656135471e-06 
1.42320901319947e-06 
2.836984961494958e-06 
2.266745293302779e-06 
5.110628577083072e-07 
-7.616140505114245e-08 
1.243582267363519e-07 
5.820775726093833e-07 
1.346815932646429e-06 
8.400522337992647e-08 
2.331951288647196e-07 
-2.940970714133967e-07 
2.425027636147553e-06 
3.81329619708702e-06 
2.249242484965557e-06 
2.073484539110958e-06 
2.318191326295582e-06 
4.690566710525474e-06 
4.109623279168179e-06 
4.020128840582923e-06 
2.616015571164684e-06 
4.387831532776507e-06 
3.522949210506974e-06 
6.810878265003349e-07 
4.770694458885472e-07 
1.774867170645114e-06 
1.387281792309216e-06 
1.488543415263221e-06 
2.682909645677117e-06 
2.471950937301741e-06 
6.140608376531831e-07 
7.545332051001368e-07 
1.119724770211902e-06 
6.587780209629057e-07 
1.40798889517225e-06 
2.05313608511083e-07 
5.713370996921969e-07 
-8.251908920315765e-07 
1.841870489777145e-06 
3.869062189212699e-06 
3.596642177921613e-06 
2.556473654923567e-06 
2.216475878960209e-06 
4.771273571532919e-06 
4.133749235377348e-06 
3.798472550074208e-06 
2.708381149727506e-06 
4.359480056693252e-06 
2.727063018617484e-06 
9.183048503809729e-07 
1.012977346710411e-06 
1.966511801053661e-06 
1.696410753490588e-06 
1.882006763903657e-06 
3.057971190020045e-06 
1.990022146286111e-06 
-6.842857198364852e-07 
-4.914225591080412e-07 
1.989857964644543e-08 
-1.838481561624947e-07 
1.493754227959555e-06 
2.300917777533501e-07 
8.912009602742851e-07 
8.831231915534095e-07 
5.363558013985552e-07 
3.983542754431512e-06 
3.429755548302975e-06 
2.661915658804252e-06 
3.426595825356333e-06 
4.92354203311617e-06 
4.970060561308684e-06 
4.854422037863887e-06 
3.816585814386401e-06 
4.98580514473638e-06 
3.288114449391154e-06 
6.505145698765093e-07 
1.059729826111898e-06 
2.403008499697393e-06 
2.409754744551748e-06 
2.735011250978515e-06 
3.536949006651926e-06 
2.765266468092538e-06 
9.351236887255421e-07 
8.9579421416522e-07 
1.065282594899118e-06 
9.132908559946901e-07 
1.948410257632825e-06 
7.834699751469588e-07 
1.338031352762491e-06 
-2.671578096449911e-07 
1.472051275361561e-06 
4.24150631715044e-06 
3.7959885804525e-06 
3.162800677582484e-06 
3.447375531581808e-06 
5.092746635692495e-06 
4.691837434495528e-06 
4.939078044318542e-06 
4.198375136259383e-06 
5.142283761092612e-06 
3.607118484513839e-06 
1.297531971308676e-06 
1.740308931147496e-06 
2.618532815261514e-06 
2.011475309679304e-06 
2.540367791078263e-06 
3.42628189091383e-06 
2.579018621479224e-06 
8.907565159425705e-07 
6.233997767015927e-07 
7.680977974600588e-07 
6.509672300455366e-07 
1.72201869939568e-06 
4.623437482345079e-07 
1.738782521696455e-06 
-6.481426398978371e-07 
3.636834836210038e-07 
3.647442435808614e-06 
3.728895863596788e-06 
2.990907443843382e-06 
3.209845364613978e-06 
5.427801759459828e-06 
5.089998690645354e-06 
5.251922895517691e-06 
4.078052673297241e-06 
6.329388541870344e-06 
4.453430756285426e-06 
2.406573137234824e-06 
2.414787742801725e-06 
3.700455050824857e-06 
3.410260345770847e-06 
2.947636284510466e-06 
3.635248506291538e-06 
3.346569790745895e-06 
1.409665434605491e-06 
1.268743458005515e-06 
1.294140299243077e-06 
9.176962550356595e-07 
2.395610767789117e-06 
1.45818612454987e-06 
2.062449414256497e-06 
1.390400994940452e-07 
1.786823868457412e-06 
4.65037255329251e-06 
3.775080134196897e-06 
2.85219883606174e-06 
3.163400598820987e-06 
6.280979198176165e-06 
6.285177945541431e-06 
5.593718156159453e-06 
4.287640098587679e-06 
6.672066065896965e-06 
4.506513614940481e-06 
2.398734734194465e-06 
2.15055810807639e-06 
3.549902598927964e-06 
2.927634366492009e-06 
3.023219645799502e-06 
4.041057267881591e-06 
3.072281908248192e-06 
1.607293121538693e-06 
1.574128752437478e-06 
1.94862965902486e-06 
1.482168209692175e-06 
2.616836164053803e-06 
1.369692372232544e-06 
2.369344289418502e-06 
-2.317390860742623e-08 
1.779950094405802e-06 
3.506220413677061e-06 
3.427305470597419e-06 
2.328458047632941e-06 
3.328104719942086e-06 
5.994038725886359e-06 
5.262711212722569e-06 
4.965682165483909e-06 
4.490168906842817e-06 
6.344969752029158e-06 
5.007933753751345e-06 
2.629411961140288e-06 
2.586882448213749e-06 
3.669770979573899e-06 
3.020756891037599e-06 
3.748716803971795e-06 
4.573711992528456e-06 
3.203692885129269e-06 
1.516607251713884e-06 
8.266213787344444e-07 
1.147939499852453e-06 
1.32999773770595e-06 
2.855830630695844e-06 
1.890549227385485e-06 
2.612758778145053e-06 
1.307354794545397e-06 
1.262952237011873e-06 
3.44990315987441e-06 
3.060522932211881e-06 
2.365047897793325e-06 
2.896192725995614e-06 
6.498899361943889e-06 
5.639148743658648e-06 
6.34540063469707e-06 
4.95425410427701e-06 
6.771890802899656e-06 
5.492142564271112e-06 
2.899671203995763e-06 
2.987239236269256e-06 
3.636026996017831e-06 
3.426041316072721e-06 
3.57204042948588e-06 
4.189300409595422e-06 
3.705797309175775e-06 
3.112699411030848e-06 
2.331993167950358e-06 
2.177308226081475e-06 
2.466478637802348e-06 
2.734341132666058e-06 
2.020863352950348e-06 
2.951534054488708e-06 
-1.184358527051196e-07 
2.134542795512167e-06 
3.697574359366483e-06 
3.747089301726084e-06 
3.673014983531127e-06 
3.734156895980044e-06 
6.92759508887057e-06 
6.085160495817703e-06 
5.538703183078939e-06 
4.503137252256252e-06 
6.414652357752371e-06 
5.192190521510618e-06 
3.067618651785691e-06 
3.072390803270186e-06 
4.495770406616303e-06 
3.814252178098612e-06 
4.188956042206034e-06 
4.304702837538656e-06 
3.963726727353828e-06 
2.344898663002761e-06 
2.386678956546871e-06 
2.632139690295004e-06 
2.16172458889685e-06 
2.899293113633125e-06 
2.111119759473251e-06 
2.731359739907905e-06 
1.266163067917906e-06 
1.136320900110286e-06 
4.083237867581165e-06 
5.144715867007325e-06 
2.981513906601042e-06 
3.537499577163023e-06 
6.70592787095258e-06 
6.528525649336544e-06 
5.772826043026493e-06 
5.238684046615541e-06 
6.855555514726727e-06 
5.590234895515827e-06 
3.332431587637781e-06 
3.115403074779032e-06 
4.382293686110536e-06 
4.046407056399329e-06 
4.162509172116027e-06 
4.620886093127815e-06 
4.297611193713992e-06 
2.740257405001961e-06 
2.902914241635343e-06 
2.891647294595874e-06 
2.382247006922389e-06 
2.797795556143257e-06 
1.847791224367411e-06 
2.930806054698159e-06 
1.427511256245849e-06 
4.705323767668682e-07 
4.378448022970807e-06 
3.92268644761946e-06 
3.677003729249418e-06 
3.12327473546417e-06 
6.382527977600947e-06 
6.108135743174379e-06 
5.502827249914006e-06 
4.592367266019383e-06 
6.08926518135566e-06 
4.444417359286067e-06 
2.306488359469755e-06 
2.661374678763157e-06 
3.804056033132878e-06 
3.48489929081821e-06 
3.853560772648578e-06 
4.694699723075209e-06 
4.190933253384754e-06 
2.027660678204464e-06 
2.15227587896749e-06 
2.103136167807497e-06 
1.570580323281798e-06 
3.070268293659276e-06 
1.831596992247945e-06 
2.601565980449678e-06 
1.163123849705866e-06 
1.414110289772716e-06 
4.159557461383255e-06 
4.301880430820538e-06 
3.654929427200461e-06 
3.809614657154847e-06 
6.99312073716695e-06 
5.425475012818881e-06 
4.98017791302631e-06 
4.436401717266997e-06 
6.102825171321017e-06 
4.255483016872925e-06 
1.79810647789922e-06 
2.427798651107154e-06 
3.238763331245485e-06 
2.805145357451649e-06 
3.206809438715114e-06 
4.253952162457055e-06 
3.432976417599345e-06 
1.213905437625003e-06 
1.39276878949895e-06 
1.473464518430874e-06 
4.82480677260309e-07 
2.335940536785315e-06 
1.474251552361116e-06 
2.139917943345601e-06 
1.86044267240945e-06 
1.377568152959274e-06 
4.2156537641545e-06 
4.393206975149766e-06 
3.302938168564299e-06 
3.312842707906746e-06 
7.104353190711771e-06 
5.315681890183466e-06 
5.409921678406776e-06 
4.614759652125849e-06 
6.263590276344529e-06 
4.113345694377689e-06 
1.498867015108061e-06 
2.481549550699173e-06 
4.052204805966119e-06 
3.629149030798255e-06 
4.113661585242747e-06 
4.484911711760032e-06 
4.36141748446375e-06 
2.795003655132623e-06 
2.094499250634881e-06 
1.90451012590949e-06 
2.193885148495476e-06 
3.070764659413241e-06 
1.890998098653075e-06 
2.54180135040667e-06 
9.044956823299693e-07 
1.387941263061377e-06 
4.550395939045448e-06 
4.222083298364809e-06 
3.682780771657887e-06 
4.344923979009552e-06 
7.332981105869217e-06 
5.580304796357696e-06 
5.607462147122756e-06 
4.487466688868875e-06 
5.589112097312551e-06 
4.095861957011329e-06 
1.840856869105964e-06 
2.411356897262596e-06 
3.373043943770505e-06 
2.813077821998373e-06 
3.561302593040451e-06 
4.377051791747508e-06 
4.036592260372776e-06 
2.807499746497395e-06 
2.080266164781818e-06 
1.914481941392605e-06 
1.862664810786602e-06 
2.474451665395399e-06 
1.456687469407423e-06 
2.226639306292249e-06 
2.236327369489044e-06 
2.331858173748925e-06 
4.972090193324601e-06 
4.029626392573893e-06 
3.922013583732754e-06 
4.204994867148873e-06 
6.488506787437278e-06 
5.292666364809025e-06 
4.561686025607279e-06 
3.724605413824888e-06 
4.891440426452621e-06 
3.722807243864502e-06 
7.795516746460324e-07 
1.284300619158018e-06 
2.444767835690979e-06 
2.79268385077039e-06 
3.509056742344035e-06 
3.962013252774573e-06 
3.190682979113199e-06 
1.542267582471056e-06 
6.208324223962422e-07 
5.260762563378367e-07 
6.390134267259705e-07 
2.141930204649588e-06 
1.37359517473053e-06 
1.986442191232469e-06 
2.401595396379465e-06 
1.705642798556967e-06 
3.931303524859267e-06 
4.025635536579847e-06 
3.816577960710401e-06 
3.604127453833402e-06 
6.013009793626128e-06 
5.602032509484056e-06 
4.829885464321261e-06 
3.852834102349799e-06 
5.769501569156419e-06 
4.123780444257359e-06 
1.579486902788193e-06 
2.040325022395596e-06 
3.005856974126072e-06 
2.689626140493581e-06 
2.979932972397101e-06 
3.726736048915868e-06 
3.573337064148086e-06 
1.619067971074321e-06 
1.014319192193742e-06 
1.17502910686426e-06 
1.215537351480305e-06 
2.402331951191751e-06 
1.596020125522517e-06 
2.624346757651213e-06 
1.93326177298589e-06 
1.069022969758377e-06 
3.392478748265642e-06 
3.932657445327956e-06 
3.07553764577571e-06 
4.268992355135149e-06 
6.650192921368963e-06 
5.669082730662913e-06 
4.699429841763888e-06 
3.24501868662426e-06 
5.319921089311271e-06 
3.91003588595555e-06 
1.985596135860385e-06 
2.176810945501418e-06 
3.04561609754703e-06 
2.811427833469427e-06 
3.41132678504045e-06 
3.899186309563579e-06 
3.686063038138449e-06 
2.184061625452291e-06 
1.630668001991378e-06 
1.57420434736077e-06 
1.934374830921128e-06 
2.878237486751918e-06 
1.880508918343628e-06 
2.125185440220758e-06 
5.41102896775967e-07 
1.235800778411009e-06 
3.240188668363526e-06 
3.89293084028416e-06 
3.605920941152124e-06 
4.030893276644517e-06 
6.590437589597535e-06 
5.962715492765955e-06 
5.076732009068993e-06 
3.247168571505771e-06 
5.180232103640793e-06 
3.960209602049628e-06 
1.801646294966342e-06 
2.322062839370112e-06 
3.532842507243516e-06 
2.717244502623617e-06 
3.476528797896273e-06 
3.749440079868728e-06 
3.183357776499849e-06 
1.086674299690433e-06 
1.775934483851816e-07 
7.469538299715761e-07 
7.248406737638696e-07 
2.27209612060996e-06 
1.636831479418031e-06 
2.266236690929101e-06 
7.98465704056989e-07 
1.139201258829163e-06 
3.511105189733225e-06 
3.665950461072478e-06 
3.439126510918037e-06 
4.329966074888091e-06 
6.484309234408648e-06 
4.861061450648225e-06 
4.496313873054829e-06 
3.050297690532345e-06 
5.2812032950573e-06 
3.653342690040605e-06 
2.262575189540339e-06 
1.999118499780925e-06 
2.766486809081857e-06 
2.742336222473244e-06 
3.468962024529887e-06 
3.989004980479788e-06 
3.875703787454621e-06 
2.335213767906223e-06 
1.797558013308734e-06 
1.466735105593766e-06 
1.709646943268718e-06 
2.475634155419609e-06 
1.502184740939677e-06 
2.070816335287199e-06 
8.383082002723643e-07 
-2.053766630954184e-07 
3.553690648273949e-06 
3.994909111338524e-06 
2.620965827449367e-06 
4.018738506243065e-06 
5.79633017013988e-06 
4.944793246936903e-06 
4.578961123265083e-06 
3.191455194886443e-06 
5.431700348694281e-06 
4.131965357578164e-06 
2.008183581893453e-06 
2.132322353739661e-06 
3.067127366963831e-06 
2.807730711572683e-06 
3.079353809315255e-06 
3.552736446659653e-06 
3.683158697884965e-06 
1.96419839028639e-06 
1.691042186054628e-06 
1.958246299695555e-06 
2.030914899254262e-06 
2.313896868407963e-06 
1.178413272330997e-06 
2.340066255344651e-06 
6.34200927248106e-07 
-7.699059753971219e-07 
3.205414426947956e-06 
3.332706750349568e-06 
2.294671341784707e-06 
3.892490040001007e-06 
5.1225776270153e-06 
4.032329344464809e-06 
4.291422382888317e-06 
2.149677139196894e-06 
4.412065209300493e-06 
2.618728460026433e-06 
8.224625548433984e-07 
1.478514648479145e-06 
2.55146974786602e-06 
2.233720263127438e-06 
2.824514123864954e-06 
3.162603983769361e-06 
2.638987183860773e-06 
6.376255421779546e-07 
-4.830990402388864e-07 
-2.58186374272377e-07 
5.614643933068798e-07 
2.017942013637668e-06 
7.951009929364934e-07 
1.385978553575759e-06 
-2.800826861995815e-09 
1.412553957348868e-06 
3.332149281606715e-06 
4.278996142670592e-06 
2.602292381815646e-06 
2.871941044953291e-06 
5.412436406778512e-06 
4.039002912924849e-06 
3.764714677974783e-06 
2.108992811512717e-06 
4.979548246885865e-06 
3.336851025078176e-06 
1.458157836328127e-06 
1.903627907412541e-06 
2.993939854824668e-06 
2.810399908856014e-06 
3.216022878436574e-06 
3.81476476964852e-06 
3.348075675675972e-06 
1.34463450530017e-06 
1.229653096867263e-06 
1.355374252920855e-06 
1.107053015505986e-06 
2.634745690317884e-06 
1.459004592141622e-06 
1.605731083597681e-06 
-6.415935604783329e-07 
-1.285002621326574e-06 
2.813427171837896e-06 
3.841565575323843e-06 
1.363446359572342e-06 
2.315097121732144e-06 
4.915931442352124e-06 
4.069586230297242e-06 
3.950104203048863e-06 
2.997164279247605e-06 
5.000614772334654e-06 
2.783426034256942e-06 
8.759713191043763e-07 
7.13778727493462e-07 
2.47183690467179e-06 
2.32427308461171e-06 
3.25586837103319e-06 
3.960672683566473e-06 
4.315055710320874e-06 
2.858666027791979e-06 
1.814291073699261e-06 
2.063014143151887e-06 
2.432674026147521e-06 
2.807886676141488e-06 
8.972559995281765e-07 
1.097193410927972e-06 
-8.150793586345347e-07 
1.091394722027574e-07 
2.66018605393461e-06 
2.819044243192769e-06 
1.192683066814103e-06 
1.217637486151342e-06 
4.013630528849692e-06 
2.561047946353419e-06 
2.801924462677051e-06 
1.940454811281078e-06 
4.202930928348586e-06 
2.063374896514102e-06 
-1.165737027037823e-07 
2.706508545872584e-07 
1.613023113570584e-06 
2.182577228666222e-06 
2.475270963581116e-06 
3.539980624325796e-06 
3.612926990869017e-06 
1.085064606279168e-06 
4.592234971241118e-07 
9.715406106242983e-07 
1.21377167591284e-06 
2.840324899995962e-06 
8.100609039834345e-07 
7.122245352374037e-07 
-6.026687620959808e-07 
-1.362517964632099e-06 
2.123778838707076e-06 
2.480666331979385e-06 
9.471184172488191e-07 
1.988631855723134e-06 
4.270218054027318e-06 
3.196673900723214e-06 
2.993062558238846e-06 
2.062234491581939e-06 
4.266830157536071e-06 
2.126329446275708e-06 
2.246729196805832e-07 
5.270624679619674e-07 
1.848173947542331e-06 
1.732619872365726e-06 
2.389604312943067e-06 
3.873940711658103e-06 
3.690063419029267e-06 
1.153206619740994e-06 
1.946029660575883e-07 
4.875172303642701e-07 
8.147445666231019e-07 
2.494812685095228e-06 
5.163724373904877e-07 
5.500491967323663e-07 
-2.596093589225456e-07 
-3.828929549573973e-07 
2.141457252031061e-06 
2.543085714669218e-06 
7.787668177750282e-07 
6.937961513755432e-07 
2.733998584298633e-06 
2.153488514000589e-06 
2.489828746354557e-06 
1.241708589938405e-06 
3.770478307463875e-06 
2.194482380638915e-06 
3.697605437967695e-07 
1.107052263929882e-06 
1.997055814753546e-06 
2.13165865219612e-06 
2.331969061909757e-06 
3.769191547281334e-06 
3.896508925729685e-06 
8.480907289178136e-07 
3.487324255183176e-07 
5.256610955082637e-07 
6.690688279101495e-07 
2.423666138464272e-06 
6.088271951492386e-07 
4.297722601261174e-07 
-1.578921700493049e-06 
-2.137820779585706e-06 
2.120578016344807e-06 
2.995566111427644e-06 
1.178660240142537e-06 
7.310610841757288e-07 
3.320167690231567e-06 
2.319675169351791e-06 
2.0418211984294e-06 
1.219897104688622e-06 
3.164044854817006e-06 
1.526715678584375e-06 
5.692970572017074e-07 
6.480912148934936e-07 
1.361663064396349e-06 
2.152501216831092e-06 
2.836224681123445e-06 
3.816953286470246e-06 
4.037672486856667e-06 
1.85576652897704e-06 
1.005437477554435e-06 
1.077036097989365e-06 
1.463228646380018e-06 
2.336913881461693e-06 
1.915809523417938e-07 
1.39164213528885e-07 
-2.512474808112925e-07 
-5.90573880715651e-07 
2.452113757845418e-06 
3.200172003947799e-06 
1.265549986809677e-06 
9.536777129253574e-07 
2.592507708239394e-06 
1.873993156768894e-06 
1.458353355407779e-06 
3.241179490364044e-07 
2.591143530693006e-06 
1.328488994917995e-06 
5.316171656047261e-08 
1.711152594885567e-07 
1.097203911670607e-06 
1.317465177843542e-06 
1.905766589988671e-06 
3.170971052232974e-06 
3.258093652901457e-06 
7.920238085743851e-07 
-3.22485408179832e-07 
-4.473345213092746e-07 
-6.880747152145051e-08 
1.459624385692552e-06 
-1.910674701610594e-07 
-3.129839782889286e-07 
-4.316049534462338e-07 
-4.550445819522634e-07 
2.076479107146218e-06 
2.628688801515637e-06 
1.395124714454676e-06 
8.796392492428104e-07 
2.160766163153359e-06 
1.504499764229753e-06 
1.875545688062547e-06 
4.658447449435938e-07 
1.967191297605867e-06 
1.142766994429178e-06 
-5.348807400760366e-07 
-4.940909151810158e-07 
8.903106916454134e-07 
9.84819660728791e-07 
1.335330990648e-06 
3.125350873891382e-06 
3.508123423820073e-06 
1.582425962995681e-06 
2.038882748432087e-07 
8.246915028589454e-08 
8.0726054399904e-07 
1.399689483272061e-06 
-7.659522059066306e-07 
-7.047825766291249e-07 
-7.579303679955052e-07 
-2.707616212722512e-07 
2.345305495269481e-06 
3.006497597397274e-06 
1.834455750637427e-06 
1.375400959427687e-06 
2.577006566720749e-06 
2.033584170951127e-06 
1.661262317801719e-06 
9.405114428284502e-07 
2.630368475582827e-06 
7.078767468683805e-07 
-7.420927304331656e-08 
-3.497125632107259e-07 
6.617355656168628e-07 
4.895321417577842e-07 
1.036252618607569e-06 
2.306210737144324e-06 
2.648854553445956e-06 
7.023281545400967e-07 
-1.498496749161629e-07 
-3.435418610446874e-07 
3.211682783788979e-08 
1.180658389022603e-06 
-5.775666439052623e-07 
-3.401675277463749e-07 
-2.313173287700143e-06 
-2.151344747862614e-06 
1.200448410471239e-06 
2.397687285948632e-06 
1.148296176957672e-06 
3.353251156685298e-07 
1.484462384208879e-06 
3.49109950438386e-07 
2.842552818517556e-07 
-4.200632840309474e-07 
1.62287150876096e-06 
3.071238059699504e-07 
-1.213725019101061e-06 
-1.297582168474384e-06 
5.349303980942452e-08 
-3.098676967492598e-08 
6.119428247913524e-07 
1.857670664176317e-06 
2.337401378351519e-06 
1.447883590558637e-07 
-3.061988670401034e-07 
-6.936344800805284e-09 
-1.411915936533031e-07 
8.068949695486384e-07 
-1.230273489734862e-06 
-1.252654641621713e-06 
-3.110540789354864e-07 
-9.484050062255063e-07 
1.120865845805389e-06 
1.837253968616987e-06 
1.462829825383557e-06 
4.133427709133409e-07 
2.454455770784769e-06 
1.668576975780988e-06 
3.303357419493782e-07 
-5.525398296113108e-07 
1.103888033083914e-06 
-1.938093092544289e-07 
-1.191148148505195e-06 
-7.592677174578592e-07 
1.095427897549389e-07 
4.17935044726227e-07 
6.278866146575775e-07 
2.253297112437282e-06 
2.343789631188439e-06 
8.880443239471101e-07 
2.955038093136968e-07 
4.18602347604345e-07 
8.075793179265124e-07 
1.122411144636618e-06 
-8.673814723068227e-07 
-1.353119759595518e-06 
-6.741733981384512e-07 
-1.171375766167567e-06 
1.141461731802079e-06 
2.482059409308248e-06 
9.003430126028112e-07 
-3.203310138041899e-08 
1.933163738665273e-06 
7.174842601448682e-07 
5.120815688868011e-07 
-2.603951188042785e-07 
1.025595485584399e-06 
-7.961612307630537e-07 
-2.06858551720494e-06 
-1.695643043004578e-06 
-7.021497099502048e-08 
-7.794824711291513e-08 
2.578774214858706e-07 
1.943300057813799e-06 
1.58060519387547e-06 
-8.642873735604696e-07 
-1.739968510200538e-06 
-1.465786264585572e-06 
-1.390873197594307e-06 
1.972370475363547e-07 
-1.736642660054893e-06 
-1.996007853388689e-06 
-1.038148005851985e-06 
-5.430648586657439e-08 
1.318594467155459e-06 
2.161567916748738e-06 
6.777088754140401e-07 
5.611957930935126e-07 
2.944336002574193e-06 
9.618518015773209e-07 
3.600428585811749e-07 
-7.437415851837299e-07 
5.712619698285873e-07 
-6.230944002556786e-07 
-1.884226458594842e-06 
-1.824614101370995e-06 
-5.688382338684155e-07 
-2.637525679380761e-07 
3.388902628696058e-07 
1.757897652980509e-06 
2.087403172853457e-06 
-5.466421528814915e-08 
-1.499525872286397e-06 
-1.307422773496029e-06 
-5.454111634889862e-07 
4.947682614888184e-07 
-1.204016312696131e-06 
-1.708915625917437e-06 
-6.885064654426252e-07 
-7.657459379631051e-07 
1.314966971720945e-06 
2.549444148104372e-06 
7.616869861186726e-07 
9.158881131823975e-07 
2.346675786757092e-06 
1.581591658435422e-06 
4.886880474751607e-07 
-5.152257587083917e-07 
1.346870489849411e-06 
-9.569336371520556e-07 
-2.065436096038266e-06 
-9.180351935994969e-07 
-1.710438999367412e-07 
6.984518437003244e-08 
5.369829512629585e-07 
2.10897870227222e-06 
2.144058850094026e-06 
1.947302700086172e-07 
-1.464104950139763e-06 
-1.15885609580303e-06 
-1.603062186658422e-07 
1.009323775979831e-06 
-6.829067035539228e-07 
-1.907949200764521e-06 
-5.596690576830355e-07 
-1.458359763203886e-06 
1.844831967063344e-06 
3.079049324540316e-06 
7.177763531929113e-07 
1.111370027218376e-06 
2.121753200626656e-06 
1.822679148038496e-06 
1.041711621625784e-06 
-4.002185026569528e-07 
1.202750393303358e-06 
-2.964700473990583e-07 
-1.447916939017538e-06 
-5.592542045017211e-07 
2.667577073669047e-08 
4.388653562107573e-07 
1.083504177772e-06 
2.566596869626514e-06 
2.224996121655503e-06 
1.044287988886636e-06 
1.34557359580737e-06 
1.518767205039079e-06 
6.501273082849056e-07 
1.341633367617831e-06 
-4.766619863534876e-07 
-1.68484311753758e-06 
-7.510940209816369e-07 
3.314568887176239e-07 
1.604111039194616e-06 
3.082336168745882e-06 
1.387358872860629e-06 
3.024201537099798e-07 
2.313795479459766e-06 
1.634433572269367e-06 
1.653086825606755e-06 
5.943986779952819e-07 
1.282358140259838e-06 
-3.221214172962859e-07 
-1.546920468165425e-06 
-9.50406591636436e-07 
8.554339450501792e-08 
1.897382675556596e-09 
6.593417343769671e-07 
1.625182016196573e-06 
2.154780655370131e-06 
7.704388621443734e-07 
-4.721840051408018e-07 
-3.788487195433439e-07 
3.983138033878431e-07 
9.279330638310309e-07 
-6.768418598036112e-07 
-1.023885584309261e-06 
-1.254200806781748e-06 
-8.158728695126928e-07 
1.524016914740102e-06 
3.296198197010961e-06 
1.718413565439211e-06 
8.676195416850229e-07 
3.007946437897348e-06 
1.941107321869578e-06 
1.775412324388477e-06 
1.173143500213415e-07 
1.943088446981412e-06 
2.479954480210138e-07 
-8.302418964124672e-07 
-3.49372093942752e-07 
8.239313117545031e-07 
4.602175527766314e-07 
9.21006134782946e-07 
2.186224368599921e-06 
2.183067061456319e-06 
1.075656448553208e-06 
3.198367041057823e-07 
7.432881969970127e-07 
1.077504600960428e-06 
1.131593750748841e-06 
-7.084196984208264e-07 
-7.241161011708362e-07 
-1.496878690120853e-06 
6.878907955854941e-07 
1.81198760075889e-06 
3.593931885532134e-06 
2.290317434747513e-06 
1.856803972780848e-06 
3.668228622245566e-06 
3.148501446491158e-06 
2.797631837402297e-06 
1.115359250940836e-06 
2.60167223379823e-06 
4.240154589853941e-07 
-8.360402662821589e-07 
-6.244492917993216e-07 
5.815308857364474e-07 
1.098501137678342e-06 
1.233095376816254e-06 
2.693506652268264e-06 
2.459961149915387e-06 
1.718799367042504e-06 
9.609901075947429e-07 
1.295439347228609e-06 
1.563632927045385e-06 
1.573685109963379e-06 
-2.217259213706229e-07 
-6.415034046736131e-07 
-3.4086280808064e-07 
-4.10443550863218e-07 
1.958776609079238e-06 
3.63261432581684e-06 
2.243215902696916e-06 
1.524834356340729e-06 
3.346753632546755e-06 
2.817600669924556e-06 
3.049783876579608e-06 
1.373877982652371e-06 
2.752085281145306e-06 
5.697361689239037e-07 
-9.187343102601713e-07 
-2.823806511705567e-07 
1.19728364859593e-06 
1.236795384623012e-06 
1.132725681445037e-06 
2.564164416298895e-06 
2.774683111201968e-06 
1.153100208575567e-06 
-4.061734418053004e-07 
-3.575008995724461e-07 
8.779337085431996e-07 
1.302862030737285e-06 
-4.412158073680417e-07 
-8.455631924986156e-07 
1.24032417207882e-06 
-6.007628709156238e-07 
2.376283030098306e-06 
3.395939106020298e-06 
2.118107573618047e-06 
1.395949260314402e-06 
3.827209845180175e-06 
2.822223843500526e-06 
2.789263141434168e-06 
1.449920937664166e-06 
2.939482432166865e-06 
9.89186887439122e-07 
1.734010993467202e-07 
5.091666727979287e-07 
1.378759093009114e-06 
1.777508364490989e-06 
1.737955859903637e-06 
2.47788987940467e-06 
3.273274228642554e-06 
2.421494632697704e-06 
1.18218928118105e-06 
1.302286445185403e-06 
1.8972054397208e-06 
1.761977445979663e-06 
7.676906854487393e-09 
-3.251544513086737e-07 
-1.087688737556847e-06 
-1.714163951986998e-06 
1.381023502235806e-06 
2.878869751149748e-06 
1.088451096134077e-06 
1.107049208295099e-06 
3.123903130711586e-06 
2.449523093347215e-06 
2.555165652602854e-06 
1.239140768007097e-06 
2.749379679511671e-06 
9.467848943601472e-07 
-7.092187731015156e-07 
1.319700621254697e-07 
9.96302627318935e-07 
1.133895639524733e-06 
1.610853602206995e-06 
2.823636748806919e-06 
2.711686409301104e-06 
1.334409573910526e-06 
4.100305429592512e-07 
3.643018034611023e-07 
8.293468345774981e-07 
1.352632150270773e-06 
-5.252189632496942e-08 
-9.068364929897078e-07 
-1.590123022265982e-06 
-2.492645267120796e-06 
1.834239007472917e-06 
3.075699780545529e-06 
1.235962728552989e-06 
1.530436305785303e-06 
2.858034341960999e-06 
2.55941389941185e-06 
3.364243796429986e-06 
1.909820036604639e-06 
2.394953575781707e-06 
4.635414761419684e-07 
-1.500685210702189e-06 
-4.449485544320822e-07 
7.23829348583865e-07 
1.140914313920504e-06 
1.835440685117506e-06 
2.529535738259934e-06 
1.789948732108831e-06 
1.174530676285463e-06 
-3.056492780154041e-07 
7.453835710964693e-08 
9.023993051287453e-07 
1.318946802128579e-06 
7.722590026080527e-08 
-8.161133897499441e-07 
-6.51709563332062e-07 
-4.456129231977807e-07 
2.2775438414936e-06 
3.766145331975028e-06 
1.942622908417798e-06 
2.085389229490201e-06 
3.502890635070372e-06 
3.896493564536284e-06 
4.466965410103492e-06 
2.706846138399116e-06 
3.860998892726907e-06 
2.086799527348044e-06 
-6.961157414842007e-08 
5.120605774591276e-07 
2.598449540862345e-06 
2.839318886450864e-06 
3.238831998353667e-06 
4.397036734324003e-06 
3.649621279950659e-06 
2.108994622394394e-06 
1.186070118099577e-06 
1.649028958882578e-06 
2.039802750134264e-06 
2.927469443322834e-06 
1.350831606590163e-06 
5.294621877654638e-07 
-6.798715013955808e-07 
2.173257510714093e-07 
2.132079500925124e-06 
3.552512569131918e-06 
1.974032979608396e-06 
2.358347966618811e-06 
4.574989077535732e-06 
4.398635781367673e-06 
4.048034693618168e-06 
2.898210992346405e-06 
4.121772607878612e-06 
2.240392245715424e-06 
3.871169220422977e-07 
4.726707880050001e-07 
2.560537785816368e-06 
3.012987937490694e-06 
3.580255112487083e-06 
4.157665644360437e-06 
3.590232040104854e-06 
1.755997847927649e-06 
1.170011026636598e-06 
1.834507196513725e-06 
1.723201685670204e-06 
2.906082500190693e-06 
1.784383232099201e-06 
8.917682234357522e-07 
7.121129189755465e-07 
2.055644163172927e-07 
1.33118861291939e-06 
3.32383250502258e-06 
1.412037440632281e-06 
1.501035552869619e-06 
3.189400003562646e-06 
3.807719224789975e-06 
3.503901313690523e-06 
1.790884711045092e-06 
3.30003597875542e-06 
2.476261067079933e-06 
2.824976925824768e-07 
6.301310001798052e-07 
2.467908429120919e-06 
3.088659171298488e-06 
3.495344020002459e-06 
4.058342618524797e-06 
3.517256295035296e-06 
2.815328073222613e-06 
2.068597033441453e-06 
2.266195637866171e-06 
2.339425088985216e-06 
2.832062798102153e-06 
1.569130746248084e-06 
6.648107553732725e-07 
-6.084750676607965e-07 
7.820791205678458e-07 
1.63087435257114e-06 
2.723930362689618e-06 
9.4541537228882e-07 
1.382204124581499e-06 
2.782166300863215e-06 
3.171661997853002e-06 
3.983421644556486e-06 
2.683041995658637e-06 
3.557588737803748e-06 
1.990189403885261e-06 
2.874197949895642e-07 
2.485263342070202e-07 
2.14110235983436e-06 
2.636507757542435e-06 
3.247930292531942e-06 
4.348674308324299e-06 
3.946732015154537e-06 
2.146987946369252e-06 
1.013010341718864e-06 
1.253069751773247e-06 
2.008047834739287e-06 
2.494011281380429e-06 
1.257243911111564e-06 
7.099728629754154e-07 
-1.561733346909497e-07 
-1.190801979800229e-07 
1.156658620213468e-06 
2.931021960591796e-06 
1.856036467304641e-06 
1.030955544464979e-06 
3.822646067546823e-06 
4.723360118943149e-06 
4.818638477946624e-06 
3.008163392562922e-06 
4.000831440682593e-06 
3.282450008996539e-06 
6.448949488104825e-07 
9.164766454750163e-07 
2.585341127917284e-06 
2.708832955429764e-06 
3.555246323819461e-06 
5.122334882985534e-06 
4.789533501688461e-06 
3.186396827899972e-06 
2.837002944155815e-06 
3.268342534959739e-06 
3.0596501938436e-06 
3.685790843293438e-06 
1.809732953582157e-06 
7.996270919445852e-07 
7.099029781710509e-07 
-8.251939025742393e-07 
2.000995421127007e-06 
3.066233731847985e-06 
1.338046684310899e-06 
1.596846560706899e-06 
3.18501385359681e-06 
3.744228537111486e-06 
4.511895991390433e-06 
3.114631698894608e-06 
4.007782946676659e-06 
3.36996174757381e-06 
1.507375003232754e-06 
1.396579548294287e-06 
2.651939026295561e-06 
3.101101517671256e-06 
3.713584001998432e-06 
4.447300603342811e-06 
4.32680494008431e-06 
2.786092637756184e-06 
1.503329143399637e-06 
1.799151651339912e-06 
2.747156214078921e-06 
3.497935259426016e-06 
1.835910449665466e-06 
1.60912651179539e-06 
-3.71281883392136e-07 
3.038151670095742e-07 
2.241216996215344e-06 
3.883162021209085e-06 
2.349463381640482e-06 
2.363103880000842e-06 
4.15701547481124e-06 
4.602975481106818e-06 
4.575394296259251e-06 
3.793273269366346e-06 
4.907538394338921e-06 
3.454566104582695e-06 
8.339107262292015e-07 
1.124829885252385e-06 
2.6730432134615e-06 
3.104510106470221e-06 
3.93382714405284e-06 
4.636128298074636e-06 
4.232708757915823e-06 
2.956525735395425e-06 
2.534030496001569e-06 
2.917406728036162e-06 
2.794712560376388e-06 
3.30623764177272e-06 
1.907698845748779e-06 
1.923848916087171e-06 
-4.42127140092933e-07 
1.26925092497828e-06 
2.028133817941845e-06 
3.219894875876101e-06 
2.212513987713682e-06 
6.476881253337989e-07 
2.929177458871554e-06 
3.175124056149429e-06 
4.040583422253048e-06 
3.28475855788801e-06 
4.855386677233582e-06 
3.24145062901866e-06 
7.589213273730596e-07 
9.237447903356544e-07 
2.402948366276387e-06 
2.425750776928011e-06 
3.159644775644676e-06 
4.349880166117089e-06 
3.931598179750546e-06 
2.318348085591197e-06 
1.985559285003049e-06 
2.538692666587405e-06 
2.916429708708518e-06 
3.114984847962671e-06 
1.096018912416102e-06 
1.17393831207133e-06 
8.664739163717521e-07 
8.458679507379413e-07 
3.148022223613656e-06 
3.420534419015151e-06 
1.923925868728592e-06 
1.437791177294206e-06 
3.306615272409003e-06 
4.439367696051492e-06 
4.675439222699922e-06 
3.357500749988863e-06 
5.003020722894677e-06 
3.406820713383971e-06 
7.536432226306386e-07 
7.369126937139392e-07 
2.700819434575671e-06 
2.451632869635191e-06 
3.078416134081885e-06 
4.48679799999162e-06 
4.309556720933926e-06 
2.731184187932877e-06 
1.919617164759143e-06 
2.220906786025054e-06 
2.739501873941426e-06 
3.297607934702459e-06 
1.529053012133027e-06 
1.725959824625296e-06 
-5.177861556125679e-07 
4.930292010279173e-07 
3.282074437534471e-06 
3.331003262017637e-06 
1.724569168352191e-06 
1.964847962299775e-06 
3.590424868973826e-06 
4.664291515786581e-06 
4.921163593149672e-06 
4.246455085411861e-06 
5.785961970842098e-06 
3.537185926692566e-06 
5.85918999751368e-07 
1.207875420090283e-06 
2.792390294909596e-06 
2.581884650702396e-06 
3.111912076229585e-06 
4.685137441939606e-06 
4.332836355807866e-06 
2.592721054111253e-06 
1.555254515624268e-06 
1.975861644232169e-06 
2.2321425991731e-06 
3.38924050157317e-06 
2.057326176304314e-06 
2.375028889025354e-06 
-3.984475083270062e-07 
-5.370296959943063e-07 
2.870708783739721e-06 
3.474566922820348e-06 
1.933988920375838e-06 
1.284207885422932e-06 
3.961336468503637e-06 
4.595989399989953e-06 
5.038058519241551e-06 
4.087686425624772e-06 
5.535361838802346e-06 
3.622619190857099e-06 
1.491670183398823e-06 
2.122643270740852e-06 
3.639325983994577e-06 
3.336053522974117e-06 
4.125369673120101e-06 
5.761619614364333e-06 
5.285801389674942e-06 
3.411533421493564e-06 
2.594630486087832e-06 
2.79823378655998e-06 
2.900540139472537e-06 
4.089373452561363e-06 
2.638446780630423e-06 
2.355394443580116e-06 
2.518953767723757e-07 
8.461925828750759e-07 
2.632650926072757e-06 
4.366602354892333e-06 
3.023389565265514e-06 
2.249070634065284e-06 
4.216814518734765e-06 
5.425146560736129e-06 
6.726438788621137e-06 
5.200372117906363e-06 
6.439741380338522e-06 
3.974912653148085e-06 
1.933150422780696e-06 
2.538022108608202e-06 
3.703964007164188e-06 
3.160519389122149e-06 
3.892967139520659e-06 
5.580449081977394e-06 
5.157765248843854e-06 
3.094864441631313e-06 
1.994514891947187e-06 
2.283948538315114e-06 
3.061108622993966e-06 
3.966336266763885e-06 
2.540642158236877e-06 
2.481683383519038e-06 
-3.694976500354316e-07 
8.629033281338816e-07 
3.226410308787897e-06 
4.929366986698277e-06 
2.213994122618717e-06 
2.168889503103403e-06 
4.406923112077927e-06 
4.983494394807762e-06 
5.794884921482776e-06 
4.709131056200751e-06 
6.511708488361468e-06 
4.91730422968464e-06 
2.531528448359001e-06 
3.085706702506857e-06 
3.935802273845917e-06 
3.687498717953888e-06 
4.61247617171689e-06 
5.488100113244622e-06 
4.844190212731519e-06 
3.518135198518682e-06 
2.774266393539509e-06 
2.899892361270075e-06 
3.217688904756518e-06 
4.098905350725235e-06 
2.82187786367884e-06 
2.686888972336851e-06 
1.411866217146171e-06 
4.724310136616616e-07 
4.363169106921599e-06 
4.854985022121442e-06 
4.185138090079982e-06 
2.456683282216169e-06 
4.072683187607129e-06 
6.011582359404244e-06 
6.824833701525258e-06 
5.741908845674679e-06 
6.610203929328217e-06 
4.638871494711312e-06 
2.645170146315132e-06 
3.100646807569583e-06 
3.793051009826791e-06 
3.813962053524203e-06 
4.928357325126514e-06 
5.380831318962264e-06 
4.582785896960845e-06 
3.397340146490511e-06 
2.747136547671918e-06 
2.857485865234884e-06 
3.496476457790394e-06 
4.001322570782025e-06 
3.189792740051398e-06 
3.510160450058031e-06 
-2.722489028238209e-07 
-1.994397452990259e-07 
4.890150163914318e-06 
4.788871641679699e-06 
3.493546174851739e-06 
2.586734405193664e-06 
4.025814087121681e-06 
5.323419976243509e-06 
5.478729762353994e-06 
4.553466731479733e-06 
6.055894529956582e-06 
4.850262560034614e-06 
2.76230543024776e-06 
3.112303217461727e-06 
4.344317638033021e-06 
4.607335842421143e-06 
5.38802766178978e-06 
6.202671626178334e-06 
5.420448312848892e-06 
3.913253344610909e-06 
3.129819880954599e-06 
3.332334597534006e-06 
3.889171541644878e-06 
4.714892569194014e-06 
3.406568036600811e-06 
2.985031713734704e-06 
1.203872804835456e-06 
1.956602839933531e-06 
4.774483423690087e-06 
4.73997494486013e-06 
4.098699654110756e-06 
3.723923553042521e-06 
5.146738555962465e-06 
5.105918184805376e-06 
5.888465241294193e-06 
5.039572018786677e-06 
6.418888049378435e-06 
5.105851753893161e-06 
2.772190017714643e-06 
3.021777750650776e-06 
4.303181124659109e-06 
4.409662086137586e-06 
4.515510904216943e-06 
5.246925897474241e-06 
4.716548633750407e-06 
3.196543098765768e-06 
2.558163652037545e-06 
2.674799354084909e-06 
2.745589926810612e-06 
3.883614474025502e-06 
3.058287814687327e-06 
3.020488513987368e-06 
1.920673385113032e-06 
2.585551874951487e-06 
5.682029773267348e-06 
5.614618492555169e-06 
4.201360926532987e-06 
3.159504535251422e-06 
4.908123101158448e-06 
5.442948092259176e-06 
5.753867373487901e-06 
4.396678201129209e-06 
6.078639041187487e-06 
4.516804566197075e-06 
2.901561820966292e-06 
3.337548083268795e-06 
4.750410426578849e-06 
4.642135663683126e-06 
4.786490014615814e-06 
5.668974841759484e-06 
5.382129015342752e-06 
3.96803579616425e-06 
2.578258251592192e-06 
2.740863275134316e-06 
3.320618083195869e-06 
3.906597218241496e-06 
3.008571767298259e-06 
2.970595768350661e-06 
1.844604476544274e-06 
1.794051756568162e-06 
5.588068804130079e-06 
5.73937703296323e-06 
4.179523608350948e-06 
3.445902687897166e-06 
5.325741465937717e-06 
5.85334080392047e-06 
6.254593920756422e-06 
4.798228699611463e-06 
5.826134247111509e-06 
4.600320803244781e-06 
2.33868968467869e-06 
2.512933260292136e-06 
4.41142085565402e-06 
4.741399414432876e-06 
4.74292293907748e-06 
5.421024216521589e-06 
5.075566514940437e-06 
3.237099469683214e-06 
2.493633976490267e-06 
2.731881346886798e-06 
2.772654365737741e-06 
3.769329730978245e-06 
2.697910313479613e-06 
2.917143413913878e-06 
2.005677546849689e-06 
2.330845734325994e-06 
4.49583014224513e-06 
5.233942808470203e-06 
3.987846276138451e-06 
3.65827222336788e-06 
5.31590634084037e-06 
4.958235363815988e-06 
5.999878700357651e-06 
4.966675315807209e-06 
5.552302156335467e-06 
4.400770699462894e-06 
2.510092654097133e-06 
2.962571345059763e-06 
4.491498993835415e-06 
4.8070765789029e-06 
4.868232247884234e-06 
5.423424703060147e-06 
5.234590824842197e-06 
3.229413286947784e-06 
2.881504166343428e-06 
3.221991775897906e-06 
3.066229463413499e-06 
4.2841385519826e-06 
2.927381489610165e-06 
3.066218383518352e-06 
2.267176649082342e-06 
2.698530174976317e-06 
5.588030520800479e-06 
5.740927699266057e-06 
4.379477026729827e-06 
3.723358362199058e-06 
5.188740430042859e-06 
5.681921903453375e-06 
5.641056727415305e-06 
4.258108715138007e-06 
5.916441521595027e-06 
4.504083444689574e-06 
2.234109074341478e-06 
2.520793361199699e-06 
3.820553773054924e-06 
4.803916678401754e-06 
5.249857425952901e-06 
5.623310114911573e-06 
5.238256738715392e-06 
3.181290685223228e-06 
2.805487711808522e-06 
3.039501872578122e-06 
3.104622337322215e-06 
4.086814380170077e-06 
2.989015201972845e-06 
2.737101350323413e-06 
2.298260594742804e-06 
1.612305571909008e-06 
4.311374365418e-06 
4.796818062018865e-06 
4.233857496264433e-06 
3.36477319082359e-06 
4.148060765640728e-06 
4.210169991039377e-06 
4.47038604966857e-06 
3.247187570080084e-06 
4.783676163908646e-06 
3.643343748980226e-06 
9.673651202514751e-07 
2.02812586586459e-06 
3.655788273871604e-06 
3.775300917575765e-06 
4.52310761675829e-06 
4.83903255030549e-06 
4.313914955346805e-06 
2.749812584701488e-06 
1.904835687287644e-06 
2.002060106914861e-06 
1.963310384223409e-06 
3.283625324796275e-06 
2.440808916197256e-06 
2.19714846993406e-06 
1.805664204623578e-06 
1.719108671536555e-06 
4.73012073454279e-06 
5.27693583031089e-06 
4.852860925002889e-06 
3.980864266521287e-06 
4.686371856481875e-06 
4.761223022603743e-06 
4.94084128761363e-06 
3.957309961855641e-06 
5.117353443338011e-06 
3.271060681090959e-06 
1.969670062841703e-06 
2.155029658496076e-06 
3.668827898154631e-06 
3.921325359028699e-06 
4.261281899942323e-06 
5.524337033660658e-06 
4.500272402146896e-06 
2.932660905236984e-06 
2.481705951988222e-06 
2.672740210613045e-06 
2.666958012658382e-06 
3.953675778722161e-06 
2.503056778523243e-06 
2.581866677152523e-06 
1.218079402201993e-06 
-6.112179887452573e-07 
5.04967915202953e-06 
5.102269852944597e-06 
4.198391021122652e-06 
3.356394905579938e-06 
4.257138613764981e-06 
4.985624475544743e-06 
5.309118407320074e-06 
3.093208179327237e-06 
4.646740342776278e-06 
2.623304579562915e-06 
1.582906663121993e-06 
2.144710183780591e-06 
3.639983493539159e-06 
3.804195755010695e-06 
3.97404626575516e-06 
4.896284747463513e-06 
4.65198502632925e-06 
3.050593664863543e-06 
2.176028280652194e-06 
2.235089520112799e-06 
2.92872731180595e-06 
3.587013913000014e-06 
2.103317791248409e-06 
2.426148094894693e-06 
8.801757575610836e-07 
2.420725221428871e-06 
4.871879942125773e-06 
5.087280185438561e-06 
3.788820936041905e-06 
3.155638850912849e-06 
4.106946527711509e-06 
4.247382789604784e-06 
5.003661922527007e-06 
3.905787192788578e-06 
5.580175188261905e-06 
3.666344004931427e-06 
2.535755635491369e-06 
2.83492302320435e-06 
4.416320718251311e-06 
4.601115059577053e-06 
4.716402236195352e-06 
5.310458601942556e-06 
5.388306290317252e-06 
4.354985359548925e-06 
3.222632851253305e-06 
3.558023883510173e-06 
3.803384458022175e-06 
3.870372074970141e-06 
2.641885863349328e-06 
2.72216517968113e-06 
7.907471280025447e-08 
1.736605224252016e-06 
3.699526825507185e-06 
4.668426263030216e-06 
2.736807570689222e-06 
2.142290252416754e-06 
3.352625752396479e-06 
4.071930325330285e-06 
4.363284338471888e-06 
3.259126368262982e-06 
4.878515050370519e-06 
3.356812486888395e-06 
2.014538750176374e-06 
2.202000905943751e-06 
3.585160019515496e-06 
3.866355740170016e-06 
3.975589599843513e-06 
